{"learner":{"attributes":{},"feature_names":["ndvi_mean_6m","rainfall_sum_6m","lst_mean_6m","nightlight_mean_6m","ndvi_anomaly_6m","rainfall_anomaly_6m","ndvi_mean_3m","rainfall_sum_3m","conflict_events_6m","conflict_fatalities_6m","population","current_phase_class","prev_projected_phase"],"feature_types":["float","float","float","float","float","float","float","float","int","int","float","float","float"],"gradient_booster":{"model":{"gbtree_model_param":{"num_parallel_tree":"1","num_trees":"250"},"iteration_indptr":[0,1,2,3,4,5,6,7,8,9,10,11,12,13,14,15,16,17,18,19,20,21,22,23,24,25,26,27,28,29,30,31,32,33,34,35,36,37,38,39,40,41,42,43,44,45,46,47,48,49,50,51,52,53,54,55,56,57,58,59,60,61,62,63,64,65,66,67,68,69,70,71,72,73,74,75,76,77,78,79,80,81,82,83,84,85,86,87,88,89,90,91,92,93,94,95,96,97,98,99,100,101,102,103,104,105,106,107,108,109,110,111,112,113,114,115,116,117,118,119,120,121,122,123,124,125,126,127,128,129,130,131,132,133,134,135,136,137,138,139,140,141,142,143,144,145,146,147,148,149,150,151,152,153,154,155,156,157,158,159,160,161,162,163,164,165,166,167,168,169,170,171,172,173,174,175,176,177,178,179,180,181,182,183,184,185,186,187,188,189,190,191,192,193,194,195,196,197,198,199,200,201,202,203,204,205,206,207,208,209,210,211,212,213,214,215,216,217,218,219,220,221,222,223,224,225,226,227,228,229,230,231,232,233,234,235,236,237,238,239,240,241,242,243,244,245,246,247,248,249,250],"tree_info":[0,0,0,0,0,0,0,0,0,0,0,0,0,0,0,0,0,0,0,0,0,0,0,0,0,0,0,0,0,0,0,0,0,0,0,0,0,0,0,0,0,0,0,0,0,0,0,0,0,0,0,0,0,0,0,0,0,0,0,0,0,0,0,0,0,0,0,0,0,0,0,0,0,0,0,0,0,0,0,0,0,0,0,0,0,0,0,0,0,0,0,0,0,0,0,0,0,0,0,0,0,0,0,0,0,0,0,0,0,0,0,0,0,0,0,0,0,0,0,0,0,0,0,0,0,0,0,0,0,0,0,0,0,0,0,0,0,0,0,0,0,0,0,0,0,0,0,0,0,0,0,0,0,0,0,0,0,0,0,0,0,0,0,0,0,0,0,0,0,0,0,0,0,0,0,0,0,0,0,0,0,0,0,0,0,0,0,0,0,0,0,0,0,0,0,0,0,0,0,0,0,0,0,0,0,0,0,0,0,0,0,0,0,0,0,0,0,0,0,0,0,0,0,0,0,0,0,0,0,0,0,0,0,0,0,0,0,0,0,0,0,0,0,0,0,0,0,0,0,0],"trees":[{"base_weights":[1.8420681E-2,-9.915228E-2,7.769443E-1,1.0992178E-1,1.9660003E0,8.544665E-1,-5.17708E-1,5.851024E-1,9.88524E-2,1.9061817E-2,6.544576E-2,-1.2664621E-2,-5.392176E-2,2.2658363E-3,4.0620316E-2],"categories":[],"categories_nodes":[],"categories_segments":[],"categories_sizes":[],"default_left":[0,0,1,0,0,0,0,0,0,0,0,0,0,0,0],"id":0,"left_children":[1,-1,3,5,7,9,11,13,-1,-1,-1,-1,-1,-1,-1],"loss_changes":[1.3490682E3,0E0,5.1086337E2,1.9384341E2,2.375122E0,4.0293518E1,3.3114594E1,3.6290753E-1,0E0,0E0,0E0,0E0,0E0,0E0,0E0],"parents":[2147483647,0,0,2,2,3,3,4,4,5,5,6,6,7,7],"right_children":[2,-1,4,6,8,10,12,14,-1,-1,-1,-1,-1,-1,-1],"split_conditions":[2E0,-9.915228E-2,3E0,7.035191E2,2.8946987E1,3.583541E1,3.1201646E-1,4.971933E-1,9.88524E-2,1.9061817E-2,6.544576E-2,-1.2664621E-2,-5.392176E-2,2.2658363E-3,4.0620316E-2],"split_indices":[11,0,11,1,2,2,3,0,0,0,0,0,0,0,0],"split_type":[0,0,0,0,0,0,0,0,0,0,0,0,0,0,0],"sum_hessian":[8.866061E2,2.4322087E2,6.4338525E2,4.1287048E2,2.3051472E2,1.886808E2,2.241897E2,2.2578497E0,2.2825688E2,9.333125E1,9.5349556E1,1.53335E2,7.085469E1,1.024442E0,1.2334077E0],"tree_param":{"num_deleted":"0","num_feature":"13","num_nodes":"15","size_leaf_vector":"1"}},{"base_weights":[1.3561311E-2,-9.444423E-2,7.4051434E-1,1.027129E-1,1.8782529E0,7.9655474E-1,-4.9783936E-1,7.6532865E-1,9.4433986E-2,1.7302586E-2,6.188633E-2,-1.581298E-2,-6.789685E-2,6.0772013E-2,-6.033092E-3],"categories":[],"categories_nodes":[],"categories_segments":[],"categories_sizes":[],"default_left":[0,0,1,0,0,0,0,0,0,0,0,0,0,0,0],"id":1,"left_children":[1,-1,3,5,7,9,11,13,-1,-1,-1,-1,-1,-1,-1],"loss_changes":[1.2105294E3,0E0,4.593555E2,1.6993076E2,1.1937866E0,3.716578E1,3.3727478E1,1.6589963E0,0E0,0E0,0E0,0E0,0E0,0E0,0E0],"parents":[2147483647,0,0,2,2,3,3,4,4,5,5,6,6,7,7],"right_children":[2,-1,4,6,8,10,12,14,-1,-1,-1,-1,-1,-1,-1],"split_conditions":[2E0,-9.444423E-2,3E0,7.035191E2,2.8946987E1,3.583541E1,5.0980127E-1,6.0777E4,9.4433986E-2,1.7302586E-2,6.188633E-2,-1.581298E-2,-6.789685E-2,6.0772013E-2,-6.033092E-3],"split_indices":[11,0,11,1,2,2,0,10,0,0,0,0,0,0,0],"split_type":[0,0,0,0,0,0,0,0,0,0,0,0,0,0,0],"sum_hessian":[8.7328815E2,2.409971E2,6.322911E2,4.0586096E2,2.264301E2,1.8815346E2,2.177075E2,2.7922752E0,2.2363782E2,9.397509E1,9.417836E1,1.8088715E2,3.6820347E1,1.6050266E0,1.1872486E0],"tree_param":{"num_deleted":"0","num_feature":"13","num_nodes":"15","size_leaf_vector":"1"}},{"base_weights":[-5.239389E-3,-9.038782E-2,6.911189E-1,1.0228017E-1,1.7908821E0,-4.637464E-1,1.156392E0,3.1785733E-1,9.034421E-2,2.456696E-2,-3.9343487E-2,8.230925E-2,4.5483775E-2,-1.2713487E-2,3.889354E-2],"categories":[],"categories_nodes":[],"categories_segments":[],"categories_sizes":[],"default_left":[0,0,1,1,0,0,0,0,0,0,0,0,0,0,0],"id":2,"left_children":[1,-1,3,5,7,9,11,13,-1,-1,-1,-1,-1,-1,-1],"loss_changes":[1.1000269E3,0E0,4.0919553E2,2.468238E2,4.6205444E0,8.348964E1,1.5963776E1,1.1404893E0,0E0,0E0,0E0,0E0,0E0,0E0,0E0],"parents":[2147483647,0,0,2,2,3,3,4,4,5,5,6,6,7,7],"right_children":[2,-1,4,6,8,10,12,14,-1,-1,-1,-1,-1,-1,-1],"split_conditions":[2E0,-9.038782E-2,3E0,3E0,2.8946987E1,6.167273E2,5.102652E2,1.14246704E2,9.034421E-2,2.456696E-2,-3.9343487E-2,8.230925E-2,4.5483775E-2,-1.2713487E-2,3.889354E-2],"split_indices":[11,0,11,12,2,1,1,5,0,0,0,0,0,0,0],"split_type":[0,0,0,0,0,0,0,0,0,0,0,0,0,0,0],"sum_hessian":[8.7438214E2,2.4321815E2,6.31164E2,4.1178027E2,2.193837E2,2.6828128E2,1.43499E2,2.5818758E0,2.1680182E2,6.7688255E1,2.0059303E2,4.616926E1,9.7329735E1,1.35005E0,1.2318258E0],"tree_param":{"num_deleted":"0","num_feature":"13","num_nodes":"15","size_leaf_vector":"1"}},{"base_weights":[1.1369436E-2,-8.682462E-2,6.726933E-1,1.14818E-1,1.7239658E0,-4.2158592E-1,1.0956684E0,7.693699E-1,8.6791374E-2,1.9371672E-2,-3.9127953E-2,6.473298E-2,2.8324777E-2,6.472578E-2,-1.2926004E-2],"categories":[],"categories_nodes":[],"categories_segments":[],"categories_sizes":[],"default_left":[0,0,1,1,0,0,0,0,0,0,0,0,0,0,0],"id":3,"left_children":[1,-1,3,5,7,9,11,13,-1,-1,-1,-1,-1,-1,-1],"loss_changes":[1.0066665E3,0E0,3.703506E2,2.1819905E2,1.1439819E0,7.864374E1,1.4702301E1,2.7548828E0,0E0,0E0,0E0,0E0,0E0,0E0,0E0],"parents":[2147483647,0,0,2,2,3,3,4,4,5,5,6,6,7,7],"right_children":[2,-1,4,6,8,10,12,14,-1,-1,-1,-1,-1,-1,-1],"split_conditions":[2E0,-8.682462E-2,3E0,3E0,2.8946987E1,6.598172E2,1.1805348E-2,6.0777E4,8.6791374E-2,1.9371672E-2,-3.9127953E-2,6.473298E-2,2.8324777E-2,6.472578E-2,-1.2926004E-2],"split_indices":[11,0,11,12,2,1,4,10,0,0,0,0,0,0,0],"split_type":[0,0,0,0,0,0,0,0,0,0,0,0,0,0,0],"sum_hessian":[8.688816E2,2.3806259E2,6.30819E2,4.1284506E2,2.1797392E2,2.6725812E2,1.4558696E2,3.483625E0,2.144903E2,8.2433464E1,1.8482465E2,1.0475E2,4.0836964E1,2.133987E0,1.3496381E0],"tree_param":{"num_deleted":"0","num_feature":"13","num_nodes":"15","size_leaf_vector":"1"}},{"base_weights":[4.3579796E-3,-8.4154256E-2,6.487514E-1,9.6199244E-2,1.6567925E0,7.2820264E-1,-4.5117572E-1,6.499306E-1,8.353277E-2,1.8988775E-2,6.037407E-2,-1.5205919E-2,-6.391515E-2,6.271538E-2,-1.8009415E-2],"categories":[],"categories_nodes":[],"categories_segments":[],"categories_sizes":[],"default_left":[0,0,1,0,0,0,0,0,0,0,0,0,0,0,0],"id":4,"left_children":[1,-1,3,5,7,9,11,13,-1,-1,-1,-1,-1,-1,-1],"loss_changes":[9.3793744E2,0E0,3.4751514E2,1.4017654E2,1.998169E0,3.0937012E1,2.603614E1,3.2829251E0,0E0,0E0,0E0,0E0,0E0,0E0,0E0],"parents":[2147483647,0,0,2,2,3,3,4,4,5,5,6,6,7,7],"right_children":[2,-1,4,6,8,10,12,14,-1,-1,-1,-1,-1,-1,-1],"split_conditions":[2E0,-8.4154256E-2,3E0,7.035191E2,2.8946987E1,3.6368755E1,5.2326286E-1,6.0777E4,8.353277E-2,1.8988775E-2,6.037407E-2,-1.5205919E-2,-6.391515E-2,6.271538E-2,-1.8009415E-2],"split_indices":[11,0,11,1,2,2,0,10,0,0,0,0,0,0,0],"split_type":[0,0,0,0,0,0,0,0,0,0,0,0,0,0,0],"sum_hessian":[8.605645E2,2.3736803E2,6.231965E2,4.032517E2,2.1994476E2,1.870045E2,2.1624721E2,3.6374655E0,2.163073E2,1.0932184E2,7.7682655E1,1.8476498E2,3.1482225E1,2.124554E0,1.5129117E0],"tree_param":{"num_deleted":"0","num_feature":"13","num_nodes":"15","size_leaf_vector":"1"}},{"base_weights":[2.2378773E-3,-8.0903046E-2,6.0321826E-1,8.9138985E-2,1.5974412E0,7.250346E-1,-4.3313006E-1,2.5526632E-2,8.0273144E-2,7.101391E-2,2.700384E-2,-1.753356E-2,-7.916175E-2],"categories":[],"categories_nodes":[],"categories_segments":[],"categories_sizes":[],"default_left":[0,0,1,0,0,0,0,0,0,0,0,0,0],"id":5,"left_children":[1,-1,3,5,7,9,11,-1,-1,-1,-1,-1,-1],"loss_changes":[8.279522E2,0E0,3.168537E2,1.364394E2,1.0228882E0,2.3049034E1,2.0846882E1,0E0,0E0,0E0,0E0,0E0,0E0],"parents":[2147483647,0,0,2,2,3,3,4,4,5,5,6,6],"right_children":[2,-1,4,6,8,10,12,-1,-1,-1,-1,-1,-1],"split_conditions":[2E0,-8.0903046E-2,3E0,6.9410156E2,-4.9694855E-2,4.282501E2,1.888368E2,2.5526632E-2,8.0273144E-2,7.101391E-2,2.700384E-2,-1.753356E-2,-7.916175E-2],"split_indices":[11,0,11,1,4,1,5,0,0,0,0,0,0],"split_type":[0,0,0,0,0,0,0,0,0,0,0,0,0],"sum_hessian":[8.4825397E2,2.2904231E2,6.192117E2,4.0888214E2,2.1032954E2,1.8420845E2,2.2467369E2,2.0145278E0,2.0831502E2,3.7304493E1,1.4690395E2,2.1086055E2,1.3813132E1],"tree_param":{"num_deleted":"0","num_feature":"13","num_nodes":"13","size_leaf_vector":"1"}},{"base_weights":[-2.3279322E-2,-7.890951E-2,5.555864E-1,4.0372398E-2,1.5515368E0,-4.5697343E-1,9.805685E-1,6.8021184E-1,7.814268E-2,-3.3805817E-2,2.3760213E-2,7.238516E-2,3.6604106E-2,-1.42658455E-2,5.9597205E-2],"categories":[],"categories_nodes":[],"categories_segments":[],"categories_sizes":[],"default_left":[0,0,1,1,0,0,0,0,0,0,0,0,0,0,0],"id":6,"left_children":[1,-1,3,5,7,9,11,13,-1,-1,-1,-1,-1,-1,-1],"loss_changes":[7.543842E2,0E0,3.1334702E2,1.8915868E2,9.9005127E-1,5.437983E1,1.5184036E1,2.5339804E0,0E0,0E0,0E0,0E0,0E0,0E0,0E0],"parents":[2147483647,0,0,2,2,3,3,4,4,5,5,6,6,7,7],"right_children":[2,-1,4,6,8,10,12,14,-1,-1,-1,-1,-1,-1,-1],"split_conditions":[2E0,-7.890951E-2,3E0,3E0,2.8946987E1,3.5930923E1,5.102652E2,4.971933E-1,7.814268E-2,-3.3805817E-2,2.3760213E-2,7.238516E-2,3.6604106E-2,-1.42658455E-2,5.9597205E-2],"split_indices":[11,0,11,12,2,2,1,0,0,0,0,0,0,0,0],"split_type":[0,0,0,0,0,0,0,0,0,0,0,0,0,0,0],"sum_hessian":[8.361518E2,2.2636871E2,6.097831E2,4.025704E2,2.0721269E2,2.6362943E2,1.3894098E2,3.4402614E0,2.0377243E2,2.1367247E2,4.9956944E1,4.6568947E1,9.237203E1,1.3449945E0,2.0952668E0],"tree_param":{"num_deleted":"0","num_feature":"13","num_nodes":"15","size_leaf_vector":"1"}},{"base_weights":[5.0357464E-3,-7.669405E-2,5.773245E-1,9.52616E-2,1.5100223E0,-3.82206E-1,9.7664595E-1,3.8475013E-1,7.625594E-2,2.7107263E-2,-3.2625E-2,7.021697E-2,3.8223702E-2,5.0913032E-2,-2.0602664E-2],"categories":[],"categories_nodes":[],"categories_segments":[],"categories_sizes":[],"default_left":[0,0,1,1,0,0,0,0,0,0,0,0,0,0,0],"id":7,"left_children":[1,-1,3,5,7,9,11,13,-1,-1,-1,-1,-1,-1,-1],"loss_changes":[7.274706E2,0E0,2.7056958E2,1.6786697E2,2.8971558E0,6.503276E1,1.1642532E1,2.465166E0,0E0,0E0,0E0,0E0,0E0,0E0,0E0],"parents":[2147483647,0,0,2,2,3,3,4,4,5,5,6,6,7,7],"right_children":[2,-1,4,6,8,10,12,14,-1,-1,-1,-1,-1,-1,-1],"split_conditions":[2E0,-7.669405E-2,3E0,3E0,2.8946987E1,5.940596E2,5.102652E2,3.9954E4,7.625594E-2,2.7107263E-2,-3.2625E-2,7.021697E-2,3.8223702E-2,5.0913032E-2,-2.0602664E-2],"split_indices":[11,0,11,12,2,1,1,10,0,0,0,0,0,0,0],"split_type":[0,0,0,0,0,0,0,0,0,0,0,0,0,0,0],"sum_hessian":[8.2400415E2,2.22909E2,6.010951E2,3.970057E2,2.0408943E2,2.5787488E2,1.3913081E2,3.0524096E0,2.0103702E2,5.8117825E1,1.9975705E2,4.427101E1,9.48598E1,1.545614E0,1.5067958E0],"tree_param":{"num_deleted":"0","num_feature":"13","num_nodes":"15","size_leaf_vector":"1"}},{"base_weights":[1.3463972E-2,-6.0040987E-1,1.1395606E0,-1.0315987E0,-3.0960822E-1,9.046627E-1,1.4107518E0,1.0440758E0,-1.2038895E0,-1.6062766E-1,-1.4035827E0,9.640869E-1,-3.5482368E-1,1.4375408E0,-3.0142603E-2,-1.8717645E-2,5.835667E-2,4.9852314E-3,-6.3533746E-2,-1.4318415E-3,-6.622354E-2,-7.474023E-2,4.6511803E-2,5.8607806E-2,3.1464823E-2,4.926241E-2,-4.7339555E-2,2.0235524E-2,7.229462E-2],"categories":[],"categories_nodes":[],"categories_segments":[],"categories_sizes":[],"default_left":[1,1,0,0,0,0,0,0,0,0,0,0,0,0,0,0,0,0,0,0,0,0,0,0,0,0,0,0,0],"id":8,"left_children":[1,3,5,7,9,11,13,15,17,19,21,23,25,27,-1,-1,-1,-1,-1,-1,-1,-1,-1,-1,-1,-1,-1,-1,-1],"loss_changes":[5.703195E2,6.663411E1,1.7265411E1,7.801587E1,5.1980896E1,1.2224182E1,8.057678E0,3.4018097E0,1.742157E1,4.344437E1,9.536858E0,9.841858E0,7.1869617E0,5.5218506E-1,0E0,0E0,0E0,0E0,0E0,0E0,0E0,0E0,0E0,0E0,0E0,0E0,0E0,0E0,0E0],"parents":[2147483647,0,0,1,1,2,2,3,3,4,4,5,5,6,6,7,7,8,8,9,9,10,10,11,11,12,12,13,13],"right_children":[2,4,6,8,10,12,14,16,18,20,22,24,26,28,-1,-1,-1,-1,-1,-1,-1,-1,-1,-1,-1,-1,-1,-1,-1],"split_conditions":[3E0,2E0,3.622116E1,7.50053E-2,6.7123353E-1,5.3412366E-1,5.7866395E-2,3.1082705E-1,2.532394E-1,5.2022463E-1,7E0,2.963031E-1,3.3401848E1,2.4936849E-1,-3.0142603E-2,-1.8717645E-2,5.835667E-2,4.9852314E-3,-6.3533746E-2,-1.4318415E-3,-6.622354E-2,-7.474023E-2,4.6511803E-2,5.8607806E-2,3.1464823E-2,4.926241E-2,-4.7339555E-2,2.0235524E-2,7.229462E-2],"split_indices":[12,12,2,3,3,0,4,0,0,0,9,3,7,0,0,0,0,0,0,0,0,0,0,0,0,0,0,0,0],"split_type":[0,0,0,0,0,0,0,0,0,0,0,0,0,0,0,0,0,0,0,0,0,0,0,0,0,0,0,0,0],"sum_hessian":[8.230283E2,5.3296027E2,2.9006805E2,2.1363843E2,3.193218E2,1.5775832E2,1.3230974E2,1.5986076E1,1.9765234E2,2.8205728E2,3.7264534E1,1.508744E2,6.883908E0,1.3085492E2,1.4548091E0,1.1131544E0,1.4872922E1,9.608572E0,1.8804378E2,2.5424779E2,2.7809504E1,3.6208748E1,1.0557883E0,9.150423E1,5.9370186E1,1.9056385E0,4.978269E0,1.4463557E0,1.2940857E2],"tree_param":{"num_deleted":"0","num_feature":"13","num_nodes":"29","size_leaf_vector":"1"}},{"base_weights":[-1.3226024E-2,-7.308068E-2,5.0964344E-1,6.715285E-2,1.4478354E0,-3.770467E-1,8.76384E-1,5.189214E-1,7.296698E-2,1.4723502E-2,-3.4568988E-2,5.3215444E-2,1.8974837E-2,-1.4557861E-2,5.2904624E-2],"categories":[],"categories_nodes":[],"categories_segments":[],"categories_sizes":[],"default_left":[0,0,1,1,0,0,0,0,0,0,0,0,0,0,0],"id":9,"left_children":[1,-1,3,5,7,9,11,13,-1,-1,-1,-1,-1,-1,-1],"loss_changes":[6.194939E2,0E0,2.4942535E2,1.4751974E2,1.3007202E0,5.6152534E1,1.31744E1,2.0148087E0,0E0,0E0,0E0,0E0,0E0,0E0,0E0],"parents":[2147483647,0,0,2,2,3,3,4,4,5,5,6,6,7,7],"right_children":[2,-1,4,6,8,10,12,14,-1,-1,-1,-1,-1,-1,-1],"split_conditions":[2E0,-7.308068E-2,3E0,3E0,2.8946987E1,6.7505066E2,1.1805348E-2,1.14246704E2,7.296698E-2,1.4723502E-2,-3.4568988E-2,5.3215444E-2,1.8974837E-2,-1.4557861E-2,5.2904624E-2],"split_indices":[11,0,11,12,2,1,4,5,0,0,0,0,0,0,0],"split_type":[0,0,0,0,0,0,0,0,0,0,0,0,0,0,0],"sum_hessian":[8.160271E2,2.1597229E2,6.000548E2,4.084733E2,1.915815E2,2.640605E2,1.4441283E2,2.907625E0,1.8867387E2,8.421445E1,1.7984602E2,1.0395474E2,4.0458084E1,1.3457266E0,1.5618984E0],"tree_param":{"num_deleted":"0","num_feature":"13","num_nodes":"15","size_leaf_vector":"1"}},{"base_weights":[6.2010506E-5,-7.135851E-2,5.0147724E-1,5.5497043E-2,1.408154E0,5.896969E-1,-3.6098713E-1,3.7457103E-1,7.114046E-2,1.1711742E-2,4.74432E-2,-8.097424E-3,-4.922587E-2,5.002722E-2,-2.0356933E-2],"categories":[],"categories_nodes":[],"categories_segments":[],"categories_sizes":[],"default_left":[0,0,1,0,0,0,0,0,0,0,0,0,0,0,0],"id":10,"left_children":[1,-1,3,5,7,9,11,13,-1,-1,-1,-1,-1,-1,-1],"loss_changes":[5.63498E2,0E0,2.3554068E2,8.734233E1,2.3765259E0,2.1729794E1,2.722777E1,2.3855731E0,0E0,0E0,0E0,0E0,0E0,0E0,0E0],"parents":[2147483647,0,0,2,2,3,3,4,4,5,5,6,6,7,7],"right_children":[2,-1,4,6,8,10,12,14,-1,-1,-1,-1,-1,-1,-1],"split_conditions":[2E0,-7.135851E-2,3E0,6.953172E2,2.8946987E1,3.583541E1,3.5249403E-1,3.9954E4,7.114046E-2,1.1711742E-2,4.74432E-2,-8.097424E-3,-4.922587E-2,5.002722E-2,-2.0356933E-2],"split_indices":[11,0,11,1,2,2,3,10,0,0,0,0,0,0,0],"split_type":[0,0,0,0,0,0,0,0,0,0,0,0,0,0,0],"sum_hessian":[7.854086E2,2.0371277E2,5.8169586E2,3.9061813E2,1.9107776E2,1.709433E2,2.1967484E2,3.042701E0,1.8803505E2,8.674515E1,8.419815E1,1.6747458E2,5.2200253E1,1.5342047E0,1.5084963E0],"tree_param":{"num_deleted":"0","num_feature":"13","num_nodes":"15","size_leaf_vector":"1"}},{"base_weights":[1.1788549E-2,-7.0357345E-2,4.947314E-1,6.570976E-2,1.3820324E0,5.9096444E-1,-3.442687E-1,5.355477E-1,6.975835E-2,3.297845E-2,-5.0777316E-2,1.3758896E-3,-4.044674E-2,5.670322E-2,-2.031147E-2],"categories":[],"categories_nodes":[],"categories_segments":[],"categories_sizes":[],"default_left":[0,0,1,0,0,0,0,0,0,0,0,0,0,0,0],"id":11,"left_children":[1,-1,3,5,7,9,11,13,-1,-1,-1,-1,-1,-1,-1],"loss_changes":[5.4132275E2,0E0,2.2425328E2,8.597642E1,1.3878479E0,1.995446E1,3.8777374E1,3.0293953E0,0E0,0E0,0E0,0E0,0E0,0E0,0E0],"parents":[2147483647,0,0,2,2,3,3,4,4,5,5,6,6,7,7],"right_children":[2,-1,4,6,8,10,12,14,-1,-1,-1,-1,-1,-1,-1],"split_conditions":[2E0,-7.0357345E-2,3E0,6.9410156E2,2.8946987E1,6.214962E-1,2.8641656E-1,6.0777E4,6.975835E-2,3.297845E-2,-5.0777316E-2,1.3758896E-3,-4.044674E-2,5.670322E-2,-2.031147E-2],"split_indices":[11,0,11,1,2,3,3,10,0,0,0,0,0,0,0],"split_type":[0,0,0,0,0,0,0,0,0,0,0,0,0,0,0],"sum_hessian":[7.8793097E2,1.9959293E2,5.883381E2,3.9730835E2,1.9102972E2,1.7397467E2,2.2333368E2,3.557113E0,1.8747261E2,1.6741483E2,6.55985E0,1.2458892E2,9.874475E1,2.0500762E0,1.5070367E0],"tree_param":{"num_deleted":"0","num_feature":"13","num_nodes":"15","size_leaf_vector":"1"}},{"base_weights":[-2.7545167E-3,-6.8957224E-2,4.7643033E-1,6.0301654E-2,1.3554444E0,-3.4116003E-1,8.187977E-1,1.6842066E-1,6.853779E-2,-2.7428214E-2,2.9102841E-2,4.487466E-2,-1.1828436E-2,2.3116287E-2,-1.1526504E-2],"categories":[],"categories_nodes":[],"categories_segments":[],"categories_sizes":[],"default_left":[0,0,1,1,0,0,0,0,0,0,0,0,0,0,0],"id":12,"left_children":[1,-1,3,5,7,9,11,13,-1,-1,-1,-1,-1,-1,-1],"loss_changes":[5.1454535E2,0E0,2.1159291E2,1.2019523E2,3.147583E0,4.976182E1,1.1556427E1,5.1781815E-1,0E0,0E0,0E0,0E0,0E0,0E0,0E0],"parents":[2147483647,0,0,2,2,3,3,4,4,5,5,6,6,7,7],"right_children":[2,-1,4,6,8,10,12,14,-1,-1,-1,-1,-1,-1,-1],"split_conditions":[2E0,-6.8957224E-2,3E0,3E0,2.8946987E1,3.610634E1,9.598805E1,2.8242575E1,6.853779E-2,-2.7428214E-2,2.9102841E-2,4.487466E-2,-1.1828436E-2,2.3116287E-2,-1.1526504E-2],"split_indices":[11,0,11,12,2,2,5,2,0,0,0,0,0,0,0],"split_type":[0,0,0,0,0,0,0,0,0,0,0,0,0,0,0],"sum_hessian":[7.7815564E2,2.0046643E2,5.776892E2,3.9280325E2,1.8488597E2,2.572137E2,1.3558952E2,2.5072532E0,1.8237871E2,2.103611E2,4.685262E1,1.26319824E2,9.269693E0,1.3522229E0,1.1550303E0],"tree_param":{"num_deleted":"0","num_feature":"13","num_nodes":"15","size_leaf_vector":"1"}},{"base_weights":[-1.8971993E-2,-6.7111835E-2,4.3489084E-1,5.0304353E-2,1.3154886E0,-3.5436937E-1,8.0264115E-1,-1.1245898E-2,6.681326E-2,-8.414102E-3,-5.585307E-2,4.9208995E-2,1.771395E-2],"categories":[],"categories_nodes":[],"categories_segments":[],"categories_sizes":[],"default_left":[0,0,1,1,0,0,0,0,0,0,0,0,0],"id":13,"left_children":[1,-1,3,5,7,9,11,-1,-1,-1,-1,-1,-1],"loss_changes":[4.5507166E2,0E0,1.9102145E2,1.2016541E2,5.7884827E0,3.624956E1,1.08860855E1,0E0,0E0,0E0,0E0,0E0,0E0],"parents":[2147483647,0,0,2,2,3,3,4,4,5,5,6,6],"right_children":[2,-1,4,6,8,10,12,-1,-1,-1,-1,-1,-1],"split_conditions":[2E0,-6.7111835E-2,3E0,3E0,2.8946987E1,3.6133707E-1,1.1805348E-2,-1.1245898E-2,6.681326E-2,-8.414102E-3,-5.585307E-2,4.9208995E-2,1.771395E-2],"split_indices":[11,0,11,12,2,3,4,0,0,0,0,0,0],"split_type":[0,0,0,0,0,0,0,0,0,0,0,0,0],"sum_hessian":[7.5574756E2,1.9251143E2,5.6323615E2,3.9276126E2,1.7047485E2,2.5573383E2,1.3702745E2,2.1379614E0,1.683369E2,2.0655711E2,4.9176716E1,9.668522E1,4.034223E1],"tree_param":{"num_deleted":"0","num_feature":"13","num_nodes":"13","size_leaf_vector":"1"}},{"base_weights":[1.03126345E-2,-6.589473E-2,4.414844E-1,6.5815784E-2,6.486733E-2,-3.1427118E-1,7.8362185E-1,-5.1065486E-2,-5.9519587E-3,4.153965E-2,-2.4196867E-2],"categories":[],"categories_nodes":[],"categories_segments":[],"categories_sizes":[],"default_left":[0,0,1,1,0,1,0,0,0,0,0],"id":14,"left_children":[1,-1,3,5,-1,7,9,-1,-1,-1,-1],"loss_changes":[4.2803192E2,0E0,1.813247E2,1.0751337E2,0E0,3.5459724E1,8.557678E0,0E0,0E0,0E0,0E0],"parents":[2147483647,0,0,2,2,3,3,5,5,6,6],"right_children":[2,-1,4,6,-1,8,10,-1,-1,-1,-1],"split_conditions":[2E0,-6.589473E-2,3E0,3E0,6.486733E-2,2E0,5.2650905E-1,-5.1065486E-2,-5.9519587E-3,4.153965E-2,-2.4196867E-2],"split_indices":[11,0,11,12,0,12,0,0,0,0,0],"split_type":[0,0,0,0,0,0,0,0,0,0,0],"sum_hessian":[7.4539594E2,1.8217049E2,5.632254E2,3.921664E2,1.7105899E2,2.5676724E2,1.3539919E2,5.4643375E1,2.0212387E2,1.308734E2,4.525777E0],"tree_param":{"num_deleted":"0","num_feature":"13","num_nodes":"11","size_leaf_vector":"1"}},{"base_weights":[2.0703487E-2,-6.480753E-2,4.397275E-1,6.7948125E-2,1.2772212E0,-1.6720727E-1,8.007744E-1,2.1279633E-1,6.477856E-2,-2.433302E-3,-5.7919312E-2,4.52041E-2,-7.6247774E-2,5.3919345E-2,-5.5000376E-2],"categories":[],"categories_nodes":[],"categories_segments":[],"categories_sizes":[],"default_left":[0,0,1,0,0,0,0,0,0,0,0,0,0,0,0],"id":15,"left_children":[1,-1,3,5,7,9,11,13,-1,-1,-1,-1,-1,-1,-1],"loss_changes":[4.106802E2,0E0,1.7569911E2,6.7695816E1,3.1134949E0,3.4914795E1,2.4303852E1,5.8874593E0,0E0,0E0,0E0,0E0,0E0,0E0,0E0],"parents":[2147483647,0,0,2,2,3,3,4,4,5,5,6,6,7,7],"right_children":[2,-1,4,6,8,10,12,14,-1,-1,-1,-1,-1,-1,-1],"split_conditions":[2E0,-6.480753E-2,3E0,3.610634E1,2.8946987E1,5.2326286E-1,4.146659E-1,8.3442E4,6.477856E-2,-2.433302E-3,-5.7919312E-2,4.52041E-2,-7.6247774E-2,5.3919345E-2,-5.5000376E-2],"split_indices":[11,0,11,2,2,0,3,10,0,0,0,0,0,0,0],"split_type":[0,0,0,0,0,0,0,0,0,0,0,0,0,0,0],"sum_hessian":[7.4223145E2,1.7866214E2,5.6356934E2,3.910541E2,1.7251523E2,2.966382E2,9.44159E1,3.1371255E0,1.693781E2,2.658881E2,3.0750107E1,9.098564E1,3.430262E0,1.9981905E0,1.1389349E0],"tree_param":{"num_deleted":"0","num_feature":"13","num_nodes":"15","size_leaf_vector":"1"}},{"base_weights":[-1.0984811E-2,-6.440728E-2,3.911359E-1,2.3001134E-2,1.2612555E0,-1.9285071E-1,7.3951334E-1,3.9022207E-1,6.370001E-2,-1.377132E-2,5.9841394E-2,4.2475753E-2,-5.907906E-2,-1.25393765E-2,3.8111243E-2],"categories":[],"categories_nodes":[],"categories_segments":[],"categories_sizes":[],"default_left":[0,0,1,0,0,0,0,0,0,0,0,0,0,0,0],"id":16,"left_children":[1,-1,3,5,7,9,11,13,-1,-1,-1,-1,-1,-1,-1],"loss_changes":[3.691134E2,0E0,1.7506947E2,5.970816E1,1.3067627E0,3.438478E1,1.9889793E1,1.0936863E0,0E0,0E0,0E0,0E0,0E0,0E0,0E0],"parents":[2147483647,0,0,2,2,3,3,4,4,5,5,6,6,7,7],"right_children":[2,-1,4,6,8,10,12,14,-1,-1,-1,-1,-1,-1,-1],"split_conditions":[2E0,-6.440728E-2,3E0,3.6166298E1,2.8946987E1,1.5E1,4.146659E-1,1.14246704E2,6.370001E-2,-1.377132E-2,5.9841394E-2,4.2475753E-2,-5.907906E-2,-1.25393765E-2,3.8111243E-2],"split_indices":[11,0,11,2,2,9,3,5,0,0,0,0,0,0,0],"split_type":[0,0,0,0,0,0,0,0,0,0,0,0,0,0,0],"sum_hessian":[7.1673584E2,1.7110193E2,5.456339E2,3.8413745E2,1.6149644E2,2.9576733E2,8.837011E1,2.784869E0,1.5871158E2,2.799352E2,1.5832143E1,8.411168E1,4.2584305E0,1.1423299E0,1.6425391E0],"tree_param":{"num_deleted":"0","num_feature":"13","num_nodes":"15","size_leaf_vector":"1"}},{"base_weights":[-7.3209424E-3,-6.347329E-2,3.7464017E-1,4.500692E-2,1.2361038E0,-2.9481748E-1,6.999853E-1,1.1062787E-1,6.269434E-2,-2.4310235E-2,2.4902238E-2,3.8152754E-2,-2.846841E-2,-1.5117863E-2,2.5830487E-2],"categories":[],"categories_nodes":[],"categories_segments":[],"categories_sizes":[],"default_left":[0,0,1,1,0,0,0,0,0,0,0,0,0,0,0],"id":17,"left_children":[1,-1,3,5,7,9,11,13,-1,-1,-1,-1,-1,-1,-1],"loss_changes":[3.4234036E2,0E0,1.5475076E2,8.8196495E1,2.8801117E0,3.984491E1,1.1269371E1,7.334573E-1,0E0,0E0,0E0,0E0,0E0,0E0,0E0],"parents":[2147483647,0,0,2,2,3,3,4,4,5,5,6,6,7,7],"right_children":[2,-1,4,6,8,10,12,14,-1,-1,-1,-1,-1,-1,-1],"split_conditions":[2E0,-6.347329E-2,3E0,3E0,2.8946987E1,3.610634E1,1.167559E2,9.9119653E2,6.269434E-2,-2.4310235E-2,2.4902238E-2,3.8152754E-2,-2.846841E-2,-1.5117863E-2,2.5830487E-2],"split_indices":[11,0,11,12,2,2,5,1,0,0,0,0,0,0,0],"split_type":[0,0,0,0,0,0,0,0,0,0,0,0,0,0,0],"sum_hessian":[7.081302E2,1.6397404E2,5.441562E2,3.9432327E2,1.498329E2,2.5998456E2,1.3433868E2,2.4429274E0,1.4738997E2,2.0974216E2,5.024241E1,1.283598E2,5.9788876E0,1.3375494E0,1.1053779E0],"tree_param":{"num_deleted":"0","num_feature":"13","num_nodes":"15","size_leaf_vector":"1"}},{"base_weights":[-3.5054502E-3,-6.194227E-2,3.710837E-1,4.218987E-2,1.2251617E0,-3.03788E-1,7.2072434E-1,3.4790444E-1,6.178548E-2,-5.6343425E-2,-7.5573563E-3,6.251326E-2,2.8381756E-2,-8.471696E-4,2.6490986E-2],"categories":[],"categories_nodes":[],"categories_segments":[],"categories_sizes":[],"default_left":[0,0,1,1,0,0,0,0,0,0,0,0,0,0,0],"id":18,"left_children":[1,-1,3,5,7,9,11,13,-1,-1,-1,-1,-1,-1,-1],"loss_changes":[3.1871518E2,0E0,1.4840508E2,9.003777E1,9.293823E-1,3.1753796E1,9.788567E0,2.1719465E-1,0E0,0E0,0E0,0E0,0E0,0E0,0E0],"parents":[2147483647,0,0,2,2,3,3,4,4,5,5,6,6,7,7],"right_children":[2,-1,4,6,8,10,12,14,-1,-1,-1,-1,-1,-1,-1],"split_conditions":[2E0,-6.194227E-2,3E0,3E0,2.8946987E1,2.996967E1,4.51533E2,5.0250083E-1,6.178548E-2,-5.6343425E-2,-7.5573563E-3,6.251326E-2,2.8381756E-2,-8.471696E-4,2.6490986E-2],"split_indices":[11,0,11,12,2,2,1,0,0,0,0,0,0,0,0],"split_type":[0,0,0,0,0,0,0,0,0,0,0,0,0,0,0],"sum_hessian":[6.8675574E2,1.592536E2,5.2750214E2,3.8160184E2,1.459003E2,2.5310066E2,1.2850117E2,2.137161E0,1.4376314E2,3.8596348E1,2.1450432E2,2.7210886E1,1.012903E2,1.0127863E0,1.1243749E0],"tree_param":{"num_deleted":"0","num_feature":"13","num_nodes":"15","size_leaf_vector":"1"}},{"base_weights":[-8.1856195E-3,-6.114417E-2,3.5469058E-1,3.781311E-2,1.2027515E0,-2.7074978E-1,6.576504E-1,6.016766E-2,6.1202686E-2,-2.3755377E-2,1.6899932E-2,2.8540669E-2,8.122394E-2,4.994075E-2,-5.3504188E-2],"categories":[],"categories_nodes":[],"categories_segments":[],"categories_sizes":[],"default_left":[0,0,1,1,0,0,0,0,0,0,0,0,0,0,0],"id":19,"left_children":[1,-1,3,5,7,9,11,13,-1,-1,-1,-1,-1,-1,-1],"loss_changes":[2.9867944E2,0E0,1.4016809E2,7.302243E1,3.3799896E0,3.188212E1,9.724861E0,4.9397664E0,0E0,0E0,0E0,0E0,0E0,0E0,0E0],"parents":[2147483647,0,0,2,2,3,3,4,4,5,5,6,6,7,7],"right_children":[2,-1,4,6,8,10,12,14,-1,-1,-1,-1,-1,-1,-1],"split_conditions":[2E0,-6.114417E-2,3E0,3E0,2.8946987E1,3.564714E1,9.5947736E2,8.3442E4,6.1202686E-2,-2.3755377E-2,1.6899932E-2,2.8540669E-2,8.122394E-2,4.994075E-2,-5.3504188E-2],"split_indices":[11,0,11,12,2,2,1,10,0,0,0,0,0,0,0],"split_type":[0,0,0,0,0,0,0,0,0,0,0,0,0,0,0],"sum_hessian":[6.756241E2,1.5486304E2,5.2076105E2,3.7986813E2,1.4089293E2,2.5399124E2,1.25876884E2,2.6487174E0,1.382442E2,1.9032005E2,6.367119E1,1.16962166E2,8.914719E0,1.5105393E0,1.1381781E0],"tree_param":{"num_deleted":"0","num_feature":"13","num_nodes":"15","size_leaf_vector":"1"}},{"base_weights":[-1.7658742E-2,-6.036499E-2,3.2880464E-1,4.3061543E-3,1.1873026E0,-3.2374933E-1,6.250114E-1,4.1789538E-1,5.9994187E-2,-2.369314E-2,1.7868936E-2,3.73088E-2,-5.6769536E-4,4.6406277E-2,-1.4949257E-2],"categories":[],"categories_nodes":[],"categories_segments":[],"categories_sizes":[],"default_left":[0,0,1,1,0,0,0,0,0,0,0,0,0,0,0],"id":20,"left_children":[1,-1,3,5,7,9,11,13,-1,-1,-1,-1,-1,-1,-1],"loss_changes":[2.7190317E2,0E0,1.4233333E2,7.590877E1,8.5520935E-1,2.5106781E1,9.947048E0,1.663486E0,0E0,0E0,0E0,0E0,0E0,0E0,0E0],"parents":[2147483647,0,0,2,2,3,3,4,4,5,5,6,6,7,7],"right_children":[2,-1,4,6,8,10,12,14,-1,-1,-1,-1,-1,-1,-1],"split_conditions":[2E0,-6.036499E-2,3E0,3E0,2.8946987E1,3.6166298E1,5.2276245E1,6.0777E4,5.9994187E-2,-2.369314E-2,1.7868936E-2,3.73088E-2,-5.6769536E-4,4.6406277E-2,-1.4949257E-2],"split_indices":[11,0,11,12,2,2,5,10,0,0,0,0,0,0,0],"split_type":[0,0,0,0,0,0,0,0,0,0,0,0,0,0,0],"sum_hessian":[6.577286E2,1.4778815E2,5.099404E2,3.70792E2,1.3914842E2,2.4289526E2,1.2789673E2,2.789198E0,1.3635922E2,1.9928029E2,4.361498E1,1.07295074E2,2.0601652E1,1.4573067E0,1.3318911E0],"tree_param":{"num_deleted":"0","num_feature":"13","num_nodes":"15","size_leaf_vector":"1"}},{"base_weights":[-8.749028E-3,-5.9679575E-2,3.3173454E-1,3.7062187E-2,1.1627913E0,-2.600502E-1,6.339917E-1,5.119241E-2,5.923862E-2,3.982432E-3,-3.3156898E-2,3.597921E-2,-1.2498986E-2,4.824966E-2,-5.1711332E-2],"categories":[],"categories_nodes":[],"categories_segments":[],"categories_sizes":[],"default_left":[0,0,1,1,0,0,0,0,0,0,0,0,0,0,0],"id":21,"left_children":[1,-1,3,5,7,9,11,13,-1,-1,-1,-1,-1,-1,-1],"loss_changes":[2.634409E2,0E0,1.2418265E2,6.676551E1,3.1830292E0,3.448146E1,9.644051E0,4.587871E0,0E0,0E0,0E0,0E0,0E0,0E0,0E0],"parents":[2147483647,0,0,2,2,3,3,4,4,5,5,6,6,7,7],"right_children":[2,-1,4,6,8,10,12,14,-1,-1,-1,-1,-1,-1,-1],"split_conditions":[2E0,-5.9679575E-2,3E0,3E0,2.8946987E1,2.8838867E-1,5.4690486E-1,3E0,5.923862E-2,3.982432E-3,-3.3156898E-2,3.597921E-2,-1.2498986E-2,4.824966E-2,-5.1711332E-2],"split_indices":[11,0,11,12,2,3,6,12,0,0,0,0,0,0,0],"split_type":[0,0,0,0,0,0,0,0,0,0,0,0,0,0,0],"sum_hessian":[6.510384E2,1.4476561E2,5.0627277E2,3.7452127E2,1.3175146E2,2.5043533E2,1.24085945E2,2.6193225E0,1.2913214E2,1.363391E2,1.14096245E2,1.1330126E2,1.0784682E1,1.4823226E0,1.137E0],"tree_param":{"num_deleted":"0","num_feature":"13","num_nodes":"15","size_leaf_vector":"1"}},{"base_weights":[1.8383885E-2,-3.9596274E-1,8.074516E-1,-8.3041644E-1,-1.5608202E-1,-9.874157E-1,8.3523905E-1,8.017772E-1,-9.6712303E-1,1.3957973E-2,-8.1111073E-1,-1.0599843E-2,-6.2418498E-2,6.9130963E-1,1.0666585E0,-1.8721657E-2,4.854003E-2,4.2691886E-2,-5.021509E-2,1.0828075E-2,-2.6603028E-2,-4.330438E-2,4.2796087E-2,3.0463442E-2,6.906358E-2,5.5542167E-2,-2.4678718E-2],"categories":[],"categories_nodes":[],"categories_segments":[],"categories_sizes":[],"default_left":[1,1,0,0,0,0,0,0,0,0,0,0,0,0,0,0,0,0,0,0,0,0,0,0,0,0,0],"id":22,"left_children":[1,3,5,7,9,11,13,15,17,19,21,-1,-1,23,25,-1,-1,-1,-1,-1,-1,-1,-1,-1,-1,-1,-1],"loss_changes":[2.0714902E2,4.316899E1,1.1704483E1,3.3701134E1,2.9962093E1,5.0102687E-1,6.4357452E0,2.7394075E0,1.0106255E1,2.3840786E1,5.821892E0,0E0,0E0,6.835167E0,6.114235E0,0E0,0E0,0E0,0E0,0E0,0E0,0E0,0E0,0E0,0E0,0E0,0E0],"parents":[2147483647,0,0,1,1,2,2,3,3,4,4,5,5,6,6,7,7,8,8,9,9,10,10,13,13,14,14],"right_children":[2,4,6,8,10,12,14,16,18,20,22,-1,-1,24,26,-1,-1,-1,-1,-1,-1,-1,-1,-1,-1,-1,-1],"split_conditions":[3E0,2E0,2.8605604E1,7.50053E-2,3.66011E-1,5.2454764E-1,1E0,3.4609196E-1,1.8753352E4,6.5784683E-3,7E0,-1.0599843E-2,-6.2418498E-2,6.933768E2,6.36293E5,-1.8721657E-2,4.854003E-2,4.2691886E-2,-5.021509E-2,1.0828075E-2,-2.6603028E-2,-4.330438E-2,4.2796087E-2,3.0463442E-2,6.906358E-2,5.5542167E-2,-2.4678718E-2],"split_indices":[12,12,2,3,3,0,8,0,10,4,9,0,0,7,10,0,0,0,0,0,0,0,0,0,0,0,0],"split_type":[0,0,0,0,0,0,0,0,0,0,0,0,0,0,0,0,0,0,0,0,0,0,0,0,0,0,0],"sum_hessian":[6.3160693E2,4.1446555E2,2.1714142E2,1.4656192E2,2.679036E2,2.7839463E0,2.1435748E2,1.0950819E1,1.3561111E2,2.1346783E2,5.443578E1,1.1573379E0,1.6266084E0,1.3461935E2,7.973813E1,1.2232337E0,9.727586E0,2.273885E0,1.3333722E2,1.5613599E2,5.7331837E1,5.3162987E1,1.2727935E0,1.21996284E2,1.2623062E1,7.782228E1,1.9158466E0],"tree_param":{"num_deleted":"0","num_feature":"13","num_nodes":"27","size_leaf_vector":"1"}},{"base_weights":[2.138068E-3,-3.982171E-1,7.6587677E-1,2.3172652E-2,-5.9945977E-1,5.631913E-1,1.0385181E0,-1.0277089E-1,1.2454742E0,1.0427541E-1,-7.6328564E-1,8.738236E-1,2.8246063E-1,1.076984E0,-4.706819E-2,-3.5278358E-2,9.994294E-3,5.0001773E-3,7.053884E-2,1.9386338E-2,-5.8009233E-2,2.9104268E-2,-4.1146334E-2,5.0172783E-2,-2.0664124E-2,-1.90104E-2,3.3283036E-2,5.607258E-2,-7.758101E-3],"categories":[],"categories_nodes":[],"categories_segments":[],"categories_sizes":[],"default_left":[1,0,0,0,0,0,0,0,0,0,0,0,0,0,0,0,0,0,0,0,0,0,0,0,0,0,0,0,0],"id":23,"left_children":[1,3,5,7,9,11,13,15,17,19,21,23,25,27,-1,-1,-1,-1,-1,-1,-1,-1,-1,-1,-1,-1,-1,-1,-1],"loss_changes":[1.9125375E2,3.4814293E1,1.1302597E1,2.0694664E1,3.2104095E1,1.0703678E1,7.9094696E0,2.2406906E1,2.2364426E0,1.9565125E1,1.8568222E1,1.0281273E1,1.7378204E1,5.0659714E0,0E0,0E0,0E0,0E0,0E0,0E0,0E0,0E0,0E0,0E0,0E0,0E0,0E0,0E0,0E0],"parents":[2147483647,0,0,1,1,2,2,3,3,4,4,5,5,6,6,7,7,8,8,9,9,10,10,11,11,12,12,13,13],"right_children":[2,4,6,8,10,12,14,16,18,20,22,24,26,28,-1,-1,-1,-1,-1,-1,-1,-1,-1,-1,-1,-1,-1,-1,-1],"split_conditions":[3E0,6.7505066E2,3.622116E1,1E0,5.482364E1,5.482364E1,5.7866395E-2,3.361633E2,-7.211518E1,8.317435E2,8.91E4,1.2257688E2,2.45307E5,4.48625E5,-4.706819E-2,-3.5278358E-2,9.994294E-3,5.0001773E-3,7.053884E-2,1.9386338E-2,-5.8009233E-2,2.9104268E-2,-4.1146334E-2,5.0172783E-2,-2.0664124E-2,-1.90104E-2,3.3283036E-2,5.607258E-2,-7.758101E-3],"split_indices":[12,1,2,8,7,7,4,7,5,1,10,5,10,10,0,0,0,0,0,0,0,0,0,0,0,0,0,0,0],"split_type":[0,0,0,0,0,0,0,0,0,0,0,0,0,0,0,0,0,0,0,0,0,0,0,0,0,0,0,0,0],"sum_hessian":[6.2349164E2,4.093744E2,2.1411726E2,1.3260097E2,2.7677344E2,1.2457333E2,8.954392E1,1.21044685E2,1.1556285E1,5.2333145E1,2.2444029E2,5.813428E1,6.643906E1,8.828473E1,1.2591928E0,4.001542E1,8.102927E1,1.6597763E0,9.896509E0,4.3316372E1,9.016774E0,9.155381E0,2.1528491E2,5.3015186E1,5.1190934E0,2.4345736E1,4.209332E1,8.5296265E1,2.988466E0],"tree_param":{"num_deleted":"0","num_feature":"13","num_nodes":"29","size_leaf_vector":"1"}},{"base_weights":[-1.9887926E-2,-5.9147663E-2,2.918519E-1,1.1442126E-2,1.1407664E0,-2.4240291E-1,5.2690697E-1,4.1849035E-1,5.7511833E-2,1.5761921E-2,-2.120659E-2,3.5668086E-2,6.8854983E-4,3.635238E-2,-4.9321116E-3],"categories":[],"categories_nodes":[],"categories_segments":[],"categories_sizes":[],"default_left":[0,0,1,1,0,0,0,0,0,0,0,0,0,0,0],"id":24,"left_children":[1,-1,3,5,7,9,11,13,-1,-1,-1,-1,-1,-1,-1],"loss_changes":[2.2562791E2,0E0,1.16820694E2,4.8535107E1,3.5214233E-1,2.5323158E1,1.1699631E1,5.741842E-1,0E0,0E0,0E0,0E0,0E0,0E0,0E0],"parents":[2147483647,0,0,2,2,3,3,4,4,5,5,6,6,7,7],"right_children":[2,-1,4,6,8,10,12,14,-1,-1,-1,-1,-1,-1,-1],"split_conditions":[2E0,-5.9147663E-2,3E0,3E0,-4.9694855E-2,6.102854E2,1.1805348E-2,1.04618E5,5.7511833E-2,1.5761921E-2,-2.120659E-2,3.5668086E-2,6.8854983E-4,3.635238E-2,-4.9321116E-3],"split_indices":[11,0,11,12,4,1,4,10,0,0,0,0,0,0,0],"split_type":[0,0,0,0,0,0,0,0,0,0,0,0,0,0,0],"sum_hessian":[6.2034296E2,1.3053549E2,4.898075E2,3.6895074E2,1.2085676E2,2.4756499E2,1.2138574E2,2.1489763E0,1.1870778E2,6.0668114E1,1.8689688E2,8.874783E1,3.2637913E1,1.091682E0,1.0572944E0],"tree_param":{"num_deleted":"0","num_feature":"13","num_nodes":"15","size_leaf_vector":"1"}},{"base_weights":[-2.0363823E-2,-3.8669822E-1,7.062977E-1,-7.804942E-1,-1.7273138E-1,4.977848E-1,9.887552E-1,7.2935236E-1,-9.114351E-1,1.2462082E-1,-4.8155165E-1,8.525154E-1,1.7723382E-1,1.0210804E0,-3.6077235E-2,-2.5015464E-2,4.705146E-2,-1.0088838E-2,-5.2236516E-2,1.5161964E-2,-4.2653017E-2,-2.7867524E-2,6.399356E-2,-2.4137446E-3,4.8699837E-2,-1.83826E-3,5.7914343E-2,5.2755345E-2,-1.7078366E-2],"categories":[],"categories_nodes":[],"categories_segments":[],"categories_sizes":[],"default_left":[1,1,0,0,0,0,0,0,0,0,0,0,0,0,0,0,0,0,0,0,0,0,0,0,0,0,0,0,0],"id":25,"left_children":[1,3,5,7,9,11,13,15,17,19,21,23,25,27,-1,-1,-1,-1,-1,-1,-1,-1,-1,-1,-1,-1,-1,-1,-1],"loss_changes":[1.6104358E2,3.3751644E1,1.1450439E1,2.8600235E1,2.4106821E1,1.3342905E1,5.44178E0,3.5505419E0,1.2130882E1,2.3695147E1,1.789147E1,6.182701E0,1.3395322E1,4.2523117E0,0E0,0E0,0E0,0E0,0E0,0E0,0E0,0E0,0E0,0E0,0E0,0E0,0E0,0E0,0E0],"parents":[2147483647,0,0,1,1,2,2,3,3,4,4,5,5,6,6,7,7,8,8,9,9,10,10,11,11,12,12,13,13],"right_children":[2,4,6,8,10,12,14,16,18,20,22,24,26,28,-1,-1,-1,-1,-1,-1,-1,-1,-1,-1,-1,-1,-1,-1,-1],"split_conditions":[3E0,2E0,3.622116E1,7.50053E-2,2.8838867E-1,5.195273E1,5.7866395E-2,3.4202108E-1,6.102854E2,5.0250083E-1,4E0,3.5898182E-1,6.8805115E2,4.7662166E-1,-3.6077235E-2,-2.5015464E-2,4.705146E-2,-1.0088838E-2,-5.2236516E-2,1.5161964E-2,-4.2653017E-2,-2.7867524E-2,6.399356E-2,-2.4137446E-3,4.8699837E-2,-1.83826E-3,5.7914343E-2,5.2755345E-2,-1.7078366E-2],"split_indices":[12,12,2,3,3,7,4,0,1,0,8,0,7,3,0,0,0,0,0,0,0,0,0,0,0,0,0,0,0],"split_type":[0,0,0,0,0,0,0,0,0,0,0,0,0,0,0,0,0,0,0,0,0,0,0,0,0,0,0,0,0],"sum_hessian":[6.0294354E2,4.011688E2,2.0177477E2,1.4030191E2,2.6086688E2,1.1767113E2,8.4103645E1,1.0831901E1,1.2947002E2,1.3320496E2,1.2766192E2,5.5069813E1,6.2601315E1,8.293906E1,1.1645925E0,1.3905339E0,9.441367E0,2.0870436E1,1.0859958E2,1.132115E2,1.9993454E1,1.2305031E2,4.611609E0,6.615816E0,4.8453995E1,5.2181408E1,1.0419908E1,8.113865E1,1.8004062E0],"tree_param":{"num_deleted":"0","num_feature":"13","num_nodes":"29","size_leaf_vector":"1"}},{"base_weights":[-1.6010592E-2,-5.7502802E-2,2.8862694E-1,2.639232E-2,1.1222246E0,-1.6406861E-1,6.6353154E-1,-7.184955E-3,5.7286035E-2,-1.8838739E-2,1.8627774E-2,3.888573E-2,-7.5783275E-2],"categories":[],"categories_nodes":[],"categories_segments":[],"categories_sizes":[],"default_left":[0,0,1,0,0,1,0,0,0,0,0,0,0],"id":26,"left_children":[1,-1,3,5,7,9,11,-1,-1,-1,-1,-1,-1],"loss_changes":[2.0614723E2,0E0,1.0279907E2,4.36562E1,3.5121918E0,3.1766338E1,2.177776E1,0E0,0E0,0E0,0E0,0E0,0E0],"parents":[2147483647,0,0,2,2,3,3,4,4,5,5,6,6],"right_children":[2,-1,4,6,8,10,12,-1,-1,-1,-1,-1,-1],"split_conditions":[2E0,-5.7502802E-2,3E0,3.6166298E1,2.8946987E1,3E0,4.146659E-1,-7.184955E-3,5.7286035E-2,-1.8838739E-2,1.8627774E-2,3.888573E-2,-7.5783275E-2],"split_indices":[11,0,11,2,2,12,3,0,0,0,0,0,0],"split_type":[0,0,0,0,0,0,0,0,0,0,0,0,0],"sum_hessian":[5.9474963E2,1.2534912E2,4.6940054E2,3.5785693E2,1.1154361E2,2.7607263E2,8.1784294E1,1.9393605E0,1.0960425E2,1.9791951E2,7.815312E1,7.83235E1,3.460787E0],"tree_param":{"num_deleted":"0","num_feature":"13","num_nodes":"13","size_leaf_vector":"1"}},{"base_weights":[1.0443074E-2,-5.691141E-2,2.8976053E-1,3.309768E-2,1.1161151E0,-6.920337E-1,1.5936081E-1,5.7427723E-2,7.901178E-1,-5.5939425E-3,-6.973388E-2,2.145963E-2,-6.117254E-3,5.0460603E-2,-4.1488077E-2],"categories":[],"categories_nodes":[],"categories_segments":[],"categories_sizes":[],"default_left":[0,0,1,1,1,0,0,0,0,0,0,0,0,0,0],"id":27,"left_children":[1,-1,3,5,7,9,11,-1,13,-1,-1,-1,-1,-1,-1],"loss_changes":[1.9085435E2,0E0,1.0144331E2,3.3630024E1,2.9133606E-1,2.2052858E1,2.3816145E1,0E0,5.615777E0,0E0,0E0,0E0,0E0,0E0,0E0],"parents":[2147483647,0,0,2,2,3,3,4,4,5,5,6,6,8,8],"right_children":[2,-1,4,6,8,10,12,-1,14,-1,-1,-1,-1,-1,-1],"split_conditions":[2E0,-5.691141E-2,3E0,2E0,4E0,5.655737E2,2.8838867E-1,5.7427723E-2,8.128484E2,-5.5939425E-3,-6.973388E-2,2.145963E-2,-6.117254E-3,5.0460603E-2,-4.1488077E-2],"split_indices":[11,0,11,12,12,7,3,0,1,0,0,0,0,0,0],"split_type":[0,0,0,0,0,0,0,0,0,0,0,0,0,0,0],"sum_hessian":[5.928231E2,1.1535591E2,4.7746722E2,3.6510648E2,1.1236074E2,5.348133E1,3.1162515E2,9.989698E1,1.2463758E1,2.9928976E1,2.3552357E1,1.5889967E2,1.5272548E2,1.1310903E1,1.152855E0],"tree_param":{"num_deleted":"0","num_feature":"13","num_nodes":"15","size_leaf_vector":"1"}},{"base_weights":[3.7844338E-2,-5.73568E-2,3.1478992E-1,7.011691E-2,1.1062201E0,-7.154961E-1,2.0405152E-1,2.4467061E-1,5.6314994E-2,3.3692695E-2,-4.823416E-2,-2.3021916E-2,1.6905516E-2,4.1961294E-2,-2.112654E-2],"categories":[],"categories_nodes":[],"categories_segments":[],"categories_sizes":[],"default_left":[0,0,1,1,0,0,0,0,0,0,0,0,0,0,0],"id":28,"left_children":[1,-1,3,5,7,9,11,13,-1,-1,-1,-1,-1,-1,-1],"loss_changes":[1.9226407E2,0E0,9.1857025E1,3.8416847E1,1.6628265E0,1.9067854E1,2.7906181E1,1.8737053E0,0E0,0E0,0E0,0E0,0E0,0E0,0E0],"parents":[2147483647,0,0,2,2,3,3,4,4,5,5,6,6,7,7],"right_children":[2,-1,4,6,8,10,12,14,-1,-1,-1,-1,-1,-1,-1],"split_conditions":[2E0,-5.73568E-2,3E0,2E0,2.8946987E1,6.141745E1,-1.9635106E-2,6.0777E4,5.6314994E-2,3.3692695E-2,-4.823416E-2,-2.3021916E-2,1.6905516E-2,4.1961294E-2,-2.112654E-2],"split_indices":[11,0,11,12,2,7,4,10,0,0,0,0,0,0,0],"split_type":[0,0,0,0,0,0,0,0,0,0,0,0,0,0,0],"sum_hessian":[5.8375793E2,1.0999121E2,4.7376675E2,3.627195E2,1.11047226E2,5.2198643E1,3.1052087E2,2.8294735E0,1.0821775E2,7.679144E0,4.45195E1,5.1720924E1,2.5879996E2,1.3598536E0,1.46962E0],"tree_param":{"num_deleted":"0","num_feature":"13","num_nodes":"15","size_leaf_vector":"1"}},{"base_weights":[-2.2789745E-2,-1.9827029E-1,7.5258636E-1,1.4569846E-1,-4.5390248E-1,9.808418E-1,-3.0131513E-1,8.2806647E-1,4.8405927E-2,2.146284E-1,-5.792481E-1,1.0610904E0,-2.1366446E-1,8.554962E-1,-9.1365E-1,7.6051555E-3,5.5289324E-2,3.1314284E-2,-3.820692E-3,2.6977131E-2,-6.473788E-2,2.5041277E-2,-3.131823E-2,5.499645E-2,-4.640786E-2,4.9700547E-2,-4.231126E-2,7.6168203E-3,5.1873565E-2,1.4426703E-2,-6.122109E-2],"categories":[],"categories_nodes":[],"categories_segments":[],"categories_sizes":[],"default_left":[0,0,0,0,0,0,0,0,0,0,0,0,0,0,0,0,0,0,0,0,0,0,0,0,0,0,0,0,0,0,0],"id":29,"left_children":[1,3,5,7,9,11,13,15,17,19,21,23,25,27,29,-1,-1,-1,-1,-1,-1,-1,-1,-1,-1,-1,-1,-1,-1,-1,-1],"loss_changes":[7.723675E1,4.075898E1,2.5498016E1,1.3109077E1,2.2391647E1,8.504036E0,1.4535051E1,4.460003E0,1.2628029E1,2.1632488E1,1.1715042E1,7.285286E0,5.629705E0,7.679415E-1,5.2771406E0,0E0,0E0,0E0,0E0,0E0,0E0,0E0,0E0,0E0,0E0,0E0,0E0,0E0,0E0,0E0,0E0],"parents":[2147483647,0,0,1,1,2,2,3,3,4,4,5,5,6,6,7,7,8,8,9,9,10,10,11,11,12,12,13,13,14,14],"right_children":[2,4,6,8,10,12,14,16,18,20,22,24,26,28,30,-1,-1,-1,-1,-1,-1,-1,-1,-1,-1,-1,-1,-1,-1,-1,-1],"split_conditions":[1E0,6.972818E2,4.8417974E-1,4.1205508E2,4.906499E1,6.36293E5,4.906499E1,2.2076494E-1,1.72271E5,8.343172E2,8.91E4,7.625692E2,2.0221544E1,4.971933E-1,1.65088E5,7.6051555E-3,5.5289324E-2,3.1314284E-2,-3.820692E-3,2.6977131E-2,-6.473788E-2,2.5041277E-2,-3.131823E-2,5.499645E-2,-4.640786E-2,4.9700547E-2,-4.231126E-2,7.6168203E-3,5.1873565E-2,1.4426703E-2,-6.122109E-2],"split_indices":[8,1,0,1,7,10,7,3,10,1,10,7,7,0,10,0,0,0,0,0,0,0,0,0,0,0,0,0,0,0,0],"split_type":[0,0,0,0,0,0,0,0,0,0,0,0,0,0,0,0,0,0,0,0,0,0,0,0,0,0,0,0,0,0,0],"sum_hessian":[5.655559E2,4.6178952E2,1.0376637E2,1.970614E2,2.6472812E2,8.535039E1,1.8415983E1,2.3653667E1,1.7340775E2,4.16856E1,2.2304251E2,8.008206E1,5.2683234E0,6.236673E0,1.217931E1,7.3388295E0,1.6314838E1,3.0088604E1,1.4331914E2,3.4830452E1,6.855149E0,8.920644E0,2.1412187E2,7.898696E1,1.0951049E0,1.6145124E0,3.653811E0,1.659894E0,4.576779E0,2.516414E0,9.662896E0],"tree_param":{"num_deleted":"0","num_feature":"13","num_nodes":"31","size_leaf_vector":"1"}},{"base_weights":[-1.1934094E-2,-3.4530163E-1,6.6086864E-1,-4.079387E-1,9.881301E-1,4.6787933E-1,9.3775487E-1,-2.7116153E-1,-9.423116E-1,1.3578672E0,-2.574804E-1,7.687246E-1,2.1386014E-1,9.949722E-1,-3.840521E-1,-3.431779E-2,-2.2758003E-3,-5.4635435E-2,-2.5331154E-2,7.4214466E-2,-4.892637E-4,4.650322E-2,-4.9101334E-2,-5.7251216E-3,4.487444E-2,-2.147894E-3,5.738003E-2,5.1568564E-2,-2.0115701E-2,3.8257644E-2,-7.5276874E-2],"categories":[],"categories_nodes":[],"categories_segments":[],"categories_sizes":[],"default_left":[1,0,0,0,0,0,0,1,0,0,0,0,0,0,0,0,0,0,0,0,0,0,0,0,0,0,0,0,0,0,0],"id":30,"left_children":[1,3,5,7,9,11,13,15,17,19,21,23,25,27,29,-1,-1,-1,-1,-1,-1,-1,-1,-1,-1,-1,-1,-1,-1,-1,-1],"loss_changes":[1.2644225E2,3.1885845E1,9.542419E0,2.6110554E1,8.272999E0,8.399658E0,6.1090164E0,2.7008842E1,4.2371597E0,2.3358536E0,5.0248995E0,5.8936043E0,1.4952132E1,4.120537E0,6.1310687E0,0E0,0E0,0E0,0E0,0E0,0E0,0E0,0E0,0E0,0E0,0E0,0E0,0E0,0E0,0E0,0E0],"parents":[2147483647,0,0,1,1,2,2,3,3,4,4,5,5,6,6,7,7,8,8,9,9,10,10,11,11,12,12,13,13,14,14],"right_children":[2,4,6,8,10,12,14,16,18,20,22,24,26,28,30,-1,-1,-1,-1,-1,-1,-1,-1,-1,-1,-1,-1,-1,-1,-1,-1],"split_conditions":[3E0,1.3E1,3.622116E1,3.5505572E-1,4.9020362E-1,5.195273E1,4.48625E5,2E0,3.501892E1,9E0,4.0655974E-1,3.4917E-1,6.8805115E2,5.7866395E-2,3.633286E1,-3.431779E-2,-2.2758003E-3,-5.4635435E-2,-2.5331154E-2,7.4214466E-2,-4.892637E-4,4.650322E-2,-4.9101334E-2,-5.7251216E-3,4.487444E-2,-2.147894E-3,5.738003E-2,5.1568564E-2,-2.0115701E-2,3.8257644E-2,-7.5276874E-2],"split_indices":[12,9,2,3,0,7,10,12,2,8,6,0,7,4,2,0,0,0,0,0,0,0,0,0,0,0,0,0,0,0,0],"split_type":[0,0,0,0,0,0,0,0,0,0,0,0,0,0,0,0,0,0,0,0,0,0,0,0,0,0,0,0,0,0,0],"sum_hessian":[5.6172565E2,3.7593842E2,1.8578723E2,3.597342E2,1.6204212E1,1.1106492E2,7.472231E1,2.876223E2,7.211188E1,1.2425734E1,3.7784781E0,4.9918343E1,6.1146576E1,7.1859E1,2.863313E0,1.0055551E2,1.870668E2,5.2486004E1,1.9625877E1,1.1296256E1,1.1294771E0,1.3242906E0,2.4541876E0,6.365623E0,4.355272E1,4.8704716E1,1.2441858E1,7.028984E1,1.5691597E0,1.5711064E0,1.2922066E0],"tree_param":{"num_deleted":"0","num_feature":"13","num_nodes":"31","size_leaf_vector":"1"}},{"base_weights":[1.1650444E-2,-5.5599954E-2,2.7281278E-1,4.723431E-2,1.0961307E0,-1.241134E-1,6.0890514E-1,2.2247483E-1,5.596549E-2,-3.7441283E-2,1.106988E-3,3.3844195E-2,-6.6604994E-2,2.6719442E-2,-1.4349467E-2],"categories":[],"categories_nodes":[],"categories_segments":[],"categories_sizes":[],"default_left":[0,0,1,0,0,0,0,0,0,0,0,0,0,0,0],"id":31,"left_children":[1,-1,3,5,7,9,11,13,-1,-1,-1,-1,-1,-1,-1],"loss_changes":[1.6508926E2,0E0,8.471948E1,3.465705E1,1.7379227E0,2.5248125E1,1.2006739E1,7.5467056E-1,0E0,0E0,0E0,0E0,0E0,0E0,0E0],"parents":[2147483647,0,0,2,2,3,3,4,4,5,5,6,6,7,7],"right_children":[2,-1,4,6,8,10,12,14,-1,-1,-1,-1,-1,-1,-1],"split_conditions":[2E0,-5.5599954E-2,3E0,3.6166298E1,2.8946987E1,-1.9635106E-2,1.4152963E2,2.8605604E1,5.596549E-2,-3.7441283E-2,1.106988E-3,3.3844195E-2,-6.6604994E-2,2.6719442E-2,-1.4349467E-2],"split_indices":[11,0,11,2,2,4,5,2,0,0,0,0,0,0,0],"split_type":[0,0,0,0,0,0,0,0,0,0,0,0,0,0,0],"sum_hessian":[5.6053735E2,1.0509761E2,4.5543976E2,3.5832162E2,9.711812E1,2.751586E2,8.316302E1,2.7839684E0,9.433415E1,5.141637E1,2.2374223E2,8.097823E1,2.1847832E0,1.6964262E0,1.0875422E0],"tree_param":{"num_deleted":"0","num_feature":"13","num_nodes":"15","size_leaf_vector":"1"}},{"base_weights":[7.4258377E-3,-1.0291759E0,2.8145915E-1,-5.5159796E-2,-4.169271E-1,6.1065596E-2,1.0808712E0,6.237169E-1,-1.1908358E0,1.0101994E0,-1.8210389E-2,3.2770807E-1,5.4932185E-2,-4.7561042E-2,6.078961E-2,-2.6842724E-3,-6.695499E-2,-7.181946E-3,5.8021743E-2,-4.356697E-2,2.1418424E-3,-1.6390432E-2,4.127128E-2],"categories":[],"categories_nodes":[],"categories_segments":[],"categories_sizes":[],"default_left":[1,0,0,0,0,0,0,0,0,0,0,0,0,0,0,0,0,0,0,0,0,0,0],"id":32,"left_children":[1,3,5,-1,7,9,11,13,15,17,19,21,-1,-1,-1,-1,-1,-1,-1,-1,-1,-1,-1],"loss_changes":[1.5735226E2,4.7888794E0,7.711961E1,0E0,1.2098179E1,2.5937946E1,9.064789E-1,7.375985E0,1.3493843E0,4.7728634E0,1.6646194E1,1.4471833E0,0E0,0E0,0E0,0E0,0E0,0E0,0E0,0E0,0E0,0E0,0E0],"parents":[2147483647,0,0,1,1,2,2,4,4,5,5,6,6,7,7,8,8,9,9,10,10,11,11],"right_children":[2,4,6,-1,8,10,12,14,16,18,20,22,-1,-1,-1,-1,-1,-1,-1,-1,-1,-1,-1],"split_conditions":[2E0,2E0,3E0,-5.5159796E-2,6.471406E2,4.3285107E2,2.8946987E1,2.1162752E1,2.0728908E-1,2.7125436E-1,2.879257E1,4.971933E-1,5.4932185E-2,-4.7561042E-2,6.078961E-2,-2.6842724E-3,-6.695499E-2,-7.181946E-3,5.8021743E-2,-4.356697E-2,2.1418424E-3,-1.6390432E-2,4.127128E-2],"split_indices":[11,11,11,0,1,1,2,7,3,6,2,0,0,0,0,0,0,0,0,0,0,0,0],"split_type":[0,0,0,0,0,0,0,0,0,0,0,0,0,0,0,0,0,0,0,0,0,0,0],"sum_hessian":[5.519139E2,1.14820404E2,4.3709348E2,1.0172064E2,1.3099764E1,3.4347552E2,9.361794E1,5.6698346E0,7.4299293E0,2.5571945E1,3.179036E2,2.606307E0,9.1011635E1,1.3833896E0,4.286445E0,1.0141017E0,6.4158273E0,2.9510684E0,2.2620876E1,2.0342733E1,2.9756085E2,1.2721732E0,1.3341339E0],"tree_param":{"num_deleted":"0","num_feature":"13","num_nodes":"23","size_leaf_vector":"1"}},{"base_weights":[7.922638E-3,-5.4708716E-2,2.4656014E-1,2.512098E-2,1.062643E0,-7.1040225E-1,1.477603E-1,3.236545E-1,1.0840768E0,-9.254118E-3,-6.857412E-2,1.2963054E-2,-3.0160561E-2,4.34087E-2,-2.0209467E-2,5.452087E-2,1.675556E-2],"categories":[],"categories_nodes":[],"categories_segments":[],"categories_sizes":[],"default_left":[0,0,1,1,0,0,0,0,0,0,0,0,0,0,0,0,0],"id":33,"left_children":[1,-1,3,5,7,9,11,13,15,-1,-1,-1,-1,-1,-1,-1,-1],"loss_changes":[1.4432806E2,0E0,8.148726E1,3.220151E1,1.1736298E0,1.7465126E1,2.5762142E1,1.9911035E0,7.675934E-2,0E0,0E0,0E0,0E0,0E0,0E0,0E0,0E0],"parents":[2147483647,0,0,2,2,3,3,4,4,5,5,6,6,7,7,8,8],"right_children":[2,-1,4,6,8,10,12,14,16,-1,-1,-1,-1,-1,-1,-1,-1],"split_conditions":[2E0,-5.4708716E-2,3E0,2E0,2.8946987E1,2.7727145E-1,1.04364586E2,6.0777E4,6.49857E5,-9.254118E-3,-6.857412E-2,1.2963054E-2,-3.0160561E-2,4.34087E-2,-2.0209467E-2,5.452087E-2,1.675556E-2],"split_indices":[11,0,11,12,2,3,5,10,10,0,0,0,0,0,0,0,0],"split_type":[0,0,0,0,0,0,0,0,0,0,0,0,0,0,0,0,0],"sum_hessian":[5.467467E2,9.667741E1,4.5006927E2,3.548214E2,9.5247856E1,5.0022335E1,3.047991E2,3.138513E0,9.2109344E1,2.8586426E1,2.143591E1,2.6596466E2,3.8834435E1,1.6850669E0,1.4534463E0,9.0884026E1,1.2253172E0],"tree_param":{"num_deleted":"0","num_feature":"13","num_nodes":"17","size_leaf_vector":"1"}},{"base_weights":[1.3955108E-2,-5.4306444E-2,2.4786624E-1,3.5361547E-2,1.0627906E0,-6.5618646E-1,1.532839E-1,2.875832E-1,1.0821245E0,4.0444102E-2,-4.8988268E-2,1.1565745E-2,-4.652423E-2,3.8811807E-2,-1.6019993E-2,5.4437675E-2,1.7051196E-2],"categories":[],"categories_nodes":[],"categories_segments":[],"categories_sizes":[],"default_left":[0,0,1,1,0,0,0,0,0,0,0,0,0,0,0,0,0],"id":34,"left_children":[1,-1,3,5,7,9,11,13,15,-1,-1,-1,-1,-1,-1,-1,-1],"loss_changes":[1.3690181E2,0E0,7.593236E1,2.85602E1,1.0481796E0,2.498378E1,2.5497438E1,1.309025E0,6.1691284E-2,0E0,0E0,0E0,0E0,0E0,0E0,0E0,0E0],"parents":[2147483647,0,0,2,2,3,3,4,4,5,5,6,6,7,7,8,8],"right_children":[2,-1,4,6,8,10,12,14,16,-1,-1,-1,-1,-1,-1,-1,-1],"split_conditions":[2E0,-5.4306444E-2,3E0,2E0,2.8946987E1,6.141745E1,5.2326286E-1,6.0777E4,6.49857E5,4.0444102E-2,-4.8988268E-2,1.1565745E-2,-4.652423E-2,3.8811807E-2,-1.6019993E-2,5.4437675E-2,1.7051196E-2],"split_indices":[11,0,11,12,2,7,0,10,10,0,0,0,0,0,0,0,0],"split_type":[0,0,0,0,0,0,0,0,0,0,0,0,0,0,0,0,0],"sum_hessian":[5.299793E2,9.229108E1,4.3768823E2,3.479881E2,8.9700134E1,5.0029396E1,2.979587E2,2.5689847E0,8.713115E1,8.779346E0,4.125005E1,2.786804E2,1.9278337E1,1.2708375E0,1.2981472E0,8.589373E1,1.2374156E0],"tree_param":{"num_deleted":"0","num_feature":"13","num_nodes":"17","size_leaf_vector":"1"}},{"base_weights":[-4.455105E-3,-5.3919554E-2,2.1639019E-1,1.7103292E-2,1.0353129E0,1.5933509E-1,-6.1504036E-1,2.1854159E-1,5.3238463E-2,-1.395718E-2,1.4096141E-2,-4.668087E-2,5.0848015E-3,4.7634397E-2,-4.807246E-2],"categories":[],"categories_nodes":[],"categories_segments":[],"categories_sizes":[],"default_left":[0,0,1,0,0,0,1,0,0,0,0,0,0,0,0],"id":35,"left_children":[1,-1,3,5,7,9,11,13,-1,-1,-1,-1,-1,-1,-1],"loss_changes":[1.2514051E2,0E0,7.1407524E1,3.1837563E1,1.8277817E0,1.5611273E1,1.4946894E1,4.588471E0,0E0,0E0,0E0,0E0,0E0,0E0,0E0],"parents":[2147483647,0,0,2,2,3,3,4,4,5,5,6,6,7,7],"right_children":[2,-1,4,6,8,10,12,14,-1,-1,-1,-1,-1,-1,-1],"split_conditions":[2E0,-5.3919554E-2,3E0,3.5505572E-1,2.8946987E1,-1.6825387E-2,3E0,3E0,5.3238463E-2,-1.395718E-2,1.4096141E-2,-4.668087E-2,5.0848015E-3,4.7634397E-2,-4.807246E-2],"split_indices":[11,0,11,3,2,4,12,12,0,0,0,0,0,0,0],"split_type":[0,0,0,0,0,0,0,0,0,0,0,0,0,0,0],"sum_hessian":[5.256484E2,8.8995285E1,4.3665308E2,3.5201117E2,8.464192E1,2.8796683E2,6.404435E1,3.239374E0,8.140255E1,6.2639004E1,2.253278E2,4.4127735E1,1.9916618E1,2.115697E0,1.1236768E0],"tree_param":{"num_deleted":"0","num_feature":"13","num_nodes":"15","size_leaf_vector":"1"}},{"base_weights":[-1.2569416E-4,-5.4784294E-2,2.1678737E-1,1.658224E-2,1.0553046E0,1.06817104E-1,-1.0205824E0,8.076177E-3,5.369254E-2,-5.02645E-4,4.0102117E-2,-5.793173E-2,4.530004E-2],"categories":[],"categories_nodes":[],"categories_segments":[],"categories_sizes":[],"default_left":[0,0,1,0,0,0,0,0,0,0,0,0,0],"id":36,"left_children":[1,-1,3,5,7,9,11,-1,-1,-1,-1,-1,-1],"loss_changes":[1.2279408E2,0E0,7.23909E1,3.2790497E1,1.2043228E0,2.618387E1,8.508659E0,0E0,0E0,0E0,0E0,0E0,0E0],"parents":[2147483647,0,0,2,2,3,3,4,4,5,5,6,6],"right_children":[2,-1,4,6,8,10,12,-1,-1,-1,-1,-1,-1],"split_conditions":[2E0,-5.4784294E-2,3E0,5.2326286E-1,2.8946987E1,1E0,6.7743766E-1,8.076177E-3,5.369254E-2,-5.02645E-4,4.0102117E-2,-5.793173E-2,4.530004E-2],"split_indices":[11,0,11,0,2,8,6,0,0,0,0,0,0],"split_type":[0,0,0,0,0,0,0,0,0,0,0,0,0],"sum_hessian":[5.147207E2,8.439857E1,4.303221E2,3.4820435E2,8.211779E1,3.2115994E2,2.7044382E1,1.866693E0,8.02511E1,2.7578497E2,4.5374966E1,2.560801E1,1.4363726E0],"tree_param":{"num_deleted":"0","num_feature":"13","num_nodes":"13","size_leaf_vector":"1"}},{"base_weights":[1.4083424E-2,-5.4458596E-2,2.263116E-1,4.6603136E-2,1.0241588E0,2.8994444E-1,-2.3330314E-1,2.0439737E-1,1.0562485E0,4.830943E-3,3.435051E-2,-2.64044E-2,1.4273027E-2,4.6538714E-2,-4.713079E-2,5.3192716E-2,1.8126873E-2],"categories":[],"categories_nodes":[],"categories_segments":[],"categories_sizes":[],"default_left":[0,0,1,0,0,0,1,0,0,0,0,0,0,0,0,0,0],"id":37,"left_children":[1,-1,3,5,7,9,11,13,15,-1,-1,-1,-1,-1,-1,-1,-1],"loss_changes":[1.18714676E2,0E0,6.0912724E1,2.3774605E1,1.8389282E0,1.4260228E1,2.4988655E1,4.3620667E0,9.674072E-3,0E0,0E0,0E0,0E0,0E0,0E0,0E0,0E0],"parents":[2147483647,0,0,2,2,3,3,4,4,5,5,6,6,7,7,8,8],"right_children":[2,-1,4,6,8,10,12,14,16,-1,-1,-1,-1,-1,-1,-1,-1],"split_conditions":[2E0,-5.4458596E-2,3E0,2.8838867E-1,2.8946987E1,3.5518147E1,3E0,8.3442E4,6.49857E5,4.830943E-3,3.435051E-2,-2.64044E-2,1.4273027E-2,4.6538714E-2,-4.713079E-2,5.3192716E-2,1.8126873E-2],"split_indices":[11,0,11,3,2,2,12,10,10,0,0,0,0,0,0,0,0],"split_type":[0,0,0,0,0,0,0,0,0,0,0,0,0,0,0,0,0],"sum_hessian":[5.0496765E2,8.080027E1,4.241674E2,3.4705463E2,7.7112755E1,1.8563437E2,1.6142026E2,3.1824958E0,7.393026E1,1.25683975E2,5.9950386E1,1.0291905E2,5.850121E1,2.0639608E0,1.118535E0,7.260069E1,1.3295599E0],"tree_param":{"num_deleted":"0","num_feature":"13","num_nodes":"17","size_leaf_vector":"1"}},{"base_weights":[1.04773445E-2,-5.4173768E-2,2.1076295E-1,4.843234E-2,1.0129007E0,3.5524145E-1,-1.9488148E-1,1.0637422E0,4.6165583E-1,1.205897E-2,4.684257E-2,-3.2900915E-2,1.9439142E-3,1.3416915E-2,5.3677347E-2,4.055695E-2,-2.3321278E-2],"categories":[],"categories_nodes":[],"categories_segments":[],"categories_sizes":[],"default_left":[0,0,1,0,0,0,0,0,0,0,0,0,0,0,0,0,0],"id":38,"left_children":[1,-1,3,5,7,9,11,13,15,-1,-1,-1,-1,-1,-1,-1,-1],"loss_changes":[1.1096893E2,0E0,5.5687798E1,2.672359E1,1.5266571E0,1.0273985E1,2.1654108E1,2.2000885E-1,2.9232337E0,0E0,0E0,0E0,0E0,0E0,0E0,0E0,0E0],"parents":[2147483647,0,0,2,2,3,3,4,4,5,5,6,6,7,7,8,8],"right_children":[2,-1,4,6,8,10,12,14,16,-1,-1,-1,-1,-1,-1,-1,-1],"split_conditions":[2E0,-5.4173768E-2,3E0,6.953172E2,4E0,1E0,4.127806E-1,3.9954E4,8.502833E2,1.205897E-2,4.684257E-2,-3.2900915E-2,1.9439142E-3,1.3416915E-2,5.3677347E-2,4.055695E-2,-2.3321278E-2],"split_indices":[11,0,11,1,11,8,0,10,1,0,0,0,0,0,0,0,0],"split_type":[0,0,0,0,0,0,0,0,0,0,0,0,0,0,0,0,0],"sum_hessian":[5.044271E2,7.737856E1,4.2704852E2,3.5605347E2,7.099505E1,1.572754E2,1.9877808E2,6.414887E1,6.8461757E0,1.3267133E2,2.4604074E1,6.6067276E1,1.327108E2,1.1265506E0,6.3022324E1,5.064911E0,1.7812645E0],"tree_param":{"num_deleted":"0","num_feature":"13","num_nodes":"17","size_leaf_vector":"1"}},{"base_weights":[-7.7826995E-3,-5.2461244E-2,1.7933057E-1,1.3326191E-2,1.0084654E0,-1.7933072E-1,3.9764884E-1,1.8049037E-1,5.1582027E-2,5.224294E-3,-2.6506532E-2,2.940034E-2,-2.9703088E-3,-9.949683E-3,2.3791691E-2],"categories":[],"categories_nodes":[],"categories_segments":[],"categories_sizes":[],"default_left":[0,0,1,1,0,0,0,0,0,0,0,0,0,0,0],"id":39,"left_children":[1,-1,3,5,7,9,11,13,-1,-1,-1,-1,-1,-1,-1],"loss_changes":[9.6308754E1,0E0,5.7656284E1,2.5994232E1,1.1547012E0,2.334262E1,1.0233051E1,4.43785E-1,0E0,0E0,0E0,0E0,0E0,0E0,0E0],"parents":[2147483647,0,0,2,2,3,3,4,4,5,5,6,6,7,7],"right_children":[2,-1,4,6,8,10,12,14,-1,-1,-1,-1,-1,-1,-1],"split_conditions":[2E0,-5.2461244E-2,3E0,3E0,2.8946987E1,2.8838867E-1,1.1805348E-2,4.8490295E-1,5.1582027E-2,5.224294E-3,-2.6506532E-2,2.940034E-2,-2.9703088E-3,-9.949683E-3,2.3791691E-2],"split_indices":[11,0,11,12,2,3,4,6,0,0,0,0,0,0,0],"split_type":[0,0,0,0,0,0,0,0,0,0,0,0,0,0,0],"sum_hessian":[4.9226086E2,7.427132E1,4.1798953E2,3.491091E2,6.8880455E1,2.3289478E2,1.1621432E2,2.1147661E0,6.6765686E1,1.2912646E2,1.0376831E2,8.184171E1,3.4372604E1,1.0683206E0,1.0464456E0],"tree_param":{"num_deleted":"0","num_feature":"13","num_nodes":"15","size_leaf_vector":"1"}},{"base_weights":[2.6143791E-2,-5.2083284E-2,2.0531927E-1,4.7167324E-2,1.0074972E0,-8.8151336E-2,5.0514144E-1,2.906007E-1,1.0352628E0,-1.2341659E-2,2.3660183E-2,4.5515623E-2,1.1058695E-2,4.0200427E-2,-1.8447565E-2,5.2195515E-2,1.5426758E-2],"categories":[],"categories_nodes":[],"categories_segments":[],"categories_sizes":[],"default_left":[0,0,1,0,0,0,0,0,0,0,0,0,0,0,0,0,0],"id":40,"left_children":[1,-1,3,5,7,9,11,13,15,-1,-1,-1,-1,-1,-1,-1,-1],"loss_changes":[9.3956345E1,0E0,5.3286674E1,2.1872076E1,1.0762634E0,2.4410902E1,9.058519E0,1.6409107E0,9.402466E-2,0E0,0E0,0E0,0E0,0E0,0E0,0E0,0E0],"parents":[2147483647,0,0,2,2,3,3,4,4,5,5,6,6,7,7,8,8],"right_children":[2,-1,4,6,8,10,12,14,16,-1,-1,-1,-1,-1,-1,-1,-1],"split_conditions":[2E0,-5.2083284E-2,3E0,3.6166298E1,2.8946987E1,3.88451E5,4.310849E2,6.0777E4,6.49857E5,-1.2341659E-2,2.3660183E-2,4.5515623E-2,1.1058695E-2,4.0200427E-2,-1.8447565E-2,5.2195515E-2,1.5426758E-2],"split_indices":[11,0,11,2,2,10,7,10,10,0,0,0,0,0,0,0,0],"split_type":[0,0,0,0,0,0,0,0,0,0,0,0,0,0,0,0,0],"sum_hessian":[4.8896393E2,6.956608E1,4.1939783E2,3.512137E2,6.818411E1,2.7173196E2,7.948174E1,2.9698608E0,6.521426E1,2.1228445E2,5.944752E1,3.18425E1,4.7639244E1,1.5467886E0,1.4230721E0,6.401607E1,1.1981907E0],"tree_param":{"num_deleted":"0","num_feature":"13","num_nodes":"17","size_leaf_vector":"1"}},{"base_weights":[-2.7207892E-2,-1.9578634E-1,1.0157405E0,-5.182595E-2,-2.7802221E-2,5.279216E-2,6.175385E-1,-2.0250867E-1,3.3244994E-1,4.6633333E-2,-4.351767E-2,-1.3598012E-2,5.521044E-2,1.2113825E-2,6.974149E-2],"categories":[],"categories_nodes":[],"categories_segments":[],"categories_sizes":[],"default_left":[1,0,1,0,1,0,0,0,0,0,0,0,0,0,0],"id":41,"left_children":[1,3,5,-1,7,-1,9,11,13,-1,-1,-1,-1,-1,-1],"loss_changes":[8.469481E1,5.851839E1,4.184265E-1,0E0,2.187824E1,0E0,4.8169436E0,2.1535847E1,1.0540234E1,0E0,0E0,0E0,0E0,0E0,0E0],"parents":[2147483647,0,0,1,1,2,2,4,4,6,6,7,7,8,8],"right_children":[2,4,6,-1,8,-1,10,12,14,-1,-1,-1,-1,-1,-1],"split_conditions":[3E0,2E0,4E0,-5.182595E-2,3E0,5.279216E-2,8.005321E2,1.6E1,9.5947736E2,4.6633333E-2,-4.351767E-2,-1.3598012E-2,5.521044E-2,1.2113825E-2,6.974149E-2],"split_indices":[11,11,12,0,12,0,1,9,1,0,0,0,0,0,0],"split_type":[0,0,0,0,0,0,0,0,0,0,0,0,0,0,0],"sum_hessian":[4.7958588E2,4.1355292E2,6.603294E1,6.800897E1,3.4554398E2,5.8490837E1,7.542106E0,2.329913E2,1.1255266E2,6.531854E0,1.010252E0,2.2198477E2,1.1006536E1,1.0487874E2,7.673923E0],"tree_param":{"num_deleted":"0","num_feature":"13","num_nodes":"15","size_leaf_vector":"1"}},{"base_weights":[7.186311E-3,-5.3131398E-2,1.8037698E-1,2.2970315E-2,9.9664116E-1,9.620259E-2,-8.298975E-1,1.0387472E0,5.710241E-1,6.931553E-3,-6.2248494E-2,-4.8715916E-2,7.387393E-2,5.243174E-2,1.7120082E-2,4.561594E-2,-3.1793706E-2],"categories":[],"categories_nodes":[],"categories_segments":[],"categories_sizes":[],"default_left":[0,0,1,0,1,0,0,0,0,0,0,0,0,0,0,0,0],"id":42,"left_children":[1,-1,3,5,7,9,11,13,15,-1,-1,-1,-1,-1,-1,-1,-1],"loss_changes":[8.792942E1,0E0,5.245218E1,2.152841E1,5.896683E-1,1.8219746E1,1.0523281E1,4.6058655E-2,3.9423444E0,0E0,0E0,0E0,0E0,0E0,0E0,0E0,0E0],"parents":[2147483647,0,0,2,2,3,3,4,4,5,5,6,6,7,7,8,8],"right_children":[2,-1,4,6,8,10,12,14,16,-1,-1,-1,-1,-1,-1,-1,-1],"split_conditions":[2E0,-5.3131398E-2,3E0,5.2326286E-1,4E0,1.888368E2,5.93301E5,6.49857E5,7.6759845E2,6.931553E-3,-6.2248494E-2,-4.8715916E-2,7.387393E-2,5.243174E-2,1.7120082E-2,4.561594E-2,-3.1793706E-2],"split_indices":[11,0,11,0,12,5,10,10,1,0,0,0,0,0,0,0,0],"split_type":[0,0,0,0,0,0,0,0,0,0,0,0,0,0,0,0,0],"sum_hessian":[4.7253668E2,6.512404E1,4.0741263E2,3.4241095E2,6.500166E1,3.1615152E2,2.6259438E1,5.7839104E1,7.162562E0,3.073258E2,8.8257265E0,2.5256355E1,1.0030807E0,5.6530506E1,1.3085978E0,5.773868E0,1.3886933E0],"tree_param":{"num_deleted":"0","num_feature":"13","num_nodes":"17","size_leaf_vector":"1"}},{"base_weights":[-6.0466477E-3,-2.4068828E-1,4.8588207E-1,-6.448842E-1,-7.4633054E-2,3.1551325E-1,7.8103536E-1,1.0244401E-1,-7.83267E-1,-6.303306E-1,1.05413675E-1,6.984332E-1,3.5907652E-2,8.8478225E-1,-1.2188826E0,3.4143634E-2,-4.3616522E-2,-4.3074574E-2,3.1336833E-2,-4.833369E-2,-1.7040229E-3,2.0646932E-2,-2.3240503E-2,4.588483E-2,-3.1047856E-2,-1.24893375E-2,5.59649E-2,4.6184465E-2,-1.7793916E-2,-1.2848549E-2,-8.114957E-2],"categories":[],"categories_nodes":[],"categories_segments":[],"categories_sizes":[],"default_left":[1,1,0,0,0,0,0,0,0,0,0,0,0,0,0,0,0,0,0,0,0,0,0,0,0,0,0,0,0,0,0],"id":43,"left_children":[1,3,5,7,9,11,13,15,17,19,21,23,25,27,29,-1,-1,-1,-1,-1,-1,-1,-1,-1,-1,-1,-1,-1,-1,-1,-1],"loss_changes":[5.4101543E1,2.1250315E1,7.3652306E0,9.622856E0,2.2683235E1,1.0430049E1,1.2432014E1,9.252784E0,9.13998E0,1.1089497E1,3.0281668E1,1.247641E1,1.8074858E1,2.8677788E0,7.9543257E-1,0E0,0E0,0E0,0E0,0E0,0E0,0E0,0E0,0E0,0E0,0E0,0E0,0E0,0E0,0E0,0E0],"parents":[2147483647,0,0,1,1,2,2,3,3,4,4,5,5,6,6,7,7,8,8,9,9,10,10,11,11,12,12,13,13,14,14],"right_children":[2,4,6,8,10,12,14,16,18,20,22,24,26,28,30,-1,-1,-1,-1,-1,-1,-1,-1,-1,-1,-1,-1,-1,-1,-1,-1],"split_conditions":[3E0,2E0,3.622116E1,3.15078E-1,-1.6658965E-2,5.195273E1,4.48625E5,2.7363154E-1,6.07063E5,4.2678986E2,6.688461E-3,8.605817E1,6.8805115E2,5.7866395E-2,3.7147083E1,3.4143634E-2,-4.3616522E-2,-4.3074574E-2,3.1336833E-2,-4.833369E-2,-1.7040229E-3,2.0646932E-2,-2.3240503E-2,4.588483E-2,-3.1047856E-2,-1.24893375E-2,5.59649E-2,4.6184465E-2,-1.7793916E-2,-1.2848549E-2,-8.114957E-2],"split_indices":[12,12,2,6,4,7,10,3,10,7,4,5,7,4,2,0,0,0,0,0,0,0,0,0,0,0,0,0,0,0,0],"split_type":[0,0,0,0,0,0,0,0,0,0,0,0,0,0,0,0,0,0,0,0,0,0,0,0,0,0,0,0,0,0,0],"sum_hessian":[4.666949E2,3.163243E2,1.5037059E2,9.127289E1,2.250514E2,9.665071E1,5.3719883E1,1.4300977E1,7.697192E1,5.4461155E1,1.7059026E2,4.015732E1,5.649339E1,5.1600662E1,2.1192229E0,9.1512985E0,5.1496778E0,7.329467E1,3.677242E0,3.4422348E1,2.0038809E1,1.11002045E2,5.958821E1,3.4695835E1,5.4614844E0,4.531348E1,1.1179909E1,5.0279385E1,1.3212752E0,1.1108738E0,1.0083491E0],"tree_param":{"num_deleted":"0","num_feature":"13","num_nodes":"31","size_leaf_vector":"1"}},{"base_weights":[4.1472524E-2,-1.8298268E-1,5.2796906E-1,-2.3911999E-1,9.015673E-1,8.984335E-1,3.7236953E-1,-1.5600194E-1,-1.0676577E0,-3.8332157E-2,7.7808656E-2,9.777177E-1,4.7388193E-1,2.7049553E-1,9.6929955E-1,3.022807E-4,-2.6698822E-2,-5.6136455E-2,6.3521303E-3,5.0246317E-2,-4.9496338E-2,8.6028045E-3,5.118695E-2,5.206015E-4,4.458175E-2,1.6881917E-2,-6.853243E-2,-2.169927E-2,5.6034308E-2],"categories":[],"categories_nodes":[],"categories_segments":[],"categories_sizes":[],"default_left":[1,0,0,0,0,0,0,0,0,0,0,0,0,0,0,0,0,0,0,0,0,0,0,0,0,0,0,0,0],"id":44,"left_children":[1,3,5,7,9,11,13,15,17,19,-1,21,23,25,27,-1,-1,-1,-1,-1,-1,-1,-1,-1,-1,-1,-1,-1,-1],"loss_changes":[5.0809357E1,1.9609354E1,8.132145E0,2.0744867E1,9.83374E0,9.751816E-1,6.13171E0,1.69779E1,1.9528599E0,8.438295E0,0E0,1.1241875E0,1.668504E0,1.051239E1,3.6603975E0,0E0,0E0,0E0,0E0,0E0,0E0,0E0,0E0,0E0,0E0,0E0,0E0,0E0,0E0],"parents":[2147483647,0,0,1,1,2,2,3,3,4,4,5,5,6,6,7,7,8,8,9,9,11,11,12,12,13,13,14,14],"right_children":[2,4,6,8,10,12,14,16,18,20,-1,22,24,26,28,-1,-1,-1,-1,-1,-1,-1,-1,-1,-1,-1,-1,-1,-1],"split_conditions":[3E0,1.3E1,5.1426965E2,6.7123353E-1,2.685687E-1,4.136908E2,6.8805115E2,6.688461E-3,4E0,3.8268727E-1,7.7808656E-2,1.7231643E0,4.5580148E2,6.7236566E2,2.1420068E-1,3.022807E-4,-2.6698822E-2,-5.6136455E-2,6.3521303E-3,5.0246317E-2,-4.9496338E-2,8.6028045E-3,5.118695E-2,5.206015E-4,4.458175E-2,1.6881917E-2,-6.853243E-2,-2.169927E-2,5.6034308E-2],"split_indices":[12,9,1,3,3,7,7,4,9,6,0,7,7,7,3,0,0,0,0,0,0,0,0,0,0,0,0,0,0],"split_type":[0,0,0,0,0,0,0,0,0,0,0,0,0,0,0,0,0,0,0,0,0,0,0,0,0,0,0,0,0],"sum_hessian":[4.634166E2,3.1753784E2,1.4587877E2,3.0265182E2,1.4886019E1,4.173605E1,1.04142715E2,2.761382E2,2.651362E1,6.497782E0,8.388237E0,3.4070503E1,7.6655445E0,9.0201744E1,1.3940972E1,1.9396454E2,8.217367E1,2.5402882E1,1.1107385E0,3.0728693E0,3.424913E0,2.0970776E0,3.1973427E1,4.1198077E0,3.5457363E0,8.741949E1,2.7822547E0,1.1757319E0,1.2765241E1],"tree_param":{"num_deleted":"0","num_feature":"13","num_nodes":"29","size_leaf_vector":"1"}},{"base_weights":[4.212914E-2,-5.1006254E-2,2.0519423E-1,7.255214E-2,9.760224E-1,1.3463588E-1,-6.661551E-1,1.0380328E0,4.196115E-1,-5.5665094E-3,1.7234433E-2,-4.331872E-2,6.128558E-2,5.246691E-2,1.6510261E-2,4.4280767E-2,-4.1915916E-2],"categories":[],"categories_nodes":[],"categories_segments":[],"categories_sizes":[],"default_left":[0,0,1,0,1,0,0,0,0,0,0,0,0,0,0,0,0],"id":45,"left_children":[1,-1,3,5,7,9,11,13,15,-1,-1,-1,-1,-1,-1,-1,-1],"loss_changes":[7.980756E1,0E0,4.074598E1,1.5759693E1,1.5838737E0,1.6365902E1,1.1159607E1,6.9480896E-2,5.166686E0,0E0,0E0,0E0,0E0,0E0,0E0,0E0,0E0],"parents":[2147483647,0,0,2,2,3,3,4,4,5,5,6,6,7,7,8,8],"right_children":[2,-1,4,6,8,10,12,14,16,-1,-1,-1,-1,-1,-1,-1,-1],"split_conditions":[2E0,-5.1006254E-2,3E0,5.2326286E-1,4E0,-4.11417E-3,6.7743766E-1,6.49857E5,7.6759845E2,-5.5665094E-3,1.7234433E-2,-4.331872E-2,6.128558E-2,5.246691E-2,1.6510261E-2,4.4280767E-2,-4.1915916E-2],"split_indices":[11,0,11,0,12,4,6,10,1,0,0,0,0,0,0,0,0],"split_type":[0,0,0,0,0,0,0,0,0,0,0,0,0,0,0,0,0],"sum_hessian":[4.5853018E2,6.032159E1,3.982086E2,3.4067947E2,5.7529114E1,3.150216E2,2.5657862E1,5.0981762E1,6.5473514E0,1.453227E2,1.6969891E2,2.3692501E1,1.9653615E0,4.9705387E1,1.2763741E0,4.993477E0,1.5538746E0],"tree_param":{"num_deleted":"0","num_feature":"13","num_nodes":"17","size_leaf_vector":"1"}},{"base_weights":[1.2378953E-2,-5.0709136E-2,1.646737E-1,2.6779657E-2,9.6485317E-1,1.8554239E-1,-4.496582E-1,1.0209972E0,4.9513295E-1,-5.209645E-3,1.9067531E-2,-3.5379358E-2,1.8994948E-2,5.218771E-2,2.1152293E-2,4.088437E-2,-3.662148E-2],"categories":[],"categories_nodes":[],"categories_segments":[],"categories_sizes":[],"default_left":[0,0,1,0,1,0,0,0,0,0,0,0,0,0,0,0,0],"id":46,"left_children":[1,-1,3,5,7,9,11,13,15,-1,-1,-1,-1,-1,-1,-1,-1],"loss_changes":[7.097646E1,0E0,4.3588028E1,2.5664574E1,1.0260162E0,1.4470958E1,1.8417583E1,2.5151443E-1,3.8227358E0,0E0,0E0,0E0,0E0,0E0,0E0,0E0,0E0],"parents":[2147483647,0,0,2,2,3,3,4,4,5,5,6,6,7,7,8,8],"right_children":[2,-1,4,6,8,10,12,14,16,-1,-1,-1,-1,-1,-1,-1,-1],"split_conditions":[2E0,-5.0709136E-2,3E0,3.2773775E-1,4E0,2.8976144E2,5.93301E5,4.7662166E-1,5.8608057E2,-5.209645E-3,1.9067531E-2,-3.5379358E-2,1.8994948E-2,5.218771E-2,2.1152293E-2,4.088437E-2,-3.662148E-2],"split_indices":[11,0,11,3,12,7,10,3,7,0,0,0,0,0,0,0,0],"split_type":[0,0,0,0,0,0,0,0,0,0,0,0,0,0,0,0,0],"sum_hessian":[4.519198E2,5.765174E1,3.9426807E2,3.3719336E2,5.707469E1,2.5337285E2,8.382052E1,4.9932777E1,7.141914E0,1.0236797E2,1.5100487E2,6.405221E1,1.9768314E1,4.7383873E1,2.548905E0,5.920212E0,1.2217017E0],"tree_param":{"num_deleted":"0","num_feature":"13","num_nodes":"17","size_leaf_vector":"1"}},{"base_weights":[3.4253185E-3,-2.1151273E-1,4.539068E-1,-2.800676E-1,8.375255E-1,9.010544E-1,3.3778504E-1,-1.9319525E-1,-1.0716449E0,1.3297466E0,-3.7805048E-1,9.5882195E-1,-1.600882E-2,3.8026896E-1,-6.626427E-1,-2.9111678E-2,-2.0240257E-3,-2.7785564E-2,-5.9482336E-2,2.0250345E-2,7.0286274E-2,-4.364206E-2,2.4382463E-2,5.4296763E-3,5.019203E-2,1.2840963E-2,4.170943E-2,1.3409528E-2,-4.8913013E-2],"categories":[],"categories_nodes":[],"categories_segments":[],"categories_sizes":[],"default_left":[1,0,0,0,0,0,0,1,0,0,0,0,0,0,0,0,0,0,0,0,0,0,0,0,0,0,0,0,0],"id":47,"left_children":[1,3,5,7,9,11,13,15,17,19,21,23,-1,25,27,-1,-1,-1,-1,-1,-1,-1,-1,-1,-1,-1,-1,-1,-1],"loss_changes":[4.29597E1,2.1836754E1,7.1368847E0,1.923328E1,1.167731E1,2.3489895E0,5.155306E0,1.5183764E1,1.0275745E0,3.8022614E-1,3.064858E0,9.5843124E-1,0E0,6.0227394E0,1.7501535E0,0E0,0E0,0E0,0E0,0E0,0E0,0E0,0E0,0E0,0E0,0E0,0E0,0E0,0E0],"parents":[2147483647,0,0,1,1,2,2,3,3,4,4,5,5,6,6,7,7,8,8,9,9,10,10,11,11,13,13,14,14],"right_children":[2,4,6,8,10,12,14,16,18,20,22,24,-1,26,28,-1,-1,-1,-1,-1,-1,-1,-1,-1,-1,-1,-1,-1,-1],"split_conditions":[3E0,7E0,4.7270697E2,6.7123353E-1,4.647823E-1,4.7662166E-1,5.3412366E-1,2E0,1.3878313E2,-2.0706229E-2,2.685687E-1,3.474909E1,-1.600882E-2,4.647823E-1,1.40991E5,-2.9111678E-2,-2.0240257E-3,-2.7785564E-2,-5.9482336E-2,2.0250345E-2,7.0286274E-2,-4.364206E-2,2.4382463E-2,5.4296763E-3,5.019203E-2,1.2840963E-2,4.170943E-2,1.3409528E-2,-4.8913013E-2],"split_indices":[12,9,1,3,0,3,0,12,7,4,3,2,0,0,10,0,0,0,0,0,0,0,0,0,0,0,0,0,0],"split_type":[0,0,0,0,0,0,0,0,0,0,0,0,0,0,0,0,0,0,0,0,0,0,0,0,0,0,0,0,0],"sum_hessian":[4.4168967E2,2.9937802E2,1.4231163E2,2.8170178E2,1.7676247E1,2.7944971E1,1.1436666E2,2.5496454E2,2.6737242E1,1.2514749E1,5.161499E0,2.6887968E1,1.0570025E0,1.1030248E2,4.064185E0,7.107912E1,1.8388542E2,6.039664E0,2.0697577E1,1.4308146E0,1.1083934E1,3.2790873E0,1.8824117E0,1.5236825E0,2.5364286E1,8.794925E1,2.2353231E1,1.067154E0,2.997031E0],"tree_param":{"num_deleted":"0","num_feature":"13","num_nodes":"29","size_leaf_vector":"1"}},{"base_weights":[1.9214695E-2,-5.2241772E-2,1.6872787E-1,3.9935946E-2,9.5038164E-1,7.8035283E-1,-3.7856597E-2,7.164713E-2,9.867418E-1,-1.3895984E-3,5.07163E-2,9.4414465E-3,-1.4313553E-2,6.4681964E-3,-1.2255934E-3,4.9850736E-2,1.2552555E-2],"categories":[],"categories_nodes":[],"categories_segments":[],"categories_sizes":[],"default_left":[0,0,1,0,0,0,0,0,0,0,0,0,0,0,0,0,0],"id":48,"left_children":[1,-1,3,5,7,9,11,13,15,-1,-1,-1,-1,-1,-1,-1,-1],"loss_changes":[7.116833E1,0E0,3.9437344E1,1.9480522E1,1.7002106E0,6.107876E0,1.7316133E1,2.1378107E-2,1.5135574E-1,0E0,0E0,0E0,0E0,0E0,0E0,0E0,0E0],"parents":[2147483647,0,0,2,2,3,3,4,4,5,5,6,6,7,7,8,8],"right_children":[2,-1,4,6,8,10,12,14,16,-1,-1,-1,-1,-1,-1,-1,-1],"split_conditions":[2E0,-5.2241772E-2,3E0,4.51533E2,2.8946987E1,3.633286E1,2.892176E-1,2.382358E-1,6.49857E5,-1.3895984E-3,5.07163E-2,9.4414465E-3,-1.4313553E-2,6.4681964E-3,-1.2255934E-3,4.9850736E-2,1.2552555E-2],"split_indices":[11,0,11,1,2,2,3,3,10,0,0,0,0,0,0,0,0],"split_type":[0,0,0,0,0,0,0,0,0,0,0,0,0,0,0,0,0],"sum_hessian":[4.4523953E2,5.4116547E1,3.91123E2,3.3669702E2,5.4425976E1,3.1153341E1,3.0554367E2,2.2805758E0,5.21454E1,7.192301E0,2.396104E1,1.5988435E2,1.4565932E2,1.2093711E0,1.0712047E0,5.107697E1,1.0684317E0],"tree_param":{"num_deleted":"0","num_feature":"13","num_nodes":"17","size_leaf_vector":"1"}},{"base_weights":[1.6283649E-3,-1.8551795E-1,4.144426E-1,-5.5309415E-1,-4.61598E-2,4.4382897E-1,-6.391206E-2,5.6150687E-1,-6.4825016E-1,-7.834049E-1,6.970019E-2,9.510056E-1,3.24341E-1,-1.2870356E-2,3.7196696E-2,-3.684294E-2,2.0007785E-2,-5.2961495E-2,-6.2176357E-3,1.3968128E-2,-2.1667069E-2,2.658843E-2,5.146068E-2,2.460368E-2,1.7765766E-3],"categories":[],"categories_nodes":[],"categories_segments":[],"categories_sizes":[],"default_left":[1,1,0,0,0,0,0,0,0,0,0,0,0,0,0,0,0,0,0,0,0,0,0,0,0],"id":49,"left_children":[1,3,5,7,9,11,-1,13,15,17,19,21,23,-1,-1,-1,-1,-1,-1,-1,-1,-1,-1,-1,-1],"loss_changes":[3.3996456E1,1.54846945E1,7.3950176E0,9.1825905E0,1.890117E1,7.9129086E0,0E0,1.248579E0,7.4545326E0,5.330305E0,2.0328306E1,2.8384972E-1,5.3748236E0,0E0,0E0,0E0,0E0,0E0,0E0,0E0,0E0,0E0,0E0,0E0,0E0],"parents":[2147483647,0,0,1,1,2,2,3,3,4,4,5,5,7,7,8,8,9,9,10,10,11,11,12,12],"right_children":[2,4,6,8,10,12,-1,14,16,18,20,22,24,-1,-1,-1,-1,-1,-1,-1,-1,-1,-1,-1,-1],"split_conditions":[3E0,2E0,7.0822E5,7.50053E-2,-2.4891222E-2,4.7270697E2,-6.391206E-2,3.442151E1,3.677514E1,3.39287E5,6.688461E-3,-1.7029094E-2,3.048132E-1,-1.2870356E-2,3.7196696E-2,-3.684294E-2,2.0007785E-2,-5.2961495E-2,-6.2176357E-3,1.3968128E-2,-2.1667069E-2,2.658843E-2,5.146068E-2,2.460368E-2,1.7765766E-3],"split_indices":[12,12,10,3,4,1,0,2,2,10,4,4,3,0,0,0,0,0,0,0,0,0,0,0,0],"split_type":[0,0,0,0,0,0,0,0,0,0,0,0,0,0,0,0,0,0,0,0,0,0,0,0,0],"sum_hessian":[4.380504E2,3.0178775E2,1.3626266E2,8.214642E1,2.1964131E2,1.3466261E2,1.6000575E0,6.075911E0,7.607051E1,2.9046944E1,1.9059438E2,2.4349619E1,1.1031299E2,1.0320466E0,5.0438643E0,7.0416275E1,5.6542363E0,2.0048918E1,8.998027E0,1.348394E2,5.5754974E1,5.05445E0,1.929517E1,6.9339005E1,4.0973988E1],"tree_param":{"num_deleted":"0","num_feature":"13","num_nodes":"25","size_leaf_vector":"1"}},{"base_weights":[-9.616046E-3,-5.1976092E-2,1.2854013E-1,-2.0223304E-3,9.5709705E-1,3.4063938E-1,-1.2515914E-1,1.5723518E-1,4.9652133E-2,-5.884799E-2,2.2046931E-2,-2.3045847E-2,6.46675E-3,3.3380654E-2,-1.7700577E-2],"categories":[],"categories_nodes":[],"categories_segments":[],"categories_sizes":[],"default_left":[0,0,1,0,0,0,0,0,0,0,0,0,0,0,0],"id":50,"left_children":[1,-1,3,5,7,9,11,13,-1,-1,-1,-1,-1,-1,-1],"loss_changes":[6.24884E1,0E0,4.1898014E1,1.4201527E1,1.3597069E0,1.4062556E1,2.121553E1,1.1379985E0,0E0,0E0,0E0,0E0,0E0,0E0,0E0],"parents":[2147483647,0,0,2,2,3,3,4,4,5,5,6,6,7,7],"right_children":[2,-1,4,6,8,10,12,14,-1,-1,-1,-1,-1,-1,-1],"split_conditions":[2E0,-5.1976092E-2,3E0,5.940596E2,2.8946987E1,2.0329243E-1,-4.11417E-3,6.0777E4,4.9652133E-2,-5.884799E-2,2.2046931E-2,-2.3045847E-2,6.46675E-3,3.3380654E-2,-1.7700577E-2],"split_indices":[11,0,11,1,2,3,4,10,0,0,0,0,0,0,0],"split_type":[0,0,0,0,0,0,0,0,0,0,0,0,0,0,0],"sum_hessian":[4.3722986E2,5.0943054E1,3.862868E2,3.3456433E2,5.172247E1,8.797727E1,2.4658707E2,2.4555602E0,4.926691E1,4.7885528E0,8.318872E1,1.0596923E2,1.4061784E2,1.0757678E0,1.3797925E0],"tree_param":{"num_deleted":"0","num_feature":"13","num_nodes":"15","size_leaf_vector":"1"}},{"base_weights":[1.9958943E-2,-9.923787E-1,1.5208668E-1,-5.874863E-1,-5.1646974E-2,3.146949E-2,9.830311E-1,-4.343037E-2,2.0240085E-2,9.337352E-2,-8.209157E-1,6.89345E-3,1.0037279E0,7.4930224E-3,-2.844288E-2,6.4035125E-2,-4.896004E-2,5.079431E-2,1.2295932E-2],"categories":[],"categories_nodes":[],"categories_segments":[],"categories_sizes":[],"default_left":[0,0,1,0,0,0,0,0,0,0,0,0,0,0,0,0,0,0,0],"id":51,"left_children":[1,3,5,7,-1,9,11,-1,-1,13,15,-1,17,-1,-1,-1,-1,-1,-1],"loss_changes":[5.7306812E1,2.0551682E-1,3.793907E1,2.2548883E0,0E0,1.7587349E1,7.010269E-1,0E0,0E0,1.1692168E1,8.762464E0,0E0,1.8028641E-1,0E0,0E0,0E0,0E0,0E0,0E0],"parents":[2147483647,0,0,1,1,2,2,3,3,5,5,6,6,9,9,10,10,12,12],"right_children":[2,4,6,8,-1,10,12,-1,-1,14,16,-1,18,-1,-1,-1,-1,-1,-1],"split_conditions":[2E0,-7.8181145E1,3E0,-8.474955E1,-5.1646974E-2,1.5582526E2,-4.9694855E-2,-4.343037E-2,2.0240085E-2,5.2326286E-1,1.1821144E-1,6.89345E-3,6.21981E5,7.4930224E-3,-2.844288E-2,6.4035125E-2,-4.896004E-2,5.079431E-2,1.2295932E-2],"split_indices":[11,5,11,5,0,5,4,0,0,0,3,0,10,0,0,0,0,0,0],"split_type":[0,0,0,0,0,0,0,0,0,0,0,0,0,0,0,0,0,0,0],"sum_hessian":[4.2630853E2,4.846536E1,3.7784317E2,5.8229213E0,4.264244E1,3.308552E2,4.6987988E1,4.634564E0,1.1883571E0,3.0928406E2,2.1571138E1,1.3062947E0,4.5681694E1,2.856891E2,2.3594975E1,1.0141907E0,2.0556948E1,4.4625168E1,1.056527E0],"tree_param":{"num_deleted":"0","num_feature":"13","num_nodes":"19","size_leaf_vector":"1"}},{"base_weights":[2.9023275E-2,-5.205015E-1,1.4921197E-1,2.8595522E-1,-7.200541E-1,2.0315273E-2,5.487038E-1,4.4455536E-2,7.263269E-2,2.6419482E-1,-9.1277206E-1,-5.268435E-1,1.5008639E-1,6.234002E-1,-7.358394E-1,2.8509617E-2,-4.0053323E-2,-3.9832994E-2,6.173521E-2,-5.1555295E-2,8.282202E-3,-6.2255426E-3,-4.4750907E-2,1.8740185E-2,-1.9658394E-2,3.4759652E-2,-1.5490994E-2,-6.0464628E-2,1.1936364E-2],"categories":[],"categories_nodes":[],"categories_segments":[],"categories_sizes":[],"default_left":[1,0,0,0,0,0,0,0,0,0,0,0,0,0,0,0,0,0,0,0,0,0,0,0,0,0,0,0,0],"id":52,"left_children":[1,3,5,7,9,11,13,15,-1,17,19,21,23,25,27,-1,-1,-1,-1,-1,-1,-1,-1,-1,-1,-1,-1,-1,-1],"loss_changes":[2.85692E1,1.2700607E1,1.8255775E1,4.4763746E0,1.2100822E1,1.9196959E1,8.758373E0,6.8508515E0,0E0,1.2322552E1,6.8718376E0,7.5671844E0,2.6810308E1,5.7284775E0,2.69364E0,0E0,0E0,0E0,0E0,0E0,0E0,0E0,0E0,0E0,0E0,0E0,0E0,0E0,0E0],"parents":[2147483647,0,0,1,1,2,2,3,3,4,4,5,5,6,6,7,7,9,9,10,10,11,11,12,12,13,13,14,14],"right_children":[2,4,6,8,10,12,14,16,-1,18,20,22,24,26,28,-1,-1,-1,-1,-1,-1,-1,-1,-1,-1,-1,-1,-1,-1],"split_conditions":[2E0,6.141745E1,3.6166298E1,1.8236484E2,6.102854E2,-1.9819599E-2,4.255756E-1,-2.8142033E1,7.263269E-2,9.3282585E1,6.093742E-1,2.826331E-1,1.1805348E-2,6.643652E2,8.1526275E5,2.8509617E-2,-4.0053323E-2,-3.9832994E-2,6.173521E-2,-5.1555295E-2,8.282202E-3,-6.2255426E-3,-4.4750907E-2,1.8740185E-2,-1.9658394E-2,3.4759652E-2,-1.5490994E-2,-6.0464628E-2,1.1936364E-2],"split_indices":[12,7,2,5,1,4,3,5,0,5,6,3,4,7,10,0,0,0,0,0,0,0,0,0,0,0,0,0,0],"split_type":[0,0,0,0,0,0,0,0,0,0,0,0,0,0,0,0,0,0,0,0,0,0,0,0,0,0,0,0,0],"sum_hessian":[4.303849E2,7.6640366E1,3.5374454E2,1.5116537E1,6.1523827E1,2.682455E2,8.549901E1,1.3384192E1,1.7323449E0,1.0013256E1,5.151057E1,5.0837536E1,2.1740799E2,8.128686E1,4.2121563E0,8.453517E0,4.930676E0,4.8695397E0,5.1437163E0,4.645677E1,5.0537987E0,2.4931335E1,2.5906202E1,1.5401126E2,6.339673E1,7.5716995E1,5.5698624E0,2.6728237E0,1.5393326E0],"tree_param":{"num_deleted":"0","num_feature":"13","num_nodes":"29","size_leaf_vector":"1"}},{"base_weights":[-2.0730127E-2,-1.4286241E-1,9.261767E-1,-9.8393977E-1,-2.4128644E-2,9.985958E-1,3.464016E-1,-5.8540785E-1,-5.1362168E-2,-5.972507E-1,4.920766E-2,5.059266E-2,1.47038745E-2,-3.5574194E-2,4.209773E-2,-4.336248E-2,2.1585086E-2,-4.754133E-2,2.2881897E-2,8.922044E-3,-1.4860161E-2],"categories":[],"categories_nodes":[],"categories_segments":[],"categories_sizes":[],"default_left":[1,0,1,0,0,0,0,0,0,1,0,0,0,0,0,0,0,0,0,0,0],"id":53,"left_children":[1,3,5,7,9,11,13,15,-1,17,19,-1,-1,-1,-1,-1,-1,-1,-1,-1,-1],"loss_changes":[4.8443344E1,3.701431E1,1.6635094E0,1.9000626E-1,1.3732588E1,9.484863E-2,4.1876082E0,2.329193E0,0E0,1.4258584E1,1.3034208E1,0E0,0E0,0E0,0E0,0E0,0E0,0E0,0E0,0E0,0E0],"parents":[2147483647,0,0,1,1,2,2,3,3,4,4,5,5,6,6,7,7,9,9,10,10],"right_children":[2,4,6,8,10,12,14,16,-1,18,20,-1,-1,-1,-1,-1,-1,-1,-1,-1,-1],"split_conditions":[3E0,2E0,4E0,-7.8181145E1,-2.6162744E-2,6.49857E5,3.0704346E1,-8.474955E1,-5.1362168E-2,3E0,1.0848217E-2,5.059266E-2,1.47038745E-2,-3.5574194E-2,4.209773E-2,-4.336248E-2,2.1585086E-2,-4.754133E-2,2.2881897E-2,8.922044E-3,-1.4860161E-2],"split_indices":[11,11,12,5,4,10,2,5,0,12,4,0,0,0,0,0,0,0,0,0,0],"split_type":[0,0,0,0,0,0,0,0,0,0,0,0,0,0,0,0,0,0,0,0,0],"sum_hessian":[4.1674243E2,3.6988385E2,4.6858585E1,4.4855175E1,3.250287E2,4.101328E1,5.8453054E0,5.819136E0,3.9036037E1,3.6061855E1,2.8896683E2,3.9827576E1,1.1857009E0,1.7256736E0,4.1196322E0,4.671891E0,1.1472449E0,2.70829E1,8.978955E0,2.1080725E2,7.815958E1],"tree_param":{"num_deleted":"0","num_feature":"13","num_nodes":"21","size_leaf_vector":"1"}},{"base_weights":[-1.2337667E-2,-9.78868E-1,1.0255611E-1,-5.587452E-1,-5.1179506E-2,-1.2367412E-2,9.3379486E-1,-4.2908326E-2,2.6663868E-2,2.524369E-1,-2.2568424E-1,3.8708035E-2,9.855496E-1,4.9587272E-2,8.782776E-3,-3.309829E-2,-1.4121698E-3,3.8609147E-2,-4.2242672E-2,4.992735E-2,1.3924864E-2],"categories":[],"categories_nodes":[],"categories_segments":[],"categories_sizes":[],"default_left":[0,0,1,0,0,0,0,0,0,0,0,0,0,0,0,0,0,0,0,0,0],"id":54,"left_children":[1,3,5,7,-1,9,11,-1,-1,13,15,17,19,-1,-1,-1,-1,-1,-1,-1,-1],"loss_changes":[4.635072E1,2.612419E-1,3.5657623E1,2.5725985E0,0E0,1.8630434E1,2.0620575E0,0E0,0E0,8.180029E0,1.571356E1,2.9329288E0,1.1538696E-1,0E0,0E0,0E0,0E0,0E0,0E0,0E0,0E0],"parents":[2147483647,0,0,1,1,2,2,3,3,5,5,6,6,9,9,10,10,11,11,12,12],"right_children":[2,4,6,8,-1,10,12,-1,-1,14,16,18,20,-1,-1,-1,-1,-1,-1,-1,-1],"split_conditions":[2E0,-7.8181145E1,3E0,-8.3162186E1,-5.1179506E-2,7.035191E2,2.8946987E1,-4.2908326E-2,2.6663868E-2,3.8662766E2,4.090952E-1,8.3442E4,6.07063E5,4.9587272E-2,8.782776E-3,-3.309829E-2,-1.4121698E-3,3.8609147E-2,-4.2242672E-2,4.992735E-2,1.3924864E-2],"split_indices":[11,5,11,5,0,1,2,0,0,1,0,10,10,0,0,0,0,0,0,0,0],"split_type":[0,0,0,0,0,0,0,0,0,0,0,0,0,0,0,0,0,0,0,0,0],"sum_hessian":[4.154883E2,4.3343815E1,3.721445E2,5.4682584E0,3.7875557E1,3.2780826E2,4.433625E1,4.459625E0,1.0086337E0,1.4617195E2,1.816363E2,2.5189824E0,4.181727E1,1.2631355E1,1.3354059E2,5.5857105E1,1.257792E2,1.4452701E0,1.0737123E0,4.0657616E1,1.1596508E0],"tree_param":{"num_deleted":"0","num_feature":"13","num_nodes":"21","size_leaf_vector":"1"}},{"base_weights":[-2.3042252E-2,-9.7269547E-1,8.646695E-2,-5.40101E-1,-5.098511E-2,-2.3978433E-2,9.066036E-1,-4.2173762E-2,2.2167403E-2,7.849072E-1,-8.684972E-2,9.848075E-1,2.0556608E-1,1.5768979E-3,5.054604E-2,-1.0670673E-2,1.8117115E-2,4.9957827E-2,1.159372E-2,3.971156E-2,-4.518796E-2],"categories":[],"categories_nodes":[],"categories_segments":[],"categories_sizes":[],"default_left":[0,0,1,0,0,0,1,0,0,0,0,0,0,0,0,0,0,0,0,0,0],"id":55,"left_children":[1,3,5,7,-1,9,11,-1,-1,13,15,17,19,-1,-1,-1,-1,-1,-1,-1,-1],"loss_changes":[4.236941E1,3.0579758E-1,3.3127438E1,2.2400227E0,0E0,1.6498697E1,2.1770744E0,0E0,0E0,3.95253E0,1.717148E1,1.8733215E-1,4.387567E0,0E0,0E0,0E0,0E0,0E0,0E0,0E0,0E0],"parents":[2147483647,0,0,1,1,2,2,3,3,5,5,6,6,9,9,10,10,11,11,12,12],"right_children":[2,4,6,8,-1,10,12,-1,-1,14,16,18,20,-1,-1,-1,-1,-1,-1,-1,-1],"split_conditions":[2E0,-7.8181145E1,3E0,-8.474955E1,-5.098511E-2,4.3285107E2,4E0,-4.2173762E-2,2.2167403E-2,2.2076494E-1,3.88451E5,6.49857E5,7.6759845E2,1.5768979E-3,5.054604E-2,-1.0670673E-2,1.8117115E-2,4.9957827E-2,1.159372E-2,3.971156E-2,-4.518796E-2],"split_indices":[11,5,11,5,0,1,12,0,0,3,10,10,1,0,0,0,0,0,0,0,0],"split_type":[0,0,0,0,0,0,0,0,0,0,0,0,0,0,0,0,0,0,0,0,0],"sum_hessian":[4.0560605E2,4.112156E1,3.644845E2,5.254567E0,3.586699E1,3.2208148E2,4.2403004E1,4.1245546E0,1.1300125E0,2.2400328E1,2.9968115E2,3.7783318E1,4.619686E0,5.4323273E0,1.6968E1,2.3421417E2,6.546699E1,3.675582E1,1.0274956E0,3.2036865E0,1.4159997E0],"tree_param":{"num_deleted":"0","num_feature":"13","num_nodes":"21","size_leaf_vector":"1"}},{"base_weights":[1.4045156E-3,-9.679495E-1,1.0679133E-1,-5.2561176E-1,-5.0821662E-2,7.7075185E-3,9.09244E-1,2.5717346E-2,-4.201972E-2,2.188525E-1,-2.3763563E-1,9.931995E-1,2.2665454E-1,1.8618893E-2,-9.449379E-3,5.5399604E-2,-1.5220085E-2,5.124497E-2,2.2372266E-2,4.0054068E-2,-4.4225298E-2],"categories":[],"categories_nodes":[],"categories_segments":[],"categories_sizes":[],"default_left":[0,0,1,0,0,0,1,0,0,0,0,0,0,0,0,0,0,0,0,0,0],"id":56,"left_children":[1,3,5,7,-1,9,11,-1,-1,13,15,17,19,-1,-1,-1,-1,-1,-1,-1,-1],"loss_changes":[4.2306767E1,3.366623E-1,2.969104E1,2.4233596E0,0E0,1.732677E1,2.1269264E0,0E0,0E0,1.1325009E1,1.4237991E1,1.6857529E-1,4.404751E0,0E0,0E0,0E0,0E0,0E0,0E0,0E0,0E0],"parents":[2147483647,0,0,1,1,2,2,3,3,5,5,6,6,9,9,10,10,11,11,12,12],"right_children":[2,4,6,8,-1,10,12,-1,-1,14,16,18,20,-1,-1,-1,-1,-1,-1,-1,-1],"split_conditions":[2E0,-7.8181145E1,3E0,5.704262E2,-5.0821662E-2,2.892176E-1,4E0,2.5717346E-2,-4.201972E-2,8.502833E2,4.282501E2,4.7662166E-1,7.6759845E2,1.8618893E-2,-9.449379E-3,5.5399604E-2,-1.5220085E-2,5.124497E-2,2.2372266E-2,4.0054068E-2,-4.4225298E-2],"split_indices":[11,5,11,1,0,3,12,0,0,1,1,3,1,0,0,0,0,0,0,0,0],"split_type":[0,0,0,0,0,0,0,0,0,0,0,0,0,0,0,0,0,0,0,0,0],"sum_hessian":[4.1212234E2,3.960927E1,3.725131E2,5.0822935E0,3.4526974E1,3.324705E2,4.004259E1,1.0335948E0,4.048699E0,1.7874692E2,1.5372357E2,3.525173E1,4.790856E0,1.2992538E2,4.882153E1,6.529547E0,1.4719403E2,3.248681E1,2.7649262E0,3.3421519E0,1.4487039E0],"tree_param":{"num_deleted":"0","num_feature":"13","num_nodes":"21","size_leaf_vector":"1"}},{"base_weights":[2.2682589E-2,-9.639788E-1,1.2606758E-1,-5.550883E-1,-5.0628733E-2,3.1067513E-2,9.2064184E-1,-4.2858973E-2,2.6886359E-2,2.1855915E-1,-1.9512175E-1,9.632917E-1,3.004362E-1,1.9600807E-2,-1.2533168E-2,5.255443E-2,-1.3261135E-2,4.9651004E-2,1.7586557E-2,-8.609383E-3,2.8030118E-2],"categories":[],"categories_nodes":[],"categories_segments":[],"categories_sizes":[],"default_left":[0,0,1,0,0,0,0,0,0,0,0,0,0,0,0,0,0,0,0,0,0],"id":57,"left_children":[1,3,5,7,-1,9,11,-1,-1,13,15,17,19,-1,-1,-1,-1,-1,-1,-1,-1],"loss_changes":[4.2622124E1,2.2544098E-1,2.850576E1,2.5814352E0,0E0,1.4405639E1,7.7750015E-1,0E0,0E0,1.5208561E1,1.3734741E1,3.2860947E-1,5.943313E-1,0E0,0E0,0E0,0E0,0E0,0E0,0E0,0E0],"parents":[2147483647,0,0,1,1,2,2,3,3,5,5,6,6,9,9,10,10,11,11,12,12],"right_children":[2,4,6,8,-1,10,12,-1,-1,14,16,18,20,-1,-1,-1,-1,-1,-1,-1,-1],"split_conditions":[2E0,5.704262E2,3E0,4.095176E-1,-5.0628733E-2,2.892176E-1,9.6928467E2,-4.2858973E-2,2.6886359E-2,8.502833E2,4.282501E2,4.7662166E-1,4.6090707E-1,1.9600807E-2,-1.2533168E-2,5.255443E-2,-1.3261135E-2,4.9651004E-2,1.7586557E-2,-8.609383E-3,2.8030118E-2],"split_indices":[11,1,11,6,0,3,1,0,0,1,1,3,6,0,0,0,0,0,0,0,0],"split_type":[0,0,0,0,0,0,0,0,0,0,0,0,0,0,0,0,0,0,0,0,0],"sum_hessian":[4.1564807E2,3.8632465E1,3.770156E2,5.4232483E0,3.3209217E1,3.376812E2,3.9334393E1,4.417676E0,1.0055724E0,1.8465318E2,1.5302803E2,3.6285927E1,3.0484664E0,1.3493607E2,4.9717117E1,7.404343E0,1.4562369E2,3.400898E1,2.276948E0,1.2023721E0,1.8460944E0],"tree_param":{"num_deleted":"0","num_feature":"13","num_nodes":"21","size_leaf_vector":"1"}},{"base_weights":[1.5266203E-2,2.1948197E-1,-2.4884471E-1,3.5818097E-1,-1.819971E-1,-3.1925464E-1,1.2439353E0,4.504173E-1,-4.2683944E-1,-1.0331028E0,1.9856593E-1,9.7486895E-1,-3.9159128E-1,6.8045884E-2,1.8100796E-2,1.2898462E-2,4.7769006E-2,4.961941E-3,-6.329542E-2,2.9947078E-2,-6.2402483E-2,2.0377606E-2,-5.2007414E-2,5.1987745E-2,1.1670252E-2,-8.4028445E-2,-1.6980818E-2],"categories":[],"categories_nodes":[],"categories_segments":[],"categories_sizes":[],"default_left":[0,0,0,0,0,0,0,0,0,0,0,0,0,0,0,0,0,0,0,0,0,0,0,0,0,0,0],"id":58,"left_children":[1,3,5,7,9,11,13,15,17,19,21,23,25,-1,-1,-1,-1,-1,-1,-1,-1,-1,-1,-1,-1,-1,-1],"loss_changes":[2.1579384E1,1.2627244E1,1.8737204E1,1.2357063E1,1.9181555E1,1.6054977E1,3.3924866E-1,1.4410801E1,8.149592E0,7.1544437E0,1.1121563E1,1.9751263E-1,1.0099937E1,0E0,0E0,0E0,0E0,0E0,0E0,0E0,0E0,0E0,0E0,0E0,0E0,0E0,0E0],"parents":[2147483647,0,0,1,1,2,2,3,3,4,4,5,5,6,6,7,7,8,8,9,9,10,10,11,11,12,12],"right_children":[2,4,6,8,10,12,14,16,18,20,22,24,26,-1,-1,-1,-1,-1,-1,-1,-1,-1,-1,-1,-1,-1,-1],"split_conditions":[2.8874826E-1,8.502833E2,7E0,6.251836E2,2.8976144E2,4.282501E2,1.1E1,2.7527887E-1,5.0956173E1,1.1821144E-1,1.1765269E3,3.4917E-1,2.9070446E-1,6.8045884E-2,1.8100796E-2,1.2898462E-2,4.7769006E-2,4.961941E-3,-6.329542E-2,2.9947078E-2,-6.2402483E-2,2.0377606E-2,-5.2007414E-2,5.1987745E-2,1.1670252E-2,-8.4028445E-2,-1.6980818E-2],"split_indices":[3,1,8,7,7,1,8,3,5,3,1,0,3,0,0,0,0,0,0,0,0,0,0,0,0,0,0],"split_type":[0,0,0,0,0,0,0,0,0,0,0,0,0,0,0,0,0,0,0,0,0,0,0,0,0,0,0],"sum_hessian":[3.9808267E2,2.2459239E2,1.734903E2,1.67005E2,5.758738E1,1.6642659E2,7.0637054E0,1.4982722E2,1.7177788E1,1.7263643E1,4.032374E1,8.149675E0,1.5827692E2,5.756944E0,1.3067615E0,1.0957687E2,4.025035E1,1.1100033E1,6.0777555E0,1.8011836E0,1.546246E1,3.5076836E1,5.2469025E0,7.123954E0,1.0257212E0,4.9202633E0,1.5335664E2],"tree_param":{"num_deleted":"0","num_feature":"13","num_nodes":"27","size_leaf_vector":"1"}},{"base_weights":[-1.9843511E-2,-1.1990221E-1,8.973423E-1,-9.562924E-1,-2.344843E-2,3.641969E-1,9.589578E-1,-5.086925E-1,-5.044934E-2,-8.752328E-2,6.35306E-1,2.2939468E-2,3.6814347E-2,9.9169296E-1,1.4561618E-2,-4.1518267E-2,2.6164392E-2,8.587499E-3,-1.3009349E-2,4.195434E-2,-6.514707E-2,3.1802453E-2,-3.0095011E-2,1.4913996E-2,5.050255E-2],"categories":[],"categories_nodes":[],"categories_segments":[],"categories_sizes":[],"default_left":[1,0,0,0,0,0,0,0,0,0,0,0,0,0,0,0,0,0,0,0,0,0,0,0,0],"id":59,"left_children":[1,3,5,7,9,11,13,15,-1,17,19,21,-1,23,-1,-1,-1,-1,-1,-1,-1,-1,-1,-1,-1],"loss_changes":[3.6517143E1,2.8906536E1,9.365597E-1,3.6066437E-1,1.3669997E1,7.027389E-1,4.6473312E-1,2.3995373E0,0E0,1.32433605E1,1.2434161E1,1.9107367E0,0E0,1.11774445E-1,0E0,0E0,0E0,0E0,0E0,0E0,0E0,0E0,0E0,0E0,0E0],"parents":[2147483647,0,0,1,1,2,2,3,3,4,4,5,5,6,6,7,7,9,9,10,10,11,11,13,13],"right_children":[2,4,6,8,10,12,14,16,-1,18,20,22,-1,24,-1,-1,-1,-1,-1,-1,-1,-1,-1,-1,-1],"split_conditions":[3E0,2E0,3.0704346E1,-7.8181145E1,5E0,4.971933E-1,4.7662166E-1,-8.3162186E1,-5.044934E-2,3.2487114E1,7.1807205E1,4.8685892E2,3.6814347E-2,2.2415884E-3,1.4561618E-2,-4.1518267E-2,2.6164392E-2,8.587499E-3,-1.3009349E-2,4.195434E-2,-6.514707E-2,3.1802453E-2,-3.0095011E-2,1.4913996E-2,5.050255E-2],"split_indices":[11,11,2,5,9,0,3,5,0,2,5,7,0,3,0,0,0,0,0,0,0,0,0,0,0],"split_type":[0,0,0,0,0,0,0,0,0,0,0,0,0,0,0,0,0,0,0,0,0,0,0,0,0],"sum_hessian":[3.957373E2,3.5759537E2,3.8141937E1,3.605275E1,3.2154263E2,4.667329E0,3.347461E1,4.9194393E0,3.1133308E1,2.938299E2,2.771272E1,2.9882998E0,1.679029E0,3.1447708E1,2.0269012E0,3.899359E0,1.0200804E0,1.174585E2,1.763714E2,2.5589426E1,2.1232955E0,1.499253E0,1.4890469E0,1.2559607E0,3.0191748E1],"tree_param":{"num_deleted":"0","num_feature":"13","num_nodes":"25","size_leaf_vector":"1"}},{"base_weights":[1.1169808E-2,-9.501772E-1,1.0252529E-1,-4.8609498E-1,-5.0270747E-2,1.3230514E-2,9.0088326E-1,-4.0644735E-2,2.2299998E-2,-1.1658173E-1,2.9628104E-1,9.797848E-1,2.3763072E-1,-8.10914E-3,5.7307392E-2,2.4294307E-2,-8.371584E-3,4.9827855E-2,1.4259788E-2,-3.1104986E-2,3.7923113E-2],"categories":[],"categories_nodes":[],"categories_segments":[],"categories_sizes":[],"default_left":[0,0,1,0,0,1,1,0,0,0,0,0,0,0,0,0,0,0,0,0,0],"id":60,"left_children":[1,3,5,7,-1,9,11,-1,-1,13,15,17,19,-1,-1,-1,-1,-1,-1,-1,-1],"loss_changes":[3.5738834E1,4.16584E-1,2.6472767E1,2.0965028E0,0E0,1.2349202E1,1.7221661E0,0E0,0E0,1.3458019E1,9.371317E0,1.0099411E-1,2.8413956E0,0E0,0E0,0E0,0E0,0E0,0E0,0E0,0E0],"parents":[2147483647,0,0,1,1,2,2,3,3,5,5,6,6,9,9,10,10,11,11,12,12],"right_children":[2,4,6,8,-1,10,12,-1,-1,14,16,18,20,-1,-1,-1,-1,-1,-1,-1,-1],"split_conditions":[2E0,-7.8181145E1,3E0,-8.474955E1,-5.0270747E-2,3E0,4E0,-4.0644735E-2,2.2299998E-2,6.308976E-1,1.1805348E-2,6.21981E5,3.0704346E1,-8.10914E-3,5.7307392E-2,2.4294307E-2,-8.371584E-3,4.9827855E-2,1.4259788E-2,-3.1104986E-2,3.7923113E-2],"split_indices":[11,5,11,5,0,12,12,0,0,6,4,10,2,0,0,0,0,0,0,0,0],"split_type":[0,0,0,0,0,0,0,0,0,0,0,0,0,0,0,0,0,0,0,0,0],"sum_hessian":[4.048263E2,3.431575E1,3.7051053E2,4.6923985E0,2.9623352E1,3.3415277E2,3.6357758E1,3.5689733E0,1.1234254E0,2.2949171E2,1.0466106E2,3.2065907E1,4.2918496E0,2.223341E2,7.1576104E0,7.425251E1,3.0408546E1,3.0885372E1,1.180537E0,1.5457925E0,2.7460573E0],"tree_param":{"num_deleted":"0","num_feature":"13","num_nodes":"21","size_leaf_vector":"1"}},{"base_weights":[-2.3670657E-2,-5.037109E-2,6.966661E-2,-1.7939853E-2,8.551843E-1,9.628376E-2,-3.8631815E-1,9.554842E-1,1.5576196E-1,-8.886109E-3,1.4361495E-2,-3.1340253E-2,1.671844E-2,4.9537115E-2,2.0312907E-2,-3.9404072E-2,3.8875557E-2],"categories":[],"categories_nodes":[],"categories_segments":[],"categories_sizes":[],"default_left":[0,0,1,0,1,0,0,0,0,0,0,0,0,0,0,0,0],"id":61,"left_children":[1,-1,3,5,7,9,11,13,15,-1,-1,-1,-1,-1,-1,-1,-1],"loss_changes":[3.564547E1,0E0,2.4431673E1,1.3509713E1,2.3500156E0,1.2880104E1,1.3378368E1,1.9699669E-1,3.9355292E0,0E0,0E0,0E0,0E0,0E0,0E0,0E0,0E0],"parents":[2147483647,0,0,2,2,3,3,4,4,5,5,6,6,7,7,8,8],"right_children":[2,-1,4,6,8,10,12,14,16,-1,-1,-1,-1,-1,-1,-1,-1],"split_conditions":[2E0,-5.037109E-2,3E0,3.324324E-1,4E0,2.8976144E2,5.93301E5,4.7662166E-1,-1.3774179E-2,-8.886109E-3,1.4361495E-2,-3.1340253E-2,1.671844E-2,4.9537115E-2,2.0312907E-2,-3.9404072E-2,3.8875557E-2],"split_indices":[11,0,11,3,12,7,10,3,4,0,0,0,0,0,0,0,0],"split_type":[0,0,0,0,0,0,0,0,0,0,0,0,0,0,0,0,0],"sum_hessian":[3.8644318E2,3.2639347E1,3.538038E2,3.191834E2,3.462042E1,2.4420195E2,7.4981445E1,2.9958189E1,4.662228E0,1.003171E2,1.4388486E2,5.6318665E1,1.8662779E1,2.7395618E1,2.5625713E0,1.7452846E0,2.9169438E0],"tree_param":{"num_deleted":"0","num_feature":"13","num_nodes":"17","size_leaf_vector":"1"}},{"base_weights":[8.133156E-3,-5.02275E-2,9.9665426E-2,1.7902222E-2,8.773989E-1,-8.132815E-1,6.9921404E-2,9.714413E-1,1.794428E-1,-5.4751486E-2,2.8339291E-2,1.8910106E-2,-4.555821E-3,1.2809807E-2,4.956057E-2,-4.218607E-2,3.8323715E-2],"categories":[],"categories_nodes":[],"categories_segments":[],"categories_sizes":[],"default_left":[0,0,1,0,1,0,0,0,0,0,0,0,0,0,0,0,0],"id":62,"left_children":[1,-1,3,5,7,9,11,13,15,-1,-1,-1,-1,-1,-1,-1,-1],"loss_changes":[3.622865E1,0E0,2.2772747E1,1.41218195E1,2.061964E0,8.1011915E0,1.5278248E1,1.674118E-1,3.813261E0,0E0,0E0,0E0,0E0,0E0,0E0,0E0,0E0],"parents":[2147483647,0,0,2,2,3,3,4,4,5,5,6,6,7,7,8,8],"right_children":[2,-1,4,6,8,10,12,14,16,-1,-1,-1,-1,-1,-1,-1,-1],"split_conditions":[2E0,-5.02275E-2,3E0,2.879257E1,4E0,1.4152963E2,3.2487114E1,2.2415884E-3,3.0704346E1,-5.4751486E-2,2.8339291E-2,1.8910106E-2,-4.555821E-3,1.2809807E-2,4.956057E-2,-4.218607E-2,3.8323715E-2],"split_indices":[11,0,11,2,12,5,2,3,2,0,0,0,0,0,0,0,0],"split_type":[0,0,0,0,0,0,0,0,0,0,0,0,0,0,0,0,0],"sum_hessian":[3.8876468E2,3.1399216E1,3.5736548E2,3.242953E2,3.3070183E1,1.823852E1,3.0605676E2,2.8798096E1,4.2720847E0,1.5317839E1,2.920681E0,1.045549E2,2.0150188E2,1.1500498E0,2.7648046E1,1.3980651E0,2.8740196E0],"tree_param":{"num_deleted":"0","num_feature":"13","num_nodes":"17","size_leaf_vector":"1"}},{"base_weights":[1.0559284E-2,-4.888207E-1,1.12401046E-1,4.3444455E-1,-7.3769426E-1,-3.616941E-1,1.8561736E-1,-3.0003706E-1,7.899313E-1,5.9647465E-1,-8.949843E-1,-6.1284935E-1,4.022397E-1,2.7345216E-1,-3.9153716E-1,1.8220572E-2,-4.6965968E-2,-1.908741E-2,5.5701137E-2,5.2005358E-2,-3.1776745E-2,-4.8857566E-2,1.260437E-2,-4.097057E-2,9.800578E-3,3.4380395E-2,-3.754705E-2,1.1801769E-2,7.947271E-2,1.5743107E-2,-3.0883491E-2],"categories":[],"categories_nodes":[],"categories_segments":[],"categories_sizes":[],"default_left":[1,0,0,0,0,0,0,0,0,0,0,0,0,0,0,0,0,0,0,0,0,0,0,0,0,0,0,0,0,0,0],"id":63,"left_children":[1,3,5,7,9,11,13,15,17,19,21,23,25,27,29,-1,-1,-1,-1,-1,-1,-1,-1,-1,-1,-1,-1,-1,-1,-1,-1],"loss_changes":[1.9527668E1,1.5266187E1,1.1134606E1,4.007243E0,1.1363144E1,8.495218E0,1.4141748E1,2.6505911E0,4.224747E0,3.9635139E0,4.6348953E0,5.6326675E0,4.2155223E0,1.1485451E1,6.101468E0,0E0,0E0,0E0,0E0,0E0,0E0,0E0,0E0,0E0,0E0,0E0,0E0,0E0,0E0,0E0,0E0],"parents":[2147483647,0,0,1,1,2,2,3,3,4,4,5,5,6,6,7,7,8,8,9,9,10,10,11,11,12,12,13,13,14,14],"right_children":[2,4,6,8,10,12,14,16,18,20,22,24,26,28,30,-1,-1,-1,-1,-1,-1,-1,-1,-1,-1,-1,-1,-1,-1,-1,-1],"split_conditions":[2E0,6.141745E1,-2.2357924E-2,4.165895E-1,2.532394E-1,3E0,1.04364586E2,8.597114E0,-3.7344616E1,5.655737E2,5.906715E-1,7.261254E1,3.15684E2,9.831657E1,1.5997916E1,1.8220572E-2,-4.6965968E-2,-1.908741E-2,5.5701137E-2,5.2005358E-2,-3.1776745E-2,-4.8857566E-2,1.260437E-2,-4.097057E-2,9.800578E-3,3.4380395E-2,-3.754705E-2,1.1801769E-2,7.947271E-2,1.5743107E-2,-3.0883491E-2],"split_indices":[12,7,4,0,0,12,5,7,5,7,0,5,7,5,7,0,0,0,0,0,0,0,0,0,0,0,0,0,0,0,0],"split_type":[0,0,0,0,0,0,0,0,0,0,0,0,0,0,0,0,0,0,0,0,0,0,0,0,0,0,0,0,0,0,0],"sum_hessian":[3.8188614E2,6.404455E1,3.1784158E2,1.3439897E1,5.0604652E1,4.1992016E1,2.7584958E2,4.4342155E0,9.005681E0,5.0423265E0,4.556233E1,3.175111E1,1.0240905E1,2.398708E2,3.597876E1,2.3851445E0,2.049071E0,1.9127312E0,7.09295E0,3.8218765E0,1.2204499E0,4.2655E1,2.9073274E0,2.5281761E1,6.4693484E0,8.533034E0,1.7078708E0,2.3438606E2,5.484744E0,8.629457E0,2.7349304E1],"tree_param":{"num_deleted":"0","num_feature":"13","num_nodes":"31","size_leaf_vector":"1"}},{"base_weights":[-3.115978E-3,-4.9993936E-2,8.2732275E-2,2.6545555E-3,8.4246016E-1,1.0873199E-1,-5.1762563E-1,9.438054E-1,1.8126301E-1,8.391521E-3,-3.445871E-2,-3.9591216E-2,5.549932E-3,4.9175035E-2,1.3390088E-2,3.374754E-2,-5.0724115E-2],"categories":[],"categories_nodes":[],"categories_segments":[],"categories_sizes":[],"default_left":[0,0,1,0,1,0,0,0,0,0,0,0,0,0,0,0,0],"id":64,"left_children":[1,-1,3,5,7,9,11,13,15,-1,-1,-1,-1,-1,-1,-1,-1],"loss_changes":[3.2591694E1,0E0,2.1333828E1,1.7621567E1,2.0695572E0,1.2620931E1,9.408588E0,5.082569E-1,4.0387897E0,0E0,0E0,0E0,0E0,0E0,0E0,0E0,0E0],"parents":[2147483647,0,0,2,2,3,3,4,4,5,5,6,6,7,7,8,8],"right_children":[2,-1,4,6,8,10,12,14,16,-1,-1,-1,-1,-1,-1,-1,-1],"split_conditions":[2E0,-4.9993936E-2,3E0,3.5505572E-1,4E0,5.2650905E-1,5.93301E5,4.7662166E-1,8.1764594E2,8.391521E-3,-3.445871E-2,-3.9591216E-2,5.549932E-3,4.9175035E-2,1.3390088E-2,3.374754E-2,-5.0724115E-2],"split_indices":[11,0,11,3,12,0,10,3,1,0,0,0,0,0,0,0,0],"split_type":[0,0,0,0,0,0,0,0,0,0,0,0,0,0,0,0,0],"sum_hessian":[3.7890933E2,2.920225E1,3.497071E2,3.1726938E2,3.2437702E1,2.6419495E2,5.3074432E1,2.7755976E1,4.6817265E0,2.4671147E2,1.7483486E1,3.6774296E1,1.6300137E1,2.5786884E1,1.9690925E0,3.621894E0,1.0598327E0],"tree_param":{"num_deleted":"0","num_feature":"13","num_nodes":"17","size_leaf_vector":"1"}},{"base_weights":[-2.8700802E-2,-4.9831163E-2,5.2694328E-2,-2.9250605E-2,8.621316E-1,-6.773171E-1,4.5456883E-2,9.387622E-1,2.0133862E-1,-5.321783E-2,1.849701E-2,6.7230114E-3,-2.020463E-2,4.7891352E-2,1.1961735E-2,-3.5101905E-2,3.6555734E-2],"categories":[],"categories_nodes":[],"categories_segments":[],"categories_sizes":[],"default_left":[0,0,1,0,1,1,0,0,0,0,0,0,0,0,0,0,0],"id":65,"left_children":[1,-1,3,5,7,9,11,13,15,-1,-1,-1,-1,-1,-1,-1,-1],"loss_changes":[2.9225376E1,0E0,2.274399E1,1.5136143E1,1.4070797E0,1.3490501E1,1.1284869E1,1.438961E-1,2.6901295E0,0E0,0E0,0E0,0E0,0E0,0E0,0E0,0E0],"parents":[2147483647,0,0,2,2,3,3,4,4,5,5,6,6,7,7,8,8],"right_children":[2,-1,4,6,8,10,12,14,16,-1,-1,-1,-1,-1,-1,-1,-1],"split_conditions":[2E0,-4.9831163E-2,3E0,-2.6162744E-2,4E0,3E0,1.04364586E2,5.93301E5,-1.3774179E-2,-5.321783E-2,1.849701E-2,6.7230114E-3,-2.020463E-2,4.7891352E-2,1.1961735E-2,-3.5101905E-2,3.6555734E-2],"split_indices":[11,0,11,4,12,12,5,10,4,0,0,0,0,0,0,0,0],"split_type":[0,0,0,0,0,0,0,0,0,0,0,0,0,0,0,0,0],"sum_hessian":[3.692883E2,2.7773327E1,3.4151498E2,3.109947E2,3.0520279E1,3.1311342E1,2.7968335E2,2.697177E1,3.5485103E0,2.2850174E1,8.461167E0,2.3404686E2,4.5636497E1,2.5896734E1,1.0750355E0,1.1915363E0,2.356974E0],"tree_param":{"num_deleted":"0","num_feature":"13","num_nodes":"17","size_leaf_vector":"1"}},{"base_weights":[9.019715E-3,-9.168423E-1,8.118742E-2,-3.3905724E-1,-4.938814E-2,1.2189747E-2,8.279982E-1,-3.7134398E-2,2.674277E-2,9.485271E-2,-4.0308496E-1,1.16294794E-1,9.22458E-1,-6.5730275E-3,1.2799792E-2,-3.5265658E-2,1.6576093E-2,-1.6645191E-2,3.179994E-2,4.8270807E-2,9.255103E-3],"categories":[],"categories_nodes":[],"categories_segments":[],"categories_sizes":[],"default_left":[0,0,1,0,0,0,0,0,0,0,0,0,0,0,0,0,0,0,0,0,0],"id":66,"left_children":[1,3,5,7,-1,9,11,-1,-1,13,15,17,19,-1,-1,-1,-1,-1,-1,-1,-1],"loss_changes":[2.5648869E1,8.025322E-1,1.8333605E1,2.0047855E0,0E0,1.1259996E1,1.9158268E0,0E0,0E0,1.0005704E1,1.2324827E1,1.3020257E0,6.5826607E-1,0E0,0E0,0E0,0E0,0E0,0E0,0E0,0E0],"parents":[2147483647,0,0,1,1,2,2,3,3,5,5,6,6,9,9,10,10,11,11,12,12],"right_children":[2,4,6,8,-1,10,12,-1,-1,14,16,18,20,-1,-1,-1,-1,-1,-1,-1,-1],"split_conditions":[2E0,-7.8181145E1,3E0,4.8739243E-1,-4.938814E-2,3.6133707E-1,3.0704346E1,-3.7134398E-2,2.674277E-2,-5.847407E-3,6.21981E5,-1.3774179E-2,4.7662166E-1,-6.5730275E-3,1.2799792E-2,-3.5265658E-2,1.6576093E-2,-1.6645191E-2,3.179994E-2,4.8270807E-2,9.255103E-3],"split_indices":[11,5,11,6,0,3,2,0,0,4,10,4,3,0,0,0,0,0,0,0,0],"split_type":[0,0,0,0,0,0,0,0,0,0,0,0,0,0,0,0,0,0,0,0,0],"sum_hessian":[3.8175143E2,2.6758173E1,3.549933E2,3.5573623E0,2.3200811E1,3.2589978E2,2.9093483E1,2.5361552E0,1.0212069E0,2.7244046E2,5.345934E1,3.6703703E0,2.5423113E1,1.13384605E2,1.5905585E2,3.790467E1,1.555467E1,2.1615238E0,1.5088464E0,2.3731241E1,1.6918705E0],"tree_param":{"num_deleted":"0","num_feature":"13","num_nodes":"21","size_leaf_vector":"1"}},{"base_weights":[-2.8751845E-2,-1.0444902E-1,8.5781074E-1,-9.1185784E-1,-3.557704E-2,4.7581833E-2,1.5893954E-1,-3.728569E-1,-4.9197055E-2,-1.3689426E-1,3.5093167E-1,3.5622995E-2,-3.2872763E-2,-3.8127188E-2,2.7528813E-2,-1.4879631E-2,1.1679991E-2,2.4830284E-2,-4.504484E-2],"categories":[],"categories_nodes":[],"categories_segments":[],"categories_sizes":[],"default_left":[1,0,1,0,0,0,0,0,0,0,0,0,0,0,0,0,0,0,0],"id":67,"left_children":[1,3,5,7,9,-1,11,13,-1,15,17,-1,-1,-1,-1,-1,-1,-1,-1],"loss_changes":[2.4988333E1,1.9025347E1,1.7696571E0,6.781006E-1,1.2454786E1,0E0,2.5777922E0,2.1409075E0,0E0,1.5057571E1,1.2497994E1,0E0,0E0,0E0,0E0,0E0,0E0,0E0,0E0],"parents":[2147483647,0,0,1,1,2,2,3,3,4,4,6,6,7,7,9,9,10,10],"right_children":[2,4,6,8,10,-1,12,14,-1,16,18,-1,-1,-1,-1,-1,-1,-1,-1],"split_conditions":[3E0,2E0,4E0,5.704262E2,3.88451E5,4.7581833E-2,6.8477386E2,3.4917E-1,