{"learner":{"attributes":{},"feature_names":["ndvi_mean_6m","rainfall_sum_6m","lst_mean_6m","nightlight_mean_6m","ndvi_anomaly_6m","rainfall_anomaly_6m","ndvi_mean_3m","rainfall_sum_3m","conflict_events_6m","conflict_fatalities_6m","population","current_phase_class","prev_projected_phase"],"feature_types":["float","float","float","float","float","float","float","float","int","int","float","float","float"],"gradient_booster":{"model":{"gbtree_model_param":{"num_parallel_tree":"1","num_trees":"1000"},"iteration_indptr":[0,4,8,12,16,20,24,28,32,36,40,44,48,52,56,60,64,68,72,76,80,84,88,92,96,100,104,108,112,116,120,124,128,132,136,140,144,148,152,156,160,164,168,172,176,180,184,188,192,196,200,204,208,212,216,220,224,228,232,236,240,244,248,252,256,260,264,268,272,276,280,284,288,292,296,300,304,308,312,316,320,324,328,332,336,340,344,348,352,356,360,364,368,372,376,380,384,388,392,396,400,404,408,412,416,420,424,428,432,436,440,444,448,452,456,460,464,468,472,476,480,484,488,492,496,500,504,508,512,516,520,524,528,532,536,540,544,548,552,556,560,564,568,572,576,580,584,588,592,596,600,604,608,612,616,620,624,628,632,636,640,644,648,652,656,660,664,668,672,676,680,684,688,692,696,700,704,708,712,716,720,724,728,732,736,740,744,748,752,756,760,764,768,772,776,780,784,788,792,796,800,804,808,812,816,820,824,828,832,836,840,844,848,852,856,860,864,868,872,876,880,884,888,892,896,900,904,908,912,916,920,924,928,932,936,940,944,948,952,956,960,964,968,972,976,980,984,988,992,996,1000],"tree_info":[0,1,2,3,0,1,2,3,0,1,2,3,0,1,2,3,0,1,2,3,0,1,2,3,0,1,2,3,0,1,2,3,0,1,2,3,0,1,2,3,0,1,2,3,0,1,2,3,0,1,2,3,0,1,2,3,0,1,2,3,0,1,2,3,0,1,2,3,0,1,2,3,0,1,2,3,0,1,2,3,0,1,2,3,0,1,2,3,0,1,2,3,0,1,2,3,0,1,2,3,0,1,2,3,0,1,2,3,0,1,2,3,0,1,2,3,0,1,2,3,0,1,2,3,0,1,2,3,0,1,2,3,0,1,2,3,0,1,2,3,0,1,2,3,0,1,2,3,0,1,2,3,0,1,2,3,0,1,2,3,0,1,2,3,0,1,2,3,0,1,2,3,0,1,2,3,0,1,2,3,0,1,2,3,0,1,2,3,0,1,2,3,0,1,2,3,0,1,2,3,0,1,2,3,0,1,2,3,0,1,2,3,0,1,2,3,0,1,2,3,0,1,2,3,0,1,2,3,0,1,2,3,0,1,2,3,0,1,2,3,0,1,2,3,0,1,2,3,0,1,2,3,0,1,2,3,0,1,2,3,0,1,2,3,0,1,2,3,0,1,2,3,0,1,2,3,0,1,2,3,0,1,2,3,0,1,2,3,0,1,2,3,0,1,2,3,0,1,2,3,0,1,2,3,0,1,2,3,0,1,2,3,0,1,2,3,0,1,2,3,0,1,2,3,0,1,2,3,0,1,2,3,0,1,2,3,0,1,2,3,0,1,2,3,0,1,2,3,0,1,2,3,0,1,2,3,0,1,2,3,0,1,2,3,0,1,2,3,0,1,2,3,0,1,2,3,0,1,2,3,0,1,2,3,0,1,2,3,0,1,2,3,0,1,2,3,0,1,2,3,0,1,2,3,0,1,2,3,0,1,2,3,0,1,2,3,0,1,2,3,0,1,2,3,0,1,2,3,0,1,2,3,0,1,2,3,0,1,2,3,0,1,2,3,0,1,2,3,0,1,2,3,0,1,2,3,0,1,2,3,0,1,2,3,0,1,2,3,0,1,2,3,0,1,2,3,0,1,2,3,0,1,2,3,0,1,2,3,0,1,2,3,0,1,2,3,0,1,2,3,0,1,2,3,0,1,2,3,0,1,2,3,0,1,2,3,0,1,2,3,0,1,2,3,0,1,2,3,0,1,2,3,0,1,2,3,0,1,2,3,0,1,2,3,0,1,2,3,0,1,2,3,0,1,2,3,0,1,2,3,0,1,2,3,0,1,2,3,0,1,2,3,0,1,2,3,0,1,2,3,0,1,2,3,0,1,2,3,0,1,2,3,0,1,2,3,0,1,2,3,0,1,2,3,0,1,2,3,0,1,2,3,0,1,2,3,0,1,2,3,0,1,2,3,0,1,2,3,0,1,2,3,0,1,2,3,0,1,2,3,0,1,2,3,0,1,2,3,0,1,2,3,0,1,2,3,0,1,2,3,0,1,2,3,0,1,2,3,0,1,2,3,0,1,2,3,0,1,2,3,0,1,2,3,0,1,2,3,0,1,2,3,0,1,2,3,0,1,2,3,0,1,2,3,0,1,2,3,0,1,2,3,0,1,2,3,0,1,2,3,0,1,2,3,0,1,2,3,0,1,2,3,0,1,2,3,0,1,2,3,0,1,2,3,0,1,2,3,0,1,2,3,0,1,2,3,0,1,2,3,0,1,2,3,0,1,2,3,0,1,2,3,0,1,2,3,0,1,2,3,0,1,2,3,0,1,2,3,0,1,2,3,0,1,2,3,0,1,2,3,0,1,2,3,0,1,2,3,0,1,2,3,0,1,2,3,0,1,2,3,0,1,2,3,0,1,2,3,0,1,2,3,0,1,2,3,0,1,2,3,0,1,2,3,0,1,2,3,0,1,2,3,0,1,2,3,0,1,2,3,0,1,2,3,0,1,2,3,0,1,2,3,0,1,2,3,0,1,2,3,0,1,2,3,0,1,2,3,0,1,2,3,0,1,2,3,0,1,2,3,0,1,2,3,0,1,2,3,0,1,2,3,0,1,2,3,0,1,2,3,0,1,2,3,0,1,2,3,0,1,2,3,0,1,2,3,0,1,2,3,0,1,2,3,0,1,2,3,0,1,2,3,0,1,2,3,0,1,2,3,0,1,2,3,0,1,2,3,0,1,2,3,0,1,2,3,0,1,2,3,0,1,2,3,0,1,2,3,0,1,2,3,0,1,2,3,0,1,2,3],"trees":[{"base_weights":[1.58079E-2,1.2143291E0,-6.475912E-1,1.7565321E0,9.8018545E-1,-3.2996543E-2,-2.9761925E-1,1.0458826E-2,1.7771255E0,-4.3018103E-1,1.044536E0,1.0043207E0,-3.1999584E-2,8.972138E-2,1.2386168E-3,2.324126E-2,-3.076691E-2,3.6415335E-2,5.948143E-2,6.907685E-2,-1.8534983E-2],"categories":[],"categories_nodes":[],"categories_segments":[],"categories_sizes":[],"default_left":[1,0,0,0,0,0,0,0,0,0,0,0,0,0,0,0,0,0,0,0,0],"id":0,"left_children":[1,3,5,7,9,-1,11,-1,13,15,17,19,-1,-1,-1,-1,-1,-1,-1,-1,-1],"loss_changes":[1.050699E3,5.8052124E1,3.4771729E0,4.1129456E0,3.0498749E1,0E0,1.4368706E1,0E0,4.1626587E0,2.7976084E0,1.3675507E1,4.039587E0,0E0,0E0,0E0,0E0,0E0,0E0,0E0,0E0,0E0],"parents":[2147483647,0,0,1,1,2,2,3,3,4,4,6,6,8,8,9,9,10,10,11,11],"right_children":[2,4,6,8,10,-1,12,-1,14,16,18,20,-1,-1,-1,-1,-1,-1,-1,-1,-1],"split_conditions":[2E0,1.9613314E-1,1.5563065E2,2.7199776E1,-1.19247856E2,-3.2996543E-2,1.5077326E1,1.0458826E-2,2E0,2.3746736E-1,3.871065E-1,3.1654254E-1,-3.1999584E-2,8.972138E-2,1.2386168E-3,2.324126E-2,-3.076691E-2,3.6415335E-2,5.948143E-2,6.907685E-2,-1.8534983E-2],"split_indices":[11,3,5,2,5,0,7,0,11,3,6,3,0,0,0,0,0,0,0,0,0],"split_type":[0,0,0,0,0,0,0,0,0,0,0,0,0,0,0,0,0,0,0,0,0],"sum_hessian":[1.3194822E3,4.6983337E2,8.496488E2,1.3973932E2,3.3009406E2,8.198558E2,2.9793043E1,1.9818733E0,1.3775745E2,1.4155874E1,3.1593817E2,5.800825E0,2.3992218E1,1.363868E2,1.3706502E0,2.1676292E0,1.1988245E1,1.0126051E2,2.1467766E2,4.548322E0,1.2525032E0],"tree_param":{"num_deleted":"0","num_feature":"13","num_nodes":"21","size_leaf_vector":"1"}},{"base_weights":[-3.9173984E-3,4.038662E-1,-6.558855E-1,-1.415E-1,6.1948395E-1,-3.28848E-2,-3.7619695E-1,-3.3411923E-1,4.5870498E-1,1.7819374E0,5.78155E-1,1.9629125E-3,-2.555289E-2,-1.8253578E-2,5.973063E-2,4.9993187E-2,-1.6246015E-3,9.182663E-2,2.5599567E-2,1.6106194E-2,3.993878E-2],"categories":[],"categories_nodes":[],"categories_segments":[],"categories_sizes":[],"default_left":[1,0,0,1,0,0,0,0,0,0,1,0,0,0,0,0,0,0,0,0,0],"id":1,"left_children":[1,3,5,7,9,-1,11,13,15,17,19,-1,-1,-1,-1,-1,-1,-1,-1,-1,-1],"loss_changes":[3.4850906E2,9.491994E1,7.9956055E-3,2.6664871E1,2.6745544E1,0E0,3.3272886E-1,8.678051E0,1.4953998E1,4.026146E-1,3.1362015E1,0E0,0E0,0E0,0E0,0E0,0E0,0E0,0E0,0E0,0E0],"parents":[2147483647,0,0,1,1,2,2,3,3,4,4,6,6,7,7,8,8,9,9,10,10],"right_children":[2,4,6,8,10,-1,12,14,16,18,20,-1,-1,-1,-1,-1,-1,-1,-1,-1,-1],"split_conditions":[3E0,2.2861204E-1,1.3385435E2,2E0,-1.2782801E2,-3.28848E-2,3.7853965E-1,1.5266392E3,3.443972E1,3.3524837E1,2E0,1.9629125E-3,-2.555289E-2,-1.8253578E-2,5.973063E-2,4.9993187E-2,-1.6246015E-3,9.182663E-2,2.5599567E-2,1.6106194E-2,3.993878E-2],"split_indices":[11,3,5,11,5,0,0,1,2,2,11,0,0,0,0,0,0,0,0,0,0],"split_type":[0,0,0,0,0,0,0,0,0,0,0,0,0,0,0,0,0,0,0,0,0],"sum_hessian":[1.3088688E3,8.054611E2,5.0340768E2,2.2831735E2,5.771438E2,4.988272E2,4.5804605E0,1.7318253E2,5.5134827E1,1.8368908E1,5.587749E2,1.2962142E0,3.2842464E0,1.7049176E2,2.6907625E0,2.574054E1,2.9394287E1,1.7184013E1,1.1848942E0,2.5977042E2,2.9900446E2],"tree_param":{"num_deleted":"0","num_feature":"13","num_nodes":"21","size_leaf_vector":"1"}},{"base_weights":[1.6819282E-2,-3.297628E-2,3.6223218E-1,6.003358E-1,-6.0466444E-1,7.3811346E-1,-2.2475109E-1,-3.2151293E-2,-4.5783174E-1,2.0505205E-2,5.5451628E-2,4.918831E-2,-2.141703E-2,4.498356E-2,-3.0648772E-2],"categories":[],"categories_nodes":[],"categories_segments":[],"categories_sizes":[],"default_left":[0,0,1,1,1,1,0,0,0,0,0,0,0,0,0],"id":2,"left_children":[1,-1,3,5,7,9,11,-1,13,-1,-1,-1,-1,-1,-1],"loss_changes":[3.0666077E2,0E0,2.003961E2,7.947809E1,6.754608E-1,7.231152E1,2.5173107E1,0E0,8.794388E0,0E0,0E0,0E0,0E0,0E0,0E0],"parents":[2147483647,0,0,2,2,3,3,4,4,5,5,6,6,8,8],"right_children":[2,-1,4,6,8,10,12,-1,14,-1,-1,-1,-1,-1,-1],"split_conditions":[2E0,-3.297628E-2,4E0,4E0,4E0,3E0,1E1,-3.2151293E-2,3E0,2.0505205E-2,5.5451628E-2,4.918831E-2,-2.141703E-2,4.498356E-2,-3.0648772E-2],"split_indices":[11,0,11,12,12,12,9,0,8,0,0,0,0,0,0],"split_type":[0,0,0,0,0,0,0,0,0,0,0,0,0,0,0],"sum_hessian":[1.3106349E3,4.4276257E2,8.678723E2,6.966882E2,1.7118414E2,5.970884E2,9.95998E1,1.330455E2,3.813864E1,3.1799033E2,2.7909805E2,1.38072405E1,8.5792564E1,3.4194646E0,3.4719177E1],"tree_param":{"num_deleted":"0","num_feature":"13","num_nodes":"15","size_leaf_vector":"1"}},{"base_weights":[-4.315193E-2,-3.3292934E-2,1.0400987E0,4.9056298E-1,1.9230249E0,-3.6123124E-1,1.1629425E0,9.6872374E-2,-1.6716229E-2,-3.3005197E-2,3.3564627E-2,2.8536756E-2,8.865427E-2],"categories":[],"categories_nodes":[],"categories_segments":[],"categories_sizes":[],"default_left":[1,0,0,0,0,0,1,0,0,0,0,0,0],"id":3,"left_children":[1,-1,3,5,7,9,11,-1,-1,-1,-1,-1,-1],"loss_changes":[8.7657635E2,0E0,2.2921527E2,1.6864368E2,6.561157E0,4.0664207E1,5.8385788E1,0E0,0E0,0E0,0E0,0E0,0E0],"parents":[2147483647,0,0,2,2,3,3,4,4,5,5,6,6],"right_children":[2,-1,4,6,8,10,12,-1,-1,-1,-1,-1,-1],"split_conditions":[3E0,-3.3292934E-2,4E0,1E1,3.93484E5,1.6437024E-2,4E0,9.6872374E-2,-1.6716229E-2,-3.3005197E-2,3.3564627E-2,2.8536756E-2,8.865427E-2],"split_indices":[11,0,11,9,10,4,12,0,0,0,0,0,0],"split_type":[0,0,0,0,0,0,0,0,0,0,0,0,0],"sum_hessian":[1.2974762E3,8.2411743E2,4.7335873E2,2.9272284E2,1.806359E2,1.2933694E2,1.6338588E2,1.7962993E2,1.0059652E0,1.0058304E2,2.8753914E1,8.38937E1,7.949217E1],"tree_param":{"num_deleted":"0","num_feature":"13","num_nodes":"13","size_leaf_vector":"1"}},{"base_weights":[8.261471E-3,1.1231028E0,-6.366613E-1,-3.893115E-1,1.1746317E0,-3.2633733E-2,-1.8900104E-1,-5.422277E-1,2.180708E-1,8.6760163E-1,1.2850815E0,1.074025E0,-3.1542893E-2,-3.0403513E-2,4.9876696E-3,5.1900424E-2,-2.1964876E-2,4.64659E-2,-2.789321E-2,6.683694E-2,2.2383071E-2,-1.733034E-2,6.691571E-2],"categories":[],"categories_nodes":[],"categories_segments":[],"categories_sizes":[],"default_left":[1,0,0,0,0,0,0,0,0,0,0,0,0,0,0,0,0,0,0,0,0,0,0],"id":4,"left_children":[1,3,5,7,9,-1,11,13,15,17,19,21,-1,-1,-1,-1,-1,-1,-1,-1,-1,-1,-1],"loss_changes":[9.442291E2,3.796576E1,5.8408203E0,1.6608331E0,1.4677002E1,0E0,1.749868E1,6.336243E-1,2.6409004E0,1.1627899E1,1.4126953E1,3.535779E0,0E0,0E0,0E0,0E0,0E0,0E0,0E0,0E0,0E0,0E0,0E0],"parents":[2147483647,0,0,1,1,2,2,3,3,4,4,6,6,7,7,8,8,9,9,10,10,11,11],"right_children":[2,4,6,8,10,-1,12,14,16,18,20,22,-1,-1,-1,-1,-1,-1,-1,-1,-1,-1,-1],"split_conditions":[2E0,-1.1381602E2,1.5563065E2,5.736363E-1,3.871065E-1,-3.2633733E-2,1.5430945E1,-1.19247856E2,4.8262626E-1,2E0,7.945402E2,3.0933136E1,-3.1542893E-2,-3.0403513E-2,4.9876696E-3,5.1900424E-2,-2.1964876E-2,4.64659E-2,-2.789321E-2,6.683694E-2,2.2383071E-2,-1.733034E-2,6.691571E-2],"split_indices":[11,5,5,6,6,0,7,5,0,11,7,2,0,0,0,0,0,0,0,0,0,0,0],"split_type":[0,0,0,0,0,0,0,0,0,0,0,0,0,0,0,0,0,0,0,0,0,0,0],"sum_hessian":[1.3112833E3,4.8029068E2,8.309927E2,1.5608665E1,4.64682E2,8.0185144E2,2.9141241E1,1.2555045E1,3.05362E0,1.25280464E2,3.3940155E2,7.1817765E0,2.1959465E1,1.1435069E1,1.1199763E0,1.1011348E0,1.9524853E0,1.20415085E2,4.8653827E0,3.1912E2,2.0281555E1,1.0776457E0,6.1041307E0],"tree_param":{"num_deleted":"0","num_feature":"13","num_nodes":"23","size_leaf_vector":"1"}},{"base_weights":[2.0554429E-2,3.9842916E-1,-6.480136E-1,1.1541498E-1,7.412294E-1,-3.291044E-2,-5.464308E-1,8.329693E-2,5.8183733E-2,1.2143412E-1,9.335378E-1,-3.1070797E-2,2.1167427E-2,1.5110168E-2,-4.8277513E-3,-2.1868382E-2,1.579833E-2,4.3570705E-2,9.030519E-2,-2.6738519E-2,6.0852706E-2],"categories":[],"categories_nodes":[],"categories_segments":[],"categories_sizes":[],"default_left":[1,1,0,0,0,0,0,0,0,0,0,0,0,0,0,0,0,0,0,0,0],"id":5,"left_children":[1,3,5,7,9,-1,11,-1,13,15,17,-1,19,-1,-1,-1,-1,-1,-1,-1,-1],"loss_changes":[3.2255298E2,7.9049545E1,1.1782837E-1,3.9656685E1,4.383185E1,0E0,2.053584E0,0E0,1.6381815E1,9.753929E0,1.3671127E1,0E0,5.013136E0,0E0,0E0,0E0,0E0,0E0,0E0,0E0,0E0],"parents":[2147483647,0,0,1,1,2,2,3,3,4,4,6,6,8,8,9,9,10,10,12,12],"right_children":[2,4,6,8,10,-1,12,-1,14,16,18,-1,20,-1,-1,-1,-1,-1,-1,-1,-1],"split_conditions":[3E0,2E0,8.798793E2,-1.19247856E2,5.954026E2,-3.291044E-2,1.66039E5,8.329693E-2,4.1286692E-1,4.1345245E2,1.1174916E3,-3.1070797E-2,4E0,1.5110168E-2,-4.8277513E-3,-2.1868382E-2,1.579833E-2,4.3570705E-2,9.030519E-2,-2.6738519E-2,6.0852706E-2],"split_indices":[11,11,1,5,1,0,10,0,6,1,1,0,11,0,0,0,0,0,0,0,0],"split_type":[0,0,0,0,0,0,0,0,0,0,0,0,0,0,0,0,0,0,0,0,0],"sum_hessian":[1.274733E3,8.1467993E2,4.6005316E2,4.4698666E2,3.6769327E2,4.131123E2,4.694085E1,1.49107895E1,4.3207587E2,8.745709E1,2.8023618E2,4.1379417E1,5.5614285E0,1.6729785E2,2.64778E2,2.226158E1,6.519551E1,2.6347626E2,1.6759935E1,4.173908E0,1.3875203E0],"tree_param":{"num_deleted":"0","num_feature":"13","num_nodes":"21","size_leaf_vector":"1"}},{"base_weights":[-8.045029E-3,-3.2755714E-2,3.1339803E-1,5.2104175E-1,-5.757066E-1,6.547194E-1,-2.380212E-1,-6.369517E-1,-2.8468445E-1,1.8043978E-2,4.9425114E-2,8.105145E-2,-1.6852899E-2,-3.2266073E-2,-1.766849E-2,3.6484715E-2,-2.6868865E-2],"categories":[],"categories_nodes":[],"categories_segments":[],"categories_sizes":[],"default_left":[0,0,1,1,1,1,0,0,0,0,0,0,0,0,0,0,0],"id":6,"left_children":[1,-1,3,5,7,9,11,13,15,-1,-1,-1,-1,-1,-1,-1,-1],"loss_changes":[2.8076492E2,0E0,1.6679968E2,7.439549E1,2.8704796E0,6.0683044E1,2.0852087E1,1.05789185E-1,8.48609E0,0E0,0E0,0E0,0E0,0E0,0E0,0E0,0E0],"parents":[2147483647,0,0,2,2,3,3,4,4,5,5,6,6,7,7,8,8],"right_children":[2,-1,4,6,8,10,12,14,16,-1,-1,-1,-1,-1,-1,-1,-1],"split_conditions":[2E0,-3.2755714E-2,4E0,4E0,4E0,3E0,3.600425E1,5.0250083E-1,3E0,1.8043978E-2,4.9425114E-2,8.105145E-2,-1.6852899E-2,-3.2266073E-2,-1.766849E-2,3.6484715E-2,-2.6868865E-2],"split_indices":[11,0,11,12,12,12,2,0,8,0,0,0,0,0,0,0,0],"split_type":[0,0,0,0,0,0,0,0,0,0,0,0,0,0,0,0,0],"sum_hessian":[1.347871E3,4.4700525E2,9.0086566E2,7.306434E2,1.702223E2,6.213548E2,1.0928858E2,1.396455E2,3.0576822E1,3.3155624E2,2.8979855E2,4.7503495E0,1.0453824E2,1.3440305E2,5.2424397E0,5.7214947E0,2.4855328E1],"tree_param":{"num_deleted":"0","num_feature":"13","num_nodes":"17","size_leaf_vector":"1"}},{"base_weights":[5.6998534E-3,-3.291885E-2,1.0604008E0,7.2305316E-1,1.7050085E0,3.181055E-1,1.5308281E0,1.7186654E0,-1.6629348E-2,-8.66903E-3,3.7963245E-2,-2.6306717E-2,8.000276E-2,8.931349E-2,7.1215145E-2],"categories":[],"categories_nodes":[],"categories_segments":[],"categories_sizes":[],"default_left":[1,0,0,1,0,0,0,1,0,0,0,0,0,0,0],"id":7,"left_children":[1,-1,3,5,7,9,11,13,-1,-1,-1,-1,-1,-1,-1],"loss_changes":[9.255163E2,0E0,1.0978851E2,1.0971019E2,5.431885E0,4.9059143E1,1.6822968E1,9.116211E-1,0E0,0E0,0E0,0E0,0E0,0E0,0E0],"parents":[2147483647,0,0,2,2,3,3,4,4,5,5,6,6,7,7],"right_children":[2,-1,4,6,8,10,12,14,-1,-1,-1,-1,-1,-1,-1],"split_conditions":[3E0,-3.291885E-2,4E0,4E0,3.93484E5,2E0,-1.0092884E2,4E0,-1.6629348E-2,-8.66903E-3,3.7963245E-2,-2.6306717E-2,8.000276E-2,8.931349E-2,7.1215145E-2],"split_indices":[11,0,11,12,10,8,5,12,0,0,0,0,0,0,0],"split_type":[0,0,0,0,0,0,0,0,0,0,0,0,0,0,0],"sum_hessian":[1.3194095E3,8.098655E2,5.09544E2,3.3588452E2,1.7365948E2,2.2465565E2,1.1122888E2,1.7265877E2,1.0007119E0,1.065536E2,1.1810205E2,3.4066355E0,1.0782224E2,1.362897E2,3.6369072E1],"tree_param":{"num_deleted":"0","num_feature":"13","num_nodes":"15","size_leaf_vector":"1"}},{"base_weights":[5.3340634E-3,8.059502E-1,-4.8851463E-1,-5.088535E-1,1.0617172E0,-3.3275613E-1,-6.3943976E-1,5.900355E-2,-6.1000776E-1,1.4119533E0,8.329078E-1,-1.6771711E-1,-5.2563596E-1,5.0339174E-1,-3.243072E-2,-3.2253876E-2,8.194627E-3,-1.3865024E-2,7.810634E-2,4.3915216E-2,-1.0076634E-2,-1.11540295E-2,2.1427108E-2,-2.6934484E-2,7.3662573E-3,-1.8688696E-2,5.5694707E-2],"categories":[],"categories_nodes":[],"categories_segments":[],"categories_sizes":[],"default_left":[1,0,0,0,0,0,0,0,0,0,0,0,0,0,0,0,0,0,0,0,0,0,0,0,0,0,0],"id":8,"left_children":[1,3,5,7,9,11,13,-1,15,17,19,21,23,25,-1,-1,-1,-1,-1,-1,-1,-1,-1,-1,-1,-1,-1],"loss_changes":[5.26261E2,1.7130157E2,1.9139572E1,1.4962851E1,3.2916046E1,1.2874512E1,4.6989746E0,0E0,2.2584438E0,4.2713196E1,1.2375061E1,7.3881326E0,1.7247238E0,2.4963672E0,0E0,0E0,0E0,0E0,0E0,0E0,0E0,0E0,0E0,0E0,0E0,0E0,0E0],"parents":[2147483647,0,0,1,1,2,2,3,3,4,4,5,5,6,6,8,8,9,9,10,10,11,11,12,12,13,13],"right_children":[2,4,6,8,10,12,14,-1,16,18,20,22,24,26,-1,-1,-1,-1,-1,-1,-1,-1,-1,-1,-1,-1,-1],"split_conditions":[2E0,1.0768013E1,3E0,3.3145863E1,2.0513462E-1,5.212675E2,2.4551031E-1,5.900355E-2,2.8470764E-1,6.437485E-2,3.753922E0,2.7114327E0,1.4259525E1,2.4003175E-1,-3.243072E-2,-3.2253876E-2,8.194627E-3,-1.3865024E-2,7.810634E-2,4.3915216E-2,-1.0076634E-2,-1.11540295E-2,2.1427108E-2,-2.6934484E-2,7.3662573E-3,-1.8688696E-2,5.5694707E-2],"split_indices":[12,7,12,2,3,7,0,0,3,3,3,3,3,0,0,0,0,0,0,0,0,0,0,0,0,0,0],"split_type":[0,0,0,0,0,0,0,0,0,0,0,0,0,0,0,0,0,0,0,0,0,0,0,0,0,0,0],"sum_hessian":[1.329019E3,5.0679028E2,8.2222876E2,8.2369484E1,4.244208E2,4.062123E2,4.1601645E2,4.0518355E0,7.831765E1,1.6566623E2,2.5875458E2,2.1991231E2,1.863E2,2.8841782E0,4.1313226E2,7.508173E1,3.2359147E0,1.3456099E1,1.5221013E2,2.480211E2,1.0733489E1,2.018007E2,1.81116E1,1.8295076E2,3.3492446E0,1.342723E0,1.5414551E0],"tree_param":{"num_deleted":"0","num_feature":"13","num_nodes":"27","size_leaf_vector":"1"}},{"base_weights":[2.3631377E-3,3.5794717E-1,-6.383409E-1,-6.23865E-2,7.189282E-1,-3.23973E-2,-5.2986425E-1,-3.4580475E-1,1.1860303E0,9.6490467E-1,1.911928E-2,-3.190529E-2,6.537159E-2,7.00995E-2,-1.8768826E-2,-1.6145809E-2,8.0186956E-2,4.4829976E-2,7.8397E-2,6.4425334E-2,-3.94611E-3],"categories":[],"categories_nodes":[],"categories_segments":[],"categories_sizes":[],"default_left":[1,1,0,1,0,0,1,0,0,0,0,0,0,0,0,0,0,0,0,0,0],"id":9,"left_children":[1,3,5,7,9,-1,11,13,15,17,19,-1,-1,-1,-1,-1,-1,-1,-1,-1,-1],"loss_changes":[2.9987326E2,1.284809E2,1.4614868E-1,1.3910962E2,7.8383286E1,0E0,9.525155E0,1.7078407E1,4.637429E1,1.2474823E1,1.4970702E1,0E0,0E0,0E0,0E0,0E0,0E0,0E0,0E0,0E0,0E0],"parents":[2147483647,0,0,1,1,2,2,3,3,4,4,6,6,7,7,8,8,9,9,10,10],"right_children":[2,4,6,8,10,-1,12,14,16,18,20,-1,-1,-1,-1,-1,-1,-1,-1,-1,-1],"split_conditions":[3E0,2E0,8.798793E2,2E0,3E0,-3.23973E-2,4E0,-1.19247856E2,8.77848E1,7.387317E2,2E0,-3.190529E-2,6.537159E-2,7.00995E-2,-1.8768826E-2,-1.6145809E-2,8.0186956E-2,4.4829976E-2,7.8397E-2,6.4425334E-2,-3.94611E-3],"split_indices":[11,12,1,11,12,0,12,5,7,7,11,0,0,0,0,0,0,0,0,0,0],"split_type":[0,0,0,0,0,0,0,0,0,0,0,0,0,0,0,0,0,0,0,0,0],"sum_hessian":[1.3142461E3,8.454638E2,4.6878226E2,3.910012E2,4.544626E2,4.260814E2,4.2700882E1,3.1924786E2,7.1753334E1,3.359873E2,1.1847527E2,4.0941563E1,1.7593195E0,4.5394726E0,3.147084E2,1.5605691E1,5.614764E1,3.040363E2,3.1951035E1,7.6238174E0,1.10851456E2],"tree_param":{"num_deleted":"0","num_feature":"13","num_nodes":"21","size_leaf_vector":"1"}},{"base_weights":[-2.1858528E-2,-3.225294E-2,2.6564896E-1,5.023404E-1,-5.61361E-1,1.8045599E-2,6.1653566E-1,-5.9827256E-1,-5.6716826E-2,7.24599E-2,-3.7265555E-3,3.8582087E-2,1.6774915E-2,-3.1267002E-2,-2.329051E-2,5.1799357E-2,-2.0604204E-2],"categories":[],"categories_nodes":[],"categories_segments":[],"categories_sizes":[],"default_left":[0,0,0,0,0,0,0,0,0,0,0,0,0,0,0,0,0],"id":10,"left_children":[1,-1,3,5,7,9,11,13,15,-1,-1,-1,-1,-1,-1,-1,-1],"loss_changes":[2.4400563E2,0E0,1.8270937E2,4.0090485E1,3.8377075E0,1.857536E1,2.5316803E1,4.0276337E-1,6.3569536E0,0E0,0E0,0E0,0E0,0E0,0E0,0E0,0E0],"parents":[2147483647,0,0,2,2,3,3,4,4,5,5,6,6,7,7,8,8],"right_children":[2,-1,4,6,8,10,12,14,16,-1,-1,-1,-1,-1,-1,-1,-1],"split_conditions":[2E0,-3.225294E-2,4E0,1.25924E5,8.00001E0,4.1854E4,7.4421497E2,1.8466969E5,6.4513116E2,7.24599E-2,-3.7265555E-3,3.8582087E-2,1.6774915E-2,-3.1267002E-2,-2.329051E-2,5.1799357E-2,-2.0604204E-2],"split_indices":[11,0,11,10,11,10,1,10,1,0,0,0,0,0,0,0,0],"split_type":[0,0,0,0,0,0,0,0,0,0,0,0,0,0,0,0,0],"sum_hessian":[1.359874E3,4.2891522E2,9.3095886E2,7.241101E2,2.0684874E2,1.3838527E2,5.8572485E2,1.9257738E2,1.4271359E1,7.5174985E0,1.3086777E2,3.7629813E2,2.094267E2,1.5681316E2,3.576422E1,3.0322773E0,1.1239081E1],"tree_param":{"num_deleted":"0","num_feature":"13","num_nodes":"17","size_leaf_vector":"1"}},{"base_weights":[-6.573793E-2,-3.25675E-2,8.9079404E-1,4.796147E-1,1.5675036E0,1.1132013E0,1.0910826E-3,1.0060161E0,7.920608E-2,1.5694974E-2,7.265786E-2,5.1083446E-2,-1.827999E-2,7.0466414E-2,-2.1176737E-2],"categories":[],"categories_nodes":[],"categories_segments":[],"categories_sizes":[],"default_left":[1,0,0,0,0,0,0,0,0,0,0,0,0,0,0],"id":11,"left_children":[1,-1,3,5,7,9,11,13,-1,-1,-1,-1,-1,-1,-1],"loss_changes":[7.1747894E2,0E0,1.3459381E2,9.21712E1,1.177063E-1,3.508876E1,6.5566185E1,5.216447E0,0E0,0E0,0E0,0E0,0E0,0E0,0E0],"parents":[2147483647,0,0,2,2,3,3,4,4,5,5,6,6,7,7],"right_children":[2,-1,4,6,8,10,12,14,-1,-1,-1,-1,-1,-1,-1],"split_conditions":[3E0,-3.25675E-2,4E0,2.2432078E-1,2.7529562E0,5E0,1.0409171E1,3.295204E2,7.920608E-2,1.5694974E-2,7.265786E-2,5.1083446E-2,-1.827999E-2,7.0466414E-2,-2.1176737E-2],"split_indices":[11,0,11,3,7,9,7,1,0,0,0,0,0,0,0],"split_type":[0,0,0,0,0,0,0,0,0,0,0,0,0,0,0],"sum_hessian":[1.2788182E3,7.933991E2,4.8541913E2,3.0301263E2,1.824065E2,1.298109E2,1.7320174E2,7.0123262E0,1.7539417E2,3.9309666E1,9.050124E1,4.5309547E1,1.2789219E2,5.4803333E0,1.5319929E0],"tree_param":{"num_deleted":"0","num_feature":"13","num_nodes":"15","size_leaf_vector":"1"}},{"base_weights":[-5.7987547E-3,9.984359E-1,-6.2514734E-1,1.3668811E0,1.3139208E-1,-6.40885E-1,-2.3437981E-1,-3.6253062E-1,1.389641E0,3.7869978E-1,-2.7527347E-1,-3.2162886E-2,-4.1718495E-1,9.019966E-1,-3.128685E-2,-2.5418092E-2,5.584589E-3,1.849939E-2,7.086055E-2,9.425365E-3,4.0272158E-2,-1.5764212E-2,3.6327865E-2,-2.9261528E-2,3.128985E-2,7.483744E-2,-2.3640482E-2],"categories":[],"categories_nodes":[],"categories_segments":[],"categories_sizes":[],"default_left":[1,1,0,0,0,0,0,0,0,0,0,0,0,0,0,0,0,0,0,0,0,0,0,0,0,0,0],"id":12,"left_children":[1,3,5,7,9,11,13,15,17,19,21,-1,23,25,-1,-1,-1,-1,-1,-1,-1,-1,-1,-1,-1,-1,-1],"loss_changes":[8.301887E2,1.624812E2,4.9270325E0,1.4564636E1,1.5486883E1,1.5255737E-1,1.5480139E1,4.325267E-1,9.393188E0,7.601906E0,2.5707717E0,0E0,2.323772E0,8.067675E0,0E0,0E0,0E0,0E0,0E0,0E0,0E0,0E0,0E0,0E0,0E0,0E0,0E0],"parents":[2147483647,0,0,1,1,2,2,3,3,4,4,5,5,6,6,7,7,8,8,9,9,10,10,12,12,13,13],"right_children":[2,4,6,8,10,12,14,16,18,20,22,-1,24,26,-1,-1,-1,-1,-1,-1,-1,-1,-1,-1,-1,-1,-1],"split_conditions":[2E0,2E0,1.5563065E2,-1.19247856E2,5.212675E2,3.753922E0,1.5077326E1,-1.402349E2,1.3988245E1,4.3761626E-1,5.5209626E-2,-3.2162886E-2,2.2076648E-2,2E0,-3.128685E-2,-2.5418092E-2,5.584589E-3,1.849939E-2,7.086055E-2,9.425365E-3,4.0272158E-2,-1.5764212E-2,3.6327865E-2,-2.9261528E-2,3.128985E-2,7.483744E-2,-2.3640482E-2],"split_indices":[11,12,5,5,7,3,7,5,7,3,4,0,4,12,0,0,0,0,0,0,0,0,0,0,0,0,0],"split_type":[0,0,0,0,0,0,0,0,0,0,0,0,0,0,0,0,0,0,0,0,0,0,0,0,0,0,0],"sum_hessian":[1.3327666E3,5.0817722E2,8.245894E2,3.56225E2,1.5195221E2,7.920505E2,3.2538906E1,4.4332905E0,3.5179172E2,9.4532455E1,5.741976E1,7.818817E2,1.0168787E1,8.001196E0,2.4537712E1,3.33556E0,1.0977302E0,9.641127E0,3.421506E2,6.638672E1,2.8145733E1,5.5873592E1,1.5461693E0,9.135723E0,1.0330637E0,5.523143E0,2.478053E0],"tree_param":{"num_deleted":"0","num_feature":"13","num_nodes":"27","size_leaf_vector":"1"}},{"base_weights":[8.714475E-3,3.4851336E-1,-3.1721827E-2,-5.389235E-2,6.731529E-1,-3.1132305E-1,1.0689291E0,9.14233E-1,-9.668992E-3,-2.2534026E-2,3.821148E-3,1.2338598E-2,7.300959E-2,4.7661986E-2,2.0303324E-4,5.5987846E-2,-4.3480042E-3],"categories":[],"categories_nodes":[],"categories_segments":[],"categories_sizes":[],"default_left":[1,1,0,1,0,0,0,0,0,0,0,0,0,0,0,0,0],"id":13,"left_children":[1,3,-1,5,7,9,11,13,15,-1,-1,-1,-1,-1,-1,-1,-1],"loss_changes":[2.8521912E2,1.1158956E2,0E0,1.1081214E2,7.782262E1,1.687748E1,2.2643875E1,1.2399658E1,1.0951141E1,0E0,0E0,0E0,0E0,0E0,0E0,0E0,0E0],"parents":[2147483647,0,0,1,1,3,3,4,4,5,5,6,6,7,7,8,8],"right_children":[2,4,-1,6,8,10,12,14,16,-1,-1,-1,-1,-1,-1,-1,-1],"split_conditions":[3E0,2E0,-3.1721827E-2,2E0,3E0,2.9154876E-1,3.6831787E-1,1.2E1,2E0,-2.2534026E-2,3.821148E-3,1.2338598E-2,7.300959E-2,4.7661986E-2,2.0303324E-4,5.5987846E-2,-4.3480042E-3],"split_indices":[11,12,0,11,12,3,6,9,11,0,0,0,0,0,0,0,0],"split_type":[0,0,0,0,0,0,0,0,0,0,0,0,0,0,0,0,0],"sum_hessian":[1.3030879E3,8.529193E2,4.5016858E2,3.812171E2,4.7170224E2,3.1070428E2,7.051283E1,3.4836725E2,1.23334984E2,2.2843979E2,8.226447E1,2.3262415E1,4.7250416E1,3.3400565E2,1.4361595E1,7.0358086E0,1.1629918E2],"tree_param":{"num_deleted":"0","num_feature":"13","num_nodes":"17","size_leaf_vector":"1"}},{"base_weights":[1.6557673E-2,-3.1963803E-2,3.3383888E-1,5.302416E-1,-5.850914E-1,6.320109E-1,-1.6746448E-1,-3.152619E-2,-3.682232E-1,1.6856601E-2,4.7931947E-2,-1.4073442E-2,7.413943E-2,3.0983774E-2,-2.8508577E-2],"categories":[],"categories_nodes":[],"categories_segments":[],"categories_sizes":[],"default_left":[0,0,1,1,1,1,0,0,0,0,0,0,0,0,0],"id":14,"left_children":[1,-1,3,5,7,9,11,-1,13,-1,-1,-1,-1,-1,-1],"loss_changes":[2.6631638E2,0E0,1.5597928E2,5.0602142E1,1.2690086E0,5.9474136E1,1.7597637E1,0E0,6.097803E0,0E0,0E0,0E0,0E0,0E0,0E0],"parents":[2147483647,0,0,2,2,3,3,4,4,5,5,6,6,8,8],"right_children":[2,-1,4,6,8,10,12,-1,14,-1,-1,-1,-1,-1,-1],"split_conditions":[2E0,-3.1963803E-2,4E0,4E0,4E0,3E0,4.0541846E-1,-3.152619E-2,3E0,1.6856601E-2,4.7931947E-2,-1.4073442E-2,7.413943E-2,3.0983774E-2,-2.8508577E-2],"split_indices":[11,0,11,12,12,12,0,0,8,0,0,0,0,0,0],"split_type":[0,0,0,0,0,0,0,0,0,0,0,0,0,0,0],"sum_hessian":[1.2778264E3,4.1630057E2,8.615259E2,7.101654E2,1.5136049E2,6.1984705E2,9.0318375E1,1.23566734E2,2.7793747E1,3.268237E2,2.9302332E2,8.525794E1,5.060432E0,4.366254E0,2.3427492E1],"tree_param":{"num_deleted":"0","num_feature":"13","num_nodes":"15","size_leaf_vector":"1"}},{"base_weights":[-2.3469968E-2,-3.2242887E-2,8.896904E-1,4.8380858E-1,1.4846115E0,1.0549595E0,1.6515656E-1,-2.1281207E-2,7.5031035E-2,-2.9250024E-2,5.8149613E-2,-1.4032492E-2,5.2937992E-2],"categories":[],"categories_nodes":[],"categories_segments":[],"categories_sizes":[],"default_left":[1,0,0,0,0,0,0,0,0,0,0,0,0],"id":15,"left_children":[1,-1,3,5,7,9,11,-1,-1,-1,-1,-1,-1],"loss_changes":[7.333661E2,0E0,1.2565674E2,5.671714E1,7.1148376E0,2.0480553E1,8.070262E1,0E0,0E0,0E0,0E0,0E0,0E0],"parents":[2147483647,0,0,2,2,3,3,4,4,5,5,6,6],"right_children":[2,-1,4,6,8,10,12,-1,-1,-1,-1,-1,-1],"split_conditions":[3E0,-3.2242887E-2,4E0,1.23325E5,2.7529562E0,4.1854E4,3.783495E1,-2.1281207E-2,7.5031035E-2,-2.9250024E-2,5.8149613E-2,-1.4032492E-2,5.2937992E-2],"split_indices":[11,0,11,10,7,10,2,0,0,0,0,0,0],"split_type":[0,0,0,0,0,0,0,0,0,0,0,0,0],"sum_hessian":[1.2904309E3,7.680689E2,5.22362E2,3.1159274E2,2.1076927E2,1.1075863E2,2.0083412E2,1.5390742E0,2.0923021E2,6.5724463E0,1.0418618E2,1.3444653E2,6.6387596E1],"tree_param":{"num_deleted":"0","num_feature":"13","num_nodes":"13","size_leaf_vector":"1"}},{"base_weights":[3.7136471E-3,9.329429E-1,-6.2021685E-1,1.3180594E0,7.553109E-1,-6.330916E-1,-2.7572772E-1,1.334583E0,4.6362978E-1,-3.718671E-1,8.0497086E-1,-3.1777795E-2,-4.3048152E-1,6.8788844E-1,-3.081411E-2,6.7255706E-2,2.6226608E-2,-2.2055976E-2,5.104381E-2,2.6786884E-2,-3.026405E-2,4.223763E-2,5.6557456E-4,-2.9180212E-2,2.2018263E-2,5.252127E-2,-2.0976208E-2],"categories":[],"categories_nodes":[],"categories_segments":[],"categories_sizes":[],"default_left":[1,0,0,0,0,0,0,0,0,0,0,0,0,0,0,0,0,0,0,0,0,0,0,0,0,0,0],"id":16,"left_children":[1,3,5,7,9,11,13,15,17,19,21,-1,23,25,-1,-1,-1,-1,-1,-1,-1,-1,-1,-1,-1,-1,-1],"loss_changes":[7.526407E2,3.467923E1,3.2701416E0,1.6862488E0,2.0407166E1,9.9823E-2,1.018769E1,6.562805E-1,2.7845244E0,3.6804662E0,1.0863632E1,0E0,1.8686678E0,3.749574E0,0E0,0E0,0E0,0E0,0E0,0E0,0E0,0E0,0E0,0E0,0E0,0E0,0E0],"parents":[2147483647,0,0,1,1,2,2,3,3,4,4,5,5,6,6,7,7,8,8,9,9,10,10,12,12,13,13],"right_children":[2,4,6,8,10,12,14,16,18,20,22,-1,24,26,-1,-1,-1,-1,-1,-1,-1,-1,-1,-1,-1,-1,-1],"split_conditions":[2E0,1.9613314E-1,1.5563065E2,1.4522923E2,-1.19247856E2,3.753922E0,1.5430945E1,8.468187E2,4.325076E-1,2.3746736E-1,8.107391E2,-3.1777795E-2,2.2076648E-2,3.3120972E-1,-3.081411E-2,6.7255706E-2,2.6226608E-2,-2.2055976E-2,5.104381E-2,2.6786884E-2,-3.026405E-2,4.223763E-2,5.6557456E-4,-2.9180212E-2,2.2018263E-2,5.252127E-2,-2.0976208E-2],"split_indices":[11,3,5,5,5,3,7,7,6,3,7,0,4,3,0,0,0,0,0,0,0,0,0,0,0,0,0],"split_type":[0,0,0,0,0,0,0,0,0,0,0,0,0,0,0,0,0,0,0,0,0,0,0,0,0,0,0],"sum_hessian":[1.2961632E3,5.204917E2,7.7567145E2,1.6226704E2,3.5822464E2,7.4691876E2,2.8752691E1,1.5863725E2,3.6297963E0,1.4842496E1,3.4338214E2,7.3583246E2,1.1086333E1,7.241785E0,2.1510906E1,1.559493E2,2.6879506E0,1.4629438E0,2.1668525E0,2.7713144E0,1.2071181E1,3.2693057E2,1.6451561E1,9.709021E0,1.3773129E0,5.4944954E0,1.7472894E0],"tree_param":{"num_deleted":"0","num_feature":"13","num_nodes":"27","size_leaf_vector":"1"}},{"base_weights":[-5.1406594E-3,3.2071316E-1,-6.2443936E-1,-9.029162E-2,6.5119535E-1,-6.3332605E-1,-5.0603986E-1,-3.3452132E-1,9.3645495E-1,8.8215464E-1,-9.244799E-3,-6.3554716E-1,-2.4450018E-1,-3.1144822E-2,6.408858E-2,6.493662E-2,-1.8156976E-2,-2.250064E-2,6.6966504E-2,4.1456085E-2,7.556202E-2,-2.3842117E-2,8.782595E-3,-3.1833284E-2,-1.3044584E-2,3.7934685E-3,-2.0646801E-2],"categories":[],"categories_nodes":[],"categories_segments":[],"categories_sizes":[],"default_left":[1,1,0,1,0,0,0,0,0,0,0,0,0,0,0,0,0,0,0,0,0,0,0,0,0,0,0],"id":17,"left_children":[1,3,5,7,9,11,13,15,17,19,21,23,25,-1,-1,-1,-1,-1,-1,-1,-1,-1,-1,-1,-1,-1,-1],"loss_changes":[2.627032E2,1.1592075E2,1.517334E-1,9.5868454E1,7.2147125E1,2.0173645E-1,8.384179E0,1.4894512E1,4.1650726E1,1.0437408E1,1.0763454E1,5.92041E-3,2.4576385E-1,0E0,0E0,0E0,0E0,0E0,0E0,0E0,0E0,0E0,0E0,0E0,0E0,0E0,0E0],"parents":[2147483647,0,0,1,1,2,2,3,3,4,4,5,5,6,6,7,7,8,8,9,9,10,10,11,11,12,12],"right_children":[2,4,6,8,10,12,14,16,18,20,22,24,26,-1,-1,-1,-1,-1,-1,-1,-1,-1,-1,-1,-1,-1,-1],"split_conditions":[3E0,2E0,8.926838E2,2E0,3E0,1.3385435E2,4E0,-1.19247856E2,8.77848E1,7.719502E2,5.101798E2,6.48633E5,1.78425E5,-3.1144822E-2,6.408858E-2,6.493662E-2,-1.8156976E-2,-2.250064E-2,6.6966504E-2,4.1456085E-2,7.556202E-2,-2.3842117E-2,8.782595E-3,-3.1833284E-2,-1.3044584E-2,3.7934685E-3,-2.0646801E-2],"split_indices":[11,12,1,11,12,5,12,5,7,7,1,10,10,0,0,0,0,0,0,0,0,0,0,0,0,0,0],"split_type":[0,0,0,0,0,0,0,0,0,0,0,0,0,0,0,0,0,0,0,0,0,0,0,0,0,0,0],"sum_hessian":[1.2998018E3,8.5199384E2,4.4780792E2,3.8005923E2,4.719346E2,4.1249805E2,3.5309875E1,3.0757202E2,7.248722E1,3.4940884E2,1.2252576E2,4.095242E2,2.9738297E0,3.3755127E1,1.5547462E0,4.5322623E0,3.0303976E2,1.6294338E1,5.619288E1,3.24381E2,2.5027834E1,3.4272587E1,8.8253174E1,4.0760797E2,1.9162372E0,1.214115E0,1.7597147E0],"tree_param":{"num_deleted":"0","num_feature":"13","num_nodes":"27","size_leaf_vector":"1"}},{"base_weights":[4.185075E-3,-3.163516E-2,3.0084386E-1,4.990787E-1,-5.3422856E-1,6.0878366E-1,-2.0149302E-1,-5.712195E-1,-8.6968675E-2,4.1027535E-2,1.3148682E-2,7.161146E-2,-1.3924921E-2,-3.1208798E-2,-1.5891246E-2,4.1711416E-2,-2.9838745E-2],"categories":[],"categories_nodes":[],"categories_segments":[],"categories_sizes":[],"default_left":[0,0,0,1,0,0,0,1,0,0,0,0,0,0,0,0,0],"id":18,"left_children":[1,-1,3,5,7,9,11,13,15,-1,-1,-1,-1,-1,-1,-1,-1],"loss_changes":[2.394199E2,0E0,1.4337537E2,5.3857605E1,2.7022057E0,4.407077E1,1.2402254E1,1.8607025E0,7.0188413E0,0E0,0E0,0E0,0E0,0E0,0E0,0E0,0E0],"parents":[2147483647,0,0,2,2,3,3,4,4,5,5,6,6,7,7,8,8],"right_children":[2,-1,4,6,8,10,12,14,16,-1,-1,-1,-1,-1,-1,-1,-1],"split_conditions":[2E0,-3.163516E-2,4E0,4E0,8.00001E0,7.4421497E2,3E0,4E0,4.220165E1,4.1027535E-2,1.3148682E-2,7.161146E-2,-1.3924921E-2,-3.1208798E-2,-1.5891246E-2,4.1711416E-2,-2.9838745E-2],"split_indices":[11,0,11,12,11,1,11,12,7,0,0,0,0,0,0,0,0],"split_type":[0,0,0,0,0,0,0,0,0,0,0,0,0,0,0,0,0],"sum_hessian":[1.2651769E3,4.0168277E2,8.63494E2,6.981622E2,1.6533185E2,6.0374994E2,9.441226E1,1.5244652E2,1.2885332E1,3.7359503E2,2.3015488E2,3.4576113E0,9.095465E1,1.2488397E2,2.756255E1,4.363792E0,8.52154E0],"tree_param":{"num_deleted":"0","num_feature":"13","num_nodes":"17","size_leaf_vector":"1"}},{"base_weights":[1.1515344E-2,-3.1926136E-2,8.612587E-1,5.148473E-1,1.370849E0,1.3204452E-1,1.2325426E0,1.3804116E0,-1.7909786E-2,2.7489064E-2,-1.5486968E-2,6.525891E-2,-2.7743915E-2,7.1275994E-2,5.702449E-2],"categories":[],"categories_nodes":[],"categories_segments":[],"categories_sizes":[],"default_left":[1,0,0,1,0,0,0,1,0,0,0,0,0,0,0],"id":19,"left_children":[1,-1,3,5,7,9,11,13,-1,-1,-1,-1,-1,-1,-1],"loss_changes":[7.348885E2,0E0,1.0108649E2,9.45884E1,4.342865E0,4.188506E1,1.6283783E1,8.815918E-1,0E0,0E0,0E0,0E0,0E0,0E0,0E0],"parents":[2147483647,0,0,2,2,3,3,4,4,5,5,6,6,7,7],"right_children":[2,-1,4,6,8,10,12,14,-1,-1,-1,-1,-1,-1,-1],"split_conditions":[3E0,-3.1926136E-2,4E0,4E0,3.93484E5,1.80947E5,4.0541846E-1,4E0,-1.7909786E-2,2.7489064E-2,-1.5486968E-2,6.525891E-2,-2.7743915E-2,7.1275994E-2,5.702449E-2],"split_indices":[11,0,11,12,10,10,0,12,0,0,0,0,0,0,0],"split_type":[0,0,0,0,0,0,0,0,0,0,0,0,0,0,0],"sum_hessian":[1.3284431E3,7.528077E2,5.756355E2,3.43881E2,2.317545E2,2.2503586E2,1.18845146E2,2.3068033E2,1.0741677E0,1.1554024E2,1.0949562E2,1.1446347E2,4.3816714E0,1.9001384E2,4.066649E1],"tree_param":{"num_deleted":"0","num_feature":"13","num_nodes":"15","size_leaf_vector":"1"}},{"base_weights":[2.8394863E-3,8.802758E-1,-6.0914475E-1,1.1995996E0,7.9347804E-2,-3.1279616E-2,-2.0234308E-1,-3.3621067E-1,1.2168136E0,-1.443156E-1,3.5778782E-1,5.5076194E-1,-5.281987E-1,-2.4469849E-2,5.5771447E-3,2.3134768E-2,6.19846E-2,-1.0493211E-2,2.946801E-2,-1.171607E-2,2.8114108E-2,6.39745E-2,-2.538742E-2,-4.9537616E-3,-3.0301983E-2],"categories":[],"categories_nodes":[],"categories_segments":[],"categories_sizes":[],"default_left":[1,1,0,0,0,0,0,0,0,0,0,0,0,0,0,0,0,0,0,0,0,0,0,0,0],"id":20,"left_children":[1,3,5,7,9,-1,11,13,15,17,19,21,23,-1,-1,-1,-1,-1,-1,-1,-1,-1,-1,-1,-1],"loss_changes":[7.008098E2,1.3705328E2,5.017761E0,1.0543213E1,9.637698E0,0E0,7.985749E0,3.9975405E-1,5.970215E0,4.2630196E0,8.468861E0,8.331918E0,6.88077E-1,0E0,0E0,0E0,0E0,0E0,0E0,0E0,0E0,0E0,0E0,0E0,0E0],"parents":[2147483647,0,0,1,1,2,2,3,3,4,4,6,6,7,7,8,8,9,9,10,10,11,11,12,12],"right_children":[2,4,6,8,10,-1,12,14,16,18,20,22,24,-1,-1,-1,-1,-1,-1,-1,-1,-1,-1,-1,-1],"split_conditions":[2E0,2E0,1.5563065E2,-1.19247856E2,3.31528E5,-3.1279616E-2,3.2902032E-1,4.4529414E-1,3.032323E-1,3.7744576E1,7.2966986E2,2E0,3.5321096E-1,-2.4469849E-2,5.5771447E-3,2.3134768E-2,6.19846E-2,-1.0493211E-2,2.946801E-2,-1.171607E-2,2.8114108E-2,6.39745E-2,-2.538742E-2,-4.9537616E-3,-3.0301983E-2],"split_indices":[11,12,5,5,10,0,6,6,6,2,1,12,6,0,0,0,0,0,0,0,0,0,0,0,0],"split_type":[0,0,0,0,0,0,0,0,0,0,0,0,0,0,0,0,0,0,0,0,0,0,0,0,0],"sum_hessian":[1.3031031E3,5.3524866E2,7.6785455E2,3.8232202E2,1.5292662E2,7.3749866E2,3.0355852E1,4.03232E0,3.782897E2,8.507214E1,6.785448E1,8.959289E0,2.1396563E1,2.9351394E0,1.0971807E0,1.1763527E1,3.6652618E2,7.875033E1,6.3218184E0,1.738133E1,5.0473145E1,5.1825876E0,3.776701E0,3.634266E0,1.7762297E1],"tree_param":{"num_deleted":"0","num_feature":"13","num_nodes":"25","size_leaf_vector":"1"}},{"base_weights":[-3.1187786E-3,3.075652E-1,-6.173526E-1,-6.945336E-2,5.9663177E-1,-3.1421546E-2,-5.0881964E-1,-3.1583938E-1,9.544245E-1,8.1410635E-1,-1.8549813E-2,-3.1057326E-2,6.629653E-2,5.7748735E-2,-1.74383E-2,-1.5910696E-2,6.321149E-2,5.8968037E-2,3.680921E-2,5.113959E-2,-4.9001495E-3],"categories":[],"categories_nodes":[],"categories_segments":[],"categories_sizes":[],"default_left":[1,1,0,1,0,0,1,0,0,0,0,0,0,0,0,0,0,0,0,0,0],"id":21,"left_children":[1,3,5,7,9,-1,11,13,15,17,19,-1,-1,-1,-1,-1,-1,-1,-1,-1,-1],"loss_changes":[2.4947444E2,9.4658165E1,2.0822144E-1,9.55747E1,6.577246E1,0E0,1.02884035E1,1.5181517E1,2.9382027E1,9.467789E0,1.0802485E1,0E0,0E0,0E0,0E0,0E0,0E0,0E0,0E0,0E0,0E0],"parents":[2147483647,0,0,1,1,2,2,3,3,4,4,6,6,7,7,8,8,9,9,10,10],"right_children":[2,4,6,8,10,-1,12,14,16,18,20,-1,-1,-1,-1,-1,-1,-1,-1,-1,-1],"split_conditions":[3E0,2E0,8.798793E2,2E0,3E0,-3.1421546E-2,4E0,-1.19247856E2,8.77848E1,2.9595543E1,2E0,-3.1057326E-2,6.629653E-2,5.7748735E-2,-1.74383E-2,-1.5910696E-2,6.321149E-2,5.8968037E-2,3.680921E-2,5.113959E-2,-4.9001495E-3],"split_indices":[11,12,1,11,12,0,12,5,7,2,11,0,0,0,0,0,0,0,0,0,0],"split_type":[0,0,0,0,0,0,0,0,0,0,0,0,0,0,0,0,0,0,0,0,0],"sum_hessian":[1.3052996E3,8.6717523E2,4.3812433E2,3.76665E2,4.9051022E2,3.931991E2,4.492522E1,3.0416278E2,7.250223E1,3.62159E2,1.2835123E2,4.295678E1,1.9684397E0,5.913918E0,2.9824887E2,1.4188919E1,5.831331E1,6.1191822E1,3.0096716E2,8.257154E0,1.2009408E2],"tree_param":{"num_deleted":"0","num_feature":"13","num_nodes":"21","size_leaf_vector":"1"}},{"base_weights":[3.557061E-3,-4.7438025E-1,2.471447E-1,3.3779937E-1,-5.468721E-1,-4.259297E-1,3.4890947E-1,1.2171642E0,-3.000837E-2,-3.810392E-2,-5.7051754E-1,6.584096E-1,-5.3240794E-1,4.7047392E-1,-2.3808265E-1,7.265436E-2,-2.2727765E-2,2.7415568E-2,-2.4242014E-2,-2.9520545E-2,-1.9638035E-2,-1.1401664E-2,5.4818947E-2,-3.0383227E-2,-8.263593E-3,9.97114E-3,3.6062315E-2,6.73516E-2,-1.5925983E-2],"categories":[],"categories_nodes":[],"categories_segments":[],"categories_sizes":[],"default_left":[1,0,0,0,0,0,0,0,0,0,0,0,0,0,0,0,0,0,0,0,0,0,0,0,0,0,0,0,0],"id":22,"left_children":[1,3,5,7,9,11,13,15,-1,17,19,21,23,25,27,-1,-1,-1,-1,-1,-1,-1,-1,-1,-1,-1,-1,-1,-1],"loss_changes":[1.5192967E2,2.612439E1,5.9358147E1,3.1017756E1,4.8487244E0,1.3510735E1,5.373355E1,8.265394E0,0E0,5.256963E0,1.1359253E0,4.380408E0,2.7825108E0,4.2193497E1,1.6951721E1,0E0,0E0,0E0,0E0,0E0,0E0,0E0,0E0,0E0,0E0,0E0,0E0,0E0,0E0],"parents":[2147483647,0,0,1,1,2,2,3,3,4,4,5,5,6,6,7,7,9,9,10,10,11,11,12,12,13,13,14,14],"right_children":[2,4,6,8,10,12,14,16,-1,18,20,22,24,26,28,-1,-1,-1,-1,-1,-1,-1,-1,-1,-1,-1,-1,-1,-1],"split_conditions":[2E0,6.437485E-2,2.9665792E1,3.6868214E1,2.6801413E-1,1.6358372E2,4E0,5.079147E-1,-3.000837E-2,-1.3372882E-2,4.37692E5,3E0,6.952602E2,3E0,3.4862556E1,7.265436E-2,-2.2727765E-2,2.7415568E-2,-2.4242014E-2,-2.9520545E-2,-1.9638035E-2,-1.1401664E-2,5.4818947E-2,-3.0383227E-2,-8.263593E-3,9.97114E-3,3.6062315E-2,6.73516E-2,-1.5925983E-2],"split_indices":[12,3,2,2,0,7,12,0,0,4,10,12,7,12,2,0,0,0,0,0,0,0,0,0,0,0,0,0,0],"split_type":[0,0,0,0,0,0,0,0,0,0,0,0,0,0,0,0,0,0,0,0,0,0,0,0,0,0,0,0,0],"sum_hessian":[1.3030107E3,4.3957803E2,8.6343274E2,3.5720062E1,4.0385797E2,1.1298198E2,7.5045074E2,1.828232E1,1.7437744E1,1.8052036E1,3.8580594E2,9.638915E0,1.0334306E2,6.218631E2,1.2858765E2,1.6135908E1,2.146412E0,7.7074122E0,1.0344624E1,3.44887E2,4.091893E1,3.3460019E0,6.2929134E0,8.521939E1,1.812367E1,2.9971106E2,3.2215204E2,5.449613E0,1.2313804E2],"tree_param":{"num_deleted":"0","num_feature":"13","num_nodes":"29","size_leaf_vector":"1"}},{"base_weights":[-3.9115243E-2,8.837769E-1,-3.231212E-1,9.480586E-1,-2.9572422E-2,-5.1345795E-1,7.295339E-1,-3.0348724E-2,1.0139035E0,3.483346E-1,-5.848451E-1,-3.184866E-2,1.0407574E0,-2.9328445E-2,5.3065855E-2,-3.0961115E-2,5.2185904E-2,-3.0015795E-2,6.295646E-3,-3.034488E-2,5.8137026E-2],"categories":[],"categories_nodes":[],"categories_segments":[],"categories_sizes":[],"default_left":[0,0,0,0,0,0,0,0,0,0,1,0,0,0,0,0,0,0,0,0,0],"id":23,"left_children":[1,3,5,7,-1,9,11,-1,13,15,17,-1,19,-1,-1,-1,-1,-1,-1,-1,-1],"loss_changes":[3.2275436E2,2.8040512E1,1.8901572E2,2.908664E1,0E0,4.929315E1,6.215355E1,0E0,2.089441E1,4.2137592E1,8.182495E0,0E0,2.4451004E1,0E0,0E0,0E0,0E0,0E0,0E0,0E0,0E0],"parents":[2147483647,0,0,1,1,2,2,3,3,5,5,6,6,8,8,9,9,10,10,12,12],"right_children":[2,4,6,8,-1,10,12,-1,14,16,18,-1,20,-1,-1,-1,-1,-1,-1,-1,-1],"split_conditions":[1.30399E5,5.1720965E-1,3E0,2.8182498E-1,-2.9572422E-2,8.193222E0,3.491738E1,-3.0348724E-2,-1.0188849E2,8.00001E0,4E0,-3.184866E-2,-6.799647E1,-2.9328445E-2,5.3065855E-2,-3.0961115E-2,5.2185904E-2,-3.0015795E-2,6.295646E-3,-3.034488E-2,5.8137026E-2],"split_indices":[10,0,8,0,0,7,2,0,5,12,12,0,5,0,0,0,0,0,0,0,0],"split_type":[0,0,0,0,0,0,0,0,0,0,0,0,0,0,0,0,0,0,0,0,0],"sum_hessian":[1.2292952E3,2.8877942E2,9.405157E2,2.7706393E2,1.1715483E1,7.9693024E2,1.4358545E2,1.0921318E1,2.6614264E2,6.0667477E1,7.3626276E2,2.644132E1,1.1714412E2,7.3303638E0,2.5881226E2,2.5414814E1,3.5252663E1,7.207304E2,1.5532404E1,7.800856E0,1.0934327E2],"tree_param":{"num_deleted":"0","num_feature":"13","num_nodes":"21","size_leaf_vector":"1"}},{"base_weights":[3.0902238E-4,8.431436E-1,-6.084273E-1,1.1356732E0,7.9638995E-2,-3.1135902E-2,-2.4704702E-1,-3.4045509E-1,1.1524448E0,1.0347875E0,-1.3006287E-2,7.463291E-1,-3.0307988E-2,5.8095916E-3,-2.4568936E-2,4.996643E-3,5.8395248E-2,6.0900223E-2,-1.9471614E-2,9.236708E-3,-1.4542152E-2,5.5297125E-2,-2.0702517E-2],"categories":[],"categories_nodes":[],"categories_segments":[],"categories_sizes":[],"default_left":[1,1,0,0,0,0,0,0,0,0,0,0,0,0,0,0,0,0,0,0,0,0,0],"id":24,"left_children":[1,3,5,7,9,-1,11,13,15,17,19,21,-1,-1,-1,-1,-1,-1,-1,-1,-1,-1,-1],"loss_changes":[6.5947925E2,1.20302734E2,3.700531E0,1.0038818E1,1.3321774E1,0E0,1.1171765E1,4.1198015E-1,6.1560974E0,3.9474869E0,7.6399665E0,3.9742732E0,0E0,0E0,0E0,0E0,0E0,0E0,0E0,0E0,0E0,0E0,0E0],"parents":[2147483647,0,0,1,1,2,2,3,3,4,4,6,6,7,7,8,8,9,9,10,10,11,11],"right_children":[2,4,6,8,10,-1,12,14,16,18,20,22,-1,-1,-1,-1,-1,-1,-1,-1,-1,-1,-1],"split_conditions":[2E0,2E0,1.5563065E2,-1.19247856E2,1.4578568E1,-3.1135902E-2,1.5077326E1,1.82762E5,2.629855E-1,7.013704E1,5.212675E2,2E0,-3.0307988E-2,5.8095916E-3,-2.4568936E-2,4.996643E-3,5.8395248E-2,6.0900223E-2,-1.9471614E-2,9.236708E-3,-1.4542152E-2,5.5297125E-2,-2.0702517E-2],"split_indices":[11,12,5,5,7,0,7,10,6,5,7,12,0,0,0,0,0,0,0,0,0,0,0],"split_type":[0,0,0,0,0,0,0,0,0,0,0,0,0,0,0,0,0,0,0,0,0,0,0],"sum_hessian":[1.2833743E3,5.3803925E2,7.45335E2,3.8864584E2,1.4939345E2,7.162864E2,2.9048635E1,4.1493344E0,3.844965E2,1.2310109E1,1.3708333E2,7.4266925E0,2.1621943E1,1.0878811E0,3.0614533E0,5.6740713E0,3.7882242E2,1.1035281E1,1.2748276E0,8.028116E1,5.6802174E1,5.705434E0,1.7212588E0],"tree_param":{"num_deleted":"0","num_feature":"13","num_nodes":"23","size_leaf_vector":"1"}},{"base_weights":[-3.5519453E-3,3.6572942E-1,-4.1562843E-1,-1.1895109E-2,6.0892963E-1,-2.719386E-2,-5.145308E-1,-3.7870422E-1,1.9521908E-1,5.515012E-1,1.2494448E0,-1.2014241E-1,9.8212266E-1,-5.7550144E-1,-3.110697E-1,-2.3282915E-2,3.639918E-2,6.704361E-3,7.276984E-2,2.1495624E-2,4.216192E-2,6.400461E-2,1.1769016E-2,-7.5779357E-3,3.724532E-2,6.4687274E-2,-2.04278E-2,-2.9348666E-2,-1.8761542E-3,-2.7708385E-2,-4.91537E-3],"categories":[],"categories_nodes":[],"categories_segments":[],"categories_sizes":[],"default_left":[0,0,0,0,0,0,0,0,0,0,0,1,0,0,0,0,0,0,0,0,0,0,0,0,0,0,0,0,0,0,0],"id":25,"left_children":[1,3,5,7,9,11,13,15,17,19,21,23,25,27,29,-1,-1,-1,-1,-1,-1,-1,-1,-1,-1,-1,-1,-1,-1,-1,-1],"loss_changes":[1.967229E2,6.2621765E1,2.3457909E1,2.0439087E1,1.4566147E1,1.18495E1,5.861389E0,9.680849E0,1.3054151E1,1.3201675E1,7.3467636E-1,3.248977E0,5.1455936E0,2.2829437E0,5.865019E0,0E0,0E0,0E0,0E0,0E0,0E0,0E0,0E0,0E0,0E0,0E0,0E0,0E0,0E0,0E0,0E0],"parents":[2147483647,0,0,1,1,2,2,3,3,4,4,5,5,6,6,7,7,8,8,9,9,10,10,11,11,12,12,13,13,14,14],"right_children":[2,4,6,8,10,12,14,16,18,20,22,24,26,28,30,-1,-1,-1,-1,-1,-1,-1,-1,-1,-1,-1,-1,-1,-1,-1,-1],"split_conditions":[3E0,2E0,3.2957825E1,2.3176607E-1,7.453691E2,1.3131665E3,2.7040455E-1,6.145687E2,2.0338786E0,3.2849902E-1,6.371285E-1,4E0,5.7453126E-1,7.098476E2,4.7217368E2,-2.3282915E-2,3.639918E-2,6.704361E-3,7.276984E-2,2.1495624E-2,4.216192E-2,6.400461E-2,1.1769016E-2,-7.5779357E-3,3.724532E-2,6.4687274E-2,-2.04278E-2,-2.9348666E-2,-1.8761542E-3,-2.7708385E-2,-4.91537E-3],"split_indices":[12,12,2,3,7,1,3,7,3,3,6,12,0,7,1,0,0,0,0,0,0,0,0,0,0,0,0,0,0,0,0],"split_type":[0,0,0,0,0,0,0,0,0,0,0,0,0,0,0,0,0,0,0,0,0,0,0,0,0,0,0,0,0,0,0],"sum_hessian":[1.2907664E3,6.807903E2,6.099761E2,2.6706354E2,4.137267E2,1.2405001E2,4.859261E2,9.60774E1,1.7098613E2,3.813922E2,3.2334503E1,1.14396164E2,9.653843E0,3.7247794E2,1.1344815E2,8.961542E1,6.4619823E0,1.6413048E2,6.855652E0,2.709434E2,1.1044882E2,3.1131308E1,1.2031963E0,1.1118308E2,3.213081E0,7.943556E0,1.7102871E0,3.6461185E2,7.866074E0,5.2200386E1,6.1247765E1],"tree_param":{"num_deleted":"0","num_feature":"13","num_nodes":"31","size_leaf_vector":"1"}},{"base_weights":[-4.901956E-3,-3.1279925E-2,2.5698426E-1,4.3134224E-1,-5.662187E-1,5.512337E-1,-1.0811217E-1,-6.061594E-1,-3.8719824E-1,1.53099345E-2,3.949135E-2,6.0429633E-2,-1.3035381E-2,-1.4882204E-2,-3.0763695E-2,2.9132897E-2,-2.8352091E-2],"categories":[],"categories_nodes":[],"categories_segments":[],"categories_sizes":[],"default_left":[0,0,1,0,1,0,0,0,0,0,0,0,0,0,0,0,0],"id":26,"left_children":[1,-1,3,5,7,9,11,13,15,-1,-1,-1,-1,-1,-1,-1,-1],"loss_changes":[2.1265234E2,0E0,1.3229994E2,4.9200516E1,9.182129E-1,3.6111374E1,2.8242163E1,1.825943E-1,5.9433813E0,0E0,0E0,0E0,0E0,0E0,0E0,0E0,0E0],"parents":[2147483647,0,0,2,2,3,3,4,4,5,5,6,6,7,7,8,8],"right_children":[2,-1,4,6,8,10,12,14,16,-1,-1,-1,-1,-1,-1,-1,-1],"split_conditions":[2E0,-3.1279925E-2,4E0,4E0,4E0,3E0,6.437485E-2,-6.1060684E1,3E0,1.53099345E-2,3.949135E-2,6.0429633E-2,-1.3035381E-2,-1.4882204E-2,-3.0763695E-2,2.9132897E-2,-2.8352091E-2],"split_indices":[11,0,11,12,12,12,3,5,8,0,0,0,0,0,0,0,0],"split_type":[0,0,0,0,0,0,0,0,0,0,0,0,0,0,0,0,0],"sum_hessian":[1.3062234E3,3.8717978E2,9.190436E2,7.58802E2,1.6024158E2,6.208082E2,1.3799379E2,1.2906113E2,3.1180447E1,3.0739618E2,3.1341205E2,1.3612756E1,1.24381035E2,4.6692224E0,1.2439191E2,4.527085E0,2.6653362E1],"tree_param":{"num_deleted":"0","num_feature":"13","num_nodes":"17","size_leaf_vector":"1"}},{"base_weights":[-3.084965E-2,-3.136916E-2,7.527855E-1,1.0917635E0,3.429416E-1,-2.9226948E-2,1.1301819E0,9.791401E-1,-3.4052077E-1,6.125713E-2,3.5159092E-2,1.0720907E-2,5.9194308E-2,-2.1991191E-2,7.043227E-2],"categories":[],"categories_nodes":[],"categories_segments":[],"categories_sizes":[],"default_left":[1,0,0,0,0,0,0,0,0,0,0,0,0,0,0],"id":27,"left_children":[1,-1,3,5,7,-1,9,11,13,-1,-1,-1,-1,-1,-1],"loss_changes":[5.8310315E2,0E0,7.452933E1,1.9635162E1,1.07091446E2,0E0,1.0831421E1,1.9696259E1,2.130815E1,0E0,0E0,0E0,0E0,0E0,0E0],"parents":[2147483647,0,0,2,2,3,3,4,4,6,6,7,7,8,8],"right_children":[2,-1,4,6,8,-1,10,12,14,-1,-1,-1,-1,-1,-1],"split_conditions":[3E0,-3.136916E-2,2.3176607E-1,-8.7146736E1,1.23325E5,-2.9226948E-2,4.5208996E1,3.8956052E-1,5.516219E-1,6.125713E-2,3.5159092E-2,1.0720907E-2,5.9194308E-2,-2.1991191E-2,7.043227E-2],"split_indices":[11,0,3,5,10,0,5,0,0,0,0,0,0,0,0],"split_type":[0,0,0,0,0,0,0,0,0,0,0,0,0,0,0],"sum_hessian":[1.2453634E3,7.072083E2,5.38155E2,2.9363144E2,2.4452362E2,6.2603354E0,2.873711E2,1.2641658E2,1.1810703E2,2.3356035E2,5.3810757E1,2.713082E1,9.928576E1,1.1247045E2,5.636581E0],"tree_param":{"num_deleted":"0","num_feature":"13","num_nodes":"15","size_leaf_vector":"1"}},{"base_weights":[-5.419504E-3,8.018467E-1,-6.0670096E-1,1.0624968E0,1.3648696E-1,-4.8748332E-1,-6.1787397E-1,2.0025517E-1,1.0915047E0,4.1297162E-1,-3.0459243E-1,9.333028E-1,-3.1114984E-2,-3.1029234E-2,-4.5376027E-1,5.340288E-2,-2.1562336E-2,5.5149145E-2,4.435462E-3,9.668927E-4,3.3454906E-2,-2.3536352E-2,6.130883E-4,1.0688973E-2,5.9257414E-2,-2.9136023E-2,2.7806703E-2],"categories":[],"categories_nodes":[],"categories_segments":[],"categories_sizes":[],"default_left":[1,1,0,0,0,0,0,0,0,0,0,0,0,0,0,0,0,0,0,0,0,0,0,0,0,0,0],"id":28,"left_children":[1,3,5,7,9,11,13,15,17,19,21,23,-1,-1,25,-1,-1,-1,-1,-1,-1,-1,-1,-1,-1,-1,-1],"loss_changes":[6.211092E2,9.4586914E1,6.756592E-1,9.594421E0,1.9016178E1,1.3525284E1,1.5029907E-2,8.129726E0,4.268524E0,9.629522E0,3.1778998E0,8.804264E-1,0E0,0E0,2.219566E0,0E0,0E0,0E0,0E0,0E0,0E0,0E0,0E0,0E0,0E0,0E0,0E0],"parents":[2147483647,0,0,1,1,2,2,3,3,4,4,5,5,6,6,7,7,8,8,9,9,10,10,11,11,14,14],"right_children":[2,4,6,8,10,12,14,16,18,20,22,24,-1,-1,26,-1,-1,-1,-1,-1,-1,-1,-1,-1,-1,-1,-1],"split_conditions":[2E0,2E0,2E0,3.032323E-1,5.212675E2,1.5430945E1,3.753922E0,5.3237964E2,6.83557E5,2.8028908E-1,4.37692E5,2.8470764E-1,-3.1114984E-2,-3.1029234E-2,2.2076648E-2,5.340288E-2,-2.1562336E-2,5.5149145E-2,4.435462E-3,9.668927E-4,3.3454906E-2,-2.3536352E-2,6.130883E-4,1.0688973E-2,5.9257414E-2,-2.9136023E-2,2.7806703E-2],"split_indices":[11,12,12,6,7,7,3,1,10,3,10,3,0,0,4,0,0,0,0,0,0,0,0,0,0,0,0],"split_type":[0,0,0,0,0,0,0,0,0,0,0,0,0,0,0,0,0,0,0,0,0,0,0,0,0,0,0],"sum_hessian":[1.2775952E3,5.4523804E2,7.323572E2,3.913374E2,1.539006E2,6.65793E1,6.657779E2,1.2994279E1,3.7834314E2,9.464033E1,5.9260284E1,5.2568007E0,6.1322502E1,6.522236E2,1.3554292E1,5.1819744E0,7.812305E0,3.7396277E2,4.3803625E0,3.7729855E1,5.6910473E1,3.8557823E1,2.0702461E1,1.8422726E0,3.414528E0,1.2394539E1,1.1597532E0],"tree_param":{"num_deleted":"0","num_feature":"13","num_nodes":"27","size_leaf_vector":"1"}},{"base_weights":[-4.273499E-4,1.7674096E-1,-4.312885E-1,-2.2166587E-1,3.117426E-1,-5.3977984E-1,1.0925459E-1,-2.558415E-1,5.839963E-1,-5.2313244E-1,3.5863683E-1,7.890417E-1,-5.5898285E-1,-3.9521743E-2,1.1491373E0,-1.5285711E-2,1.2920407E-2,-2.6650117E-3,6.637499E-2,2.5166247E-2,-2.8561864E-2,4.235617E-2,1.4326748E-2,1.6482195E-2,4.9550954E-2,-2.9673308E-2,-1.4501305E-2,5.783801E-2,-6.8552815E-3,2.1524755E-2,6.6715255E-2],"categories":[],"categories_nodes":[],"categories_segments":[],"categories_sizes":[],"default_left":[0,0,0,0,0,0,0,0,0,0,0,0,0,0,0,0,0,0,0,0,0,0,0,0,0,0,0,0,0,0,0],"id":29,"left_children":[1,3,5,7,9,11,13,15,17,19,21,23,25,27,29,-1,-1,-1,-1,-1,-1,-1,-1,-1,-1,-1,-1,-1,-1,-1,-1],"loss_changes":[9.876234E1,4.9380505E1,2.2167236E1,6.5544577E0,2.701342E1,8.457085E0,9.92341E0,5.8201485E0,4.7004724E0,2.1069107E0,2.2627716E1,1.2702084E-1,2.705307E0,6.792081E0,4.9343395E-1,0E0,0E0,0E0,0E0,0E0,0E0,0E0,0E0,0E0,0E0,0E0,0E0,0E0,0E0,0E0,0E0],"parents":[2147483647,0,0,1,1,2,2,3,3,4,4,5,5,6,6,7,7,8,8,9,9,10,10,11,11,12,12,13,13,14,14],"right_children":[2,4,6,8,10,12,14,16,18,20,22,24,26,28,30,-1,-1,-1,-1,-1,-1,-1,-1,-1,-1,-1,-1,-1,-1,-1,-1],"split_conditions":[1E0,2.2611192E-1,8.0867194E2,1.4421384E2,8.026E4,3.0349447E1,4.935791E5,1.1028394E3,3.2105373E1,3.5704953E2,2.9499846E1,3.519075E-1,3.09817E5,-5.959054E1,2.999167E1,-1.5285711E-2,1.2920407E-2,-2.6650117E-3,6.637499E-2,2.5166247E-2,-2.8561864E-2,4.235617E-2,1.4326748E-2,1.6482195E-2,4.9550954E-2,-2.9673308E-2,-1.4501305E-2,5.783801E-2,-6.8552815E-3,2.1524755E-2,6.6715255E-2],"split_indices":[8,3,1,5,10,2,10,1,2,7,2,3,10,5,2,0,0,0,0,0,0,0,0,0,0,0,0,0,0,0,0],"split_type":[0,0,0,0,0,0,0,0,0,0,0,0,0,0,0,0,0,0,0,0,0,0,0,0,0,0,0,0,0,0,0],"sum_hessian":[1.2918038E3,9.158145E2,3.7598932E2,2.3162323E2,6.841913E2,3.1314084E2,6.2848484E1,2.2285245E2,8.770795E0,3.5846554E1,6.483447E2,3.889688E0,3.0925116E2,5.5823753E1,7.024728E0,2.0352025E2,1.9332195E1,5.2225666E0,3.5482287E0,1.1811066E0,3.4665447E1,8.2006424E1,5.663383E2,1.9916835E0,1.8980043E0,2.7303802E2,3.6213146E1,3.3916361E0,5.2432117E1,2.1203754E0,4.9043527E0],"tree_param":{"num_deleted":"0","num_feature":"13","num_nodes":"31","size_leaf_vector":"1"}},{"base_weights":[-8.814907E-3,-4.727121E-1,2.1714179E-1,9.7052133E-1,-4.9838585E-1,-4.2182615E-1,3.0706123E-1,-1.7486E-2,6.389832E-2,-1.01969965E-1,-5.3048694E-1,-5.285936E-1,4.808283E-1,4.1414428E-1,-2.417666E-1,-2.3091583E-2,4.8960146E-2,-7.8085936E-3,-2.7526293E-2,-2.9779637E-2,-1.0355418E-2,4.067872E-2,-2.6010264E-2,8.931975E-3,3.1114817E-2,4.234279E-2,-2.0209612E-2],"categories":[],"categories_nodes":[],"categories_segments":[],"categories_sizes":[],"default_left":[1,0,0,0,0,0,0,0,0,0,0,0,0,0,0,0,0,0,0,0,0,0,0,0,0,0,0],"id":30,"left_children":[1,3,5,7,9,11,13,-1,-1,15,17,19,21,23,25,-1,-1,-1,-1,-1,-1,-1,-1,-1,-1,-1,-1],"loss_changes":[1.3667723E2,1.6308456E1,5.0509716E1,3.6145372E0,5.2941055E0,1.0719875E1,4.5309593E1,0E0,0E0,1.3183406E1,2.8285294E0,1.978548E0,4.4235754E0,3.1460175E1,2.2660446E1,0E0,0E0,0E0,0E0,0E0,0E0,0E0,0E0,0E0,0E0,0E0,0E0],"parents":[2147483647,0,0,1,1,2,2,3,3,4,4,5,5,6,6,9,9,10,10,11,11,12,12,13,13,14,14],"right_children":[2,4,6,8,10,12,14,-1,-1,16,18,20,22,24,26,-1,-1,-1,-1,-1,-1,-1,-1,-1,-1,-1,-1],"split_conditions":[2E0,3.826683E0,2.9769857E1,3.4300102E1,6.437485E-2,3E0,4E0,-1.7486E-2,6.389832E-2,-1.3372882E-2,2.6801413E-1,6.952602E2,4.959227E-1,3E0,8E0,-2.3091583E-2,4.8960146E-2,-7.8085936E-3,-2.7526293E-2,-2.9779637E-2,-1.0355418E-2,4.067872E-2,-2.6010264E-2,8.931975E-3,3.1114817E-2,4.234279E-2,-2.0209612E-2],"split_indices":[12,7,2,2,3,12,12,0,0,4,0,7,6,12,9,0,0,0,0,0,0,0,0,0,0,0,0],"split_type":[0,0,0,0,0,0,0,0,0,0,0,0,0,0,0,0,0,0,0,0,0,0,0,0,0,0,0],"sum_hessian":[1.3019355E3,4.2608197E2,8.758536E2,6.8038816E0,4.1927808E2,1.0759462E2,7.68259E2,1.2591763E0,5.5447054E0,3.172185E1,3.8755624E2,9.658481E1,1.1009811E1,6.430395E2,1.252195E2,2.4229914E1,7.4919343E0,2.0140312E1,3.6741592E2,7.922194E1,1.736287E1,8.403673E0,2.6061375E0,3.025689E2,3.4047055E2,1.5710368E1,1.09509125E2],"tree_param":{"num_deleted":"0","num_feature":"13","num_nodes":"27","size_leaf_vector":"1"}},{"base_weights":[2.4181783E-2,-3.1106845E-2,7.6454604E-1,5.1715463E-1,1.1592335E0,2.1380636E-1,1.1171367E0,6.0462404E-2,8.832305E-1,2.4975708E-2,-1.7931718E-2,-2.6323548E-2,5.8137532E-2,-3.1479534E-2,5.7328116E-2],"categories":[],"categories_nodes":[],"categories_segments":[],"categories_sizes":[],"default_left":[1,0,0,1,1,0,0,0,0,0,0,0,0,0,0],"id":31,"left_children":[1,-1,3,5,7,9,11,-1,13,-1,-1,-1,-1,-1,-1],"loss_changes":[6.1217084E2,0E0,5.7621185E1,6.6798706E1,2.092163E0,4.0392693E1,9.867569E0,0E0,1.6190763E1,0E0,0E0,0E0,0E0,0E0,0E0],"parents":[2147483647,0,0,2,2,3,3,4,4,5,5,6,6,8,8],"right_children":[2,-1,4,6,8,10,12,-1,14,-1,-1,-1,-1,-1,-1],"split_conditions":[3E0,-3.1106845E-2,4E0,4E0,4E0,4.0406954E-1,-1.0092884E2,6.0462404E-2,3E0,2.4975708E-2,-1.7931718E-2,-2.6323548E-2,5.8137532E-2,-3.1479534E-2,5.7328116E-2],"split_indices":[11,0,11,12,12,6,5,0,8,0,0,0,0,0,0],"split_type":[0,0,0,0,0,0,0,0,0,0,0,0,0,0,0],"sum_hessian":[1.2773298E3,6.820648E2,5.952651E2,3.6733105E2,2.2793402E2,2.4487813E2,1.2245292E2,1.9010396E2,3.783008E1,1.6343459E2,8.144355E1,3.0219254E0,1.19431E2,5.4024663E0,3.242761E1],"tree_param":{"num_deleted":"0","num_feature":"13","num_nodes":"15","size_leaf_vector":"1"}},{"base_weights":[-4.4006254E-3,7.507546E-1,-5.948015E-1,1.0450308E0,6.149718E-1,-6.0928E-1,-2.5345528E-1,1.9163306E-1,1.0579021E0,-3.5295162E-1,6.5255886E-1,-6.119056E-1,-4.0945217E-1,8.372418E-1,-5.650828E-1,-2.1939596E-2,3.7751444E-2,5.363601E-2,1.6712064E-2,2.8711999E-2,-2.9891605E-2,3.4011737E-2,-3.280454E-3,-3.0801222E-2,-2.4570726E-2,7.7436934E-3,-2.794872E-2,5.1689684E-2,7.1989E-4,4.800621E-4,-2.9904628E-2],"categories":[],"categories_nodes":[],"categories_segments":[],"categories_sizes":[],"default_left":[1,0,0,0,0,0,0,0,0,0,0,0,0,0,0,0,0,0,0,0,0,0,0,0,0,0,0,0,0,0,0],"id":32,"left_children":[1,3,5,7,9,11,13,15,17,19,21,23,25,27,29,-1,-1,-1,-1,-1,-1,-1,-1,-1,-1,-1,-1,-1,-1,-1,-1],"loss_changes":[5.6541595E2,2.1592072E1,3.3630676E0,1.7114258E0,1.4171555E1,1.0731506E-1,1.0898504E1,1.684683E0,1.4799347E0,3.743001E0,7.3832855E0,3.0380249E-2,1.0879736E0,1.1526752E0,4.6963215E-1,0E0,0E0,0E0,0E0,0E0,0E0,0E0,0E0,0E0,0E0,0E0,0E0,0E0,0E0,0E0,0E0],"parents":[2147483647,0,0,1,1,2,2,3,3,4,4,5,5,6,6,7,7,8,8,9,9,10,10,11,11,12,12,13,13,14,14],"right_children":[2,4,6,8,10,12,14,16,18,20,22,24,26,28,30,-1,-1,-1,-1,-1,-1,-1,-1,-1,-1,-1,-1,-1,-1,-1,-1],"split_conditions":[2E0,1.9613314E-1,1.5563065E2,2.7199776E1,-1.19247856E2,3.753922E0,1.3988245E1,5.5542976E-1,1.4522923E2,2.3746736E-1,8.107391E2,5.348184E-1,4.607568E0,3.140717E-1,1.5077326E1,-2.1939596E-2,3.7751444E-2,5.363601E-2,1.6712064E-2,2.8711999E-2,-2.9891605E-2,3.4011737E-2,-3.280454E-3,-3.0801222E-2,-2.4570726E-2,7.7436934E-3,-2.794872E-2,5.1689684E-2,7.1989E-4,4.800621E-4,-2.9904628E-2],"split_indices":[11,3,5,2,5,3,7,0,5,3,7,0,3,3,7,0,0,0,0,0,0,0,0,0,0,0,0,0,0,0,0],"split_type":[0,0,0,0,0,0,0,0,0,0,0,0,0,0,0,0,0,0,0,0,0,0,0,0,0,0,0,0,0,0,0],"sum_hessian":[1.26619E3,5.554575E2,7.107324E2,1.7326071E2,3.8219684E2,6.810597E2,2.9672733E1,2.8104262E0,1.7045027E2,1.3973288E1,3.6822354E2,6.701918E2,1.0867881E1,6.2191205E0,2.3453613E1,1.430689E0,1.3797374E0,1.665574E2,3.8928702E0,2.6384263E0,1.1334861E1,3.546108E2,1.3612741E1,6.4406244E2,2.6129366E1,2.2688828E0,8.598998E0,4.8130627E0,1.4060576E0,1.3125131E0,2.21411E1],"tree_param":{"num_deleted":"0","num_feature":"13","num_nodes":"31","size_leaf_vector":"1"}},{"base_weights":[2.0458368E-3,2.9561365E-1,-6.078377E-1,-4.735384E-2,5.523123E-1,-6.089119E-1,-8.429348E-3,-2.9667854E-1,8.5026973E-1,7.0772976E-1,3.7886754E-2,-4.6661496E-1,-3.0703867E-2,-2.105879E-2,3.920147E-3,-1.8957287E-2,5.7694193E-2,2.2099724E-2,3.9639458E-2,4.9549267E-2,-2.431792E-3,-2.5671495E-2,-1.3529993E-2],"categories":[],"categories_nodes":[],"categories_segments":[],"categories_sizes":[],"default_left":[1,1,0,1,0,0,0,0,0,0,0,0,0,0,0,0,0,0,0,0,0,0,0],"id":33,"left_children":[1,3,5,7,9,11,-1,13,15,17,19,21,-1,-1,-1,-1,-1,-1,-1,-1,-1,-1,-1],"loss_changes":[2.2850655E2,7.587688E1,9.303284E-2,8.299692E1,3.9375214E1,1.7242432E-2,0E0,1.3579535E1,3.0534122E1,8.203232E0,9.564859E0,3.213787E-2,0E0,0E0,0E0,0E0,0E0,0E0,0E0,0E0,0E0,0E0,0E0],"parents":[2147483647,0,0,1,1,2,2,3,3,4,4,5,5,7,7,8,8,9,9,10,10,11,11],"right_children":[2,4,6,8,10,12,-1,14,16,18,20,22,-1,-1,-1,-1,-1,-1,-1,-1,-1,-1,-1],"split_conditions":[3E0,2E0,6.48633E5,2E0,3E0,2.863991E1,-8.429348E-3,2.9154876E-1,8.77848E1,6.314405E2,2E0,5.6689E4,-3.0703867E-2,-2.105879E-2,3.920147E-3,-1.8957287E-2,5.7694193E-2,2.2099724E-2,3.9639458E-2,4.9549267E-2,-2.431792E-3,-2.5671495E-2,-1.3529993E-2],"split_indices":[11,12,10,11,12,2,0,3,7,1,11,10,0,0,0,0,0,0,0,0,0,0,0],"split_type":[0,0,0,0,0,0,0,0,0,0,0,0,0,0,0,0,0,0,0,0,0,0,0],"sum_hessian":[1.2742687E3,8.605552E2,4.137135E2,3.6872638E2,4.9182883E2,4.123189E2,1.3945876E0,2.8909625E2,7.9630135E1,3.7742578E2,1.1440305E2,1.764256E1,3.9467636E2,2.1695988E2,7.213635E1,1.5721355E1,6.3908783E1,9.3019264E1,2.8440652E2,8.651215E0,1.0575184E2,1.2934124E1,4.7084355E0],"tree_param":{"num_deleted":"0","num_feature":"13","num_nodes":"23","size_leaf_vector":"1"}},{"base_weights":[1.6254872E-2,-3.062906E-2,2.627997E-1,4.168802E-1,-5.3566474E-1,5.235136E-1,-7.878742E-2,-5.93121E-1,-3.065068E-1,3.4775622E-2,1.1582574E-2,2.972111E-2,-1.6883519E-2,-3.0676693E-2,-2.2144008E-2,3.609143E-2,-2.7743295E-2],"categories":[],"categories_nodes":[],"categories_segments":[],"categories_sizes":[],"default_left":[0,0,1,0,1,0,0,0,0,0,0,0,0,0,0,0,0],"id":34,"left_children":[1,-1,3,5,7,9,11,13,15,-1,-1,-1,-1,-1,-1,-1,-1],"loss_changes":[2.0015048E2,0E0,1.1431271E2,4.1157166E1,1.7990074E0,3.1982544E1,2.4354883E1,9.389496E-2,8.631402E0,0E0,0E0,0E0,0E0,0E0,0E0,0E0,0E0],"parents":[2147483647,0,0,2,2,3,3,4,4,5,5,6,6,7,7,8,8],"right_children":[2,-1,4,6,8,10,12,14,16,-1,-1,-1,-1,-1,-1,-1,-1],"split_conditions":[2E0,-3.062906E-2,4E0,4E0,4E0,7.4421497E2,5E0,2.08492E5,3E0,3.4775622E-2,1.1582574E-2,2.972111E-2,-1.6883519E-2,-3.0676693E-2,-2.2144008E-2,3.609143E-2,-2.7743295E-2],"split_indices":[11,0,11,12,12,1,9,10,8,0,0,0,0,0,0,0,0],"split_type":[0,0,0,0,0,0,0,0,0,0,0,0,0,0,0,0,0],"sum_hessian":[1.2889529E3,3.6260632E2,9.263466E2,7.769044E2,1.4944215E2,6.3931244E2,1.3759204E2,1.1821428E2,3.1227873E1,4.0138635E2,2.3792607E2,3.7855354E1,9.973668E1,1.0135917E2,1.6855108E1,5.703994E0,2.5523878E1],"tree_param":{"num_deleted":"0","num_feature":"13","num_nodes":"17","size_leaf_vector":"1"}},{"base_weights":[-3.6959723E-2,-3.08677E-2,6.804563E-1,3.9364228E-1,1.1071427E0,1.2085032E-1,9.9573475E-1,5.7839423E-2,8.4957665E-1,3.878869E-2,-1.4679675E-2,5.4409355E-2,-3.2005187E-2,-3.0539175E-2,5.4401424E-2],"categories":[],"categories_nodes":[],"categories_segments":[],"categories_sizes":[],"default_left":[1,0,0,1,1,0,0,0,0,0,0,0,0,0,0],"id":35,"left_children":[1,-1,3,5,7,9,11,-1,13,-1,-1,-1,-1,-1,-1],"loss_changes":[5.0721902E2,0E0,6.623599E1,5.3645416E1,1.8105164E0,6.1684322E1,1.611222E1,0E0,1.4268494E1,0E0,0E0,0E0,0E0,0E0,0E0],"parents":[2147483647,0,0,2,2,3,3,4,4,5,5,6,6,8,8],"right_children":[2,-1,4,6,8,10,12,-1,14,-1,-1,-1,-1,-1,-1],"split_conditions":[3E0,-3.08677E-2,4E0,4E0,4E0,2.1732335E-1,2.3099012E1,5.7839423E-2,3E0,3.878869E-2,-1.4679675E-2,5.4409355E-2,-3.2005187E-2,-3.0539175E-2,5.4401424E-2],"split_indices":[11,0,11,12,12,3,5,0,8,0,0,0,0,0,0],"split_type":[0,0,0,0,0,0,0,0,0,0,0,0,0,0,0],"sum_hessian":[1.216143E3,6.7234827E2,5.437947E2,3.2634897E2,2.1744568E2,2.2541858E2,1.009304E2,1.793792E2,3.8066475E1,8.70253E1,1.383933E2,9.5848145E1,5.0822496E0,5.1239853E0,3.294249E1],"tree_param":{"num_deleted":"0","num_feature":"13","num_nodes":"15","size_leaf_vector":"1"}},{"base_weights":[-4.533679E-3,7.203954E-1,-5.9057975E-1,1.0093167E0,5.873384E-1,-6.0404724E-1,-2.771182E-1,1.0189734E0,-2.7098963E-3,-4.1966277E-1,6.269682E-1,-6.067301E-1,-4.023995E-1,5.720859E-1,-2.9647717E-2,8.721932E-3,5.1599283E-2,1.7204622E-2,-2.982131E-2,3.437053E-2,1.3073673E-2,-3.0548513E-2,-2.3101635E-2,-2.805063E-2,2.7693285E-2,4.0398017E-2,-1.9861847E-2],"categories":[],"categories_nodes":[],"categories_segments":[],"categories_sizes":[],"default_left":[1,0,0,0,0,0,0,0,0,0,0,0,0,0,0,0,0,0,0,0,0,0,0,0,0,0,0],"id":36,"left_children":[1,3,5,7,9,11,13,15,-1,17,19,21,23,25,-1,-1,-1,-1,-1,-1,-1,-1,-1,-1,-1,-1,-1],"loss_changes":[5.314384E2,2.090445E1,2.7526703E0,1.8517761E0,1.56380005E1,1.14212036E-1,8.477199E0,1.7256317E0,0E0,2.255501E0,8.017883E0,1.1752319E-1,2.0802062E0,2.3179893E0,0E0,0E0,0E0,0E0,0E0,0E0,0E0,0E0,0E0,0E0,0E0,0E0,0E0],"parents":[2147483647,0,0,1,1,2,2,3,3,4,4,5,5,6,6,7,7,9,9,10,10,11,11,12,12,13,13],"right_children":[2,4,6,8,10,12,14,16,-1,18,20,22,24,26,-1,-1,-1,-1,-1,-1,-1,-1,-1,-1,-1,-1,-1],"split_conditions":[2E0,1.9613314E-1,1.5563065E2,2E0,-1.19247856E2,3.753922E0,1.5430945E1,2.7199776E1,-2.7098963E-3,2.3746736E-1,9.906035E2,5.348184E-1,2.2076648E-2,3.5321096E-1,-2.9647717E-2,8.721932E-3,5.1599283E-2,1.7204622E-2,-2.982131E-2,3.437053E-2,1.3073673E-2,-3.0548513E-2,-2.3101635E-2,-2.805063E-2,2.7693285E-2,4.0398017E-2,-1.9861847E-2],"split_indices":[11,3,5,11,5,3,7,2,0,3,1,0,4,6,0,0,0,0,0,0,0,0,0,0,0,0,0],"split_type":[0,0,0,0,0,0,0,0,0,0,0,0,0,0,0,0,0,0,0,0,0,0,0,0,0,0,0],"sum_hessian":[1.2489075E3,5.5819745E2,6.9070996E2,1.7393266E2,3.8426477E2,6.613681E2,2.934189E1,1.7240909E2,1.5235868E0,1.4186779E1,3.7007797E2,6.507019E2,1.0666176E1,7.7344794E0,2.160741E1,2.8346915E0,1.6957439E2,2.488387E0,1.1698392E1,3.1680646E2,5.327151E1,6.29046E2,2.1655924E1,9.503231E0,1.1629453E0,6.3546195E0,1.3798598E0],"tree_param":{"num_deleted":"0","num_feature":"13","num_nodes":"27","size_leaf_vector":"1"}},{"base_weights":[1.30679365E-2,2.7836952E-1,-5.977675E-1,-5.4997135E-2,5.278586E-1,-3.9659482E-1,-3.0466167E-2,-2.8174907E-1,8.272962E-1,6.912742E-1,1.328284E-2,-2.9520193E-2,4.8972707E-2,-2.0615961E-2,3.3915627E-3,-2.4732018E-2,5.2778315E-2,3.6272317E-2,-1.2260345E-2,5.3346094E-2,-3.1906893E-3],"categories":[],"categories_nodes":[],"categories_segments":[],"categories_sizes":[],"default_left":[1,1,0,1,0,0,0,0,0,0,0,0,0,0,0,0,0,0,0,0,0],"id":37,"left_children":[1,3,5,7,9,11,-1,13,15,17,19,-1,-1,-1,-1,-1,-1,-1,-1,-1,-1],"loss_changes":[2.0425716E2,7.311305E1,6.456146E-1,7.566371E1,4.2261032E1,6.8715E0,0E0,1.3753117E1,2.3860676E1,1.2386459E1,9.993013E0,0E0,0E0,0E0,0E0,0E0,0E0,0E0,0E0,0E0,0E0],"parents":[2147483647,0,0,1,1,2,2,3,3,4,4,5,5,7,7,8,8,9,9,10,10],"right_children":[2,4,6,8,10,12,-1,14,16,18,20,-1,-1,-1,-1,-1,-1,-1,-1,-1,-1],"split_conditions":[3E0,2E0,2.8966513E1,2E0,3E0,3E0,-3.0466167E-2,2.9154876E-1,1.9888487E1,1.5E1,2E0,-2.9520193E-2,4.8972707E-2,-2.0615961E-2,3.3915627E-3,-2.4732018E-2,5.2778315E-2,3.6272317E-2,-1.2260345E-2,5.3346094E-2,-3.1906893E-3],"split_indices":[11,12,2,11,12,12,0,3,7,9,11,0,0,0,0,0,0,0,0,0,0],"split_type":[0,0,0,0,0,0,0,0,0,0,0,0,0,0,0,0,0,0,0,0,0],"sum_hessian":[1.2583873E3,8.777166E2,3.806707E2,3.7603677E2,5.016798E2,2.2597471E1,3.580732E2,2.9969498E2,7.634181E1,3.8049976E2,1.2118004E2,2.0308125E1,2.2893467E0,2.1806648E2,8.162849E1,1.1069609E1,6.52722E1,3.673216E2,1.3178176E1,7.387002E0,1.1379304E2],"tree_param":{"num_deleted":"0","num_feature":"13","num_nodes":"21","size_leaf_vector":"1"}},{"base_weights":[3.4441825E-2,-3.0372936E-2,2.9049924E-1,4.376287E-1,-5.2462494E-1,5.200077E-1,-5.2177932E-2,6.1088256E-5,-5.4743797E-1,1.5986567E-2,4.3196544E-2,-8.169635E-3,5.69986E-2,-2.5439098E-2,5.251832E-2,-2.9425466E-2,-1.4601837E-2],"categories":[],"categories_nodes":[],"categories_segments":[],"categories_sizes":[],"default_left":[0,0,1,0,0,1,0,0,0,0,0,0,0,0,0,0,0],"id":38,"left_children":[1,-1,3,5,7,9,11,13,15,-1,-1,-1,-1,-1,-1,-1,-1],"loss_changes":[2.082299E2,0E0,1.088295E2,3.1000626E1,1.6627693E0,4.4991425E1,1.4959597E1,4.1622114E0,1.2245598E0,0E0,0E0,0E0,0E0,0E0,0E0,0E0,0E0],"parents":[2147483647,0,0,2,2,3,3,4,4,5,5,6,6,7,7,8,8],"right_children":[2,-1,4,6,8,10,12,14,16,-1,-1,-1,-1,-1,-1,-1,-1],"split_conditions":[2E0,-3.0372936E-2,4E0,3.7E1,2.7529562E0,3E0,4.6532282E-1,2.9511046E-1,1.8466969E5,1.5986567E-2,4.3196544E-2,-8.169635E-3,5.69986E-2,-2.5439098E-2,5.251832E-2,-2.9425466E-2,-1.4601837E-2],"split_indices":[11,0,11,9,7,11,0,0,10,0,0,0,0,0,0,0,0],"split_type":[0,0,0,0,0,0,0,0,0,0,0,0,0,0,0,0,0],"sum_hessian":[1.2648137E3,3.6027695E2,9.045368E2,7.6662463E2,1.3791217E2,6.56199E2,1.1042567E2,5.788039E0,1.3212413E2,4.1592407E2,2.4027487E2,1.01792465E2,8.6332E0,4.246377E0,1.5416625E0,1.12696976E2,1.9427164E1],"tree_param":{"num_deleted":"0","num_feature":"13","num_nodes":"17","size_leaf_vector":"1"}},{"base_weights":[-3.3208802E-3,-3.06195E-2,6.753503E-1,4.534063E-1,1.0447332E0,-2.1713763E-3,7.693676E-1,5.4767292E-2,7.254322E-1,-2.6543755E-2,4.78694E-2,-3.2446995E-2,4.4830162E-2,-3.060834E-2,5.0087422E-2],"categories":[],"categories_nodes":[],"categories_segments":[],"categories_sizes":[],"default_left":[1,0,0,0,1,0,0,0,0,0,0,0,0,0,0],"id":39,"left_children":[1,-1,3,5,7,9,11,-1,13,-1,-1,-1,-1,-1,-1],"loss_changes":[5.179322E2,0E0,4.8111847E1,5.3544327E1,2.7876892E0,7.829357E1,4.021814E1,0E0,1.2917374E1,0E0,0E0,0E0,0E0,0E0,0E0],"parents":[2147483647,0,0,2,2,3,3,4,4,5,5,6,6,8,8],"right_children":[2,-1,4,6,8,10,12,-1,14,-1,-1,-1,-1,-1,-1],"split_conditions":[3E0,-3.06195E-2,4E0,9E0,4E0,1.6437024E-2,3.4704365E1,5.4767292E-2,3E0,-2.6543755E-2,4.78694E-2,-3.2446995E-2,4.4830162E-2,-3.060834E-2,5.0087422E-2],"split_indices":[11,0,11,9,12,4,2,0,8,0,0,0,0,0,0],"split_type":[0,0,0,0,0,0,0,0,0,0,0,0,0,0,0],"sum_hessian":[1.2509874E3,6.5935297E2,5.916344E2,3.7096637E2,2.2066803E2,1.5232515E2,2.1864122E2,1.8837766E2,3.229038E1,9.849986E1,5.382529E1,1.7661915E1,2.009793E2,5.320296E0,2.6970083E1],"tree_param":{"num_deleted":"0","num_feature":"13","num_nodes":"15","size_leaf_vector":"1"}},{"base_weights":[-1.0426001E-2,6.895232E-1,-5.8488E-1,9.356582E-1,7.354242E-2,-3.96589E-1,-6.015126E-1,2.3621666E-1,9.5776457E-1,2.98967E-1,-3.061389E-1,5.50864E-2,-3.0268151E-2,-3.0287642E-2,-4.8537233E-1,4.250938E-2,-1.6051268E-2,4.8513006E-2,1.2356148E-2,-1.26931295E-2,2.152681E-2,-2.6193334E-2,3.5005396E-3,1.3212132E-2,-2.757184E-2],"categories":[],"categories_nodes":[],"categories_segments":[],"categories_sizes":[],"default_left":[1,1,0,0,0,0,0,0,0,0,0,0,0,0,0,0,0,0,0,0,0,0,0,0,0],"id":40,"left_children":[1,3,5,7,9,11,13,15,17,19,21,-1,-1,-1,23,-1,-1,-1,-1,-1,-1,-1,-1,-1,-1],"loss_changes":[5.112177E2,8.682291E1,1.9483337E0,6.103943E0,1.4188862E1,1.9314257E1,2.1011353E-2,5.018398E0,3.2813416E0,7.663185E0,5.102428E0,0E0,0E0,0E0,1.5107398E0,0E0,0E0,0E0,0E0,0E0,0E0,0E0,0E0,0E0,0E0],"parents":[2147483647,0,0,1,1,2,2,3,3,4,4,5,5,6,6,7,7,8,8,9,9,10,10,14,14],"right_children":[2,4,6,8,10,12,14,16,18,20,22,-1,-1,-1,24,-1,-1,-1,-1,-1,-1,-1,-1,-1,-1],"split_conditions":[2E0,2E0,2E0,3.032323E-1,5.212675E2,1.5430945E1,5.348184E-1,-5.4808133E-3,8.686313E2,1.82762E5,4.37692E5,5.50864E-2,-3.0268151E-2,-3.0287642E-2,5.3735805E-1,4.250938E-2,-1.6051268E-2,4.8513006E-2,1.2356148E-2,-1.26931295E-2,2.152681E-2,-2.6193334E-2,3.5005396E-3,1.3212132E-2,-2.757184E-2],"split_indices":[11,12,12,6,7,7,0,4,7,10,10,0,0,0,0,0,0,0,0,0,0,0,0,0,0],"split_type":[0,0,0,0,0,0,0,0,0,0,0,0,0,0,0,0,0,0,0,0,0,0,0,0,0],"sum_hessian":[1.2694026E3,5.7210956E2,6.9729297E2,4.0840085E2,1.637087E2,5.861233E1,6.3868066E2,1.2870343E1,3.9553052E2,1.0285447E2,6.0854225E1,6.645093E0,5.196724E1,6.1211707E2,2.6563559E1,5.873356E0,6.9969873E0,3.883369E2,7.193617E0,1.9594109E1,8.326036E1,3.8295074E1,2.255915E1,1.9085041E0,2.4655054E1],"tree_param":{"num_deleted":"0","num_feature":"13","num_nodes":"25","size_leaf_vector":"1"}},{"base_weights":[2.9127824E-3,2.8084937E-1,-5.9956807E-1,-5.065967E-2,5.103684E-1,-3.0033493E-2,-1.10439565E-2,-3.0021808E-1,8.5804456E-1,6.805585E-1,-1.1184344E-2,-2.0984245E-2,9.5829583E-4,-2.5785541E-2,5.325619E-2,3.5440423E-2,-6.4030983E-3,5.314989E-2,-4.8347E-3],"categories":[],"categories_nodes":[],"categories_segments":[],"categories_sizes":[],"default_left":[1,1,0,1,0,0,0,0,0,0,0,0,0,0,0,0,0,0,0],"id":41,"left_children":[1,3,5,7,9,-1,-1,11,13,15,17,-1,-1,-1,-1,-1,-1,-1,-1],"loss_changes":[2.1100722E2,6.563637E1,3.3309937E-2,8.0463585E1,4.5243134E1,0E0,0E0,1.0623676E1,2.2301224E1,8.8684845E0,1.1709896E1,0E0,0E0,0E0,0E0,0E0,0E0,0E0,0E0],"parents":[2147483647,0,0,1,1,2,2,3,3,4,4,7,7,8,8,9,9,10,10],"right_children":[2,4,6,8,10,-1,-1,12,14,16,18,-1,-1,-1,-1,-1,-1,-1,-1],"split_conditions":[3E0,2E0,6.48633E5,2E0,3E0,-3.0033493E-2,-1.10439565E-2,2.9154876E-1,1.9888487E1,1.5E1,2E0,-2.0984245E-2,9.5829583E-4,-2.5785541E-2,5.325619E-2,3.5440423E-2,-6.4030983E-3,5.314989E-2,-4.8347E-3],"split_indices":[11,12,10,11,12,0,0,3,7,9,11,0,0,0,0,0,0,0,0],"split_type":[0,0,0,0,0,0,0,0,0,0,0,0,0,0,0,0,0,0,0],"sum_hessian":[1.2581041E3,8.61302E2,3.9680215E2,3.5268124E2,5.0862076E2,3.9506653E2,1.7356446E0,2.7721814E2,7.546309E1,3.8325452E2,1.25366234E2,2.0152345E2,7.56947E1,9.689949E0,6.577314E1,3.704364E2,1.2818117E1,8.400969E0,1.1696527E2],"tree_param":{"num_deleted":"0","num_feature":"13","num_nodes":"19","size_leaf_vector":"1"}},{"base_weights":[1.030125E-2,-3.0121654E-2,2.4078034E-1,3.7382674E-1,-5.205804E-1,4.5091423E-1,-1.873941E-1,-5.8271956E-1,-2.3879223E-1,6.1169613E-2,1.9339096E-2,-2.7862797E-2,1.1497169E-2,-3.0205134E-2,-1.8847607E-2,-2.1551078E-2,3.24962E-2],"categories":[],"categories_nodes":[],"categories_segments":[],"categories_sizes":[],"default_left":[0,0,1,1,1,0,0,0,0,0,0,0,0,0,0,0,0],"id":42,"left_children":[1,-1,3,5,7,9,11,13,15,-1,-1,-1,-1,-1,-1,-1,-1],"loss_changes":[1.8135544E2,0E0,9.4718216E1,3.447493E1,2.2987099E0,3.4166077E1,1.5055545E1,2.7113342E-1,4.8669415E0,0E0,0E0,0E0,0E0,0E0,0E0,0E0,0E0],"parents":[2147483647,0,0,2,2,3,3,4,4,5,5,6,6,7,7,8,8],"right_children":[2,-1,4,6,8,10,12,14,16,-1,-1,-1,-1,-1,-1,-1,-1],"split_conditions":[2E0,-3.0121654E-2,4E0,4E0,4E0,4.1345245E2,9.918E4,2.08492E5,8.00479E2,6.1169613E-2,1.9339096E-2,-2.7862797E-2,1.1497169E-2,-3.0205134E-2,-1.8847607E-2,-2.1551078E-2,3.24962E-2],"split_indices":[11,0,11,12,12,1,10,10,1,0,0,0,0,0,0,0,0],"split_type":[0,0,0,0,0,0,0,0,0,0,0,0,0,0,0,0,0],"sum_hessian":[1.2821555E3,3.5001587E2,9.321397E2,7.939137E2,1.3822597E2,6.982068E2,9.5706894E1,1.1237697E2,2.5848997E1,5.213702E1,6.460698E2,5.0561726E1,4.5145172E1,1.0004462E2,1.2332354E1,2.1675577E1,4.173421E0],"tree_param":{"num_deleted":"0","num_feature":"13","num_nodes":"17","size_leaf_vector":"1"}},{"base_weights":[-4.2716954E-2,-4.436173E-1,5.6724423E-1,6.482054E-1,-5.961378E-1,7.674373E-2,9.19114E-1,-2.94168E-2,9.6623826E-1,-2.2016779E-1,-3.0624125E-2,9.9084014E-1,-1.3349576E-1,-1.1617602E-1,1.0026866E0,-2.6548926E-2,5.284772E-2,-3.023677E-2,4.558235E-2,6.506422E-2,-2.8350133E-2,2.616469E-2,-2.5580594E-2,4.0181242E-2,-3.0885328E-2,-2.5816578E-2,5.0893217E-2],"categories":[],"categories_nodes":[],"categories_segments":[],"categories_sizes":[],"default_left":[0,0,0,0,0,0,0,0,0,0,0,0,0,0,0,0,0,0,0,0,0,0,0,0,0,0,0],"id":43,"left_children":[1,3,5,7,9,11,13,-1,15,17,-1,19,21,23,25,-1,-1,-1,-1,-1,-1,-1,-1,-1,-1,-1,-1],"loss_changes":[2.9324277E2,1.20874374E2,8.201808E1,3.5633312E1,3.7696075E0,3.852291E1,2.4070633E1,0E0,1.0245529E1,1.2752618E1,0E0,1.886053E1,4.082012E1,1.0449481E1,6.434204E0,0E0,0E0,0E0,0E0,0E0,0E0,0E0,0E0,0E0,0E0,0E0,0E0],"parents":[2147483647,0,0,1,1,2,2,3,3,4,4,5,5,6,6,8,8,9,9,11,11,12,12,13,13,14,14],"right_children":[2,4,6,8,10,12,14,-1,16,18,-1,20,22,24,26,-1,-1,-1,-1,-1,-1,-1,-1,-1,-1,-1,-1],"split_conditions":[1E0,1.23325E5,4E0,2.0895046E1,7.0201993E0,1.5479723E-1,3.491738E1,-2.94168E-2,3.6998922E-1,4.6355897E-1,-3.0624125E-2,4.0406954E-1,1.25924E5,8.193222E0,4.1854E4,-2.6548926E-2,5.284772E-2,-3.023677E-2,4.558235E-2,6.506422E-2,-2.8350133E-2,2.616469E-2,-2.5580594E-2,4.0181242E-2,-3.0885328E-2,-2.5816578E-2,5.0893217E-2],"split_indices":[8,10,12,5,7,3,2,0,0,0,0,6,10,7,10,0,0,0,0,0,0,0,0,0,0,0,0],"split_type":[0,0,0,0,0,0,0,0,0,0,0,0,0,0,0,0,0,0,0,0,0,0,0,0,0,0,0],"sum_hessian":[1.1971628E3,7.2254126E2,4.7462155E2,8.816433E1,6.3437695E2,1.9876483E2,2.7585672E2,1.7862673E1,7.030166E1,2.7032282E1,6.0734467E2,3.6472744E1,1.6229208E2,2.0575762E1,2.5528094E2,3.7389684E0,6.656269E1,2.0524254E1,6.508029E0,3.0549566E1,5.923178E0,5.9155224E1,1.0313686E2,7.047814E0,1.3527948E1,2.1988294E0,2.5308212E2],"tree_param":{"num_deleted":"0","num_feature":"13","num_nodes":"27","size_leaf_vector":"1"}},{"base_weights":[-9.753416E-3,5.4641837E-1,-4.3948528E-1,-4.3825442E-1,6.858738E-1,-2.8605413E-1,-5.966338E-1,7.81803E-1,-5.7180524E-1,8.2015914E-1,5.1134706E-1,-1.12437285E-1,-5.0667953E-1,3.2272026E-2,-3.0366376E-2,2.5730567E-6,4.6721157E-2,-2.9642541E-2,-5.761579E-3,-1.0442282E-2,4.3414995E-2,-9.358255E-3,2.7968744E-2,-1.659688E-2,3.8696658E-3,1.0262329E-2,-2.6103204E-2],"categories":[],"categories_nodes":[],"categories_segments":[],"categories_sizes":[],"default_left":[1,0,0,0,0,0,0,0,0,0,0,0,0,0,0,0,0,0,0,0,0,0,0,0,0,0,0],"id":44,"left_children":[1,3,5,7,9,11,13,15,17,19,21,23,25,-1,-1,-1,-1,-1,-1,-1,-1,-1,-1,-1,-1,-1,-1],"loss_changes":[2.959918E2,7.442645E1,1.6674042E1,1.1458067E1,1.0671555E1,1.3556793E1,4.9639053E0,8.4584284E-1,5.225105E-1,1.3348038E1,7.0974236E0,8.366759E0,1.818306E0,0E0,0E0,0E0,0E0,0E0,0E0,0E0,0E0,0E0,0E0,0E0,0E0,0E0,0E0],"parents":[2147483647,0,0,1,1,2,2,3,3,4,4,5,5,6,6,7,7,8,8,9,9,10,10,11,11,12,12],"right_children":[2,4,6,8,10,12,14,16,18,20,22,24,26,-1,-1,-1,-1,-1,-1,-1,-1,-1,-1,-1,-1,-1,-1],"split_conditions":[2E0,1.0768013E1,3E0,3.3145863E1,2.541966E-1,5.212675E2,2.4551031E-1,3.954862E-1,2.8174147E-1,6.437485E-2,3.032323E-1,7.2966986E2,1.8918632E-1,3.2272026E-2,-3.0366376E-2,2.5730567E-6,4.6721157E-2,-2.9642541E-2,-5.761579E-3,-1.0442282E-2,4.3414995E-2,-9.358255E-3,2.7968744E-2,-1.659688E-2,3.8696658E-3,1.0262329E-2,-2.6103204E-2],"split_indices":[12,7,12,2,3,7,0,0,3,3,6,1,6,0,0,0,0,0,0,0,0,0,0,0,0,0,0],"split_type":[0,0,0,0,0,0,0,0,0,0,0,0,0,0,0,0,0,0,0,0,0,0,0,0,0,0,0],"sum_hessian":[1.2364299E3,5.3881195E2,6.9761804E2,6.657732E1,4.7223462E2,3.5441095E2,3.432071E2,6.0898013E0,6.048752E1,2.647951E2,2.074395E2,1.9917989E2,1.5523108E2,2.4229758E0,3.4078412E2,1.1581017E0,4.9316993E0,5.7536903E1,2.9506133E0,1.1685268E1,2.5310985E2,1.3159008E1,1.9428049E2,9.2024155E1,1.0715573E2,3.022511E0,1.5220856E2],"tree_param":{"num_deleted":"0","num_feature":"13","num_nodes":"27","size_leaf_vector":"1"}},{"base_weights":[-1.1526471E-3,2.6544678E-1,-5.9248155E-1,-4.6372768E-2,4.7852603E-1,-3.0153085E-2,-4.9578708E-1,-2.612628E-1,7.865786E-1,6.169114E-1,8.272309E-3,-2.997945E-2,5.9059765E-2,4.9464785E-2,-1.4561257E-2,1.434388E-2,5.2498814E-2,3.214859E-2,-6.0409806E-3,4.5610376E-2,-3.544613E-3],"categories":[],"categories_nodes":[],"categories_segments":[],"categories_sizes":[],"default_left":[1,1,0,1,0,0,1,0,0,0,0,0,0,0,0,0,0,0,0,0,0],"id":45,"left_children":[1,3,5,7,9,-1,11,13,15,17,19,-1,-1,-1,-1,-1,-1,-1,-1,-1,-1],"loss_changes":[1.9852264E2,5.769165E1,1.0134888E-1,6.3435783E1,3.3555206E1,0E0,8.405091E0,1.0838112E1,9.266853E0,7.7378693E0,8.527975E0,0E0,0E0,0E0,0E0,0E0,0E0,0E0,0E0,0E0,0E0],"parents":[2147483647,0,0,1,1,2,2,3,3,4,4,6,6,7,7,8,8,9,9,10,10],"right_children":[2,4,6,8,10,-1,12,14,16,18,20,-1,-1,-1,-1,-1,-1,-1,-1,-1,-1],"split_conditions":[3E0,2E0,8.798793E2,2E0,3E0,-3.0153085E-2,4E0,-1.19247856E2,4.0111333E-1,1.5E1,2E0,-2.997945E-2,5.9059765E-2,4.9464785E-2,-1.4561257E-2,1.434388E-2,5.2498814E-2,3.214859E-2,-6.0409806E-3,4.5610376E-2,-3.544613E-3],"split_indices":[11,12,1,11,12,0,12,5,6,9,11,0,0,0,0,0,0,0,0,0,0],"split_type":[0,0,0,0,0,0,0,0,0,0,0,0,0,0,0,0,0,0,0,0,0],"sum_hessian":[1.2572809E3,8.669633E2,3.9031754E2,3.5225574E2,5.147076E2,3.471015E2,4.321602E1,2.8056116E2,7.169459E1,3.9743832E2,1.1726927E2,4.1301968E1,1.9140513E0,5.8155546E0,2.747456E2,2.5467821E1,4.6226765E1,3.840019E2,1.3436431E1,8.5958E0,1.0867347E2],"tree_param":{"num_deleted":"0","num_feature":"13","num_nodes":"21","size_leaf_vector":"1"}},{"base_weights":[-9.024686E-3,-2.9885387E-2,2.0841655E-1,3.26838E-1,-5.5409575E-1,4.2581356E-1,-2.8530306E-1,-2.9991439E-2,4.3688E-2,2.4942195E-2,-5.2368543E-3,6.4446114E-2,-1.7985022E-2,5.175918E-2,-2.7210146E-2],"categories":[],"categories_nodes":[],"categories_segments":[],"categories_sizes":[],"default_left":[0,0,1,1,1,0,0,0,0,0,0,0,0,0,0],"id":46,"left_children":[1,-1,3,5,7,9,11,-1,13,-1,-1,-1,-1,-1,-1],"loss_changes":[1.6324603E2,0E0,8.427997E1,4.9001915E1,3.4590912E0,2.69767E1,1.3685011E1,0E0,6.308336E0,0E0,0E0,0E0,0E0,0E0,0E0],"parents":[2147483647,0,0,2,2,3,3,4,4,5,5,6,6,8,8],"right_children":[2,-1,4,6,8,10,12,-1,14,-1,-1,-1,-1,-1,-1],"split_conditions":[2E0,-2.9885387E-2,4E0,4E0,4E0,1.21715775E2,3E0,-2.9991439E-2,2.5098406E1,2.4942195E-2,-5.2368543E-3,6.4446114E-2,-1.7985022E-2,5.175918E-2,-2.7210146E-2],"split_indices":[11,0,11,12,12,5,11,0,5,0,0,0,0,0,0],"split_type":[0,0,0,0,0,0,0,0,0,0,0,0,0,0,0],"sum_hessian":[1.2733468E3,3.4299652E2,9.303503E2,8.0578046E2,1.2456979E2,6.938913E2,1.1188919E2,1.15713776E2,8.856016E0,6.099864E2,8.390487E1,4.3125324E0,1.0757666E2,3.0132453E0,5.842771E0],"tree_param":{"num_deleted":"0","num_feature":"13","num_nodes":"15","size_leaf_vector":"1"}},{"base_weights":[-3.0240968E-3,-3.831692E-1,5.964678E-1,8.963873E-1,-5.041033E-1,2.2863483E-1,9.102666E-1,-2.4012018E-2,4.898845E-2,-3.0219873E-2,-3.3212298E-1,1.0231067E0,-1.5297426E-2,-2.9286137E-2,9.8023057E-1,-2.4020743E-2,2.9697714E-3,6.045824E-2,-2.8047865E-2,2.715692E-2,-2.443694E-2,4.9436387E-2,-1.9384015E-2],"categories":[],"categories_nodes":[],"categories_segments":[],"categories_sizes":[],"default_left":[0,0,0,0,0,0,0,0,0,0,0,0,0,0,0,0,0,0,0,0,0,0,0],"id":47,"left_children":[1,3,5,7,9,11,13,-1,-1,-1,15,17,19,-1,21,-1,-1,-1,-1,-1,-1,-1,-1],"loss_changes":[2.744356E2,1.1448504E2,5.372998E1,7.816147E0,1.142363E1,4.1965515E1,2.6932587E1,0E0,0E0,0E0,1.4570381E1,1.5669361E1,4.431186E1,0E0,3.184021E0,0E0,0E0,0E0,0E0,0E0,0E0,0E0,0E0],"parents":[2147483647,0,0,1,1,2,2,3,3,4,4,5,5,6,6,10,10,11,11,12,12,14,14],"right_children":[2,4,6,8,10,12,14,-1,-1,-1,16,18,20,-1,22,-1,-1,-1,-1,-1,-1,-1,-1],"split_conditions":[1E0,8.026E4,4E0,5.715726E2,3E0,1.5479723E-1,3.491738E1,-2.4012018E-2,4.898845E-2,-3.0219873E-2,4.7151098E-1,-7.576105E-3,1.25924E5,-2.9286137E-2,7.700529E2,-2.4020743E-2,2.9697714E-3,6.045824E-2,-2.8047865E-2,2.715692E-2,-2.443694E-2,4.9436387E-2,-1.9384015E-2],"split_indices":[9,10,12,7,12,3,2,0,0,0,0,4,10,0,1,0,0,0,0,0,0,0,0],"split_type":[0,0,0,0,0,0,0,0,0,0,0,0,0,0,0,0,0,0,0,0,0,0,0],"sum_hessian":[1.2022225E3,7.3592456E2,4.662979E2,6.2994286E1,6.729303E2,2.1546259E2,2.5083531E2,3.325809E0,5.9668476E1,4.2346356E2,2.4946674E2,4.9864113E1,1.6559848E2,1.0877516E1,2.399578E2,1.8077078E2,6.869596E1,4.4834675E1,5.029437E0,7.591162E1,8.968685E1,2.3875192E2,1.2058669E0],"tree_param":{"num_deleted":"0","num_feature":"13","num_nodes":"23","size_leaf_vector":"1"}},{"base_weights":[-1.5391644E-2,6.255268E-1,-5.789911E-1,8.449457E-1,7.047764E-2,-5.92644E-1,-2.4982882E-1,-2.698796E-2,8.606285E-1,-1.111971E-1,3.0347192E-1,-2.9773517E-2,-3.7929115E-1,1.479423E-1,-2.8506352E-2,4.622677E-2,3.2988973E-2,-9.68024E-3,3.6875222E-2,-7.942609E-3,2.400233E-2,-2.7303366E-2,2.48648E-2,-2.4373293E-2,2.2617009E-2],"categories":[],"categories_nodes":[],"categories_segments":[],"categories_sizes":[],"default_left":[1,1,0,0,0,0,0,0,0,0,0,0,0,0,0,0,0,0,0,0,0,0,0,0,0],"id":48,"left_children":[1,3,5,7,9,11,13,-1,15,17,19,-1,21,23,-1,-1,-1,-1,-1,-1,-1,-1,-1,-1,-1],"loss_changes":[4.458568E2,7.027902E1,2.8034058E0,9.451233E0,7.0061817E0,1.5396118E-1,3.63697E0,0E0,4.647217E0,6.6670513E0,5.989468E0,0E0,1.878158E0,2.7797823E0,0E0,0E0,0E0,0E0,0E0,0E0,0E0,0E0,0E0,0E0,0E0],"parents":[2147483647,0,0,1,1,2,2,3,3,4,4,5,5,6,6,8,8,9,9,10,10,12,12,13,13],"right_children":[2,4,6,8,10,12,14,-1,16,18,20,-1,22,24,-1,-1,-1,-1,-1,-1,-1,-1,-1,-1,-1],"split_conditions":[2E0,2E0,1.5563065E2,-1.19247856E2,3.31528E5,3.753922E0,2E0,-2.698796E-2,2.9154876E-1,3.7744576E1,7.2966986E2,-2.9773517E-2,2.2076648E-2,2.8290784E-1,-2.8506352E-2,4.622677E-2,3.2988973E-2,-9.68024E-3,3.6875222E-2,-7.942609E-3,2.400233E-2,-2.7303366E-2,2.48648E-2,-2.4373293E-2,2.2617009E-2],"split_indices":[11,12,5,5,10,3,12,0,3,2,1,0,4,3,0,0,0,0,0,0,0,0,0,0,0],"split_type":[0,0,0,0,0,0,0,0,0,0,0,0,0,0,0,0,0,0,0,0,0,0,0,0,0],"sum_hessian":[1.2323013E3,5.76548E2,6.5575323E2,4.1282858E2,1.637194E2,6.288688E2,2.6884413E1,4.248973E0,4.0857962E2,9.228439E1,7.1435005E1,6.188793E2,9.989527E0,1.2231946E1,1.4652467E1,3.0722305E2,1.01356575E2,8.482034E1,7.4640517E0,1.9770483E1,5.1664524E1,8.709537E0,1.2799903E0,3.7670648E0,8.464881E0],"tree_param":{"num_deleted":"0","num_feature":"13","num_nodes":"25","size_leaf_vector":"1"}},{"base_weights":[4.904553E-3,2.946492E-1,-3.685406E-1,1.1580132E-2,4.5589462E-1,-1.09248415E-1,-5.226104E-1,-1.6947067E-1,3.8324326E-1,-5.0126237E-1,5.2648646E-1,-1.6857862E-1,9.6694756E-1,-5.345828E-1,5.8628917E-1,-2.5779454E-2,-5.0816373E-3,6.8399996E-2,1.3534895E-2,-2.8513966E-2,3.976314E-2,2.8001538E-2,-6.6000223E-3,-2.2445424E-2,-2.5066086E-3,-6.829495E-3,5.556519E-2,-2.0870242E-2,-2.9038025E-2,3.68109E-2,1.2734577E-2],"categories":[],"categories_nodes":[],"categories_segments":[],"categories_sizes":[],"default_left":[0,0,0,0,0,0,0,0,0,0,0,0,0,0,0,0,0,0,0,0,0,0,0,0,0,0,0,0,0,0,0],"id":49,"left_children":[1,3,5,7,9,11,13,15,17,19,21,23,25,27,29,-1,-1,-1,-1,-1,-1,-1,-1,-1,-1,-1,-1,-1,-1,-1,-1],"loss_changes":[1.3778685E2,3.2723404E1,2.2168564E1,1.7644373E1,3.1128723E1,1.3484157E1,4.943062E0,4.0886617E0,9.1481E0,3.3069296E0,9.481674E0,6.5711517E0,1.9119482E0,1.6271973E0,2.1383762E-2,0E0,0E0,0E0,0E0,0E0,0E0,0E0,0E0,0E0,0E0,0E0,0E0,0E0,0E0,0E0,0E0],"parents":[2147483647,0,0,1,1,2,2,3,3,4,4,5,5,6,6,7,7,8,8,9,9,10,10,11,11,12,12,13,13,14,14],"right_children":[2,4,6,8,10,12,14,16,18,20,22,24,26,28,30,-1,-1,-1,-1,-1,-1,-1,-1,-1,-1,-1,-1,-1,-1,-1,-1],"split_conditions":[3E0,2E0,3.4862556E1,2.8903347E-1,8.026E4,1.3131665E3,6.6651094E5,6.1506085E2,3.032323E-1,-1.6325573E-2,1.2E1,2.074926E-1,1.8674712E-1,1E0,2.2288403E-1,-2.5779454E-2,-5.0816373E-3,6.8399996E-2,1.3534895E-2,-2.8513966E-2,3.976314E-2,2.8001538E-2,-6.6000223E-3,-2.2445424E-2,-2.5066086E-3,-6.829495E-3,5.556519E-2,-2.0870242E-2,-2.9038025E-2,3.68109E-2,1.2734577E-2],"split_indices":[12,12,2,3,10,1,10,1,6,4,9,3,3,8,6,0,0,0,0,0,0,0,0,0,0,0,0,0,0,0,0],"split_type":[0,0,0,0,0,0,0,0,0,0,0,0,0,0,0,0,0,0,0,0,0,0,0,0,0,0,0,0,0,0,0],"sum_hessian":[1.2713983E3,7.160489E2,5.553494E2,2.6024905E2,4.5579987E2,2.076289E2,3.477205E2,1.7536589E2,8.4883156E1,3.0887983E1,4.249119E2,1.9757979E2,1.0049129E1,3.445188E2,3.2017047E0,2.7656797E1,1.4770909E2,7.5619593E0,7.73212E1,2.9858686E1,1.029297E0,4.0445773E2,2.0454147E1,5.785741E1,1.3972238E2,1.1687064E0,8.880423E0,1.0022721E2,2.4429158E2,1.3645298E0,1.8371749E0],"tree_param":{"num_deleted":"0","num_feature":"13","num_nodes":"31","size_leaf_vector":"1"}},{"base_weights":[-1.163261E-2,-2.9663226E-2,1.8981403E-1,3.154344E-1,-5.2335334E-1,-6.542233E-2,3.9755082E-1,-5.662541E-1,-3.211529E-1,-1.3715203E-2,2.6674971E-2,4.0934395E-2,1.4881481E-2,-1.4138854E-2,-2.8749451E-2,-2.8731853E-2,3.9882008E-2],"categories":[],"categories_nodes":[],"categories_segments":[],"categories_sizes":[],"default_left":[0,0,1,0,0,0,0,0,0,0,0,0,0,0,0,0,0],"id":50,"left_children":[1,-1,3,5,7,9,11,13,15,-1,-1,-1,-1,-1,-1,-1,-1],"loss_changes":[1.5021747E2,0E0,8.5480316E1,2.5367989E1,1.0585823E0,1.823393E1,2.7812477E1,1.2626648E-1,8.211718E0,0E0,0E0,0E0,0E0,0E0,0E0,0E0,0E0],"parents":[2147483647,0,0,2,2,3,3,4,4,5,5,6,6,7,7,8,8],"right_children":[2,-1,4,6,8,10,12,14,16,-1,-1,-1,-1,-1,-1,-1,-1],"split_conditions":[2E0,-2.9663226E-2,4E0,1.23325E5,1.8466969E5,4.028595E2,4.981865E2,2.7529562E0,6.037787E2,-1.3715203E-2,2.6674971E-2,4.0934395E-2,1.4881481E-2,-1.4138854E-2,-2.8749451E-2,-2.8731853E-2,3.9882008E-2],"split_indices":[11,0,11,10,10,7,1,7,1,0,0,0,0,0,0,0,0],"split_type":[0,0,0,0,0,0,0,0,0,0,0,0,0,0,0,0,0],"sum_hessian":[1.2801102E3,3.2880746E2,9.5130273E2,8.093058E2,1.4199692E2,1.4358063E2,6.6572516E2,1.1565748E2,2.6339437E1,1.0685542E2,3.6725212E1,1.26283905E2,5.394413E2,4.4548945E0,1.1120258E2,2.1870607E1,4.4688306E0],"tree_param":{"num_deleted":"0","num_feature":"13","num_nodes":"17","size_leaf_vector":"1"}},{"base_weights":[-3.1928156E-2,-2.9979829E-2,5.889339E-1,3.641595E-1,9.454078E-1,-1.639052E-1,6.70775E-1,4.8514362E-2,7.048445E-1,-3.233729E-2,1.2771296E-2,3.7679195E-2,-3.1602915E-2,4.6706814E-2,-2.8229654E-2],"categories":[],"categories_nodes":[],"categories_segments":[],"categories_sizes":[],"default_left":[1,0,0,0,0,0,0,0,0,0,0,0,0,0,0],"id":51,"left_children":[1,-1,3,5,7,9,11,-1,13,-1,-1,-1,-1,-1,-1],"loss_changes":[4.1188803E2,0E0,4.43826E1,5.5802822E1,6.043091E-1,2.5911016E1,2.3974976E1,0E0,7.4633904E0,0E0,0E0,0E0,0E0,0E0,0E0],"parents":[2147483647,0,0,2,2,3,3,4,4,5,5,6,6,8,8],"right_children":[2,-1,4,6,8,10,12,-1,14,-1,-1,-1,-1,-1,-1],"split_conditions":[3E0,-2.9979829E-2,4E0,9E0,1.8466969E5,1.4200237E-3,4.5401746E-1,4.8514362E-2,6.037787E2,-3.233729E-2,1.2771296E-2,3.7679195E-2,-3.1602915E-2,4.6706814E-2,-2.8229654E-2],"split_indices":[11,0,11,9,10,4,0,0,1,0,0,0,0,0,0],"split_type":[0,0,0,0,0,0,0,0,0,0,0,0,0,0,0],"sum_hessian":[1.166661E3,6.094558E2,5.572052E2,3.429683E2,2.1423691E2,1.2615863E2,2.1680968E2,1.9140778E2,2.282913E1,5.83867E1,6.7771935E1,2.0424905E2,1.2560624E1,1.9560207E1,3.2689228E0],"tree_param":{"num_deleted":"0","num_feature":"13","num_nodes":"15","size_leaf_vector":"1"}},{"base_weights":[-1.4208354E-2,5.148781E-1,-4.3536976E-1,-4.3670705E-1,6.285642E-1,-2.9801175E-1,-5.8456665E-1,7.550297E-1,-5.7773834E-1,-2.473184E-2,6.587292E-1,-3.971578E-1,4.2193804E-2,-2.9794825E-2,-3.185426E-1,-1.0957498E-3,4.6565667E-2,-2.9523252E-2,-3.183471E-3,3.8997363E-2,2.4765825E-2,-1.31265195E-2,-2.8205609E-2,1.1834518E-2,-1.8563773E-2,-2.7651394E-2,4.7410112E-2],"categories":[],"categories_nodes":[],"categories_segments":[],"categories_sizes":[],"default_left":[1,0,0,0,0,0,0,0,0,0,0,0,0,0,0,0,0,0,0,0,0,0,0,0,0,0,0],"id":52,"left_children":[1,3,5,7,9,11,13,15,17,-1,19,21,23,-1,25,-1,-1,-1,-1,-1,-1,-1,-1,-1,-1,-1,-1],"loss_changes":[2.6614758E2,5.7544113E1,1.3453995E1,1.0030758E1,1.6361725E1,1.1764244E1,7.6781464E-1,9.0713596E-1,3.000679E-1,0E0,8.752304E0,5.9156876E0,6.481001E0,0E0,5.017764E0,0E0,0E0,0E0,0E0,0E0,0E0,0E0,0E0,0E0,0E0,0E0,0E0],"parents":[2147483647,0,0,1,1,2,2,3,3,4,4,5,5,6,6,7,7,8,8,10,10,11,11,12,12,14,14],"right_children":[2,4,6,8,10,12,14,16,18,-1,20,22,24,-1,26,-1,-1,-1,-1,-1,-1,-1,-1,-1,-1,-1,-1],"split_conditions":[2E0,1.0768013E1,3E0,3.3145863E1,6.8944E4,3.93484E5,4.04779E1,-2.3610203E-2,3.0291575E-1,-2.473184E-2,2.541966E-1,5.212675E2,5.8557684E2,-2.9794825E-2,4.0406903E2,-1.0957498E-3,4.6565667E-2,-2.9523252E-2,-3.183471E-3,3.8997363E-2,2.4765825E-2,-1.31265195E-2,-2.8205609E-2,1.1834518E-2,-1.8563773E-2,-2.7651394E-2,4.7410112E-2],"split_indices":[12,7,12,2,10,10,2,4,3,0,3,7,7,0,1,0,0,0,0,0,0,0,0,0,0,0,0],"split_type":[0,0,0,0,0,0,0,0,0,0,0,0,0,0,0,0,0,0,0,0,0,0,0,0,0,0,0],"sum_hessian":[1.1923871E3,5.283819E2,6.6400525E2,5.608588E1,4.72296E2,3.4727975E2,3.1672552E2,5.4742208E0,5.061166E1,1.1949649E1,4.6034634E2,2.6878143E2,7.849832E1,3.0259796E2,1.412755E1,1.1743085E0,4.2999125E0,4.924393E1,1.3677299E0,2.621287E2,1.9821765E2,1.5022037E2,1.1856106E2,5.367641E1,2.482191E1,1.2396313E1,1.7312374E0],"tree_param":{"num_deleted":"0","num_feature":"13","num_nodes":"27","size_leaf_vector":"1"}},{"base_weights":[3.392311E-3,2.5118944E-1,-5.834277E-1,-3.6735404E-2,4.482344E-1,-4.7897738E-1,-2.9760292E-2,-2.63647E-1,7.684528E-1,5.842341E-1,-4.262574E-3,-2.9193897E-2,4.567262E-2,4.019327E-2,-1.48079535E-2,-1.5302387E-2,4.9890228E-2,3.0403823E-2,-5.6076343E-3,4.348584E-2,-3.972045E-3],"categories":[],"categories_nodes":[],"categories_segments":[],"categories_sizes":[],"default_left":[1,1,0,1,0,0,0,0,0,0,0,0,0,0,0,0,0,0,0,0,0],"id":53,"left_children":[1,3,5,7,9,11,-1,13,15,17,19,-1,-1,-1,-1,-1,-1,-1,-1,-1,-1],"loss_changes":[1.8255325E2,5.009433E1,1.7346954E-1,6.589631E1,3.2256363E1,6.7984915E0,0E0,9.999517E0,1.9849422E1,6.7594757E0,8.092544E0,0E0,0E0,0E0,0E0,0E0,0E0,0E0,0E0,0E0,0E0],"parents":[2147483647,0,0,1,1,2,2,3,3,4,4,5,5,7,7,8,8,9,9,10,10],"right_children":[2,4,6,8,10,12,-1,14,16,18,20,-1,-1,-1,-1,-1,-1,-1,-1,-1,-1],"split_conditions":[3E0,2E0,2.8966513E1,2E0,3E0,3E0,-2.9760292E-2,1.3988245E1,8.77848E1,1.5E1,2E0,-2.9193897E-2,4.567262E-2,4.019327E-2,-1.48079535E-2,-1.5302387E-2,4.9890228E-2,3.0403823E-2,-5.6076343E-3,4.348584E-2,-3.972045E-3],"split_indices":[11,12,2,11,12,12,0,7,7,9,11,0,0,0,0,0,0,0,0,0,0],"split_type":[0,0,0,0,0,0,0,0,0,0,0,0,0,0,0,0,0,0,0,0,0],"sum_hessian":[1.2534103E3,8.816759E2,3.7173434E2,3.585586E2,5.231173E2,4.189239E1,3.2984195E2,2.8025266E2,7.8305954E1,4.0200275E2,1.21114586E2,3.949747E1,2.3949172E0,7.581866E0,2.7267078E2,1.3715441E1,6.4590515E1,3.888175E2,1.3185239E1,8.755819E0,1.12358765E2],"tree_param":{"num_deleted":"0","num_feature":"13","num_nodes":"21","size_leaf_vector":"1"}},{"base_weights":[-1.0339297E-2,-2.9451592E-2,1.9872934E-1,3.0863917E-1,-5.2480996E-1,2.0907708E-2,4.1793537E-1,-2.7895102E-2,-2.6031554E-1,1.7709246E-2,-1.6779123E-2,1.1567199E-2,3.7347086E-2,-2.7453572E-2,3.0058255E-2],"categories":[],"categories_nodes":[],"categories_segments":[],"categories_sizes":[],"default_left":[0,0,1,0,0,0,1,0,0,0,0,0,0,0,0],"id":54,"left_children":[1,-1,3,5,7,9,11,-1,13,-1,-1,-1,-1,-1,-1],"loss_changes":[1.4939171E2,0E0,7.2299194E1,2.4775955E1,9.0504074E-1,2.6020693E1,3.4887314E1,0E0,4.115755E0,0E0,0E0,0E0,0E0,0E0,0E0],"parents":[2147483647,0,0,2,2,3,3,4,4,5,5,6,6,8,8],"right_children":[2,-1,4,6,8,10,12,-1,14,-1,-1,-1,-1,-1,-1],"split_conditions":[2E0,-2.9451592E-2,4E0,2.2432078E-1,1.8466969E5,9E0,3E0,-2.7895102E-2,1.832419E-1,1.7709246E-2,-1.6779123E-2,1.1567199E-2,3.7347086E-2,-2.7453572E-2,3.0058255E-2],"split_indices":[11,0,11,3,10,9,11,0,3,0,0,0,0,0,0],"split_type":[0,0,0,0,0,0,0,0,0,0,0,0,0,0,0],"sum_hessian":[1.232813E3,3.2670126E2,9.0611176E2,7.8711743E2,1.1899429E2,2.1701048E2,5.7010693E2,1.0477598E2,1.4218316E1,1.1216014E2,1.0485034E2,3.648758E2,2.0523116E2,1.09205475E1,3.2977684E0],"tree_param":{"num_deleted":"0","num_feature":"13","num_nodes":"15","size_leaf_vector":"1"}},{"base_weights":[-4.118328E-2,-2.978592E-2,5.776399E-1,7.1043247E-1,6.7786366E-2,-3.159498E-2,7.434076E-1,7.127356E-1,-3.1949E-2,-2.9344726E-2,3.8212307E-2,4.7879558E-2,-3.0719379E-2],"categories":[],"categories_nodes":[],"categories_segments":[],"categories_sizes":[],"default_left":[1,0,0,0,0,0,0,0,0,0,0,0,0],"id":55,"left_children":[1,-1,3,5,7,-1,9,11,-1,-1,-1,-1,-1],"loss_changes":[3.9135272E2,0E0,3.644551E1,1.9393738E1,5.1728703E1,0E0,1.2028793E1,1.9853731E1,0E0,0E0,0E0,0E0,0E0],"parents":[2147483647,0,0,2,2,3,3,4,4,6,6,7,7],"right_children":[2,-1,4,6,8,-1,10,12,-1,-1,-1,-1,-1],"split_conditions":[3E0,-2.978592E-2,2.16066E5,-1.0092884E2,2.4576573E-1,-3.159498E-2,2.730123E-1,6.574577E2,-3.1949E-2,-2.9344726E-2,3.8212307E-2,4.7879558E-2,-3.0719379E-2],"split_indices":[11,0,10,5,3,0,0,1,0,0,0,0,0],"split_type":[0,0,0,0,0,0,0,0,0,0,0,0,0],"sum_hessian":[1.1384381E3,6.004261E2,5.3801196E2,4.2652823E2,1.1148372E2,9.791212E0,4.1673703E2,5.8286648E1,5.319707E1,6.0083313E0,4.107287E2,4.944284E1,8.843807E0],"tree_param":{"num_deleted":"0","num_feature":"13","num_nodes":"13","size_leaf_vector":"1"}},{"base_weights":[-2.1241995E-2,5.791666E-1,-5.731057E-1,7.741347E-1,7.624456E-2,-2.9425953E-2,-2.4295981E-1,-4.1452196E-1,7.9015183E-1,6.6431516E-1,-4.3670353E-3,1.5409277E-1,-2.8283486E-2,5.29904E-3,-2.701467E-2,4.2583875E-2,2.9559676E-2,-1.4293419E-2,4.351781E-2,-2.9162476E-2,3.3561604E-3,-2.5439221E-2,2.3593081E-2],"categories":[],"categories_nodes":[],"categories_segments":[],"categories_sizes":[],"default_left":[1,1,0,0,0,0,0,0,0,0,0,0,0,0,0,0,0,0,0,0,0,0,0],"id":56,"left_children":[1,3,5,7,9,-1,11,13,15,17,19,21,-1,-1,-1,-1,-1,-1,-1,-1,-1,-1,-1],"loss_changes":[3.9655722E2,5.6146805E1,3.0302887E0,8.189987E0,7.646865E0,0E0,3.8694077E0,4.596473E-1,4.4886475E0,4.055751E0,5.9489174E0,3.1933887E0,0E0,0E0,0E0,0E0,0E0,0E0,0E0,0E0,0E0,0E0,0E0],"parents":[2147483647,0,0,1,1,2,2,3,3,4,4,6,6,7,7,8,8,9,9,10,10,11,11],"right_children":[2,4,6,8,10,-1,12,14,16,18,20,22,-1,-1,-1,-1,-1,-1,-1,-1,-1,-1,-1],"split_conditions":[2E0,2E0,1.5563065E2,-1.19247856E2,2.5472593E-1,-2.9425953E-2,2E0,2.0877683E-1,2.9154876E-1,-8.118559E1,1.72354E5,2.8290784E-1,-2.8283486E-2,5.29904E-3,-2.701467E-2,4.2583875E-2,2.9559676E-2,-1.4293419E-2,4.351781E-2,-2.9162476E-2,3.3561604E-3,-2.5439221E-2,2.3593081E-2],"split_indices":[11,12,5,5,0,0,12,3,3,5,10,3,0,0,0,0,0,0,0,0,0,0,0],"split_type":[0,0,0,0,0,0,0,0,0,0,0,0,0,0,0,0,0,0,0,0,0,0,0],"sum_hessian":[1.1948135E3,5.722145E2,6.22599E2,4.1196753E2,1.6024698E2,5.940809E2,2.8518145E1,5.1466475E0,4.0682086E2,1.8445328E1,1.4180165E2,1.3020552E1,1.5497594E1,1.0322118E0,4.1144357E0,3.0822504E2,9.8595825E1,3.2179453E0,1.5227383E1,1.4800243E1,1.2700141E2,4.024398E0,8.996154E0],"tree_param":{"num_deleted":"0","num_feature":"13","num_nodes":"23","size_leaf_vector":"1"}},{"base_weights":[-3.8678255E-3,2.5025028E-1,-5.790187E-1,-2.884781E-2,4.392278E-1,-2.9535E-2,-4.6914622E-1,-2.650742E-1,7.5995684E-1,5.658469E-1,3.782086E-3,-2.9365182E-2,5.8251906E-2,-1.9610021E-2,5.9486594E-4,1.5267724E-2,5.093227E-2,1.6881553E-2,3.1938788E-2,4.356987E-2,-3.354715E-3],"categories":[],"categories_nodes":[],"categories_segments":[],"categories_sizes":[],"default_left":[1,1,0,1,0,0,1,0,0,0,0,0,0,0,0,0,0,0,0,0,0],"id":57,"left_children":[1,3,5,7,9,-1,11,13,15,17,19,-1,-1,-1,-1,-1,-1,-1,-1,-1,-1],"loss_changes":[1.8494907E2,4.630332E1,2.2055054E-1,6.640281E1,2.8854881E1,0E0,8.817974E0,9.657345E0,9.348103E0,6.532776E0,7.37074E0,0E0,0E0,0E0,0E0,0E0,0E0,0E0,0E0,0E0,0E0],"parents":[2147483647,0,0,1,1,2,2,3,3,4,4,6,6,7,7,8,8,9,9,10,10],"right_children":[2,4,6,8,10,-1,12,14,16,18,20,-1,-1,-1,-1,-1,-1,-1,-1,-1,-1],"split_conditions":[3E0,2E0,8.798793E2,2E0,3E0,-2.9535E-2,4E0,2.8028908E-1,4.0619904E-1,6.314405E2,2E0,-2.9365182E-2,5.8251906E-2,-1.9610021E-2,5.9486594E-4,1.5267724E-2,5.093227E-2,1.6881553E-2,3.1938788E-2,4.356987E-2,-3.354715E-3],"split_indices":[11,12,1,11,12,0,12,3,6,1,11,0,0,0,0,0,0,0,0,0,0],"split_type":[0,0,0,0,0,0,0,0,0,0,0,0,0,0,0,0,0,0,0,0,0],"sum_hessian":[1.2634287E3,8.766601E2,3.867686E2,3.542786E2,5.2238153E2,3.456447E2,4.1123894E1,2.7314328E2,8.113532E1,4.0447006E2,1.1791147E2,3.89484E1,2.1754954E0,1.8692923E2,8.621404E1,3.0216034E1,5.0919285E1,9.931468E1,3.0515536E2,8.051875E0,1.0985959E2],"tree_param":{"num_deleted":"0","num_feature":"13","num_nodes":"21","size_leaf_vector":"1"}},{"base_weights":[1.7049083E-2,2.9117632E-1,-1.16859645E-1,-1.5898287E-1,5.280692E-1,-4.222565E-1,-4.731504E-2,6.816055E-1,-2.885292E-1,6.221469E-1,-4.4834834E-1,1.6947104E-1,-5.182375E-1,-2.7654484E-1,3.1911746E-2,4.9848694E-2,-2.3849158E-2,5.1517732E-2,-1.7176824E-2,3.519396E-2,-1.051722E-2,1.0079171E-2,-3.4365118E-2,-2.6255602E-2,2.5527349E-2,-2.8394256E-2,-3.5744924E-3,4.0923256E-2,-1.7849896E-2,6.7336382E-3,-1.2107737E-2],"categories":[],"categories_nodes":[],"categories_segments":[],"categories_sizes":[],"default_left":[0,0,0,0,0,0,0,0,0,0,0,0,0,0,0,0,0,0,0,0,0,0,0,0,0,0,0,0,0,0,0],"id":58,"left_children":[1,3,5,7,9,11,13,15,17,19,21,23,25,27,29,-1,-1,-1,-1,-1,-1,-1,-1,-1,-1,-1,-1,-1,-1,-1,-1],"loss_changes":[4.511724E1,4.3096066E1,1.7519268E1,1.5424463E1,2.4575882E1,8.780069E0,1.2245226E1,7.40711E0,9.195295E0,1.6592056E1,3.8388596E0,5.506975E0,2.8856812E0,1.5547075E1,1.4159577E1,0E0,0E0,0E0,0E0,0E0,0E0,0E0,0E0,0E0,0E0,0E0,0E0,0E0,0E0,0E0,0E0],"parents":[2147483647,0,0,1,1,2,2,3,3,4,4,5,5,6,6,7,7,8,8,9,9,10,10,11,11,12,12,13,13,14,14],"right_children":[2,4,6,8,10,12,14,16,18,20,22,24,26,28,30,-1,-1,-1,-1,-1,-1,-1,-1,-1,-1,-1,-1,-1,-1,-1,-1],"split_conditions":[5.954026E2,2.1732335E-1,2.999167E1,4.137278E0,3.310109E-2,1.6358372E2,2.1444939E-1,3.7744576E1,3.4743723E2,4.924293E-1,7.100766E0,2.618706E-1,1.3831265E2,6.437485E-2,8.4416824E1,4.9848694E-2,-2.3849158E-2,5.1517732E-2,-1.7176824E-2,3.519396E-2,-1.051722E-2,1.0079171E-2,-3.4365118E-2,-2.6255602E-2,2.5527349E-2,-2.8394256E-2,-3.5744924E-3,4.0923256E-2,-1.7849896E-2,6.7336382E-3,-1.2107737E-2],"split_indices":[1,3,2,7,4,7,3,2,1,3,5,3,5,3,5,0,0,0,0,0,0,0,0,0,0,0,0,0,0,0,0],"split_type":[0,0,0,0,0,0,0,0,0,0,0,0,0,0,0,0,0,0,0,0,0,0,0,0,0,0,0,0,0,0,0],"sum_hessian":[1.2271567E3,4.0234134E2,8.248154E2,1.3883913E2,2.6350223E2,1.5204707E2,6.727684E2,1.797074E1,1.20868385E2,2.4067595E2,2.2826277E1,2.1113792E1,1.3093327E2,1.7216023E2,5.0060812E2,1.423536E1,3.7353783E0,4.1293607E0,1.1673902E2,2.1929999E2,2.1375952E1,6.1782975E0,1.664798E1,6.775754E0,1.4338038E1,1.1759378E2,1.3339492E1,1.1155442E1,1.6100479E2,3.64462E2,1.3614612E2],"tree_param":{"num_deleted":"0","num_feature":"13","num_nodes":"31","size_leaf_vector":"1"}},{"base_weights":[2.8896755E-2,-2.960801E-2,5.931844E-1,8.2168955E-1,3.434016E-1,-2.8985083E-2,8.4628797E-1,1.13764256E-1,8.3116543E-1,-2.5234563E-2,4.300158E-2,2.9290726E-2,-1.1922311E-2,-2.0390205E-2,4.2500343E-2],"categories":[],"categories_nodes":[],"categories_segments":[],"categories_sizes":[],"default_left":[1,0,0,0,0,0,0,0,0,0,0,0,0,0,0],"id":59,"left_children":[1,-1,3,5,7,-1,9,11,13,-1,-1,-1,-1,-1,-1],"loss_changes":[4.2454214E2,0E0,3.5943527E1,1.1891937E1,3.4061718E1,0E0,6.4766846E0,3.4803513E1,2.6215744E0,0E0,0E0,0E0,0E0,0E0,0E0],"parents":[2147483647,0,0,2,2,3,3,4,4,6,6,7,7,8,8],"right_children":[2,-1,4,6,8,-1,10,12,14,-1,-1,-1,-1,-1,-1],"split_conditions":[3E0,-2.960801E-2,2.2611192E-1,-8.7146736E1,4E0,-2.8985083E-2,3.7862952E0,4.3487946E2,2.8246513E-1,-2.5234563E-2,4.300158E-2,2.9290726E-2,-1.1922311E-2,-2.0390205E-2,4.2500343E-2],"split_indices":[11,0,3,5,11,0,7,1,6,0,0,0,0,0,0],"split_type":[0,0,0,0,0,0,0,0,0,0,0,0,0,0,0],"sum_hessian":[1.2094012E3,5.7571643E2,6.336849E2,3.297421E2,3.0394278E2,5.2987967E0,3.244433E2,2.0749036E2,9.645242E1,2.9076097E0,3.2153568E2,8.837819E1,1.1911216E2,1.1355788E0,9.531684E1],"tree_param":{"num_deleted":"0","num_feature":"13","num_nodes":"15","size_leaf_vector":"1"}},{"base_weights":[3.4115172E-3,5.8687353E-1,-5.695012E-1,7.527283E-1,1.428806E-1,-5.810701E-1,-3.256123E-1,-2.6924936E-2,7.663208E-1,-3.027518E-1,2.1134447E-1,-2.9286519E-2,-4.7325885E-1,2.2434409E-1,-2.7050106E-2,3.821612E-3,3.935249E-2,-2.2952352E-2,4.593142E-2,1.2649377E-2,-2.4306042E-2,1.5505249E-2,-2.6880994E-2,4.1268498E-2,-2.3888117E-2],"categories":[],"categories_nodes":[],"categories_segments":[],"categories_sizes":[],"default_left":[1,1,0,0,0,0,0,0,0,0,0,0,0,0,0,0,0,0,0,0,0,0,0,0,0],"id":60,"left_children":[1,3,5,7,9,11,13,-1,15,17,19,-1,21,23,-1,-1,-1,-1,-1,-1,-1,-1,-1,-1,-1],"loss_changes":[3.88382E2,4.2281097E1,1.4649048E0,7.7639313E0,4.8779287E0,3.3416748E-3,3.5356712E0,0E0,5.8731537E0,4.511389E0,4.112557E0,0E0,1.595851E0,4.115657E0,0E0,0E0,0E0,0E0,0E0,0E0,0E0,0E0,0E0,0E0,0E0],"parents":[2147483647,0,0,1,1,2,2,3,3,4,4,5,5,6,6,8,8,9,9,10,10,12,12,13,13],"right_children":[2,4,6,8,10,12,14,-1,16,18,20,-1,22,24,-1,-1,-1,-1,-1,-1,-1,-1,-1,-1,-1],"split_conditions":[2E0,2E0,1.5563065E2,-1.19247856E2,1.82762E5,5.348184E-1,3.2902032E-1,-2.6924936E-2,3.032323E-1,3.9570713E1,3E0,-2.9286519E-2,5.3735805E-1,2E0,-2.7050106E-2,3.821612E-3,3.935249E-2,-2.2952352E-2,4.593142E-2,1.2649377E-2,-2.4306042E-2,1.5505249E-2,-2.6880994E-2,4.1268498E-2,-2.3888117E-2],"split_indices":[11,12,5,5,10,0,6,0,6,2,12,0,0,12,0,0,0,0,0,0,0,0,0,0,0],"split_type":[0,0,0,0,0,0,0,0,0,0,0,0,0,0,0,0,0,0,0,0,0,0,0,0,0],"sum_hessian":[1.1598713E3,5.74633E2,5.8523834E2,4.1784906E2,1.5678398E2,5.5741473E2,2.7823612E1,3.9505363E0,4.138985E2,2.0423698E1,1.3636028E2,5.3006915E2,2.7345613E1,7.8186407E0,2.000497E1,1.2210291E1,4.0168823E2,1.866001E1,1.7636901E0,1.292788E2,7.081482E0,1.7862501E0,2.5559364E1,4.1179657E0,3.7006748E0],"tree_param":{"num_deleted":"0","num_feature":"13","num_nodes":"25","size_leaf_vector":"1"}},{"base_weights":[-5.761869E-3,2.2533391E-1,-5.742865E-1,-4.215605E-2,4.0387195E-1,-4.52346E-1,-5.836013E-1,-2.5148687E-1,6.636012E-1,5.1654017E-1,2.2966856E-2,-2.846764E-2,3.8453735E-2,-2.9244889E-2,-1.2112652E-2,-1.8846614E-2,2.8216497E-3,-1.9904539E-2,4.5129422E-2,2.3947043E-2,