{"learner":{"attributes":{},"feature_names":["ndvi_mean_6m","rainfall_sum_6m","lst_mean_6m","nightlight_mean_6m","ndvi_anomaly_6m","rainfall_anomaly_6m","ndvi_mean_3m","rainfall_sum_3m","conflict_events_6m","conflict_fatalities_6m","population","current_phase_class","prev_projected_phase"],"feature_types":["float","float","float","float","float","float","float","float","int","int","float","float","float"],"gradient_booster":{"model":{"gbtree_model_param":{"num_parallel_tree":"1","num_trees":"1000"},"iteration_indptr":[0,4,8,12,16,20,24,28,32,36,40,44,48,52,56,60,64,68,72,76,80,84,88,92,96,100,104,108,112,116,120,124,128,132,136,140,144,148,152,156,160,164,168,172,176,180,184,188,192,196,200,204,208,212,216,220,224,228,232,236,240,244,248,252,256,260,264,268,272,276,280,284,288,292,296,300,304,308,312,316,320,324,328,332,336,340,344,348,352,356,360,364,368,372,376,380,384,388,392,396,400,404,408,412,416,420,424,428,432,436,440,444,448,452,456,460,464,468,472,476,480,484,488,492,496,500,504,508,512,516,520,524,528,532,536,540,544,548,552,556,560,564,568,572,576,580,584,588,592,596,600,604,608,612,616,620,624,628,632,636,640,644,648,652,656,660,664,668,672,676,680,684,688,692,696,700,704,708,712,716,720,724,728,732,736,740,744,748,752,756,760,764,768,772,776,780,784,788,792,796,800,804,808,812,816,820,824,828,832,836,840,844,848,852,856,860,864,868,872,876,880,884,888,892,896,900,904,908,912,916,920,924,928,932,936,940,944,948,952,956,960,964,968,972,976,980,984,988,992,996,1000],"tree_info":[0,1,2,3,0,1,2,3,0,1,2,3,0,1,2,3,0,1,2,3,0,1,2,3,0,1,2,3,0,1,2,3,0,1,2,3,0,1,2,3,0,1,2,3,0,1,2,3,0,1,2,3,0,1,2,3,0,1,2,3,0,1,2,3,0,1,2,3,0,1,2,3,0,1,2,3,0,1,2,3,0,1,2,3,0,1,2,3,0,1,2,3,0,1,2,3,0,1,2,3,0,1,2,3,0,1,2,3,0,1,2,3,0,1,2,3,0,1,2,3,0,1,2,3,0,1,2,3,0,1,2,3,0,1,2,3,0,1,2,3,0,1,2,3,0,1,2,3,0,1,2,3,0,1,2,3,0,1,2,3,0,1,2,3,0,1,2,3,0,1,2,3,0,1,2,3,0,1,2,3,0,1,2,3,0,1,2,3,0,1,2,3,0,1,2,3,0,1,2,3,0,1,2,3,0,1,2,3,0,1,2,3,0,1,2,3,0,1,2,3,0,1,2,3,0,1,2,3,0,1,2,3,0,1,2,3,0,1,2,3,0,1,2,3,0,1,2,3,0,1,2,3,0,1,2,3,0,1,2,3,0,1,2,3,0,1,2,3,0,1,2,3,0,1,2,3,0,1,2,3,0,1,2,3,0,1,2,3,0,1,2,3,0,1,2,3,0,1,2,3,0,1,2,3,0,1,2,3,0,1,2,3,0,1,2,3,0,1,2,3,0,1,2,3,0,1,2,3,0,1,2,3,0,1,2,3,0,1,2,3,0,1,2,3,0,1,2,3,0,1,2,3,0,1,2,3,0,1,2,3,0,1,2,3,0,1,2,3,0,1,2,3,0,1,2,3,0,1,2,3,0,1,2,3,0,1,2,3,0,1,2,3,0,1,2,3,0,1,2,3,0,1,2,3,0,1,2,3,0,1,2,3,0,1,2,3,0,1,2,3,0,1,2,3,0,1,2,3,0,1,2,3,0,1,2,3,0,1,2,3,0,1,2,3,0,1,2,3,0,1,2,3,0,1,2,3,0,1,2,3,0,1,2,3,0,1,2,3,0,1,2,3,0,1,2,3,0,1,2,3,0,1,2,3,0,1,2,3,0,1,2,3,0,1,2,3,0,1,2,3,0,1,2,3,0,1,2,3,0,1,2,3,0,1,2,3,0,1,2,3,0,1,2,3,0,1,2,3,0,1,2,3,0,1,2,3,0,1,2,3,0,1,2,3,0,1,2,3,0,1,2,3,0,1,2,3,0,1,2,3,0,1,2,3,0,1,2,3,0,1,2,3,0,1,2,3,0,1,2,3,0,1,2,3,0,1,2,3,0,1,2,3,0,1,2,3,0,1,2,3,0,1,2,3,0,1,2,3,0,1,2,3,0,1,2,3,0,1,2,3,0,1,2,3,0,1,2,3,0,1,2,3,0,1,2,3,0,1,2,3,0,1,2,3,0,1,2,3,0,1,2,3,0,1,2,3,0,1,2,3,0,1,2,3,0,1,2,3,0,1,2,3,0,1,2,3,0,1,2,3,0,1,2,3,0,1,2,3,0,1,2,3,0,1,2,3,0,1,2,3,0,1,2,3,0,1,2,3,0,1,2,3,0,1,2,3,0,1,2,3,0,1,2,3,0,1,2,3,0,1,2,3,0,1,2,3,0,1,2,3,0,1,2,3,0,1,2,3,0,1,2,3,0,1,2,3,0,1,2,3,0,1,2,3,0,1,2,3,0,1,2,3,0,1,2,3,0,1,2,3,0,1,2,3,0,1,2,3,0,1,2,3,0,1,2,3,0,1,2,3,0,1,2,3,0,1,2,3,0,1,2,3,0,1,2,3,0,1,2,3,0,1,2,3,0,1,2,3,0,1,2,3,0,1,2,3,0,1,2,3,0,1,2,3,0,1,2,3,0,1,2,3,0,1,2,3,0,1,2,3,0,1,2,3,0,1,2,3,0,1,2,3,0,1,2,3,0,1,2,3,0,1,2,3,0,1,2,3,0,1,2,3,0,1,2,3,0,1,2,3,0,1,2,3,0,1,2,3,0,1,2,3,0,1,2,3,0,1,2,3,0,1,2,3,0,1,2,3,0,1,2,3,0,1,2,3,0,1,2,3,0,1,2,3,0,1,2,3,0,1,2,3,0,1,2,3,0,1,2,3,0,1,2,3,0,1,2,3,0,1,2,3,0,1,2,3,0,1,2,3,0,1,2,3,0,1,2,3,0,1,2,3,0,1,2,3,0,1,2,3],"trees":[{"base_weights":[-5.001728E-3,1.1833434E0,-6.473806E-1,1.5899295E0,8.5107875E-1,2.7331233E-2,-6.5081334E-1,1.6485124E0,5.2171886E-1,9.903662E-1,-7.401216E-2,-6.5408444E-1,-4.246496E-1,8.55244E-2,2.5432108E-2,-2.8026242E-2,7.148223E-2,3.6871012E-2,6.1824393E-2,-2.971524E-2,4.383375E-2,-3.2985598E-2,-2.4843888E-2,-3.0932367E-2,5.262484E-2],"categories":[],"categories_nodes":[],"categories_segments":[],"categories_sizes":[],"default_left":[1,0,0,0,0,0,0,0,0,0,0,0,0,0,0,0,0,0,0,0,0,0,0,0,0],"id":0,"left_children":[1,3,5,7,9,-1,11,13,15,17,19,21,23,-1,-1,-1,-1,-1,-1,-1,-1,-1,-1,-1,-1],"loss_changes":[1.0039926E3,6.0992126E1,3.854889E0,1.2055176E1,3.3074005E1,0E0,3.5235596E-1,1.2919128E1,1.2782242E1,1.2950256E1,1.7559092E1,4.1333008E-1,4.94788E0,0E0,0E0,0E0,0E0,0E0,0E0,0E0,0E0,0E0,0E0,0E0,0E0],"parents":[2147483647,0,0,1,1,2,2,3,3,4,4,6,6,7,7,8,8,9,9,10,10,11,11,12,12],"right_children":[2,4,6,8,10,-1,12,14,16,18,20,22,24,-1,-1,-1,-1,-1,-1,-1,-1,-1,-1,-1,-1],"split_conditions":[2E0,2.3746324E-1,-1.4056586E-2,1.3730918E3,1.0592001E3,2.7331233E-2,4.300596E0,2E0,5.8049613E-1,7.575927E2,2.9694853E1,1.463905E2,2.1754097E-2,8.55244E-2,2.5432108E-2,-2.8026242E-2,7.148223E-2,3.6871012E-2,6.1824393E-2,-2.971524E-2,4.383375E-2,-3.2985598E-2,-2.4843888E-2,-3.0932367E-2,5.262484E-2],"split_indices":[11,3,3,1,1,0,3,11,6,1,2,5,4,0,0,0,0,0,0,0,0,0,0,0,0],"split_type":[0,0,0,0,0,0,0,0,0,0,0,0,0,0,0,0,0,0,0,0,0,0,0,0,0],"sum_hessian":[1.3132113E3,4.6049442E2,8.5271686E2,2.0538434E2,2.5511008E2,1.9908963E0,8.5072595E2,1.9419125E2,1.1193088E1,2.2166435E2,3.3445724E1,8.367319E2,1.39941025E1,1.837026E2,1.0488642E1,5.280904E0,5.9121842E0,1.1128739E2,1.1037695E2,2.1858086E1,1.1587638E1,8.047285E2,3.200335E1,1.2883291E1,1.1108108E0],"tree_param":{"num_deleted":"0","num_feature":"13","num_nodes":"25","size_leaf_vector":"1"}},{"base_weights":[-9.577365E-3,3.7413424E-1,-6.4604545E-1,-1.6764554E-1,6.387949E-1,-6.599563E-1,-4.8229593E-1,-3.207563E-1,4.14441E-1,1.3815995E0,5.6142217E-1,-3.304981E-2,-5.395331E-3,3.7349112E-2,-5.45556E-1,-1.9637872E-2,3.5571367E-2,5.2283466E-2,-1.1798514E-3,4.417375E-2,9.588627E-2,1.5219283E-2,3.7483484E-2,-3.2263275E-2,-1.1317702E-2],"categories":[],"categories_nodes":[],"categories_segments":[],"categories_sizes":[],"default_left":[1,0,0,1,0,0,0,0,0,0,0,0,0,0,0,0,0,0,0,0,0,0,0,0,0],"id":1,"left_children":[1,3,5,7,9,11,13,15,17,19,21,-1,-1,-1,23,-1,-1,-1,-1,-1,-1,-1,-1,-1,-1],"loss_changes":[3.2680264E2,1.19815414E2,8.2818604E-1,2.4622225E1,3.1471115E1,1.9342041E-1,3.76097E0,1.6489561E1,1.5968098E1,1.2258347E1,2.4440826E1,0E0,0E0,0E0,1.1776657E0,0E0,0E0,0E0,0E0,0E0,0E0,0E0,0E0,0E0,0E0],"parents":[2147483647,0,0,1,1,2,2,3,3,4,4,5,5,6,6,7,7,8,8,9,9,10,10,14,14],"right_children":[2,4,6,8,10,12,14,16,18,20,22,-1,-1,-1,24,-1,-1,-1,-1,-1,-1,-1,-1,-1,-1],"split_conditions":[3E0,2.3870286E-1,8.5245215E2,2E0,2.882479E1,7.82271E5,2.304746E1,1.3230388E3,3.3809345E1,1.0841816E3,2E0,-3.304981E-2,-5.395331E-3,3.7349112E-2,8.285403E4,-1.9637872E-2,3.5571367E-2,5.2283466E-2,-1.1798514E-3,4.417375E-2,9.588627E-2,1.5219283E-2,3.7483484E-2,-3.2263275E-2,-1.1317702E-2],"split_indices":[11,3,1,11,2,10,5,1,2,1,11,0,0,0,10,0,0,0,0,0,0,0,0,0,0],"split_type":[0,0,0,0,0,0,0,0,0,0,0,0,0,0,0,0,0,0,0,0,0,0,0,0,0],"sum_hessian":[1.3361578E3,8.338572E2,5.0230066E2,2.737787E2,5.600785E2,4.6017737E2,4.2123287E1,2.1711752E2,5.6661148E1,5.124572E1,5.0883276E2,4.5911517E2,1.0621858E0,1.5326436E0,4.0590645E1,2.0353893E2,1.35786E1,2.2643663E1,3.4017487E1,2.7936903E1,2.3308817E1,2.1621962E2,2.9261316E2,3.0150888E1,1.0439757E1],"tree_param":{"num_deleted":"0","num_feature":"13","num_nodes":"25","size_leaf_vector":"1"}},{"base_weights":[1.8282792E-2,-3.325688E-2,3.622134E-1,5.2698755E-1,-6.236167E-1,7.1548164E-1,-2.1314646E-1,-3.3000123E-2,-4.5629597E-1,6.0490686E-2,2.2828102E-2,7.604588E-2,-2.0262673E-2,2.759379E-2,-3.1823803E-2],"categories":[],"categories_nodes":[],"categories_segments":[],"categories_sizes":[],"default_left":[0,0,1,0,1,0,0,0,0,0,0,0,0,0,0],"id":2,"left_children":[1,-1,3,5,7,9,11,-1,13,-1,-1,-1,-1,-1,-1],"loss_changes":[3.0610648E2,0E0,1.4104898E2,1.03778046E2,4.56913E-1,7.524942E1,5.109837E1,0E0,4.979944E0,0E0,0E0,0E0,0E0,0E0,0E0],"parents":[2147483647,0,0,2,2,3,3,4,4,5,5,6,6,8,8],"right_children":[2,-1,4,6,8,10,12,-1,14,-1,-1,-1,-1,-1,-1],"split_conditions":[2E0,-3.325688E-2,4E0,4E0,4E0,6.0545953E2,-7.3187164E1,-3.3000123E-2,3.0497433E1,6.0490686E-2,2.2828102E-2,7.604588E-2,-2.0262673E-2,2.759379E-2,-3.1823803E-2],"split_indices":[11,0,11,12,12,1,5,0,2,0,0,0,0,0,0],"split_type":[0,0,0,0,0,0,0,0,0,0,0,0,0,0,0],"sum_hessian":[1.3002833E3,4.3498865E2,8.652946E2,7.4177747E2,1.2351715E2,5.912371E2,1.5054037E2,9.903615E1,2.4481003E1,2.0196703E2,3.8927008E2,1.43243E1,1.3621608E2,3.3990724E0,2.108193E1],"tree_param":{"num_deleted":"0","num_feature":"13","num_nodes":"15","size_leaf_vector":"1"}},{"base_weights":[2.1767354E-2,-3.3293728E-2,1.1721144E0,7.907302E-1,1.9256275E0,2.5463685E-1,1.5827224E0,9.7388916E-2,-1.9595481E-2,-2.4219435E-2,3.4898877E-2,4.2483704E-3,9.0190925E-2],"categories":[],"categories_nodes":[],"categories_segments":[],"categories_sizes":[],"default_left":[1,0,0,0,0,0,0,0,0,0,0,0,0],"id":3,"left_children":[1,-1,3,5,7,9,11,-1,-1,-1,-1,-1,-1],"loss_changes":[1.0636317E3,0E0,1.4304364E2,1.4212819E2,9.405945E0,6.631898E1,4.465619E1,0E0,0E0,0E0,0E0,0E0,0E0],"parents":[2147483647,0,0,2,2,3,3,4,4,5,5,6,6],"right_children":[2,-1,4,6,8,10,12,-1,-1,-1,-1,-1,-1],"split_conditions":[3E0,-3.3293728E-2,4E0,4E0,3.43527E5,3E0,3.5130707E1,9.7388916E-2,-1.9595481E-2,-2.4219435E-2,3.4898877E-2,4.2483704E-3,9.0190925E-2],"split_indices":[11,0,11,12,10,9,2,0,0,0,0,0,0],"split_type":[0,0,0,0,0,0,0,0,0,0,0,0,0],"sum_hessian":[1.342635E3,8.4058215E2,5.020529E2,3.3469785E2,1.6735503E2,2.0038222E2,1.3431564E2,1.6592863E2,1.426386E0,7.5100716E1,1.252815E2,1.7455107E1,1.16860535E2],"tree_param":{"num_deleted":"0","num_feature":"13","num_nodes":"13","size_leaf_vector":"1"}},{"base_weights":[4.722203E-3,1.1135753E0,-6.357537E-1,-2.7909228E-1,1.1628966E0,-6.438419E-1,-2.649174E-1,-5.487503E-1,7.792153E-1,1.2320156E0,6.0528606E-1,-6.5082824E-1,-4.9481577E-1,9.168365E-1,-3.0887563E-2,-4.9566966E-3,-3.0496582E-2,5.6063116E-2,2.757497E-3,6.354712E-2,1.691934E-2,-5.079239E-3,5.782642E-2,-3.2665577E-2,-2.2190122E-2,-3.0724648E-2,2.872113E-2,6.0296483E-2,1.4002179E-2],"categories":[],"categories_nodes":[],"categories_segments":[],"categories_sizes":[],"default_left":[1,0,0,0,0,0,0,0,0,0,0,0,0,0,0,0,0,0,0,0,0,0,0,0,0,0,0,0,0],"id":4,"left_children":[1,3,5,7,9,11,13,15,17,19,21,23,25,27,-1,-1,-1,-1,-1,-1,-1,-1,-1,-1,-1,-1,-1,-1,-1],"loss_changes":[9.145903E2,3.2710876E1,2.277893E0,5.260066E0,1.6812439E1,5.090027E-1,8.540136E0,3.268957E-1,8.921015E-1,1.3635864E1,2.046065E1,1.00372314E-1,5.460638E0,5.458255E-1,0E0,0E0,0E0,0E0,0E0,0E0,0E0,0E0,0E0,0E0,0E0,0E0,0E0,0E0,0E0],"parents":[2147483647,0,0,1,1,2,2,3,3,4,4,5,5,6,6,7,7,8,8,9,9,10,10,11,11,12,12,13,13],"right_children":[2,4,6,8,10,12,14,16,18,20,22,24,26,28,-1,-1,-1,-1,-1,-1,-1,-1,-1,-1,-1,-1,-1,-1,-1],"split_conditions":[2E0,-1.1764184E2,1.688862E2,5.7094556E-1,1.0699017E3,5.41173E5,1.4668581E1,3.132504E2,4.7113517E-1,2E0,5.0728846E-1,1.463905E2,5.080889E-1,9.070602E2,-3.0887563E-2,-4.9566966E-3,-3.0496582E-2,5.6063116E-2,2.757497E-3,6.354712E-2,1.691934E-2,-5.079239E-3,5.782642E-2,-3.2665577E-2,-2.2190122E-2,-3.0724648E-2,2.872113E-2,6.0296483E-2,1.4002179E-2],"split_indices":[11,5,5,6,1,10,7,7,0,11,6,5,0,1,0,0,0,0,0,0,0,0,0,0,0,0,0,0,0],"split_type":[0,0,0,0,0,0,0,0,0,0,0,0,0,0,0,0,0,0,0,0,0,0,0,0,0,0,0,0,0],"sum_hessian":[1.2858073E3,4.704978E2,8.1530945E2,1.5933398E1,4.545644E2,7.9718604E2,1.8123434E1,1.3081659E1,2.8517392E0,4.0335654E2,5.120785E1,7.5827106E2,3.8914978E1,3.7994294E0,1.4324004E1,1.8807224E0,1.1200936E1,1.5642334E0,1.2875059E0,3.8611505E2,1.724149E1,2.2794128E1,2.8413725E1,7.471535E2,1.1117572E1,3.5380253E1,3.5347257E0,1.998424E0,1.8010054E0],"tree_param":{"num_deleted":"0","num_feature":"13","num_nodes":"29","size_leaf_vector":"1"}},{"base_weights":[7.047677E-3,3.7462056E-1,-6.389752E-1,1.10686146E-1,6.9874346E-1,-6.458025E-1,-2.6356664E-1,1.3612872E0,5.302319E-2,1.2179451E-1,9.605374E-1,-3.2339927E-2,-9.903385E-3,-2.7745534E-2,1.634707E-1,8.145427E-2,1.434408E-2,-8.031751E-4,2.9418478E-2,3.4487907E-2,-2.9647192E-3,7.255422E-2,4.00986E-2,-2.4143286E-2,5.6400985E-2],"categories":[],"categories_nodes":[],"categories_segments":[],"categories_sizes":[],"default_left":[1,1,0,0,0,0,0,0,0,0,0,0,0,0,0,0,0,0,0,0,0,0,0,0,0],"id":5,"left_children":[1,3,5,7,9,11,13,15,17,19,21,-1,-1,-1,23,-1,-1,-1,-1,-1,-1,-1,-1,-1,-1],"loss_changes":[3.113631E2,7.141481E1,1.0485382E0,3.3230354E1,5.650795E1,7.984924E-2,1.3576126E0,5.377491E0,1.6375229E1,1.2193904E1,1.8883942E1,0E0,0E0,0E0,3.600812E0,0E0,0E0,0E0,0E0,0E0,0E0,0E0,0E0,0E0,0E0],"parents":[2147483647,0,0,1,1,2,2,3,3,4,4,5,5,6,6,7,7,8,8,9,9,10,10,14,14],"right_children":[2,4,6,8,10,12,14,16,18,20,22,-1,-1,-1,24,-1,-1,-1,-1,-1,-1,-1,-1,-1,-1],"split_conditions":[3E0,2E0,9.254967E2,-1.1764184E2,6.45613E2,7.82271E5,1.47295E5,5.7094556E-1,1.0699017E3,-1.3098439E-2,-1.563771E-2,-3.2339927E-2,-9.903385E-3,-2.7745534E-2,4E0,8.145427E-2,1.434408E-2,-8.031751E-4,2.9418478E-2,3.4487907E-2,-2.9647192E-3,7.255422E-2,4.00986E-2,-2.4143286E-2,5.6400985E-2],"split_indices":[11,11,1,5,1,10,10,6,1,4,4,0,0,0,11,0,0,0,0,0,0,0,0,0,0],"split_type":[0,0,0,0,0,0,0,0,0,0,0,0,0,0,0,0,0,0,0,0,0,0,0,0,0],"sum_hessian":[1.3092126E3,8.347042E2,4.7450833E2,4.608081E2,3.7389612E2,4.6532547E2,9.18288E0,1.9314095E1,4.4149402E2,1.1716023E2,2.567359E2,4.6384897E2,1.4765042E0,5.2807035E0,3.9021764E0,1.5047262E1,4.266833E0,3.9189038E2,4.960364E1,2.7645256E1,8.9514984E1,6.0724304E1,1.960116E2,2.6355217E0,1.2666547E0],"tree_param":{"num_deleted":"0","num_feature":"13","num_nodes":"25","size_leaf_vector":"1"}},{"base_weights":[2.010705E-2,-3.2893825E-2,3.6136922E-1,5.611687E-1,-6.3082975E-1,2.1792836E-1,8.7120813E-1,-3.1903625E-2,-1.8447693E-2,-8.058601E-3,2.1172667E-2,5.2411713E-2,2.5049234E-3],"categories":[],"categories_nodes":[],"categories_segments":[],"categories_sizes":[],"default_left":[0,0,1,1,0,1,0,0,0,0,0,0,0],"id":6,"left_children":[1,-1,3,5,7,9,11,-1,-1,-1,-1,-1,-1],"loss_changes":[3.0113895E2,0E0,1.7197635E2,7.655299E1,4.0706635E-2,2.6838245E1,5.497473E1,0E0,0E0,0E0,0E0,0E0,0E0],"parents":[2147483647,0,0,2,2,3,3,4,4,5,5,6,6],"right_children":[2,-1,4,6,8,10,12,-1,-1,-1,-1,-1,-1],"split_conditions":[2E0,-3.2893825E-2,4E0,3E0,3.262899E-1,2E0,4E0,-3.1903625E-2,-1.8447693E-2,-8.058601E-3,2.1172667E-2,5.2411713E-2,2.5049234E-3],"split_indices":[11,0,11,12,3,12,12,0,0,0,0,0,0],"split_type":[0,0,0,0,0,0,0,0,0,0,0,0,0],"sum_hessian":[1.2995188E3,4.3479208E2,8.647266E2,7.201452E2,1.4458145E2,3.4258127E2,3.7756393E2,1.3929247E2,5.288987E0,1.2051027E2,2.22071E2,3.1037286E2,6.719106E1],"tree_param":{"num_deleted":"0","num_feature":"13","num_nodes":"13","size_leaf_vector":"1"}},{"base_weights":[5.996281E-3,-3.292149E-2,1.0491092E0,1.35823E0,7.537955E-2,-3.149387E-2,1.4450722E0,-3.271037E-2,7.905568E-1,6.133488E-2,8.904777E-2,-3.1839617E-2,6.660039E-2],"categories":[],"categories_nodes":[],"categories_segments":[],"categories_sizes":[],"default_left":[1,0,0,0,0,0,0,0,0,0,0,0,0],"id":7,"left_children":[1,-1,3,5,7,-1,9,-1,11,-1,-1,-1,-1],"loss_changes":[9.11865E2,0E0,1.5399438E2,6.7990295E1,6.543756E1,0E0,2.5142822E1,0E0,4.975604E1,0E0,0E0,0E0,0E0],"parents":[2147483647,0,0,2,2,3,3,4,4,6,6,8,8],"right_children":[2,-1,4,6,8,-1,10,-1,12,-1,-1,-1,-1],"split_conditions":[3E0,-3.292149E-2,1.99755E5,-7.422652E1,2E0,-3.149387E-2,4E0,-3.271037E-2,2.92209E5,6.133488E-2,8.904777E-2,-3.1839617E-2,6.660039E-2],"split_indices":[11,0,10,5,8,0,11,0,10,0,0,0,0],"split_type":[0,0,0,0,0,0,0,0,0,0,0,0,0],"sum_hessian":[1.3136902E3,8.027412E2,5.1094897E2,3.8752893E2,1.2342002E2,1.5957405E1,3.7157153E2,6.113673E1,6.228329E1,2.2799353E2,1.43578E2,1.7080458E1,4.520283E1],"tree_param":{"num_deleted":"0","num_feature":"13","num_nodes":"13","size_leaf_vector":"1"}},{"base_weights":[-2.4053988E-3,8.3453673E-1,-5.1220816E-1,-5.39067E-1,1.0318466E0,-5.446967E-1,2.5524035E-1,-3.2151297E-2,6.0273576E-1,1.432452E0,6.961847E-1,-4.1166177E-1,-6.431501E-1,-3.6447588E-1,7.0314074E-1,6.475544E-2,-1.0428925E-2,-2.7312536E-2,7.4336864E-2,1.2337962E-2,4.4048894E-2,-1.3577903E-2,-2.937908E-2,-9.313402E-3,-3.236565E-2,2.768585E-2,-2.7006349E-2,5.8713567E-2,1.2847321E-3],"categories":[],"categories_nodes":[],"categories_segments":[],"categories_sizes":[],"default_left":[1,0,0,0,0,0,0,0,0,0,0,0,0,0,0,0,0,0,0,0,0,0,0,0,0,0,0,0,0],"id":8,"left_children":[1,3,5,7,9,11,13,-1,15,17,19,21,23,25,27,-1,-1,-1,-1,-1,-1,-1,-1,-1,-1,-1,-1,-1,-1],"loss_changes":[5.7577423E2,1.3900299E2,2.1048462E1,8.081457E0,5.9110962E1,1.0277267E1,9.899191E0,0E0,3.5985086E0,2.2600525E1,2.0143654E1,8.346054E0,7.5582886E-1,2.755932E0,6.5149603E0,0E0,0E0,0E0,0E0,0E0,0E0,0E0,0E0,0E0,0E0,0E0,0E0,0E0,0E0],"parents":[2147483647,0,0,1,1,2,2,3,3,4,4,5,5,6,6,8,8,9,9,10,10,11,11,12,12,13,13,14,14],"right_children":[2,4,6,8,10,12,14,-1,16,18,20,22,24,26,28,-1,-1,-1,-1,-1,-1,-1,-1,-1,-1,-1,-1,-1,-1],"split_conditions":[2E0,7.390701E-2,2.7672255E0,4.4142565E-1,2.3490755E-1,3E0,9.005211E0,-3.2151297E-2,4.6532282E-1,6.1698384E0,3.0693117E1,5.4309143E2,2.4826616E-1,1.6138373E-1,3.24838E1,6.475544E-2,-1.0428925E-2,-2.7312536E-2,7.4336864E-2,1.2337962E-2,4.4048894E-2,-1.3577903E-2,-2.937908E-2,-9.313402E-3,-3.236565E-2,2.768585E-2,-2.7006349E-2,5.8713567E-2,1.2847321E-3],"split_indices":[12,3,3,0,3,12,5,0,0,7,2,7,0,0,2,0,0,0,0,0,0,0,0,0,0,0,0,0,0],"split_type":[0,0,0,0,0,0,0,0,0,0,0,0,0,0,0,0,0,0,0,0,0,0,0,0,0,0,0,0,0],"sum_hessian":[1.3474413E3,5.098253E2,8.37616E2,6.3817543E1,4.4600775E2,8.038757E2,3.3740334E1,5.8892338E1,4.925203E0,2.018439E2,2.4416385E2,3.4409692E2,4.5977878E2,1.4233324E1,1.950701E1,2.3356535E0,2.5895493E0,5.147691E0,1.9669621E2,7.1822815E1,1.7234103E2,1.9296329E2,1.5113364E2,4.5645275E0,4.5521423E2,1.9399778E0,1.2293345E1,1.1072941E1,8.434069E0],"tree_param":{"num_deleted":"0","num_feature":"13","num_nodes":"29","size_leaf_vector":"1"}},{"base_weights":[2.377162E-3,3.6093855E-1,-6.341205E-1,-5.9780885E-2,6.9455516E-1,-3.227665E-2,-5.1383376E-1,-3.568589E-1,1.2765192E0,9.748887E-1,-7.502887E-3,-3.1973306E-2,6.7765296E-2,6.6978365E-2,-1.9017726E-2,-1.6162571E-3,7.292983E-2,6.5532945E-2,4.433812E-2,6.8227194E-2,-4.6625575E-3],"categories":[],"categories_nodes":[],"categories_segments":[],"categories_sizes":[],"default_left":[1,1,0,1,0,0,1,0,0,0,0,0,0,0,0,0,0,0,0,0,0],"id":9,"left_children":[1,3,5,7,9,-1,11,13,15,17,19,-1,-1,-1,-1,-1,-1,-1,-1,-1,-1],"loss_changes":[2.9912958E2,1.17716736E2,3.166504E-1,1.480191E2,9.205104E1,0E0,1.1628311E1,1.2661819E1,1.6210594E1,8.727661E0,1.5945122E1,0E0,0E0,0E0,0E0,0E0,0E0,0E0,0E0,0E0,0E0],"parents":[2147483647,0,0,1,1,2,2,3,3,4,4,6,6,7,7,8,8,9,9,10,10],"right_children":[2,4,6,8,10,-1,12,14,16,18,20,-1,-1,-1,-1,-1,-1,-1,-1,-1,-1],"split_conditions":[3E0,2E0,8.5245215E2,2E0,3E0,-3.227665E-2,4E0,-1.1764184E2,6.442842E1,-2.0992203E-2,2E0,-3.1973306E-2,6.7765296E-2,6.6978365E-2,-1.9017726E-2,-1.6162571E-3,7.292983E-2,6.5532945E-2,4.433812E-2,6.8227194E-2,-4.6625575E-3],"split_indices":[11,12,1,11,12,0,12,5,7,4,11,0,0,0,0,0,0,0,0,0,0],"split_type":[0,0,0,0,0,0,0,0,0,0,0,0,0,0,0,0,0,0,0,0,0],"sum_hessian":[1.3086842E3,8.3738745E2,4.712967E2,3.7071036E2,4.666771E2,4.2646826E2,4.4828438E1,3.0388538E2,6.682498E1,3.3322922E2,1.3344788E2,4.262155E1,2.206883E0,3.386147E0,3.0049924E2,8.26138E0,5.85636E1,6.6392944E1,2.6683627E2,6.972262E0,1.26475624E2],"tree_param":{"num_deleted":"0","num_feature":"13","num_nodes":"21","size_leaf_vector":"1"}},{"base_weights":[3.0448588E-3,-3.2540675E-2,3.103909E-1,4.743485E-1,-6.215061E-1,-9.427281E-2,5.9085876E-1,-3.1501215E-2,1.2472756E-2,-1.57713E-2,5.8446683E-2,3.788571E-2,1.1595725E-2],"categories":[],"categories_nodes":[],"categories_segments":[],"categories_sizes":[],"default_left":[0,0,1,0,0,0,0,0,0,0,0,0,0],"id":10,"left_children":[1,-1,3,5,7,9,11,-1,-1,-1,-1,-1,-1],"loss_changes":[2.6128714E2,0E0,1.3543077E2,4.992128E1,1.1421165E0,3.6367496E1,3.7246185E1,0E0,0E0,0E0,0E0,0E0,0E0],"parents":[2147483647,0,0,2,2,3,3,4,4,5,5,6,6],"right_children":[2,-1,4,6,8,10,12,-1,-1,-1,-1,-1,-1],"split_conditions":[2E0,-3.2540675E-2,4E0,1.9420822E-1,3.63548E5,6.353311E-3,7.513045E2,-3.1501215E-2,1.2472756E-2,-1.57713E-2,5.8446683E-2,3.788571E-2,1.1595725E-2],"split_indices":[11,0,11,3,10,4,1,0,0,0,0,0,0],"split_type":[0,0,0,0,0,0,0,0,0,0,0,0,0],"sum_hessian":[1.2981846E3,4.1473843E2,8.8344617E2,7.516858E2,1.3176033E2,1.27860634E2,6.238252E2,1.3075812E2,1.0022142E0,1.09449326E2,1.841131E1,4.2510428E2,1.9872089E2],"tree_param":{"num_deleted":"0","num_feature":"13","num_nodes":"13","size_leaf_vector":"1"}},{"base_weights":[2.7380109E-2,-3.2572817E-2,1.0212675E0,6.9016373E-1,1.6075363E0,-2.667539E-1,1.0741702E0,8.1211366E-2,-1.9437253E-2,3.1546354E-2,-3.2689106E-2,-3.1937737E-2,6.1059084E-2],"categories":[],"categories_nodes":[],"categories_segments":[],"categories_sizes":[],"default_left":[1,0,0,0,0,0,0,0,0,0,0,0,0],"id":11,"left_children":[1,-1,3,5,7,9,11,-1,-1,-1,-1,-1,-1],"loss_changes":[8.9607306E2,0E0,1.0351526E2,1.27502426E2,7.0880737E0,3.5135883E1,6.3044067E1,0E0,0E0,0E0,0E0,0E0,0E0],"parents":[2147483647,0,0,2,2,3,3,4,4,5,5,6,6],"right_children":[2,-1,4,6,8,10,12,-1,-1,-1,-1,-1,-1],"split_conditions":[3E0,-3.2572817E-2,4E0,3E0,3.43527E5,1.7372572E-1,-7.422652E1,8.1211366E-2,-1.9437253E-2,3.1546354E-2,-3.2689106E-2,-3.1937737E-2,6.1059084E-2],"split_indices":[11,0,11,9,10,3,5,0,0,0,0,0,0],"split_type":[0,0,0,0,0,0,0,0,0,0,0,0,0],"sum_hessian":[1.3261454E3,7.8816455E2,5.379809E2,3.452009E2,1.9277997E2,9.894418E1,2.4625673E2,1.9136633E2,1.4136384E0,2.9617825E1,6.932636E1,1.9200006E1,2.2705672E2],"tree_param":{"num_deleted":"0","num_feature":"13","num_nodes":"13","size_leaf_vector":"1"}},{"base_weights":[-1.8786604E-2,9.874284E-1,-6.3348335E-1,1.3995172E0,4.862538E-3,2.6051477E-2,-6.369457E-1,-2.6465485E-2,1.4225327E0,2.4498823E-1,-3.8245547E-1,-3.2009315E-2,-4.6311194E-1,7.190617E-2,7.6803016E-3,-7.820288E-3,2.471206E-2,-2.2060592E-2,3.9637856E-2,1.5041972E-2,-3.0627215E-2],"categories":[],"categories_nodes":[],"categories_segments":[],"categories_sizes":[],"default_left":[1,1,0,0,0,0,0,0,0,0,0,0,0,0,0,0,0,0,0,0,0],"id":12,"left_children":[1,3,5,7,9,-1,11,-1,13,15,17,-1,19,-1,-1,-1,-1,-1,-1,-1,-1],"loss_changes":[8.29733E2,2.0598355E2,3.660675E0,1.6664001E1,1.4167593E1,0E0,1.7144775E-1,0E0,6.791565E0,9.483993E0,4.375659E0,0E0,2.3324852E0,0E0,0E0,0E0,0E0,0E0,0E0,0E0,0E0],"parents":[2147483647,0,0,1,1,2,2,3,3,4,4,6,6,8,8,9,9,10,10,12,12],"right_children":[2,4,6,8,10,-1,12,-1,14,16,18,-1,20,-1,-1,-1,-1,-1,-1,-1,-1],"split_conditions":[2E0,2E0,-1.4056586E-2,-1.1764184E2,5.341409E2,2.6051477E-2,1.688862E2,-2.6465485E-2,3.800165E0,8.133902E1,6.578805E-2,-3.2009315E-2,1.4668581E1,7.190617E-2,7.6803016E-3,-7.820288E-3,2.471206E-2,-2.2060592E-2,3.9637856E-2,1.5041972E-2,-3.0627215E-2],"split_indices":[11,12,3,5,7,0,5,0,3,7,4,0,7,0,0,0,0,0,0,0,0],"split_type":[0,0,0,0,0,0,0,0,0,0,0,0,0,0,0,0,0,0,0,0,0],"sum_hessian":[1.3394762E3,5.0773825E2,8.317379E2,3.5741418E2,1.5032408E2,2.039983E0,8.2969794E2,3.955121E0,3.5345905E2,9.302118E1,5.73029E1,8.1188025E2,1.7817677E1,3.4903723E2,4.421823E0,3.57777E1,5.7243477E1,5.516921E1,2.1336913E0,2.7492614E0,1.5068416E1],"tree_param":{"num_deleted":"0","num_feature":"13","num_nodes":"21","size_leaf_vector":"1"}},{"base_weights":[1.2842784E-2,3.255406E-1,-6.265171E-1,-7.513979E-2,6.3921183E-1,-4.841762E-1,-6.360731E-1,-3.523153E-1,1.1948993E0,9.140382E-1,-1.0844167E-2,-3.0344551E-2,5.69534E-2,-3.1863738E-2,-4.260081E-3,-2.4553161E-2,3.4379195E-3,7.149308E-2,3.0537164E-2,3.7411E-2,5.6619775E-2,6.621407E-2,-5.0692465E-3],"categories":[],"categories_nodes":[],"categories_segments":[],"categories_sizes":[],"default_left":[1,1,0,1,0,0,0,0,0,0,0,0,0,0,0,0,0,0,0,0,0,0,0],"id":13,"left_children":[1,3,5,7,9,11,13,15,17,19,21,-1,-1,-1,-1,-1,-1,-1,-1,-1,-1,-1,-1],"loss_changes":[2.5711288E2,1.0858929E2,2.665863E-1,1.3422844E2,8.656883E1,6.818791E0,2.0559692E-1,1.8307743E1,8.504272E0,1.1483215E1,1.7657389E1,0E0,0E0,0E0,0E0,0E0,0E0,0E0,0E0,0E0,0E0,0E0,0E0],"parents":[2147483647,0,0,1,1,2,2,3,3,4,4,5,5,6,6,7,7,8,8,9,9,10,10],"right_children":[2,4,6,8,10,12,14,16,18,20,22,-1,-1,-1,-1,-1,-1,-1,-1,-1,-1,-1,-1],"split_conditions":[3E0,2E0,2.8928438E1,2E0,3E0,1.31723E5,6.65417E5,2.9442117E-1,1.26141304E2,3.077587E-1,2E0,-3.0344551E-2,5.69534E-2,-3.1863738E-2,-4.260081E-3,-2.4553161E-2,3.4379195E-3,7.149308E-2,3.0537164E-2,3.7411E-2,5.6619775E-2,6.621407E-2,-5.0692465E-3],"split_indices":[11,12,2,11,12,10,10,3,5,3,11,0,0,0,0,0,0,0,0,0,0,0,0],"split_type":[0,0,0,0,0,0,0,0,0,0,0,0,0,0,0,0,0,0,0,0,0,0,0],"sum_hessian":[1.2840172E3,8.626189E2,4.2139838E2,3.7910916E2,4.835097E2,2.9761139E1,3.9163724E2,3.1178687E2,6.73223E1,3.3955063E2,1.4395906E2,2.8251493E1,1.5096459E0,3.906283E2,1.0089362E0,2.3438763E2,7.739924E1,4.69786E1,2.0343702E1,1.9550949E2,1.4404115E2,8.277129E0,1.3568193E2],"tree_param":{"num_deleted":"0","num_feature":"13","num_nodes":"23","size_leaf_vector":"1"}},{"base_weights":[1.322346E-2,-3.2262113E-2,3.2447544E-1,5.093898E-1,-6.086731E-1,6.7159826E-1,-1.7209405E-1,-3.1948023E-2,-4.5627785E-1,1.6413067E-2,4.9545716E-2,6.27264E-2,-1.7825287E-2,1.4883034E-2,-2.8611794E-2],"categories":[],"categories_nodes":[],"categories_segments":[],"categories_sizes":[],"default_left":[0,0,1,0,1,0,0,0,0,0,0,0,0,0,0],"id":14,"left_children":[1,-1,3,5,7,9,11,-1,13,-1,-1,-1,-1,-1,-1],"loss_changes":[2.6789752E2,0E0,1.5346072E2,8.206203E1,3.8809586E-1,6.534393E1,3.8152924E1,0E0,2.6103802E0,0E0,0E0,0E0,0E0,0E0,0E0],"parents":[2147483647,0,0,2,2,3,3,4,4,5,5,6,6,8,8],"right_children":[2,-1,4,6,8,10,12,-1,14,-1,-1,-1,-1,-1,-1],"split_conditions":[2E0,-3.2262113E-2,4E0,4E0,4E0,3E0,-7.422652E1,-3.1948023E-2,-5.5953893E-3,1.6413067E-2,4.9545716E-2,6.27264E-2,-1.7825287E-2,1.4883034E-2,-2.8611794E-2],"split_indices":[11,0,11,12,12,12,5,0,4,0,0,0,0,0,0],"split_type":[0,0,0,0,0,0,0,0,0,0,0,0,0,0,0],"sum_hessian":[1.3051224E3,4.1856302E2,8.8655945E2,7.40312E2,1.4624742E2,5.979912E2,1.4232085E2,1.1933731E2,2.691011E1,2.8913437E2,3.088568E2,1.5626931E1,1.26693924E2,3.378265E0,2.3531845E1],"tree_param":{"num_deleted":"0","num_feature":"13","num_nodes":"15","size_leaf_vector":"1"}},{"base_weights":[-1.589332E-2,-3.225298E-2,8.986736E-1,5.842662E-1,1.4965949E0,8.871869E-1,-7.530078E-2,7.5654596E-2,-1.9205606E-2,-3.274403E-2,5.103431E-2,-2.3217611E-2,2.5295824E-2],"categories":[],"categories_nodes":[],"categories_segments":[],"categories_sizes":[],"default_left":[1,0,0,0,0,0,0,0,0,0,0,0,0],"id":15,"left_children":[1,-1,3,5,7,9,11,-1,-1,-1,-1,-1,-1],"loss_changes":[7.550586E2,0E0,9.9664856E1,7.04238E1,6.279663E0,5.036267E1,2.5504366E1,0E0,0E0,0E0,0E0,0E0,0E0],"parents":[2147483647,0,0,2,2,3,3,4,4,5,5,6,6],"right_children":[2,-1,4,6,8,10,12,-1,-1,-1,-1,-1,-1],"split_conditions":[3E0,-3.225298E-2,4E0,1.99755E5,3.43527E5,8.285403E4,4.3499546E1,7.5654596E-2,-1.9205606E-2,-3.274403E-2,5.103431E-2,-2.3217611E-2,2.5295824E-2],"split_indices":[11,0,11,10,10,10,5,0,0,0,0,0,0],"split_type":[0,0,0,0,0,0,0,0,0,0,0,0,0],"sum_hessian":[1.3101917E3,7.7638257E2,5.3380914E2,3.5114325E2,1.8266592E2,2.4039256E2,1.1075068E2,1.8127132E2,1.3945984E0,1.8841898E1,2.2155066E2,6.6463104E1,4.428757E1],"tree_param":{"num_deleted":"0","num_feature":"13","num_nodes":"13","size_leaf_vector":"1"}},{"base_weights":[2.3431818E-3,9.317248E-1,-6.196111E-1,1.1930478E0,6.6759056E-1,2.5689397E-2,-6.220791E-1,-2.3286067E-2,1.2101505E0,-5.4362726E-1,7.3326737E-1,-6.2879986E-1,-4.6644697E-1,6.1256565E-2,-2.2950351E-2,5.917108E-3,-3.049925E-2,3.968641E-2,3.2197733E-3,-3.1629927E-2,-1.702629E-2,2.8067669E-2,-3.1375326E-2],"categories":[],"categories_nodes":[],"categories_segments":[],"categories_sizes":[],"default_left":[1,0,0,0,0,0,0,0,0,0,0,0,0,0,0,0,0,0,0,0,0,0,0],"id":16,"left_children":[1,3,5,7,9,-1,11,-1,13,15,17,19,21,-1,-1,-1,-1,-1,-1,-1,-1,-1,-1],"loss_changes":[7.4437164E2,3.483972E1,2.4776306E0,7.890106E0,2.1004295E1,0E0,5.123596E-1,0E0,6.96109E0,6.8265915E-1,9.902695E0,5.8999634E-1,6.2716527E0,0E0,0E0,0E0,0E0,0E0,0E0,0E0,0E0,0E0,0E0],"parents":[2147483647,0,0,1,1,2,2,3,3,4,4,6,6,8,8,9,9,10,10,11,11,12,12],"right_children":[2,4,6,8,10,-1,12,-1,14,16,18,20,22,-1,-1,-1,-1,-1,-1,-1,-1,-1,-1],"split_conditions":[2E0,2.4934204E-1,-1.4056586E-2,2.622091E-1,-1.1764184E2,2.5689397E-2,1.463905E2,-2.3286067E-2,3.4E1,2.7527356E-1,5.382727E-1,4.300596E0,1.527624E1,6.1256565E-2,-2.2950351E-2,5.917108E-3,-3.049925E-2,3.968641E-2,3.2197733E-3,-3.1629927E-2,-1.702629E-2,2.8067669E-2,-3.1375326E-2],"split_indices":[11,3,3,6,5,0,5,0,9,3,0,3,7,0,0,0,0,0,0,0,0,0,0],"split_type":[0,0,0,0,0,0,0,0,0,0,0,0,0,0,0,0,0,0,0,0,0,0,0],"sum_hessian":[1.2857683E3,5.152845E2,7.704838E2,2.5725287E2,2.5803162E2,1.2239292E0,7.692599E2,2.3576412E0,2.5489522E2,1.2897495E1,2.4513412E2,7.345011E2,3.4758762E1,2.5289151E2,2.0037055E0,1.103713E0,1.1793782E1,2.246416E2,2.0492538E1,7.2376935E2,1.0731744E1,4.3722024E0,3.038656E1],"tree_param":{"num_deleted":"0","num_feature":"13","num_nodes":"23","size_leaf_vector":"1"}},{"base_weights":[1.375698E-2,3.1443024E-1,-6.185156E-1,-8.0789365E-2,6.221134E-1,-6.249836E-1,-2.974654E-1,-3.5775745E-1,1.1204512E0,8.697262E-1,5.3249705E-3,-3.1305406E-2,-8.947405E-3,-2.8657958E-2,4.8399102E-2,6.471603E-2,-1.922375E-2,-9.471226E-3,6.1315455E-2,-1.8640755E-2,4.4583485E-2,6.2790506E-2,-3.3736788E-3],"categories":[],"categories_nodes":[],"categories_segments":[],"categories_sizes":[],"default_left":[1,1,0,1,0,0,0,0,0,0,0,0,0,0,0,0,0,0,0,0,0,0,0],"id":17,"left_children":[1,3,5,7,9,11,13,15,17,19,21,-1,-1,-1,-1,-1,-1,-1,-1,-1,-1,-1,-1],"loss_changes":[2.4336934E2,1.0554764E2,6.708374E-1,1.27043106E2,7.451221E1,9.036255E-2,4.063178E0,1.4184475E1,1.0155174E1,9.824829E0,1.2899746E1,0E0,0E0,0E0,0E0,0E0,0E0,0E0,0E0,0E0,0E0,0E0,0E0],"parents":[2147483647,0,0,1,1,2,2,3,3,4,4,5,5,6,6,7,7,8,8,9,9,10,10],"right_children":[2,4,6,8,10,12,14,16,18,20,22,-1,-1,-1,-1,-1,-1,-1,-1,-1,-1,-1,-1],"split_conditions":[3E0,2E0,9.254967E2,2E0,3E0,6.65417E5,3E0,-1.1764184E2,4.9856358E1,3.9152893E2,2E0,-3.1305406E-2,-8.947405E-3,-2.8657958E-2,4.8399102E-2,6.471603E-2,-1.922375E-2,-9.471226E-3,6.1315455E-2,-1.8640755E-2,4.4583485E-2,6.2790506E-2,-3.3736788E-3],"split_indices":[11,12,1,11,12,10,12,5,7,1,11,0,0,0,0,0,0,0,0,0,0,0,0],"split_type":[0,0,0,0,0,0,0,0,0,0,0,0,0,0,0,0,0,0,0,0,0,0,0],"sum_hessian":[1.2781443E3,8.665599E2,4.115844E2,3.7964395E2,4.8691592E2,4.025282E2,9.056212E0,3.0908167E2,7.056229E1,3.471434E2,1.397725E2,4.0111325E2,1.4149399E0,7.8853574E0,1.1708552E0,4.163878E0,3.049178E2,5.2170916E0,6.534519E1,5.746752E0,3.4139664E2,6.795387E0,1.3297713E2],"tree_param":{"num_deleted":"0","num_feature":"13","num_nodes":"23","size_leaf_vector":"1"}},{"base_weights":[7.980582E-3,-3.1943247E-2,2.927629E-1,4.5308518E-1,-6.010979E-1,5.8442676E-1,-1.6106509E-1,-6.172233E-1,3.1694576E-2,4.917231E-2,1.8399606E-2,-1.4639168E-2,2.3769831E-2,-1.8631173E-2,-3.12504E-2],"categories":[],"categories_nodes":[],"categories_segments":[],"categories_sizes":[],"default_left":[0,0,1,0,0,0,0,0,0,0,0,0,0,0,0],"id":18,"left_children":[1,-1,3,5,7,9,11,13,-1,-1,-1,-1,-1,-1,-1],"loss_changes":[2.4391681E2,0E0,1.3201942E2,6.301944E1,3.1842003E0,5.515782E1,1.1726865E1,3.1669617E-2,0E0,0E0,0E0,0E0,0E0,0E0,0E0],"parents":[2147483647,0,0,2,2,3,3,4,4,5,5,6,6,7,7],"right_children":[2,-1,4,6,8,10,12,14,-1,-1,-1,-1,-1,-1,-1],"split_conditions":[2E0,-3.1943247E-2,4E0,4E0,3.89837E5,6.0545953E2,2.018E5,2.8699884E1,3.1694576E-2,4.917231E-2,1.8399606E-2,-1.4639168E-2,2.3769831E-2,-1.8631173E-2,-3.12504E-2],"split_indices":[11,0,11,12,10,1,10,2,0,0,0,0,0,0,0],"split_type":[0,0,0,0,0,0,0,0,0,0,0,0,0,0,0],"sum_hessian":[1.3221072E3,4.0376495E2,9.1834216E2,7.79097E2,1.3924521E2,6.418747E2,1.3722227E2,1.3794426E2,1.3009382E0,2.2447966E2,4.1739502E2,1.1414045E2,2.3081833E1,5.762037E0,1.3218224E2],"tree_param":{"num_deleted":"0","num_feature":"13","num_nodes":"15","size_leaf_vector":"1"}},{"base_weights":[-3.1278986E-2,-3.193667E-2,8.4972405E-1,5.99064E-1,1.3786166E0,1.8601307E-1,1.2060273E0,6.9787405E-2,-1.9166274E-2,-1.2543008E-2,4.080994E-2,-3.1877346E-2,6.980797E-2],"categories":[],"categories_nodes":[],"categories_segments":[],"categories_sizes":[],"default_left":[1,0,0,0,0,0,0,0,0,0,0,0,0],"id":19,"left_children":[1,-1,3,5,7,9,11,-1,-1,-1,-1,-1,-1],"loss_changes":[6.8352637E2,0E0,6.827869E1,8.888197E1,5.570984E0,5.8757034E1,5.1275604E1,0E0,0E0,0E0,0E0,0E0,0E0],"parents":[2147483647,0,0,2,2,3,3,4,4,5,5,6,6],"right_children":[2,-1,4,6,8,10,12,-1,-1,-1,-1,-1,-1],"split_conditions":[3E0,-3.193667E-2,4E0,4E0,3.43527E5,2.6E1,3.5130707E1,6.9787405E-2,-1.9166274E-2,-1.2543008E-2,4.080994E-2,-3.1877346E-2,6.980797E-2],"split_indices":[11,0,11,12,10,9,2,0,0,0,0,0,0],"split_type":[0,0,0,0,0,0,0,0,0,0,0,0,0],"sum_hessian":[1.2752012E3,7.549415E2,5.2025964E2,3.5442047E2,1.6583917E2,2.1167665E2,1.4274384E2,1.6444807E2,1.3911105E0,1.2536788E2,8.630876E1,1.3125189E1,1.2961865E2],"tree_param":{"num_deleted":"0","num_feature":"13","num_nodes":"13","size_leaf_vector":"1"}},{"base_weights":[1.0083373E-2,8.955523E-1,-6.152653E-1,1.2288707E0,7.9732485E-2,-6.2105817E-1,-3.7162828E-1,-2.5807468E-2,1.2465527E0,3.3534265E-1,-1.8323283E-1,-3.1747494E-2,-5.576936E-1,6.490154E-2,-2.9692223E-2,1.9592764E-2,6.33376E-2,-9.322764E-3,3.1320516E-2,-1.1625445E-2,4.9799535E-2,7.879778E-3,-2.9157966E-2,2.9373148E-2,-2.4719363E-2],"categories":[],"categories_nodes":[],"categories_segments":[],"categories_sizes":[],"default_left":[1,1,0,0,0,0,0,0,0,0,0,0,0,0,0,0,0,0,0,0,0,0,0,0,0],"id":20,"left_children":[1,3,5,7,9,11,13,-1,15,17,19,-1,21,23,-1,-1,-1,-1,-1,-1,-1,-1,-1,-1,-1],"loss_changes":[7.241662E2,1.4710028E2,8.5098267E-1,1.2499023E1,1.0687222E1,3.0361938E-1,2.0068886E0,0E0,6.0755615E0,1.2345404E1,4.7969017E0,0E0,2.6889763E0,2.5544238E0,0E0,0E0,0E0,0E0,0E0,0E0,0E0,0E0,0E0,0E0,0E0],"parents":[2147483647,0,0,1,1,2,2,3,3,4,4,5,5,6,6,8,8,9,9,10,10,12,12,13,13],"right_children":[2,4,6,8,10,12,14,-1,16,18,20,-1,22,24,-1,-1,-1,-1,-1,-1,-1,-1,-1,-1,-1],"split_conditions":[2E0,2E0,1.688862E2,-1.1764184E2,3.24838E1,8.2072815E2,2E0,-2.5807468E-2,3.0096143E-1,2.8847755E1,4.9495745E-1,-3.1747494E-2,8.260996E2,3.5183078E-1,-2.9692223E-2,1.9592764E-2,6.33376E-2,-9.322764E-3,3.1320516E-2,-1.1625445E-2,4.9799535E-2,7.879778E-3,-2.9157966E-2,2.9373148E-2,-2.4719363E-2],"split_indices":[11,12,5,5,2,1,12,0,6,2,0,0,1,6,0,0,0,0,0,0,0,0,0,0,0],"split_type":[0,0,0,0,0,0,0,0,0,0,0,0,0,0,0,0,0,0,0,0,0,0,0,0,0],"sum_hessian":[1.305809E3,5.403139E2,7.654951E2,3.832313E2,1.5708261E2,7.4620374E2,1.9291405E1,3.5614798E0,3.796698E2,7.9515724E1,7.7566895E1,6.0462805E2,1.4157567E2,6.746419E0,1.2544985E1,9.236648E0,3.7043317E2,2.8601368E1,5.0914356E1,7.522625E1,2.3406405E0,4.6887245E0,1.3688693E2,3.461683E0,3.2847362E0],"tree_param":{"num_deleted":"0","num_feature":"13","num_nodes":"25","size_leaf_vector":"1"}},{"base_weights":[5.7492615E-3,3.150603E-1,-6.130328E-1,-5.6937955E-2,5.967577E-1,-6.2743676E-1,-4.8627293E-1,-3.304105E-1,1.0908586E0,8.0866927E-1,3.6466908E-2,-3.1550728E-2,-3.4921014E-1,-3.1108454E-2,6.930234E-2,-2.3300186E-2,3.6590595E-3,1.6288813E-3,6.100362E-2,3.8062267E-2,6.585083E-2,6.250675E-2,-2.4207644E-3,-3.030653E-4,-2.2104815E-2],"categories":[],"categories_nodes":[],"categories_segments":[],"categories_sizes":[],"default_left":[1,1,0,1,0,0,1,0,0,0,0,0,0,0,0,0,0,0,0,0,0,0,0,0,0],"id":21,"left_children":[1,3,5,7,9,11,13,15,17,19,21,-1,23,-1,-1,-1,-1,-1,-1,-1,-1,-1,-1,-1,-1],"loss_changes":[2.502019E2,9.136565E1,4.903717E-1,1.1853875E2,5.8869415E1,1.6564941E-1,1.3304511E1,1.6715134E1,9.8982315E0,7.6734924E0,1.4192644E1,0E0,2.256124E-1,0E0,0E0,0E0,0E0,0E0,0E0,0E0,0E0,0E0,0E0,0E0,0E0],"parents":[2147483647,0,0,1,1,2,2,3,3,4,4,5,5,6,6,7,7,8,8,9,9,10,10,12,12],"right_children":[2,4,6,8,10,12,14,16,18,20,22,-1,24,-1,-1,-1,-1,-1,-1,-1,-1,-1,-1,-1,-1],"split_conditions":[3E0,2E0,8.5245215E2,2E0,3E0,4.8115852E-1,4E0,2.9442117E-1,6.442842E1,7.74709E2,2E0,-3.1550728E-2,2.7958548E-1,-3.1108454E-2,6.930234E-2,-2.3300186E-2,3.6590595E-3,1.6288813E-3,6.100362E-2,3.8062267E-2,6.585083E-2,6.250675E-2,-2.4207644E-3,-3.030653E-4,-2.2104815E-2],"split_indices":[11,12,1,11,12,3,12,3,7,7,11,0,6,0,0,0,0,0,0,0,0,0,0,0,0],"split_type":[0,0,0,0,0,0,0,0,0,0,0,0,0,0,0,0,0,0,0,0,0,0,0,0,0],"sum_hessian":[1.3052375E3,8.705606E2,4.346769E2,3.7549496E2,4.950656E2,3.8677695E2,4.7899952E1,3.0381946E2,7.167551E1,3.5888565E2,1.3617998E2,3.8061456E2,6.1623774E0,4.528108E1,2.6188762E0,2.2729976E2,7.65197E1,7.9354115E0,6.3740097E1,3.3054633E2,2.833931E1,8.004313E0,1.2817567E2,1.5396631E0,4.6227145E0],"tree_param":{"num_deleted":"0","num_feature":"13","num_nodes":"25","size_leaf_vector":"1"}},{"base_weights":[1.9340178E-2,-2.7503914E-1,5.6168187E-1,-4.8679793E-1,-1.2977042E-3,9.015673E-1,1.6927509E-2,3.5895443E-1,-5.3771424E-1,-4.6719483E-1,1.4171323E-1,1.0536202E0,1.0128462E-1,-2.8287983E-1,4.5809963E-1,4.1503053E-2,-2.8387725E-2,-5.6557558E-3,-2.7515812E-2,-2.8156066E-2,-1.0550317E-2,1.2554379E-2,-2.6358593E-2,5.5704314E-2,-1.1506281E-2,-2.4252415E-2,6.652567E-2,6.2310617E-2,-1.744169E-2,6.1083056E-2,-1.0534587E-2],"categories":[],"categories_nodes":[],"categories_segments":[],"categories_sizes":[],"default_left":[1,1,0,0,0,0,0,0,0,0,0,0,0,0,0,0,0,0,0,0,0,0,0,0,0,0,0,0,0,0,0],"id":22,"left_children":[1,3,5,7,9,11,13,15,17,19,21,23,25,27,29,-1,-1,-1,-1,-1,-1,-1,-1,-1,-1,-1,-1,-1,-1,-1,-1],"loss_changes":[2.0442369E2,4.8110794E1,8.339114E1,2.034488E1,2.4253029E1,3.364598E1,2.3156324E1,1.2334264E1,2.3017044E0,1.9821434E0,2.0508553E1,1.8341309E1,3.336197E1,1.095049E1,3.6423374E1,0E0,0E0,0E0,0E0,0E0,0E0,0E0,0E0,0E0,0E0,0E0,0E0,0E0,0E0,0E0,0E0],"parents":[2147483647,0,0,1,1,2,2,3,3,4,4,5,5,6,6,7,7,8,8,9,9,10,10,11,11,12,12,13,13,14,14],"right_children":[2,4,6,8,10,12,14,16,18,20,22,24,26,28,30,-1,-1,-1,-1,-1,-1,-1,-1,-1,-1,-1,-1,-1,-1,-1,-1],"split_conditions":[3E0,2E0,2.3E1,3.652972E-2,2.9966518E1,4E0,4.2483652E-1,3.676336E1,2.5171375E-1,6.944093E2,5.909172E-1,5.4742324E-1,1.04427E5,-3.8014747E-2,5.9596497E-1,4.1503053E-2,-2.8387725E-2,-5.6557558E-3,-2.7515812E-2,-2.8156066E-2,-1.0550317E-2,1.2554379E-2,-2.6358593E-2,5.5704314E-2,-1.1506281E-2,-2.4252415E-2,6.652567E-2,6.2310617E-2,-1.744169E-2,6.1083056E-2,-1.0534587E-2],"split_indices":[12,12,9,3,2,12,6,2,0,7,3,0,10,4,6,0,0,0,0,0,0,0,0,0,0,0,0,0,0,0,0],"split_type":[0,0,0,0,0,0,0,0,0,0,0,0,0,0,0,0,0,0,0,0,0,0,0,0,0,0,0,0,0,0,0],"sum_hessian":[1.2784478E3,8.289775E2,4.4947034E2,4.6696667E2,3.6201077E2,2.7637704E2,1.730933E2,2.6172628E1,4.4079404E2,8.449111E1,2.7751968E2,2.319838E2,4.439325E1,1.03271736E2,6.982157E1,1.7420794E1,8.751836E0,1.2993107E1,4.2780093E2,6.0601555E1,2.3889555E1,2.3905469E2,3.846499E1,2.2167479E2,1.0309006E1,3.0466408E1,1.3926844E1,3.5302553E0,9.974148E1,3.2214966E1,3.760661E1],"tree_param":{"num_deleted":"0","num_feature":"13","num_nodes":"31","size_leaf_vector":"1"}},{"base_weights":[3.0728774E-2,-4.1207647E-1,8.130911E-1,1.2129942E0,-5.5313474E-1,9.6169174E-1,-3.9578968E-1,-2.3486922E-2,1.2947252E0,1.1689138E0,-5.8483976E-1,1.0297347E0,-3.1174168E-2,-3.1889938E-2,5.259777E-1,-1.6976278E-2,6.642848E-2,-1.845905E-2,6.784421E-2,-1.6331336E-2,-3.0821443E-2,-3.0959008E-2,5.5099793E-2,6.9057815E-2,-2.781983E-2],"categories":[],"categories_nodes":[],"categories_segments":[],"categories_sizes":[],"default_left":[0,0,0,0,0,0,0,0,0,0,0,0,0,0,0,0,0,0,0,0,0,0,0,0,0],"id":23,"left_children":[1,3,5,7,9,11,13,-1,15,17,19,21,-1,-1,23,-1,-1,-1,-1,-1,-1,-1,-1,-1,-1],"loss_changes":[4.5114877E2,1.9130759E2,8.4929596E1,9.786362E0,4.2500244E1,4.588138E1,1.1986784E1,0E0,3.9859772E0,4.600548E0,5.938385E0,4.8645996E1,0E0,0E0,1.1329278E1,0E0,0E0,0E0,0E0,0E0,0E0,0E0,0E0,0E0,0E0],"parents":[2147483647,0,0,1,1,2,2,3,3,4,4,5,5,6,6,8,8,9,9,10,10,11,11,14,14],"right_children":[2,4,6,8,10,12,14,-1,16,18,20,22,-1,-1,24,-1,-1,-1,-1,-1,-1,-1,-1,-1,-1],"split_conditions":[1E0,8.3442E4,4.5380822E-1,1.1484823E1,1.0725968E0,6.38088E2,3.8848706E-2,-2.3486922E-2,3.564682E2,3.6623102E-1,1.47295E5,-7.1968796E1,-3.1174168E-2,-3.1889938E-2,4.0923953E-2,-1.6976278E-2,6.642848E-2,-1.845905E-2,6.784421E-2,-1.6331336E-2,-3.0821443E-2,-3.0959008E-2,5.5099793E-2,6.9057815E-2,-2.781983E-2],"split_indices":[8,10,0,5,7,7,4,0,7,0,10,5,0,0,4,0,0,0,0,0,0,0,0,0,0],"split_type":[0,0,0,0,0,0,0,0,0,0,0,0,0,0,0,0,0,0,0,0,0,0,0,0,0],"sum_hessian":[1.3002971E3,8.3064044E2,4.6965665E2,6.573515E1,7.649053E2,4.184264E2,5.123024E1,2.824987E0,6.2910164E1,1.3179806E1,7.5172546E2,4.0154083E2,1.6885561E1,4.082084E1,1.0409399E1,1.0931497E0,6.1817013E1,1.3303101E0,1.1849496E1,8.317589E1,6.685496E2,1.6540358E1,3.850005E2,5.6607914E0,4.7486076E0],"tree_param":{"num_deleted":"0","num_feature":"13","num_nodes":"25","size_leaf_vector":"1"}},{"base_weights":[-1.641399E-2,8.2806677E-1,-6.106024E-1,1.1536778E0,1.1071889E-2,-6.274103E-1,-5.4731524E-1,-2.5245234E-2,1.1689848E0,2.7465698E-1,-4.4454297E-1,-3.144701E-2,-2.4298592E-1,4.010954E-1,-5.746824E-1,2.252621E-2,5.9384137E-2,1.960395E-2,-2.1439323E-2,-2.5949998E-2,2.079899E-2,7.031406E-3,-2.1449674E-2,4.143688E-2,-1.9360745E-2,7.7915797E-3,-2.9563114E-2],"categories":[],"categories_nodes":[],"categories_segments":[],"categories_sizes":[],"default_left":[1,1,0,0,0,0,0,0,0,0,0,0,0,0,0,0,0,0,0,0,0,0,0,0,0,0,0],"id":24,"left_children":[1,3,5,7,9,11,13,-1,15,17,19,-1,21,23,25,-1,-1,-1,-1,-1,-1,-1,-1,-1,-1,-1,-1],"loss_changes":[6.529111E2,1.4295178E2,4.6905518E-1,1.0345795E1,1.8635456E1,1.9807434E-1,4.593834E0,0E0,4.58374E0,8.285828E0,3.8603373E0,0E0,3.453646E-1,2.108901E0,2.0761223E0,0E0,0E0,0E0,0E0,0E0,0E0,0E0,0E0,0E0,0E0,0E0,0E0],"parents":[2147483647,0,0,1,1,2,2,3,3,4,4,5,5,6,6,8,8,9,9,10,10,12,12,13,13,14,14],"right_children":[2,4,6,8,10,12,14,-1,16,18,20,-1,22,24,26,-1,-1,-1,-1,-1,-1,-1,-1,-1,-1,-1,-1],"split_conditions":[2E0,2E0,8.2072815E2,-1.1764184E2,5.4309143E2,1.688862E2,8.260996E2,-2.5245234E-2,2.987978E-1,3E0,5.500996E-2,-3.144701E-2,2.28929E5,1.15906715E2,1.527624E1,2.252621E-2,5.9384137E-2,1.960395E-2,-2.1439323E-2,-2.5949998E-2,2.079899E-2,7.031406E-3,-2.1449674E-2,4.143688E-2,-1.9360745E-2,7.7915797E-3,-2.9563114E-2],"split_indices":[11,12,1,5,7,5,1,0,6,12,4,0,10,7,7,0,0,0,0,0,0,0,0,0,0,0,0],"split_type":[0,0,0,0,0,0,0,0,0,0,0,0,0,0,0,0,0,0,0,0,0,0,0,0,0,0,0],"sum_hessian":[1.2991807E3,5.364153E2,7.627653E2,3.8325714E2,1.5315817E2,5.95656E2,1.6710928E2,3.2122443E0,3.800449E2,9.727767E1,5.5880497E1,5.9266144E2,2.9946134E0,4.3038363E0,1.6280545E2,1.0276283E1,3.6976862E2,8.3741745E1,1.3535929E1,5.1795734E1,4.0847626E0,1.0575445E0,1.937069E0,2.7569587E0,1.5468774E0,3.4266665E0,1.5937878E2],"tree_param":{"num_deleted":"0","num_feature":"13","num_nodes":"27","size_leaf_vector":"1"}},{"base_weights":[1.5985271E-2,3.4369752E-1,-3.7492827E-1,-8.4847145E-2,6.421006E-1,-4.069033E-1,1.2348722E0,-4.4309115E-1,1.4883292E-1,5.12031E-1,9.319558E-1,-4.377375E-1,6.724085E-1,6.779858E-2,3.7054352E-3,-2.4339722E-2,9.921755E-3,5.833439E-2,3.8103291E-3,3.5965756E-2,1.8646827E-2,4.793438E-2,-2.417749E-2,-2.576003E-2,-7.246859E-3,5.5834945E-2,-1.7939534E-2],"categories":[],"categories_nodes":[],"categories_segments":[],"categories_sizes":[],"default_left":[0,0,0,0,0,0,0,0,0,0,0,0,0,0,0,0,0,0,0,0,0,0,0,0,0,0,0],"id":25,"left_children":[1,3,5,7,9,11,13,15,17,19,21,23,25,-1,-1,-1,-1,-1,-1,-1,-1,-1,-1,-1,-1,-1,-1],"loss_changes":[1.6439052E2,8.931609E1,3.0624947E1,2.4126347E1,1.5040909E1,1.9415512E1,1.5364513E0,3.2848148E0,1.2825071E1,7.9873047E0,5.2416153E0,1.260881E1,7.892649E0,0E0,0E0,0E0,0E0,0E0,0E0,0E0,0E0,0E0,0E0,0E0,0E0,0E0,0E0],"parents":[2147483647,0,0,1,1,2,2,3,3,4,4,5,5,6,6,7,7,8,8,9,9,10,10,11,11,12,12],"right_children":[2,4,6,8,10,12,14,16,18,20,22,24,26,-1,-1,-1,-1,-1,-1,-1,-1,-1,-1,-1,-1,-1,-1],"split_conditions":[3E0,2E0,1.3230388E3,2.3746324E-1,3.3565187E-1,5.354721E-1,5.655643E-1,6.720294E2,2.9769857E1,4.166557E-1,3E0,3.0445588E-1,2E0,6.779858E-2,3.7054352E-3,-2.4339722E-2,9.921755E-3,5.833439E-2,3.8103291E-3,3.5965756E-2,1.8646827E-2,4.793438E-2,-2.417749E-2,-2.576003E-2,-7.246859E-3,5.5834945E-2,-1.7939534E-2],"split_indices":[12,12,1,3,3,0,0,7,2,6,8,3,8,0,0,0,0,0,0,0,0,0,0,0,0,0,0],"split_type":[0,0,0,0,0,0,0,0,0,0,0,0,0,0,0,0,0,0,0,0,0,0,0,0,0,0,0],"sum_hessian":[1.2812207E3,6.9701605E2,5.842046E2,2.8641025E2,4.1060583E2,5.735594E2,1.0645218E1,1.12715385E2,1.7369485E2,2.8533243E2,1.2527342E2,5.582067E2,1.5352633E1,9.487266E0,1.1579528E0,1.0575231E2,6.96307E0,1.0564837E1,1.6313002E2,1.1290523E2,1.7242719E2,1.23268234E2,2.0051882E0,4.408232E2,1.1738354E2,1.0671796E1,4.6808376E0],"tree_param":{"num_deleted":"0","num_feature":"13","num_nodes":"27","size_leaf_vector":"1"}},{"base_weights":[4.9519874E-3,-3.142729E-2,2.6827988E-1,4.1533408E-1,-5.9848386E-1,5.549177E-1,-1.982422E-1,-3.0324072E-2,1.0170782E-2,1.2641984E-2,4.0408786E-2,5.363071E-2,-1.7620131E-2],"categories":[],"categories_nodes":[],"categories_segments":[],"categories_sizes":[],"default_left":[0,0,1,0,0,0,0,0,0,0,0,0,0],"id":26,"left_children":[1,-1,3,5,7,9,11,-1,-1,-1,-1,-1,-1],"loss_changes":[2.1754158E2,0E0,1.1765968E2,6.76095E1,9.8288345E-1,4.8936066E1,2.9138678E1,0E0,0E0,0E0,0E0,0E0,0E0],"parents":[2147483647,0,0,2,2,3,3,4,4,5,5,6,6],"right_children":[2,-1,4,6,8,10,12,-1,-1,-1,-1,-1,-1],"split_conditions":[2E0,-3.142729E-2,4E0,4E0,3.63548E5,3E0,-7.3187164E1,-3.0324072E-2,1.0170782E-2,1.2641984E-2,4.0408786E-2,5.363071E-2,-1.7620131E-2],"split_indices":[11,0,11,12,10,12,5,0,0,0,0,0,0],"split_type":[0,0,0,0,0,0,0,0,0,0,0,0,0],"sum_hessian":[1.3020573E3,3.819056E2,9.201516E2,7.8712897E2,1.3302261E2,6.413277E2,1.4580128E2,1.3195033E2,1.0722828E0,2.9338538E2,3.4794235E2,1.5128477E1,1.306728E2],"tree_param":{"num_deleted":"0","num_feature":"13","num_nodes":"13","size_leaf_vector":"1"}},{"base_weights":[2.8193578E-2,-3.137813E-2,8.2010674E-1,1.0119584E0,2.1469977E-1,-3.1505756E-2,1.0718592E0,7.0091206E-1,-4.3804222E-1,4.3591168E-2,6.402549E-2,5.5143066E-2,-3.2450054E-2,-3.245147E-2,7.680782E-2],"categories":[],"categories_nodes":[],"categories_segments":[],"categories_sizes":[],"default_left":[1,0,0,0,0,0,0,0,0,0,0,0,0,0,0],"id":27,"left_children":[1,-1,3,5,7,-1,9,11,13,-1,-1,-1,-1,-1,-1],"loss_changes":[6.819585E2,0E0,6.8872345E1,4.5078613E1,4.6138897E1,0E0,1.7077515E1,4.583126E1,2.6931667E1,0E0,0E0,0E0,0E0,0E0,0E0],"parents":[2147483647,0,0,2,2,3,3,4,4,6,6,7,7,8,8],"right_children":[2,-1,4,6,8,-1,10,12,14,-1,-1,-1,-1,-1,-1],"split_conditions":[3E0,-3.137813E-2,1.99755E5,-7.422652E1,2.589443E-1,-3.1505756E-2,4E0,3.8895485E-1,5.5396146E-1,4.3591168E-2,6.402549E-2,5.5143066E-2,-3.2450054E-2,-3.245147E-2,7.680782E-2],"split_indices":[11,0,10,5,3,0,12,0,0,0,0,0,0,0,0],"split_type":[0,0,0,0,0,0,0,0,0,0,0,0,0,0,0],"sum_hessian":[1.3112303E3,7.17391E2,5.938394E2,4.5042847E2,1.4341093E2,1.5517762E1,4.349107E2,8.214743E1,6.1263504E1,2.2468286E2,2.1022786E2,6.3440456E1,1.8706974E1,5.5954735E1,5.308768E0],"tree_param":{"num_deleted":"0","num_feature":"13","num_nodes":"15","size_leaf_vector":"1"}},{"base_weights":[5.8536576E-3,7.931242E-1,-6.0548E-1,1.0898106E0,5.5512168E-2,8.382774E-3,-6.080455E-1,1.1667336E0,8.2300293E-1,2.7528387E-1,-3.7517104E-1,-3.0971065E-2,-5.315949E-1,5.8749463E-2,3.4949847E-3,-1.9451892E-2,4.419848E-2,6.339529E-2,9.4194E-3,3.0484054E-2,-2.4224019E-2,-8.037851E-3,-3.0893832E-2],"categories":[],"categories_nodes":[],"categories_segments":[],"categories_sizes":[],"default_left":[1,1,0,0,0,0,0,0,0,0,0,0,0,0,0,0,0,0,0,0,0,0,0],"id":28,"left_children":[1,3,5,7,9,-1,11,13,15,17,19,-1,21,-1,-1,-1,-1,-1,-1,-1,-1,-1,-1],"loss_changes":[6.0679486E2,1.20539246E2,1.509613E0,7.1045837E0,1.5165438E1,0E0,2.861023E-1,2.6581726E0,7.0928726E0,8.899162E0,6.1290975E0,0E0,3.0587597E0,0E0,0E0,0E0,0E0,0E0,0E0,0E0,0E0,0E0,0E0],"parents":[2147483647,0,0,1,1,2,2,3,3,4,4,6,6,7,7,8,8,9,9,10,10,12,12],"right_children":[2,4,6,8,10,-1,12,14,16,18,20,-1,22,-1,-1,-1,-1,-1,-1,-1,-1,-1,-1],"split_conditions":[2E0,2E0,-1.4056586E-2,2.9442117E-1,5.4309143E2,8.382774E-3,8.884265E2,9.402544E2,2.9025844E-1,1.0542053E1,2.2584063E-1,-3.0971065E-2,2.2725429E2,5.8749463E-2,3.4949847E-3,-1.9451892E-2,4.419848E-2,6.339529E-2,9.4194E-3,3.0484054E-2,-2.4224019E-2,-8.037851E-3,-3.0893832E-2],"split_indices":[11,12,3,3,7,0,1,7,6,7,6,0,7,0,0,0,0,0,0,0,0,0,0],"split_type":[0,0,0,0,0,0,0,0,0,0,0,0,0,0,0,0,0,0,0,0,0,0,0],"sum_hessian":[1.258783E3,5.5008746E2,7.086955E2,3.9195544E2,1.58132E2,2.1310568E0,7.0656445E2,3.0162225E2,9.033321E1,1.0494224E2,5.318976E1,6.0886365E2,9.770079E1,2.9929822E2,2.3240197E0,4.0685086E0,8.62647E1,7.3533173E0,9.758892E1,4.856473E0,4.8333286E1,1.8981543E1,7.8719246E1],"tree_param":{"num_deleted":"0","num_feature":"13","num_nodes":"23","size_leaf_vector":"1"}},{"base_weights":[-1.1695827E-2,1.7481294E-1,-4.5796058E-1,-2.3522021E-1,3.5391876E-1,-5.329574E-1,3.030223E-1,-2.925578E-1,8.4589297E-1,2.9489937E-1,1.109459E0,-5.6221294E-1,3.2198748E-1,-3.538118E-1,5.3672165E-1,-2.0764848E-2,-4.759144E-3,6.640095E-2,-2.0853221E-2,-2.7014155E-2,1.7233638E-2,6.5507196E-2,1.1669527E-2,-2.9665848E-2,-1.45621365E-2,5.6312043E-2,-2.1198068E-3,2.6175393E-2,-2.6629955E-2,-2.6110893E-2,3.3903506E-2],"categories":[],"categories_nodes":[],"categories_segments":[],"categories_sizes":[],"default_left":[0,0,0,0,0,0,0,0,0,0,0,0,0,0,0,0,0,0,0,0,0,0,0,0,0,0,0,0,0,0,0],"id":29,"left_children":[1,3,5,7,9,11,13,15,17,19,21,23,25,27,29,-1,-1,-1,-1,-1,-1,-1,-1,-1,-1,-1,-1,-1,-1,-1,-1],"loss_changes":[1.08991905E2,6.7909325E1,2.2188866E1,1.7689575E1,2.8353615E1,8.977707E0,5.602784E0,6.451685E0,9.339391E0,2.5042866E1,7.823963E0,2.6964188E0,3.6443033E0,1.8248563E0,4.3065577E0,0E0,0E0,0E0,0E0,0E0,0E0,0E0,0E0,0E0,0E0,0E0,0E0,0E0,0E0,0E0,0E0],"parents":[2147483647,0,0,1,1,2,2,3,3,4,4,5,5,6,6,7,7,8,8,9,9,10,10,11,11,12,12,13,13,14,14],"right_children":[2,4,6,8,10,12,14,16,18,20,22,24,26,28,30,-1,-1,-1,-1,-1,-1,-1,-1,-1,-1,-1,-1,-1,-1,-1,-1],"split_conditions":[1E0,2.3746324E-1,8.5245215E2,1.3730918E3,1.1060305E3,4.02486E5,2.0288682E-1,1.966233E-1,5.704652E-1,8.3442E4,2.9966518E1,4.5499474E-1,3.3668724E-1,1.65088E5,-4.5338646E-2,-2.0764848E-2,-4.759144E-3,6.640095E-2,-2.0853221E-2,-2.7014155E-2,1.7233638E-2,6.5507196E-2,1.1669527E-2,-2.9665848E-2,-1.45621365E-2,5.6312043E-2,-2.1198068E-3,2.6175393E-2,-2.6629955E-2,-2.6110893E-2,3.3903506E-2],"split_indices":[8,3,1,1,1,10,3,3,0,10,2,0,0,10,4,0,0,0,0,0,0,0,0,0,0,0,0,0,0,0,0],"split_type":[0,0,0,0,0,0,0,0,0,0,0,0,0,0,0,0,0,0,0,0,0,0,0,0,0,0,0,0,0,0,0],"sum_hessian":[1.3075287E3,9.2256616E2,3.8496255E2,2.803767E2,6.4218945E2,3.5069986E2,3.426271E1,2.669483E2,1.3428401E1,5.9694885E2,4.5240616E1,3.394273E2,1.1272553E1,8.856558E0,2.5406155E1,1.6391339E2,1.03034935E2,9.681163E0,3.7472382E0,3.302046E1,5.6392834E2,3.6405552E1,8.835063E0,3.0341E2,3.6017284E1,2.8628876E0,8.409665E0,1.172911E0,7.6836467E0,2.6745665E0,2.2731588E1],"tree_param":{"num_deleted":"0","num_feature":"13","num_nodes":"31","size_leaf_vector":"1"}},{"base_weights":[2.642652E-2,-2.569386E-1,5.109845E-1,-4.8078674E-1,6.7027947E-3,7.7085626E-1,-1.2420604E-1,1.8614283E-1,-5.3191155E-1,-4.2912152E-1,1.7064501E-1,9.251426E-1,-3.943756E-2,6.166398E-2,-1.8849523E-1,-6.733311E-3,7.646722E-2,-6.867887E-3,-2.7518941E-2,-2.7690453E-2,-3.8412143E-3,1.4226793E-2,-2.5790272E-2,9.809904E-3,5.2833367E-2,-2.7893454E-2,4.1189324E-2,7.7677733E-4,-2.5986368E-2],"categories":[],"categories_nodes":[],"categories_segments":[],"categories_sizes":[],"default_left":[1,1,0,0,0,0,0,0,0,0,0,0,0,0,0,0,0,0,0,0,0,0,0,0,0,0,0,0,0],"id":30,"left_children":[1,3,5,7,9,11,13,15,17,19,21,23,25,-1,27,-1,-1,-1,-1,-1,-1,-1,-1,-1,-1,-1,-1,-1,-1],"loss_changes":[1.7284064E2,4.68827E1,7.6766266E1,1.4747391E1,2.6205595E1,4.1262253E1,1.2076757E1,1.3705908E1,2.8337097E0,4.3615E0,2.0980701E1,2.6355225E1,2.4493727E1,0E0,8.823959E0,0E0,0E0,0E0,0E0,0E0,0E0,0E0,0E0,0E0,0E0,0E0,0E0,0E0,0E0],"parents":[2147483647,0,0,1,1,2,2,3,3,4,4,5,5,6,6,7,7,8,8,9,9,10,10,11,11,12,12,14,14],"right_children":[2,4,6,8,10,12,14,16,18,20,22,24,26,-1,28,-1,-1,-1,-1,-1,-1,-1,-1,-1,-1,-1,-1,-1,-1],"split_conditions":[3E0,2E0,3.6E1,3.652972E-2,3.0301016E1,4E0,-3.6411166E-2,-4.0828357E-3,2.612642E-1,6.944093E2,6.5190655E-1,-1.872668E-2,1.04427E5,6.166398E-2,4E0,-6.733311E-3,7.646722E-2,-6.867887E-3,-2.7518941E-2,-2.7690453E-2,-3.8412143E-3,1.4226793E-2,-2.5790272E-2,9.809904E-3,5.2833367E-2,-2.7893454E-2,4.1189324E-2,7.7677733E-4,-2.5986368E-2],"split_indices":[12,12,9,3,2,12,4,4,0,7,3,4,10,0,12,0,0,0,0,0,0,0,0,0,0,0,0,0,0],"split_type":[0,0,0,0,0,0,0,0,0,0,0,0,0,0,0,0,0,0,0,0,0,0,0,0,0,0,0,0,0],"sum_hessian":[1.2568351E3,7.933569E2,4.6347818E2,4.2861346E2,3.647434E2,3.2876068E2,1.347175E2,3.0328857E1,3.982846E2,9.9258064E1,2.6548535E2,2.7605576E2,5.2704918E1,5.269393E0,1.294481E2,2.5207954E1,5.1209025E0,1.8185608E1,3.80099E2,7.288876E1,2.63693E1,2.282082E2,3.727714E1,4.2576622E1,2.3347913E2,3.3149727E1,1.9555191E1,8.069505E1,4.875305E1],"tree_param":{"num_deleted":"0","num_feature":"13","num_nodes":"29","size_leaf_vector":"1"}},{"base_weights":[1.4911028E-2,-3.1118242E-2,7.813373E-1,-3.1707156E-2,8.4814715E-1,6.4163405E-1,1.1232312E0,1.7143277E-2,6.1133634E-2,-3.3134222E-2,6.0310006E-2],"categories":[],"categories_nodes":[],"categories_segments":[],"categories_sizes":[],"default_left":[1,0,0,0,0,0,0,0,0,0,0],"id":31,"left_children":[1,-1,3,-1,5,7,9,-1,-1,-1,-1],"loss_changes":[6.3144507E2,0E0,5.6042297E1,0E0,3.1143188E1,5.5602615E1,3.6240936E1,0E0,0E0,0E0,0E0],"parents":[2147483647,0,0,2,2,4,4,5,5,6,6],"right_children":[2,-1,4,-1,6,8,10,-1,-1,-1,-1],"split_conditions":[3E0,-3.1118242E-2,-7.422652E1,-3.1707156E-2,4E0,4E0,3.440491E1,1.7143277E-2,6.1133634E-2,-3.3134222E-2,6.0310006E-2],"split_indices":[11,0,5,0,12,11,2,0,0,0,0],"split_type":[0,0,0,0,0,0,0,0,0,0,0],"sum_hessian":[1.2908234E3,7.048967E2,5.8592664E2,2.6026163E1,5.599005E2,3.217137E2,2.3818678E2,2.1351498E2,1.0819872E2,1.0264077E1,2.279227E2],"tree_param":{"num_deleted":"0","num_feature":"13","num_nodes":"11","size_leaf_vector":"1"}},{"base_weights":[1.0688037E-2,7.7543473E-1,-5.992864E-1,9.144566E-1,5.286439E-1,2.2770266E-1,-6.031089E-1,6.447103E-1,9.848112E-1,-3.0230537E-2,6.0068554E-1,4.695268E-2,-2.1350713E-2,-6.0933197E-1,-3.5473877E-1,3.7889857E-2,-2.8477386E-2,5.0503064E-2,2.1141982E-2,3.442284E-2,5.6354986E-3,-3.073006E-2,-2.5307462E-2,4.4411507E-2,-2.7037708E-2],"categories":[],"categories_nodes":[],"categories_segments":[],"categories_sizes":[],"default_left":[1,0,0,0,0,0,0,0,0,0,0,0,0,0,0,0,0,0,0,0,0,0,0,0,0],"id":32,"left_children":[1,3,5,7,9,11,13,15,17,-1,19,-1,-1,21,23,-1,-1,-1,-1,-1,-1,-1,-1,-1,-1],"loss_changes":[5.9627136E2,1.8975525E1,2.3852081E0,6.2241516E0,1.7241634E1,2.2627995E0,8.782959E-1,1.1095749E1,3.6136475E0,0E0,8.26931E0,0E0,0E0,6.37207E-2,5.0354824E0,0E0,0E0,0E0,0E0,0E0,0E0,0E0,0E0,0E0,0E0],"parents":[2147483647,0,0,1,1,2,2,3,3,4,4,5,5,6,6,7,7,8,8,10,10,13,13,14,14],"right_children":[2,4,6,8,10,12,14,16,18,-1,20,-1,-1,22,24,-1,-1,-1,-1,-1,-1,-1,-1,-1,-1],"split_conditions":[2E0,2.7912122E-1,-1.4056586E-2,3.90005E-1,-1.1764184E2,4.6532282E-1,1.688862E2,2E0,1.3230388E3,-3.0230537E-2,9.891694E2,4.695268E-2,-2.1350713E-2,5.215817E-1,1.3516113E1,3.7889857E-2,-2.8477386E-2,5.0503064E-2,2.1141982E-2,3.442284E-2,5.6354986E-3,-3.073006E-2,-2.5307462E-2,4.4411507E-2,-2.7037708E-2],"split_indices":[11,3,3,6,5,0,5,11,1,0,1,0,0,0,7,0,0,0,0,0,0,0,0,0,0],"split_type":[0,0,0,0,0,0,0,0,0,0,0,0,0,0,0,0,0,0,0,0,0,0,0,0,0],"sum_hessian":[1.2762507E3,5.66162E2,7.100887E2,3.6042337E2,2.0573862E2,2.9975872E0,7.070911E2,7.666109E1,2.8376227E2,1.1855323E1,1.938833E2,1.2285147E0,1.7690725E0,6.883898E2,1.8701326E1,7.0473625E1,6.1874604E0,2.7079764E2,1.2964649E1,1.6397801E2,2.9905285E1,6.502283E2,3.8161533E1,1.9430016E0,1.6758326E1],"tree_param":{"num_deleted":"0","num_feature":"13","num_nodes":"25","size_leaf_vector":"1"}},{"base_weights":[-4.459107E-3,2.7604562E-1,-5.982946E-1,-6.4390674E-2,5.2375585E-1,-9.7577665E-3,-6.026185E-1,-3.305922E-1,9.4151855E-1,7.1523243E-1,3.780512E-3,-6.124763E-1,-4.8676088E-1,-2.3277285E-2,4.2210035E-3,-1.8860962E-2,5.252102E-2,1.8948365E-2,3.8489696E-2,5.3999342E-2,-3.7367202E-3,-3.0861074E-2,-1.5932294E-2,-3.0591667E-2,4.642633E-2],"categories":[],"categories_nodes":[],"categories_segments":[],"categories_sizes":[],"default_left":[1,1,0,1,0,0,0,0,0,0,0,0,1,0,0,0,0,0,0,0,0,0,0,0,0],"id":33,"left_children":[1,3,5,7,9,-1,11,13,15,17,19,21,23,-1,-1,-1,-1,-1,-1,-1,-1,-1,-1,-1,-1],"loss_changes":[2.1658693E2,7.450638E1,6.095123E-1,1.0014636E2,5.090207E1,0E0,1.7268372E-1,1.6592495E1,1.1638069E1,6.564087E0,1.1792936E1,3.2762146E-1,7.152426E0,0E0,0E0,0E0,0E0,0E0,0E0,0E0,0E0,0E0,0E0,0E0,0E0],"parents":[2147483647,0,0,1,1,2,2,3,3,4,4,6,6,7,7,8,8,9,9,10,10,11,11,12,12],"right_children":[2,4,6,8,10,-1,12,14,16,18,20,22,24,-1,-1,-1,-1,-1,-1,-1,-1,-1,-1,-1,-1],"split_conditions":[3E0,2E0,2.860827E1,2E0,3E0,-9.7577665E-3,8.5245215E2,2.9442117E-1,1.93112E1,5.6946533E2,2E0,4.8115852E-1,4E0,-2.3277285E-2,4.2210035E-3,-1.8860962E-2,5.252102E-2,1.8948365E-2,3.8489696E-2,5.3999342E-2,-3.7367202E-3,-3.0861074E-2,-1.5932294E-2,-3.0591667E-2,4.642633E-2],"split_indices":[11,12,2,11,12,0,1,3,7,1,11,3,12,0,0,0,0,0,0,0,0,0,0,0,0],"split_type":[0,0,0,0,0,0,0,0,0,0,0,0,0,0,0,0,0,0,0,0,0,0,0,0,0],"sum_hessian":[1.2982556E3,8.821143E2,4.161412E2,3.7183267E2,5.1028168E2,4.905512E0,4.1123572E2,2.9455392E2,7.7278725E1,3.7267264E2,1.3760905E2,3.7503897E2,3.619674E1,2.2218285E2,7.237109E1,5.7069564E0,7.157177E1,5.3136353E1,3.195363E2,8.489401E0,1.2911966E2,3.6799542E2,7.043545E0,3.3779278E1,2.417461E0],"tree_param":{"num_deleted":"0","num_feature":"13","num_nodes":"25","size_leaf_vector":"1"}},{"base_weights":[2.33124E-2,-3.09513E-2,2.880997E-1,4.10008E-1,-5.934747E-1,5.3767425E-1,-2.1788873E-1,-3.071694E-2,3.9709236E-2,1.2557921E-2,3.93914E-2,-1.6383788E-2,1.50995655E-2],"categories":[],"categories_nodes":[],"categories_segments":[],"categories_sizes":[],"default_left":[0,0,1,0,0,0,0,0,0,0,0,0,0],"id":34,"left_children":[1,-1,3,5,7,9,11,-1,-1,-1,-1,-1,-1],"loss_changes":[2.1020966E2,0E0,9.429154E1,6.1791626E1,3.5776978E0,4.5649048E1,7.559515E0,0E0,0E0,0E0,0E0,0E0,0E0],"parents":[2147483647,0,0,2,2,3,3,4,4,5,5,6,6],"right_children":[2,-1,4,6,8,10,12,-1,-1,-1,-1,-1,-1],"split_conditions":[2E0,-3.09513E-2,4E0,4E0,4.02486E5,3E0,2.018E5,-3.071694E-2,3.9709236E-2,1.2557921E-2,3.93914E-2,-1.6383788E-2,1.50995655E-2],"split_indices":[11,0,11,12,10,12,10,0,0,0,0,0,0],"split_type":[0,0,0,0,0,0,0,0,0,0,0,0,0],"sum_hessian":[1.233875E3,3.5977396E2,8.7410114E2,7.683807E2,1.05720436E2,6.386681E2,1.2971259E2,1.0470345E2,1.016983E0,2.9863165E2,3.4003644E2,1.0740151E2,2.2311077E1],"tree_param":{"num_deleted":"0","num_feature":"13","num_nodes":"13","size_leaf_vector":"1"}},{"base_weights":[-3.2556582E-2,-3.0867944E-2,7.1477723E-1,-3.134738E-2,7.8042924E-1,6.0660523E-1,1.1182286E0,-3.234206E-2,3.5620157E-2,5.8219414E-2,4.3466043E-2],"categories":[],"categories_nodes":[],"categories_segments":[],"categories_sizes":[],"default_left":[1,0,0,0,0,0,1,0,0,0,0],"id":35,"left_children":[1,-1,3,-1,5,7,9,-1,-1,-1,-1],"loss_changes":[5.3527905E2,0E0,4.7852905E1,0E0,2.9447021E1,4.567221E1,9.7691345E-1,0E0,0E0,0E0,0E0],"parents":[2147483647,0,0,2,2,4,4,5,5,6,6],"right_children":[2,-1,4,-1,6,8,10,-1,-1,-1,-1],"split_conditions":[3E0,-3.0867944E-2,-7.422652E1,-3.134738E-2,4E0,3E0,4E0,-3.234206E-2,3.5620157E-2,5.8219414E-2,4.3466043E-2],"split_indices":[11,0,5,0,11,12,12,0,0,0,0],"split_type":[0,0,0,0,0,0,0,0,0,0,0],"sum_hessian":[1.222766E3,6.8607434E2,5.366917E2,2.4637035E1,5.120547E2,3.3993E2,1.7212468E2,2.6060678E1,3.1386932E2,1.4209521E2,3.0029455E1],"tree_param":{"num_deleted":"0","num_feature":"13","num_nodes":"11","size_leaf_vector":"1"}},{"base_weights":[1.0496561E-2,7.3133886E-1,-5.8913225E-1,9.923857E-1,6.177757E-1,-5.967998E-1,-2.750319E-1,-2.5217387E-1,1.0286114E0,-2.3976544E-1,6.5060234E-1,8.13533E-3,-5.994864E-1,6.0623926E-1,-2.889874E-2,-2.7205322E-2,2.3472251E-2,5.189833E-2,6.5490454E-3,3.6438964E-2,-2.9861275E-2,2.027996E-2,3.6977034E-2,-3.0477375E-2,-2.4770226E-2,6.204273E-2,-2.057801E-2],"categories":[],"categories_nodes":[],"categories_segments":[],"categories_sizes":[],"default_left":[1,0,0,0,0,0,0,0,0,0,0,0,0,0,0,0,0,0,0,0,0,0,0,0,0,0,0],"id":36,"left_children":[1,3,5,7,9,11,13,15,17,19,21,-1,23,25,-1,-1,-1,-1,-1,-1,-1,-1,-1,-1,-1,-1,-1],"loss_changes":[5.4228015E2,1.6276031E1,1.485321E0,7.9714966E0,1.1406158E1,1.4599915E0,5.202704E0,1.443846E0,1.2615509E0,5.7895412E0,8.093216E0,0E0,3.950348E-1,3.8291183E0,0E0,0E0,0E0,0E0,0E0,0E0,0E0,0E0,0E0,0E0,0E0,0E0,0E0],"parents":[2147483647,0,0,1,1,2,2,3,3,4,4,5,5,6,6,7,7,8,8,9,9,10,10,12,12,13,13],"right_children":[2,4,6,8,10,12,14,16,18,20,22,-1,24,26,-1,-1,-1,-1,-1,-1,-1,-1,-1,-1,-1,-1,-1],"split_conditions":[2E0,1.9119202E-1,1.688862E2,2.7701462E1,-1.1764184E2,-1.4056586E-2,1.4668581E1,5.5396146E-1,1.514093E2,2.6845026E-1,6.8380176E2,8.13533E-3,2.664616E-2,3.166568E-1,-2.889874E-2,-2.7205322E-2,2.3472251E-2,5.189833E-2,6.5490454E-3,3.6438964E-2,-2.9861275E-2,2.027996E-2,3.6977034E-2,-3.0477375E-2,-2.4770226E-2,6.204273E-2,-2.057801E-2],"split_indices":[11,3,5,2,5,3,7,0,5,3,1,0,4,3,0,0,0,0,0,0,0,0,0,0,0,0,0],"split_type":[0,0,0,0,0,0,0,0,0,0,0,0,0,0,0,0,0,0,0,0,0,0,0,0,0,0,0],"sum_hessian":[1.2525907E3,5.687044E2,6.838862E2,1.7005702E2,3.9864737E2,6.6671106E2,1.7175169E1,4.6412945E0,1.6541574E2,1.4465187E1,3.841822E2,2.1401052E0,6.64571E2,4.1375966E0,1.3037573E1,3.4796047E0,1.1616899E0,1.6355481E2,1.8609195E0,3.6194496E0,1.0845737E1,1.0379978E2,2.8038242E2,6.015643E2,6.300666E1,2.4135513E0,1.724045E0],"tree_param":{"num_deleted":"0","num_feature":"13","num_nodes":"27","size_leaf_vector":"1"}},{"base_weights":[-1.3245626E-3,2.6388705E-1,-5.947238E-1,-1.6338627E-1,4.3794745E-1,-1.6202163E-2,-6.002124E-1,-4.1580987E-1,2.5625736E-1,5.543962E-1,9.8590024E-2,-3.0065069E-2,-8.5896645E-3,-2.3728777E-2,2.6880337E-2,2.50843E-2,-1.19150905E-2,1.1409088E-2,3.571745E-2,1.0069542E-2,-3.0569507E-2],"categories":[],"categories_nodes":[],"categories_segments":[],"categories_sizes":[],"default_left":[1,0,0,1,0,0,0,1,0,0,0,0,0,0,0,0,0,0,0,0,0],"id":37,"left_children":[1,3,5,7,9,-1,11,13,15,17,19,-1,-1,-1,-1,-1,-1,-1,-1,-1,-1],"loss_changes":[2.0390619E2,6.666766E1,4.000702E-1,2.7639751E1,2.5099579E1,0E0,7.91626E-2,9.369768E0,1.2044334E1,2.4553787E1,1.2080957E1,0E0,0E0,0E0,0E0,0E0,0E0,0E0,0E0,0E0,0E0],"parents":[2147483647,0,0,1,1,2,2,3,3,4,4,6,6,7,7,8,8,9,9,10,10],"right_children":[2,4,6,8,10,-1,12,14,16,18,20,-1,-1,-1,-1,-1,-1,-1,-1,-1,-1],"split_conditions":[3E0,2.3870286E-1,2.860827E1,2E0,3E0,-1.6202163E-2,7.82271E5,2E0,3E0,2E0,3.749883E1,-3.0065069E-2,-8.5896645E-3,-2.3728777E-2,2.6880337E-2,2.50843E-2,-1.19150905E-2,1.1409088E-2,3.571745E-2,1.0069542E-2,-3.0569507E-2],"split_indices":[11,3,2,12,12,0,10,11,12,12,2,0,0,0,0,0,0,0,0,0,0],"split_type":[0,0,0,0,0,0,0,0,0,0,0,0,0,0,0,0,0,0,0,0,0],"sum_hessian":[1.2936621E3,8.944537E2,3.9920844E2,2.5892383E2,6.3552985E2,9.127075E0,3.9008136E2,1.6167961E2,9.7244225E1,4.7269376E2,1.6283609E2,3.8868985E2,1.3915131E0,1.5276584E2,8.9137745E0,6.498201E1,3.2262215E1,1.5631825E2,3.1637552E2,1.4286626E2,1.9969826E1],"tree_param":{"num_deleted":"0","num_feature":"13","num_nodes":"21","size_leaf_vector":"1"}},{"base_weights":[2.6833823E-2,-3.0698923E-2,2.8571734E-1,3.9688995E-1,-5.6501836E-1,4.6696103E-1,-1.5031582E-1,-2.9296963E-2,3.9104626E-2,2.8668155E-4,2.7743477E-2,-2.6127452E-2,1.5669955E-2],"categories":[],"categories_nodes":[],"categories_segments":[],"categories_sizes":[],"default_left":[0,0,1,0,0,0,0,0,0,0,0,0,0],"id":38,"left_children":[1,-1,3,5,7,9,11,-1,-1,-1,-1,-1,-1],"loss_changes":[2.100053E2,0E0,8.549273E1,3.0666298E1,3.4064827E0,2.8687637E1,1.5929483E1,0E0,0E0,0E0,0E0,0E0,0E0],"parents":[2147483647,0,0,2,2,3,3,4,4,5,5,6,6],"right_children":[2,-1,4,6,8,10,12,-1,-1,-1,-1,-1,-1],"split_conditions":[2E0,-3.0698923E-2,4E0,1.23582306E2,4.02486E5,-2.1830002E-2,1.3813678E2,-2.9296963E-2,3.9104626E-2,2.8668155E-4,2.7743477E-2,-2.6127452E-2,1.5669955E-2],"split_indices":[11,0,11,5,10,4,7,0,0,0,0,0,0],"split_type":[0,0,0,0,0,0,0,0,0,0,0,0,0],"sum_hessian":[1.2638297E3,3.6326675E2,9.005629E2,7.9695215E2,1.036108E2,7.06615E2,9.033716E1,1.0258271E2,1.0280892E0,1.1328914E2,5.9332587E2,5.0041206E1,4.0295956E1],"tree_param":{"num_deleted":"0","num_feature":"13","num_nodes":"13","size_leaf_vector":"1"}},{"base_weights":[-4.3794706E-2,-3.0616293E-2,6.556431E-1,4.2337528E-1,1.0663012E0,4.1594673E-2,9.121089E-1,5.5366673E-2,8.193037E-1,-3.2975875E-2,2.0056024E-2,-3.110433E-2,5.0389614E-2,-3.0460317E-2,5.3997207E-2],"categories":[],"categories_nodes":[],"categories_segments":[],"categories_sizes":[],"default_left":[1,0,0,0,1,0,0,0,0,0,0,0,0,0,0],"id":39,"left_children":[1,-1,3,5,7,9,11,-1,13,-1,-1,-1,-1,-1,-1],"loss_changes":[4.801093E2,0E0,5.1187363E1,6.4794174E1,1.0683136E0,4.970067E1,2.2989548E1,0E0,1.242841E1,0E0,0E0,0E0,0E0,0E0,0E0],"parents":[2147483647,0,0,2,2,3,3,4,4,5,5,6,6,8,8],"right_children":[2,-1,4,6,8,10,12,-1,14,-1,-1,-1,-1,-1,-1],"split_conditions":[3E0,-3.0616293E-2,4E0,4E0,4E0,4.508878E0,3.4663815E1,5.5366673E-2,3.1760403E1,-3.2975875E-2,2.0056024E-2,-3.110433E-2,5.0389614E-2,-3.0460317E-2,5.3997207E-2],"split_indices":[11,0,11,12,12,5,2,0,2,0,0,0,0,0,0],"split_type":[0,0,0,0,0,0,0,0,0,0,0,0,0,0,0],"sum_hessian":[1.2053503E3,6.6496484E2,5.4038556E2,3.464594E2,1.9392613E2,1.9512224E2,1.5133716E2,1.6331284E2,3.0613295E1,6.5857994E1,1.2926424E2,8.561399E0,1.4277577E2,4.517359E0,2.6095936E1],"tree_param":{"num_deleted":"0","num_feature":"13","num_nodes":"15","size_leaf_vector":"1"}},{"base_weights":[-1.5071929E-3,6.748795E-1,-5.837368E-1,9.3803257E-1,2.1913597E-2,-2.964822E-2,-4.0698552E-1,2.3834023E-1,9.5548075E-1,2.7519155E-1,-3.9250448E-1,-2.981306E-2,6.691942E-1,-1.6025601E-2,3.5650652E-2,7.903005E-3,4.8455287E-2,-6.2589557E-3,2.3082037E-2,2.633594E-2,-2.4249393E-2,8.278231E-2,-2.194696E-2],"categories":[],"categories_nodes":[],"categories_segments":[],"categories_sizes":[],"default_left":[1,1,0,0,0,0,0,0,0,0,0,0,0,0,0,0,0,0,0,0,0,0,0],"id":40,"left_children":[1,3,5,7,9,-1,11,13,15,17,19,-1,21,-1,-1,-1,-1,-1,-1,-1,-1,-1,-1],"loss_changes":[4.8249625E2,9.736737E1,8.3255005E-1,4.703766E0,1.7303791E1,0E0,7.7028975E0,3.1890614E0,4.125183E0,7.692135E0,5.573592E0,0E0,7.1043854E0,0E0,0E0,0E0,0E0,0E0,0E0,0E0,0E0,0E0,0E0],"parents":[2147483647,0,0,1,1,2,2,3,3,4,4,6,6,7,7,8,8,9,9,10,10,12,12],"right_children":[2,4,6,8,10,-1,12,14,16,18,20,-1,22,-1,-1,-1,-1,-1,-1,-1,-1,-1,-1],"split_conditions":[2E0,2E0,5.41173E5,2.987978E-1,5.23572E2,-2.964822E-2,1.9316038E-2,3.4374065E1,1.0742948E1,2.41416E5,2.2584063E-1,-2.981306E-2,2.2725429E2,-1.6025601E-2,3.5650652E-2,7.903005E-3,4.8455287E-2,-6.2589557E-3,2.3082037E-2,2.633594E-2,-2.4249393E-2,8.278231E-2,-2.194696E-2],"split_indices":[11,12,10,6,7,0,4,2,7,10,6,0,7,0,0,0,0,0,0,0,0,0,0],"split_type":[0,0,0,0,0,0,0,0,0,0,0,0,0,0,0,0,0,0,0,0,0,0,0],"sum_hessian":[1.2231929E3,5.657693E2,6.574235E2,4.029422E2,1.628271E2,6.225665E2,3.485701E1,1.0160364E1,3.9278183E2,1.0127022E2,6.1556885E1,3.002265E1,4.8343596E0,4.8155675E0,5.344797E0,6.8101263E0,3.859717E2,3.228081E1,6.898941E1,5.197902E0,5.6358982E1,2.2962074E0,2.5381522E0],"tree_param":{"num_deleted":"0","num_feature":"13","num_nodes":"23","size_leaf_vector":"1"}},{"base_weights":[1.587228E-2,2.802798E-1,-5.908719E-1,-1.555786E-1,4.5243272E-1,-6.007839E-1,-2.795799E-1,-4.0198767E-1,2.4647383E-1,5.594148E-1,1.3133544E-1,-3.0097056E-2,-8.434906E-3,-2.9047338E-2,5.5338204E-2,-2.395567E-2,2.391678E-2,2.5499715E-2,-1.4225294E-2,1.3207088E-2,3.487366E-2,2.9129316E-3,5.2634414E-2],"categories":[],"categories_nodes":[],"categories_segments":[],"categories_sizes":[],"default_left":[1,0,0,1,0,0,1,1,0,0,0,0,0,0,0,0,0,0,0,0,0,0,0],"id":41,"left_children":[1,3,5,7,9,11,13,15,17,19,21,-1,-1,-1,-1,-1,-1,-1,-1,-1,-1,-1,-1],"loss_changes":[2.0301692E2,6.6201294E1,1.0171814E0,2.4894981E1,2.1638641E1,8.413696E-2,6.3765492E0,1.0791092E1,1.3539606E1,1.9129745E1,1.06618805E1,0E0,0E0,0E0,0E0,0E0,0E0,0E0,0E0,0E0,0E0,0E0,0E0],"parents":[2147483647,0,0,1,1,2,2,3,3,4,4,5,5,6,6,7,7,8,8,9,9,10,10],"right_children":[2,4,6,8,10,12,14,16,18,20,22,-1,-1,-1,-1,-1,-1,-1,-1,-1,-1,-1,-1],"split_conditions":[3E0,2.3870286E-1,8.77785E2,2E0,3E0,7.82271E5,4E0,2E0,3E0,2E0,5.354721E-1,-3.0097056E-2,-8.434906E-3,-2.9047338E-2,5.5338204E-2,-2.395567E-2,2.391678E-2,2.5499715E-2,-1.4225294E-2,1.3207088E-2,3.487366E-2,2.9129316E-3,5.2634414E-2],"split_indices":[11,3,1,12,12,10,12,11,12,12,0,0,0,0,0,0,0,0,0,0,0,0,0],"split_type":[0,0,0,0,0,0,0,0,0,0,0,0,0,0,0,0,0,0,0,0,0,0,0],"sum_hessian":[1.2634407E3,8.8034235E2,3.8309833E2,2.4928828E2,6.310541E2,3.70375E2,1.2723323E1,1.5456126E2,9.472702E1,4.727895E2,1.5826459E2,3.6899368E2,1.3813224E0,1.092859E1,1.794733E0,1.4252988E2,1.2031385E1,6.33343E1,3.1392723E1,1.515578E2,3.212317E2,1.4761943E2,1.0645156E1],"tree_param":{"num_deleted":"0","num_feature":"13","num_nodes":"23","size_leaf_vector":"1"}},{"base_weights":[-9.248519E-3,-3.0443301E-2,2.1850595E-1,3.386974E-1,-5.672415E-1,4.4737312E-1,-1.649501E-1,-2.9234562E-2,3.776219E-2,4.564686E-2,1.4115243E-2,5.161758E-2,-1.7406808E-2],"categories":[],"categories_nodes":[],"categories_segments":[],"categories_sizes":[],"default_left":[0,0,1,0,0,0,0,0,0,0,0,0,0],"id":42,"left_children":[1,-1,3,5,7,9,11,-1,-1,-1,-1,-1,-1],"loss_changes":[1.7571455E2,0E0,8.825859E1,4.437681E1,3.305233E0,5.0926834E1,3.202772E1,0E0,0E0,0E0,0E0,0E0,0E0],"parents":[2147483647,0,0,2,2,3,3,4,4,5,5,6,6],"right_children":[2,-1,4,6,8,10,12,-1,-1,-1,-1,-1,-1],"split_conditions":[2E0,-3.0443301E-2,4E0,4E0,3.89837E5,5.6946533E2,-7.3187164E1,-2.9234562E-2,3.776219E-2,4.564686E-2,1.4115243E-2,5.161758E-2,-1.7406808E-2],"split_indices":[11,0,11,12,10,1,5,0,0,0,0,0,0],"split_type":[0,0,0,0,0,0,0,0,0,0,0,0,0],"sum_hessian":[1.284694E3,3.5318298E2,9.3151105E2,8.0842035E2,1.23090675E2,6.650331E2,1.4338731E2,1.220383E2,1.0523701E0,1.7288676E2,4.921463E2,1.841189E1,1.2497542E2],"tree_param":{"num_deleted":"0","num_feature":"13","num_nodes":"13","size_leaf_vector":"1"}},{"base_weights":[-1.5237415E-2,8.118616E-1,-2.796092E-1,-2.9171983E-2,8.715242E-1,-5.138312E-1,4.6564195E-1,9.741405E-1,4.303814E-1,4.9144483E-1,-5.76031E-1,8.3879906E-1,-4.7233918E-1,-2.272425E-2,4.966482E-2,-1.287126E-2,5.6125868E-2,-2.9236162E-2,4.734074E-2,8.148119E-3,-2.965043E-2,-2.9845206E-2,4.936308E-2,-3.2854374E-2,3.458935E-2],"categories":[],"categories_nodes":[],"categories_segments":[],"categories_sizes":[],"default_left":[0,0,0,0,0,0,0,0,0,0,0,0,0,0,0,0,0,0,0,0,0,0,0,0,0],"id":43,"left_children":[1,3,5,-1,7,9,11,13,15,17,19,21,23,-1,-1,-1,-1,-1,-1,-1,-1,-1,-1,-1,-1],"loss_changes":[2.6645688E2,2.50802E1,1.6141884E2,0E0,1.2412613E1,4.4243103E1,7.786577E1,6.7232513E0,2.660791E1,2.0893219E1,8.409073E0,3.4416008E1,1.4139967E1,0E0,0E0,0E0,0E0,0E0,0E0,0E0,0E0,0E0,0E0,0E0,0E0],"parents":[2147483647,0,0,1,1,2,2,4,4,5,5,6,6,7,7,8,8,9,9,10,10,11,11,12,12],"right_children":[2,4,6,-1,8,10,12,14,16,18,20,22,24,-1,-1,-1,-1,-1,-1,-1,-1,-1,-1,-1,-1],"split_conditions":[1.22504E5,-6.74317E1,2E0,-2.9171983E-2,4.9098745E-1,6.1698384E0,2.463948E-1,2.730123E-1,1.3E1,3.6040882E1,6.0199205E-2,3.3420532E1,4.067983E1,-2.272425E-2,4.966482E-2,-1.287126E-2,5.6125868E-2,-2.9236162E-2,4.734074E-2,8.148119E-3,-2.965043E-2,-2.9845206E-2,4.936308E-2,-3.2854374E-2,3.458935E-2],"split_indices":[10,5,8,0,6,7,3,0,8,2,3,2,2,0,0,0,0,0,0,0,0,0,0,0,0],"split_type":[0,0,0,0,0,0,0,0,0,0,0,0,0,0,0,0,0,0,0,0,0,0,0,0,0],"sum_hessian":[1.2165427E3,2.9416464E2,9.223781E2,1.1702607E1,2.82462E2,7.0204553E2,2.2033258E2,2.2817659E2,5.4285435E1,4.0504753E1,6.615408E2,1.5770038E2,6.2632214E1,2.7183738E0,2.254582E2,2.7542894E1,2.674254E1,1.1958758E1,2.8545994E1,1.4663761E1,6.46877E2,1.4496056E1,1.4320432E2,5.44297E1,8.202511E0],"tree_param":{"num_deleted":"0","num_feature":"13","num_nodes":"25","size_leaf_vector":"1"}},{"base_weights":[-2.0103246E-2,4.8908967E-1,-4.43014E-1,-4.8070213E-1,6.286621E-1,-4.7914985E-1,3.0292508E-1,-2.9871453E-2,6.4309907E-1,8.3894014E-1,4.3422702E-1,-3.4221676E-1,-5.943294E-1,-2.7897784E-2,5.751954E-1,5.7061864E-3,4.2839628E-2,-2.4329701E-2,4.3242592E-2,5.3368686E-3,2.9315127E-2,-9.302467E-3,-2.7295453E-2,-1.991335E-3,-2.9983018E-2,-2.332007E-2,3.5842557E-2],"categories":[],"categories_nodes":[],"categories_segments":[],"categories_sizes":[],"default_left":[1,0,0,0,0,0,0,0,0,0,0,0,0,0,0,0,0,0,0,0,0,0,0,0,0,0,0],"id":44,"left_children":[1,3,5,7,9,11,13,-1,15,17,19,21,23,-1,25,-1,-1,-1,-1,-1,-1,-1,-1,-1,-1,-1,-1],"loss_changes":[2.6463895E2,7.577664E1,1.8240463E1,9.661085E0,1.9582855E1,9.901382E0,7.734928E0,0E0,7.0885634E-1,8.43454E0,1.2665188E1,9.284248E0,1.00074E0,0E0,3.9526577E0,0E0,0E0,0E0,0E0,0E0,0E0,0E0,0E0,0E0,0E0,0E0,0E0],"parents":[2147483647,0,0,1,1,2,2,3,3,4,4,5,5,6,6,8,8,9,9,10,10,11,11,12,12,14,14],"right_children":[2,4,6,8,10,12,14,-1,16,18,20,22,24,-1,26,-1,-1,-1,-1,-1,-1,-1,-1,-1,-1,-1,-1],"split_conditions":[2E0,8.616867E-2,3.3053496E0,4.4142565E-1,2.3490755E-1,3E0,7.621691E2,-2.9871453E-2,-1.4056586E-2,6.1698384E0,3.0751774E1,5.23572E2,2.4826616E-1,-2.7897784E-2,2.882479E1,5.7061864E-3,4.2839628E-2,-2.4329701E-2,4.3242592E-2,5.3368686E-3,2.9315127E-2,-9.302467E-3,-2.7295453E-2,-1.991335E-3,-2.9983018E-2,-2.332007E-2,3.5842557E-2],"split_indices":[12,3,3,0,3,12,1,0,3,7,2,7,0,0,2,0,0,0,0,0,0,0,0,0,0,0,0],"split_type":[0,0,0,0,0,0,0,0,0,0,0,0,0,0,0,0,0,0,0,0,0,0,0,0,0,0,0],"sum_hessian":[1.2269113E3,5.5659875E2,6.7031244E2,6.9719864E1,4.868789E2,6.396817E2,3.063071E1,6.358392E1,6.135943E0,2.3231729E2,2.5456163E2,2.940577E2,3.45624E2,7.1077433E0,2.3522966E1,2.2069433E0,3.9289994E0,4.1134124E0,2.2820387E2,8.126403E1,1.7329759E2,1.6752927E2,1.2652846E2,3.3718152E0,3.422522E2,2.5416532E0,2.0981314E1],"tree_param":{"num_deleted":"0","num_feature":"13","num_nodes":"27","size_leaf_vector":"1"}},{"base_weights":[7.2018593E-3,2.639273E-1,-5.81316E-1,-4.2862304E-2,4.8040995E-1,-5.8715284E-1,2.8797874E-2,-2.9817688E-1,8.320195E-1,6.4725757E-1,1.20234E-2,-5.980359E-1,-4.3788898E-1,5.661654E-2,-1.6564276E-2,4.980825E-2,2.0807546E-2,3.452252E-2,1.3902972E-2,5.2426007E-2,-3.601184E-3,-2.9961988E-2,-8.311583E-3,-2.966447E-2,5.9304904E-2],"categories":[],"categories_nodes":[],"categories_segments":[],"categories_sizes":[],"default_left":[1,1,0,1,0,0,0,0,0,0,0,0,1,0,0,0,0,0,0,0,0,0,0,0,0],"id":45,"left_children":[1,3,5,7,9,11,-1,13,15,17,19,21,23,-1,-1,-1,-1,-1,-1,-1,-1,-1,-1,-1,-1],"loss_changes":[1.9211142E2,5.8817806E1,2.9468842E0,8.226449E1,4.0561653E1,3.6315918E-1,0E0,1.3871761E1,5.2656174E0,5.911728E0,1.20425E1,8.538818E-2,8.244819E0,0E0,0E0,0E0,0E0,0E0,0E0,0E0,0E0,0E0,0E0,0E0,0E0],"parents":[2147483647,0,0,1,1,2,2,3,3,4,4,5,5,7,7,8,8,9,9,10,10,11,11,12,12],"right_children":[2,4,6,8,10,12,-1,14,16,18,20,22,24,-1,-1,-1,-1,-1,-1,-1,-1,-1,-1,-1,-1],"split_conditions":[3E0,2E0,9.7972186E2,2E0,3E0,8.5245215E2,2.8797874E-2,-1.1764184E2,1.26141304E2,6.18612E5,2E0,7.82271E5,4E0,5.661654E-2,-1.6564276E-2,4.980825E-2,2.0807546E-2,3.452252E-2,1.3902972E-2,5.2426007E-2,-3.601184E-3,-2.9961988E-2,-8.311583E-3,-2.966447E-2,5.9304904E-2],"split_indices":[11,12,1,11,12,1,0,5,5,10,11,10,12,0,0,0,0,0,0,0,0,0,0,0,0],"split_type":[0,0,0,0,0,0,0,0,0,0,0,0,0,0,0,0,0,0,0,0,0,0,0,0,0],"sum_hessian":[1.2695087E3,8.843053E2,3.852034E2,3.6617715E2,5.181281E2,3.8376053E2,1.4428928E0,2.8396698E2,8.221019E1,3.8175742E2,1.363707E2,3.5487912E2,2.8881413E1,5.672613E0,2.7829437E2,5.794401E1,2.426618E1,3.409941E2,4.0763317E1,9.36785E0,1.27002846E2,3.5350577E2,1.3733501E0,2.6938335E1,1.9430765E0],"tree_param":{"num_deleted":"0","num_feature":"13","num_nodes":"25","size_leaf_vector":"1"}},{"base_weights":[4.24444E-3,-3.020339E-2,2.3146938E-1,3.4673238E-1,-5.690261E-1,4.5828855E-1,-1.6945001E-1,-2.888746E-2,9.11051E-3,2.7752802E-2,-8.722132E-3,6.427988E-2,-1.6101914E-2],"categories":[],"categories_nodes":[],"categories_segments":[],"categories_sizes":[],"default_left":[0,0,1,0,0,0,0,0,0,0,0,0,0],"id":46,"left_children":[1,-1,3,5,7,9,11,-1,-1,-1,-1,-1,-1],"loss_changes":[1.7489616E2,0E0,8.519379E1,4.6482346E1,8.675728E-1,4.0686462E1,3.237251E1,0E0,0E0,0E0,0E0,0E0,0E0],"parents":[2147483647,0,0,2,2,3,3,4,4,5,5,6,6],"right_children":[2,-1,4,6,8,10,12,-1,-1,-1,-1,-1,-1],"split_conditions":[2E0,-3.020339E-2,4E0,4E0,3.43527E5,1.23582306E2,3.652972E-2,-2.888746E-2,9.11051E-3,2.7752802E-2,-8.722132E-3,6.427988E-2,-1.6101914E-2],"split_indices":[11,0,11,12,10,5,3,0,0,0,0,0,0],"split_type":[0,0,0,0,0,0,0,0,0,0,0,0,0],"sum_hessian":[1.2633007E3,3.431045E2,9.2019617E2,8.048701E2,1.15326065E2,6.619279E2,1.429422E2,1.1423059E2,1.0954692E0,5.742301E2,8.76978E1,1.2862548E1,1.3007965E2],"tree_param":{"num_deleted":"0","num_feature":"13","num_nodes":"13","size_leaf_vector":"1"}},{"base_weights":[1.9557208E-2,-3.796419E-1,6.609305E-1,8.93765E-1,-5.415003E-1,7.645014E-1,-1.7930761E-1,9.358993E-1,-2.3624074E-2,8.321985E-1,-5.7375425E-1,8.02919E-1,-3.0625341E-2,3.393893E-1,-3.019821E-2,-2.1144731E-2,4.8582613E-2,5.151248E-2,-2.0567834E-2,1.765489E-2,-3.0424548E-2,4.1724496E-2,-2.9205127E-2,-2.9948045E-2,4.599353E-2],"categories":[],"categories_nodes":[],"categories_segments":[],"categories_sizes":[],"default_left":[0,0,0,0,0,0,0,0,0,0,0,0,0,0,0,0,0,0,0,0,0,0,0,0,0],"id":47,"left_children":[1,3,5,7,9,11,13,15,-1,17,19,21,-1,23,-1,-1,-1,-1,-1,-1,-1,-1,-1,-1,-1],"loss_changes":[3.1766785E2,1.5811134E2,4.1558014E1,5.428665E0,3.0568527E1,2.2918152E1,1.1888358E1,4.5094757E0,0E0,4.361533E0,2.159787E1,1.8566193E1,0E0,1.3905391E1,0E0,0E0,0E0,0E0,0E0,0E0,0E0,0E0,0E0,0E0,0E0],"parents":[2147483647,0,0,1,1,2,2,3,3,4,4,5,5,6,6,7,7,9,9,10,10,11,11,13,13],"right_children":[2,4,6,8,10,12,14,16,-1,18,20,22,-1,24,-1,-1,-1,-1,-1,-1,-1,-1,-1,-1,-1],"split_conditions":[2E0,8.3442E4,4.5380822E-1,1E0,1.0725968E0,6.500017E2,1.84648E5,3.564682E2,-2.3624074E-2,1.7372572E-1,6.0199205E-2,3.6974943E-1,-3.0625341E-2,5.118548E-1,-3.019821E-2,-2.1144731E-2,4.8582613E-2,5.151248E-2,-2.0567834E-2,1.765489E-2,-3.0424548E-2,4.1724496E-2,-2.9205127E-2,-2.9948045E-2,4.599353E-2],"split_indices":[9,10,0,8,7,7,10,7,0,3,3,3,0,0,0,0,0,0,0,0,0,0,0,0,0],"split_type":[0,0,0,0,0,0,0,0,0,0,0,0,0,0,0,0,0,0,0,0,0,0,0,0,0],"sum_hessian":[1.2387373E3,7.637669E2,4.7497037E2,8.562194E1,6.7814496E2,4.2292874E2,5.204164E1,8.336596E1,2.2559786E0,1.4988361E1,6.631566E2,4.118552E2,1.1073557E1,2.3517265E1,2.8524378E1,1.8596978E0,8.150626E1,1.307719E1,1.9111711E0,2.3624954E1,6.395317E2,4.030788E2,8.776393E0,8.975882E0,1.4541383E1],"tree_param":{"num_deleted":"0","num_feature":"13","num_nodes":"25","size_leaf_vector":"1"}},{"base_weights":[-6.224859E-4,6.483944E-1,-5.767693E-1,8.725495E-1,7.87738E-2,2.5035445E-2,-5.8111537E-1,-2.7638322E-2,8.902046E-1,-1.2534232E-2,6.419225E-1,-5.8788097E-1,-3.058207E-1,4.7488835E-2,3.3447046E-2,5.907011E-3,-1.1497575E-2,-2.6739884E-2,4.840702E-2,-2.9838262E-2,-2.0110236E-2,8.054858E-3,-2.7932903E-2],"categories":[],"categories_nodes":[],"categories_segments":[],"categories_sizes":[],"default_left":[1,1,0,0,0,0,0,0,0,0,0,0,0,0,0,0,0,0,0,0,0,0,0],"id":48,"left_children":[1,3,5,7,9,-1,11,-1,13,15,17,19,21,-1,-1,-1,-1,-1,-1,-1,-1,-1,-1],"loss_changes":[4.4635938E2,7.160649E1,3.2521515E0,1.0626465E1,8.215696E0,0E0,9.941406E-1,0E0,4.61322E0,3.9572706E0,9.073728E0,7.7293396E-1,2.1207829E0,0E0,0E0,0E0,0E0,0E0,0E0,0E0,0E0,0E0,0E0],"parents":[2147483647,0,0,1,1,2,2,3,3,4,4,6,6,8,8,9,9,10,10,11,11,12,12],"right_children":[2,4,6,8,10,-1,12,-1,14,16,18,20,22,-1,-1,-1,-1,-1,-1,-1,-1,-1,-1],"split_conditions":[2E0,2E0,-1.4056586E-2,-1.1764184E2,3.3053496E0,2.5035445E-2,1.688862E2,-2.7638322E-2,2.9442117E-1,3.3765728E1,-8.255036E1,5.41173E5,2E0,4.7488835E-2,3.3447046E-2,5.907011E-3,-1.1497575E-2,-2.6739884E-2,4.840702E-2,-2.9838262E-2,-2.0110236E-2,8.054858E-3,-2.7932903E-2],"split_indices":[11,12,3,5,3,0,5,0,3,2,5,10,12,0,0,0,0,0,0,0,0,0,0],"split_type":[0,0,0,0,0,0,0,0,0,0,0,0,0,0,0,0,0,0,0,0,0,0,0],"sum_hessian":[1.1917007E3,5.603515E2,6.3134924E2,4.0173166E2,1.5861983E2,2.0775394E0,6.2927167E2,4.544453E0,3.9718723E2,1.3733095E2,2.128888E1,6.130695E2,1.6202126E1,3.1034015E2,8.684706E1,8.606179E1,5.126916E1,4.4820437E0,1.6806837E1,5.82962E2,3.0107546E1,5.8189826E0,1.0383143E1],"tree_param":{"num_deleted":"0","num_feature":"13","num_nodes":"23","size_leaf_vector":"1"}},{"base_weights":[6.787289E-3,2.7218547E-1,-3.4727517E-1,-6.1894737E-2,4.7614637E-1,-3.8949773E-1,8.6856276E-1,-4.0032798E-1,1.4481072E-1,-3.8765794E-1,5.304951E-1,-1.7343393E-1,-5.046619E-1,-1.7843716E-2,9.829487E-1,-2.4944987E-2,-1.2890178E-2,-1.3569735E-2,1.3245992E-2,-2.756383E-2,5.220465E-2,2.7695848E-2,-7.0209573E-3,-2.5844231E-2,-2.7641437E-3,-2.5985276E-2,3.3981867E-2,2.6999721E-2,5.7020653E-2],"categories":[],"categories_nodes":[],"categories_segments":[],"categories_sizes":[],"default_left":[0,0,0,0,0,0,0,0,0,0,0,0,0,0,0,0,0,0,0,0,0,0,0,0,0,0,0,0,0],"id":49,"left_children":[1,3,5,7,9,11,13,15,17,19,21,23,25,-1,27,-1,-1,-1,-1,-1,-1,-1,-1,-1,-1,-1,-1,-1,-1],"loss_changes":[1.1790639E2,4.8896366E1,2.7935875E1,1.9138254E1,2.1116371E1,1.2857437E1,2.9232388E0,1.3280487E0,8.573271E0,6.887389E0,6.669365E0,7.3732142E0,6.3899307E0,0E0,5.7352066E-1,0E0,0E0,0E0,0E0,0E0,0E0,0E0,0E0,0E0,0E0,0E0,0E0,0E0,0E0],"parents":[2147483647,0,0,1,1,2,2,3,3,4,4,5,5,6,6,7,7,8,8,9,9,10,10,11,11,12,12,14,14],"right_children":[2,4,6,8,10,12,14,16,18,20,22,24,26,-1,28,-1,-1,-1,-1,-1,-1,-1,-1,-1,-1,-1,-1,-1,-1],"split_conditions":[3E0,2E0,1.1060305E3,2.3746324E-1,8.285403E4,3.4663815E1,1.4827596E-1,3.1226515E1,1.59111E5,-5.5953893E-3,1.227822E6,2.0740801E-1,7.82271E5,-1.7843716E-2,1.3230388E3,-2.4944987E-2,-1.2890178E-2,-1.3569735E-2,1.3245992E-2,-2.756383E-2,5.220465E-2,2.7695848E-2,-7.0209573E-3,-2.5844231E-2,-2.7641437E-3,-2.5985276E-2,3.3981867E-2,2.6999721E-2,5.7020653E-2],"split_indices":[12,12,1,3,10,2,3,2,10,4,10,3,10,0,1,0,0,0,0,0,0,0,0,0,0,0,0,0,0],"split_type":[0,0,0,0,0,0,0,0,0,0,0,0,0,0,0,0,0,0,0,0,0,0,0,0,0,0,0,0,0],"sum_hessian":[1.2527507E3,7.1616156E2,5.3658923E2,2.7174692E2,4.444146E2,5.1923724E2,1.7351973E1,1.026857E2,1.690612E2,2.5943447E1,4.184712E2,1.8140416E2,3.378331E2,1.3004212E0,1.605155E1,5.922468E1,4.3461014E1,3.7579643E1,1.3148157E2,2.3834621E1,2.108827E0,4.0452353E2,1.3947659E1,4.5568195E1,1.3583595E2,3.3414972E2,3.6833925E0,5.37126E0,1.068029E1],"tree_param":{"num_deleted":"0","num_feature":"13","num_nodes":"29","size_leaf_vector":"1"}},{"base_weights":[-2.6463184E-3,-3.0007884E-2,2.056629E-1,3.1059188E-1,-5.556962E-1,-1.0492803E-1,3.8934857E-1,-2.871263E-2,3.6119122E-2,-1.5367955E-2,3.113913E-2,3.0959988E-2,1.2359048E-2],"categories":[],"categories_nodes":[],"categories_segments":[],"categories_sizes":[],"default_left":[0,0,1,0,0,0,0,0,0,0,0,0,0],"id":50,"left_children":[1,-1,3,5,7,9,11,-1,-1,-1,-1,-1,-1],"loss_changes":[1.580715E2,0E0,7.540346E1,2.7146141E1,3.1285172E0,1.9748877E1,2.260717E1,0E0,0E0,0E0,0E0,0E0,0E0],"parents":[2147483647,0,0,2,2,3,3,4,4,5,5,6,6],"right_children":[2,-1,4,6,8,10,12,-1,-1,-1,-1,-1,-1],"split_conditions":[2E0,-3.0007884E-2,4E0,1.9420822E-1,4.02486E5,3.981855E-1,6.0208655E2,-2.871263E-2,3.6119122E-2,-1.5367955E-2,3.113913E-2,3.0959988E-2,1.2359048E-2],"split_indices":[11,0,11,3,10,6,1,0,0,0,0,0,0],"split_type":[0,0,0,0,0,0,0,0,0,0,0,0,0],"sum_hessian":[1.2679943E3,3.272975E2,9.406967E2,8.272754E2,1.13421364E2,1.3176283E2,6.955126E2,1.1234097E2,1.0803899E0,1.035386E2,2.8224241E1,2.64509E2,4.3100357E2],"tree_param":{"num_deleted":"0","num_feature":"13","num_nodes":"13","size_leaf_vector":"1"}},{"base_weights":[-5.2982937E-3,-2.9977454E-2,6.0724777E-1,7.658383E-1,8.537395E-2,-3.073009E-2,8.179402E-1,-3.1760674E-2,5.1945645E-1,2.8251559E-2,4.5641735E-2,4.3053865E-2,-3.2701056E-2],"categories":[],"categories_nodes":[],"categories_segments":[],"categories_sizes":[],"default_left":[1,0,0,0,0,0,0,0,0,0,0,0,0],"id":51,"left_children":[1,-1,3,5,7,-1,9,-1,11,-1,-1,-1,-1],"loss_changes":[4.375046E2,0E0,4.8918777E1,3.3140686E1,4.382833E1,0E0,9.989166E0,0E0,3.5574295E1,0E0,0E0,0E0,0E0],"parents":[2147483647,0,0,2,2,3,3,4,4,6,6,8,8],"right_children":[2,-1,4,6,8,-1,10,-1,12,-1,-1,-1,-1],"split_conditions":[3E0,-2.9977454E-2,1.99755E5,-7.422652E1,3E0,-3.073009E-2,3.8729498E-1,-3.1760674E-2,3.8895485E-1,2.8251559E-2,4.5641735E-2,4.3053865E-2,-3.2701056E-2],"split_indices":[11,0,10,5,9,0,0,0,0,0,0,0,0],"split_type":[0,0,0,0,0,0,0,0,0,0,0,0,0],"sum_hessian":[1.1999159E3,6.090642E2,5.908517E2,4.5278793E2,1.3806375E2,1.6075321E1,4.3671262E2,5.1729004E1,8.633474E1,1.2104989E2,3.1566272E2,6.707438E1,1.9260365E1],"tree_param":{"num_deleted":"0","num_feature":"13","num_nodes":"13","size_leaf_vector":"1"}},{"base_weights":[-4.6317547E-4,4.918735E-1,-4.27072E-1,-2.7690735E-1,6.425506E-1,-4.5594418E-1,6.01885E-1,3.950752E-1,-5.0771034E-1,-3.945199E-1,7.191827E-1,-3.047395E-1,-5.86808E-1,-2.4638299E-2,8.3436817E-1,3.858717E-2,-2.1057582E-2,-2.8963387E-2,3.7583157E-2,2.8169632E-2,-2.527473E-2,-2.5933936E-2,3.657909E-2,-7.3717847E-3,-2.6957592E-2,-2.9611677E-2,-1.8252414E-2,5.7254028E-2,1.3179039E-2],"categories":[],"categories_nodes":[],"categories_segments":[],"categories_sizes":[],"default_left":[1,0,0,0,0,0,0,0,0,0,0,0,0,0,0,0,0,0,0,0,0,0,0,0,0,0,0,0,0],"id":52,"left_children":[1,3,5,7,9,11,13,15,17,19,21,23,25,-1,27,-1,-1,-1,-1,-1,-1,-1,-1,-1,-1,-1,-1,-1,-1],"loss_changes":[2.5632626E2,6.5806244E1,1.969896E1,1.4708763E1,3.7954758E1,1.2417038E1,5.062395E0,7.8505106E0,6.7495995E0,3.8206458E0,7.159561E0,1.0887226E1,1.930542E-1,0E0,2.437626E0,0E0,0E0,0E0,0E0,0E0,0E0,0E0,0E0,0E0,0E0,0E0,0E0,0E0,0E0],"parents":[2147483647,0,0,1,1,2,2,3,3,4,4,5,5,6,6,7,7,8,8,9,9,10,10,11,11,12,12,14,14],"right_children":[2,4,6,8,10,12,14,16,18,20,22,24,26,-1,28,-1,-1,-1,-1,-1,-1,-1,-1,-1,-1,-1,-1,-1,-1],"split_conditions":[2E0,3.2000586E-1,1.0405258E6,2E0,1.12815E5,3E0,9.070602E2,3.258558E-1,-8.393537E0,7.398497E2,-1.1764184E2,5.4309143E2,4.0318233E1,-2.4638299E-2,5.166061E2,3.858717E-2,-2.1057582E-2,-2.8963387E-2,3.7583157E-2,2.8169632E-2,-2.527473E-2,-2.5933936E-2,3.657909E-2,-7.3717847E-3,-2.6957592E-2,-2.9611677E-2,-1.8252414E-2,5.7254028E-2,1.3179039E-2],"split_indices":[12,6,10,12,10,12,1,3,5,1,5,7,2,0,7,0,0,0,0,0,0,0,0,0,0,0,0,0,0],"split_type":[0,0,0,0,0,0,0,0,0,0,0,0,0,0,0,0,0,0,0,0,0,0,0,0,0,0,0,0,0],"sum_hessian":[1.2183967E3,5.6555426E2,6.528425E2,9.254349E1,4.7301077E2,6.355656E2,1.7276886E1,2.3477379E1,6.906611E1,3.2261692E1,4.4074908E2,2.9641083E2,3.3915482E2,2.830386E0,1.44465E1,1.6101458E1,7.3759203E0,6.586377E1,3.2023358E0,2.9262342E0,2.9335459E1,3.9660466E0,4.3678302E2,1.7835417E2,1.1805666E2,3.2942465E2,9.730163E0,8.70288E0,5.74362E0],"tree_param":{"num_deleted":"0","num_feature":"13","num_nodes":"29","size_leaf_vector":"1"}},{"base_weights":[1.1769401E-2,2.4605921E-1,-5.7439196E-1,-4.2315174E-2,4.3463737E-1,-3.6417598E-1,-5.8382887E-1,-2.9022068E-1,8.3506846E-1,5.720449E-1,4.5330603E-2,-2.8230462E-2,4.1029923E-2,-2.9251693E-2,-8.390255E-3,5.0985552E-2,-1.6071297E-2,-1.5423379E-2,4.6376277E-2,3.16125E-2,1.7862117E-2,1.0037898E-2,-2.1057904E-2],"categories":[],"categories_nodes":[],"categories_segments":[],"categories_sizes":[],"default_left":[1,1,0,1,0,0,0,0,0,0,0,0,0,0,0,0,0,0,0,0,0,0,0],"id":53,"left_children":[1,3,5,7,9,11,13,15,17,19,21,-1,-1,-1,-1,-1,-1,-1,-1,-1,-1,-1,-1],"loss_changes":[1.7070662E2,4.8310383E1,4.9154663E-1,7.680988E1,2.870057E1,4.715988E0,7.129669E-2,1.157753E1,8.512753E0,4.9059906E0,1.0320737E1,0E0,0E0,0E0,0E0,0E0,0E0,0E0,0E0,0E0,0E0,0E0,0E0],"parents":[2147483647,0,0,1,1,2,2,3,3,4,4,5,5,6,6,7,7,8,8,9,9,10,10],"right_children":[2,4,6,8,10,12,14,16,18,20,22,-1,-1,-1,-1,-1,-1,-1,-1,-1,-1,-1,-1],"split_conditions":[3E0,2E0,2.8928438E1,2E0,3E0,3E0,6.65417E5,-1.1764184E2,1.93112E1,3.5578655E1,3.676336E1,-2.8230462E-2,4.1029923E-2,-2.9251693E-2,-8.390255E-3,5.0985552E-2,-1.6071297E-2,-1.5423379E-2,4.6376277E-2,3.16125E-2,1.7862117E-2,1.0037898E-2,-2.1057904E-2],"split_indices":[11,12,2,11,12,12,10,5,7,2,2,0,0,0,0,0,0,0,0,0,0,0,0],"split_type":[0,0,0,0,0,0,0,0,0,0,0,0,0,0,0,0,0,0,0,0,0,0,0],"sum_hessian":[1.2409956E3,8.870287E2,3.5396683E2,3.510213E2,5.360074E2,1.6908384E1,3.3705847E2,2.7421176E2,7.680955E1,3.9582855E2,1.4017883E2,1.4909525E1,1.9988608E0,3.3567996E2,1.3785037E0,5.6432314E0,2.6856854E2,5.570885E0,7.123866E1,3.0765524E2,8.817332E1,1.05573044E2,3.460579E1],"tree_param":{"num_deleted":"0","num_feature":"13","num_nodes":"23","size_leaf_vector":"1"}},{"base_weights":[-5.838305E-3,-2.979475E-2,2.010676E-1,3.1055537E-1,-5.622247E-1,3.7580203E-2,4.0207615E-1,-2.901099E-2,3.5134047E-2,1.993156E-2,-1.9635355E-2,3.445699E-2,1.2664432E-2],"categories":[],"categories_nodes":[],"categories_segments":[],"categories_sizes":[],"default_left":[0,0,1,0,0,0,0,0,0,0,0,0,0],"id":54,"left_children":[1,-1,3,5,7,9,11,-1,-1,-1,-1,-1,-1],"loss_changes":[1.5359506E2,0E0,7.801997E1,2.0352898E1,3.075611E0,3.2130314E1,2.5899437E1,0E0,0E0,0E0,0E0,0E0,0E0],"parents":[2147483647,0,0,2,2,3,3,4,4,5,5,6,6],"right_children":[2,-1,4,6,8,10,12,-1,-1,-1,-1,-1,-1],"split_conditions":[2E0,-2.979475E-2,4E0,3.2324326E-1,4.02486E5,3.872385E-1,6.270396E2,-2.901099E-2,3.5134047E-2,1.993156E-2,-1.9635355E-2,3.445699E-2,1.2664432E-2],"split_indices":[11,0,11,6,10,0,1,0,0,0,0,0,0],"split_type":[0,0,0,0,0,0,0,0,0,0,0,0,0],"sum_hessian":[1.2561056E3,3.2561966E2,9.3048596E2,8.142779E2,1.16208084E2,2.0481013E2,6.094678E2,1.1511175E2,1.0963392E0,1.1140477E2,9.3405365E1,2.0681567E2,4.026521E2],"tree_param":{"num_deleted":"0","num_feature":"13","num_nodes":"13","size_leaf_vector":"1"}},{"base_weights":[-4.502773E-2,-2.9776096E-2,5.503504E-1,7.279725E-1,8.450363E-2,-3.0093258E-2,7.7520174E-1,-3.1885494E-2,5.5189276E-1,4.5584455E-2,2.6448032E-2,3.8601782E-2,-3.1096367E-2],"categories":[],"categories_nodes":[],"categories_segments":[],"categories_sizes":[],"default_left":[1,0,0,0,0,0,0,0,0,0,0,0,0],"id":55,"left_children":[1,-1,3,5,7,-1,9,-1,11,-1,-1,-1,-1],"loss_changes":[3.779709E2,0E0,4.5784332E1,2.5651672E1,5.236045E1,0E0,1.2546997E1,0E0,2.4789976E1,0E0,0E0,0E0,0E0],"parents":[2147483647,0,0,2,2,3,3,4,4,6,6,8,8],"right_children":[2,-1,4,6,8,-1,10,-1,12,-1,-1,-1,-1],"split_conditions":[3E0,-2.9776096E-2,1.86807E5,-8.7134796E1,3E0,-3.0093258E-2,4.0980867E-1,-3.1885494E-2,2.589443E-1,4.5584455E-2,2.6448032E-2,3.8601782E-2,-3.1096367E-2],"split_indices":[11,0,10,5,9,0,6,0,3,0,0,0,0],"split_type":[0,0,0,0,0,0,0,0,0,0,0,0,0],"sum_hessian":[1.1512216E3,5.981574E2,5.530642E2,3.999899E2,1.530743E2,1.3315684E1,3.866742E2,5.9998974E1,9.307532E1,2.4704106E2,1.3963315E2,7.866454E1,1.4410773E1],"tree_param":{"num_deleted":"0","num_feature":"13","num_nodes":"13","size_leaf_vector":"1"}},{"base_weights":[-2.3572776E-2,5.9362805E-1,-5.702764E-1,8.0857825E-1,2.5579887E-2,-5.797236E-1,-2.2777581E-1,-2.6135877E-2,8.220418E-1,-4.107883E-2,7.753259E-1,7.979686E-3,-5.825678E-1,3.3309397E-1,-2.7816975E-2,4.384206E-2,3.1306133E-2,3.6469754E-3,-1.2531524E-2,5.0762355E-2,4.6575465E-3,-2.9489473E-2,-2.1089599E-2,3.8271185E-2,-2.191933E-2],"categories":[],"categories_nodes":[],"categories_segments":[],"categories_sizes":[],"default_left":[1,1,0,0,0,0,0,0,0,0,0,0,0,0,0,0,0,0,0,0,0,0,0,0,0],"id":56,"left_children":[1,3,5,7,9,11,13,-1,15,17,19,-1,21,23,-1,-1,-1,-1,-1,-1,-1,-1,-1,-1,-1],"loss_changes":[4.038758E2,6.862947E1,1.9216309E0,7.740082E0,7.7972293E0,1.3903809E0,3.628445E0,0E0,3.7901611E0,3.4502773E0,1.9900484E0,0E0,4.6513367E-1,2.8462453E0,0E0,0E0,0E0,0E0,0E0,0E0,0E0,0E0,0E0,0E0,0E0],"parents":[2147483647,0,0,1,1,2,2,3,3,4,4,5,5,6,6,8,8,9,9,10,10,12,12,13,13],"right_children":[2,4,6,8,10,12,14,-1,16,18,20,-1,22,24,-1,-1,-1,-1,-1,-1,-1,-1,-1,-1,-1],"split_conditions":[2E0,2E0,1.688862E2,-1.1764184E2,1.227822E6,-1.4056586E-2,2E0,-2.6135877E-2,2.9442117E-1,3.3765728E1,3.20482E1,7.979686E-3,5.41173E5,9.440456E2,-2.7816975E-2,4.384206E-2,3.1306133E-2,3.6469754E-3,-1.2531524E-2,5.0762355E-2,4.6575465E-3,-2.9489473E-2,-2.1089599E-2,3.8271185E-2,-2.191933E-2],"split_indices":[11,12,5,5,10,3,12,0,3,2,2,0,10,1,0,0,0,0,0,0,0,0,0,0,0],"split_type":[0,0,0,0,0,0,0,0,0,0,0,0,0,0,0,0,0,0,0,0,0,0,0,0,0],"sum_hessian":[1.1949286E3,5.612358E2,6.3369275E2,4.0685706E2,1.5437874E2,6.1600867E2,1.7684093E1,3.6946924E0,4.0316235E2,1.4264189E2,1.1736852E1,2.14954E0,6.1385913E2,6.5275493E0,1.1156545E1,3.1232758E2,9.083479E1,9.280049E1,4.9841393E1,8.321815E0,3.4150367E0,5.8491785E2,2.8941278E1,4.188313E0,2.3392365E0],"tree_param":{"num_deleted":"0","num_feature":"13","num_nodes":"25","size_leaf_vector":"1"}},{"base_weights":[1.9618714E-2,2.2883324E-1,-5.6650555E-1,-7.7764116E-2,3.980013E-1,3.6134653E-2,-5.7502145E-1,-2.8402874E-1,2.0282848E-1,3.4176055E-1,1.0533153E0,-5.8601874E-1,-4.4163215E-1,-2.0421945E-2,2.771397E-2,3.777099E-2,-1.7253067E-3,2.2577219E-2,9.243673E-4,3.4493958E-3,5.4545958E-2,-2.9515475E-2,-1.636681E-2,-2.9137015E-2,3.8850907E-2],"categories":[],"categories_nodes":[],"categories_segments":[],"categories_sizes":[],"default_left":[1,0,0,1,0,0,0,1,0,0,0,0,1,0,0,0,0,0,0,0,0,0,0,0,0],"id":57,"left_children":[1,3,5,7,9,-1,11,13,15,17,19,21,23,-1,-1,-1,-1,-1,-1,-1,-1,-1,-1,-1,-1],"loss_changes":[1.4942705E2,4.6604538E1,3.934822E0,1.8585064E1,2.0973015E1,0E0,2.0915222E-1,1.9511784E1,1.7889595E1,1.896328E1,1.60038E0,1.304779E-1,5.3289323E0,0E0,0E0,0E0,0E0,0E0,0E0,0E0,0E0,0E0,0E0,0E0,0E0],"parents":[2147483647,0,0,1,1,2,2,3,3,4,4,6,6,7,7,8,8,9,9,10,10,11,11,12,12],"right_children":[2,4,6,8,10,-1,12,14,16,18,20,22,24,-1,-1,-1,-1,-1,-1,-1,-1,-1,-1,-1,-1],"split_conditions":[3E0,2.5871706E-1,2.8877207E1,2E0,5.2930146E-1,3.6134653E-2,8.5245215E2,2E0,2E0,3E0,2.652925E-1,4.8115852E-1,4E0,-2.0421945E-2,2.771397E-2,3.777099E-2,-1.7253067E-3,2.2577219E-2,9.243673E-4,3.4493958E-3,5.4545958E-2,-2.9515475E-2,-1.636681E-2,-2.9137015E-2,3.8850907E-2],"split_indices":[11,3,2,12,0,0,1,11,11,12,3,3,12,0,0,0,0,0,0,0,0,0,0,0,0],"split_type":[0,0,0,0,0,0,0,0,0,0,0,0,0,0,0,0,0,0,0,0,0,0,0,0,0],"sum_hessian":[1.216505E3,8.9695154E2,3.195534E2,3.191215E2,5.778301E2,1.5466483E0,3.1800674E2,1.8391365E2,1.3520784E2,5.3356006E2,4.4269993E1,2.906508E2,2.7355965E1,1.6059337E2,2.3320274E1,3.9967564E1,9.524027E1,3.9800165E2,1.3555843E2,1.7332971E0,4.2536697E1,2.8464734E2,6.0034566E0,2.498478E1,2.3711853E0],"tree_param":{"num_deleted":"0","num_feature":"13","num_nodes":"25","size_leaf_vector":"1"}},{"base_weights":[1.2933549E-3,1.4174144E-1,-2.115217E-1,-2.043515E-1,2.3774152E-1,-4.3874127E-1,-1.16980754E-1,-2.8925067E-1,4.9735138E-1,5.3690636E-1,8.256044E-2,-8.254029E-2,-4.8806968E-1,-3.0047345E-1,1.234719E-1,2.1205418E-2,-2.0080784E-2,4.4913862E-2,-2.4735307E-2,7.822613E-3,3.9829865E-2,9.958027E-3,-2.3314413E-2,-2.8563201E-2,2.1844408E-2,-2.7101045E-2,-2.1614975E-3,2.8047215E-3,-2.0959416E-2,-8.316532E-3,1.8585948E-2],"categories":[],"categories_nodes":[],"categories_segments":[],"categories_sizes":[],"default_left":[0,0,0,0,0,0,0,0,0,0,0,0,0,0,0,0,0,0,0,0,0,0,0,0,0,0,0,0,0,0,0],"id":58,"left_children":[1,3,5,7,9,11,13,15,17,19,21,23,25,27,29,-1,-1,-1,-1,-1,-1,-1,-1,-1,-1,-1,-1,-1,-1,-1,-1],"loss_changes":[3.697501E1,2.4808846E1,1.0513819E1,9.816527E0,2.7061535E1,2.4924812E0,1.5421224E1,1.1830872E1,7.560738E0,1.956009E1,2.4771563E1,5.0062E0,3.010336E0,8.407112E0,1.0970061E1,0E0,0E0,0E0,0E0,0E0,0E0,0E0,0E0,0E0,0E0,0E0,0E0,0E0,0E0,0E0,0E0],"parents":[2147483647,0,0,1,1,2,2,3,3,4,4,5,5,6,6,7,7,8,8,9,9,10,10,11,11,12,12,13,13,14,14],"right_children":[2,4,6,8,10,12,14,16,18,20,22,24,26,28,30,-1,-1,-1,-1,-1,-1,-1,-1,-1,-1,-1,-1,-1,-1,-1,-1],"split_conditions":[7.459098E2,2.0541626E-1,2.9966518E1,6.86615E1,-4.172701E1,2.0547507E2,4.8203835E-1,2.7222186E-1,1.640943E-1,-1.3098439E-2,6E1,2.784238E-1,1.4231662E2,5.482364E1,6.458073E2,2.1205418E-2,-2.0080784E-2,4.4913862E-2,-2.4735307E-2,7.822613E-3,3.9829865E-2,9.958027E-3,-2.3314413E-2,-2.8563201E-2,2.1844408E-2,-2.7101045E-2,-2.1614975E-3,2.8047215E-3,-2.0959416E-2,-8.316532E-3,1.8585948E-2],"split_indices":[1,3,2,5,5,7,6,6,3,4,9,3,5,7,7,0,0,0,0,0,0,0,0,0,0,0,0,0,0,0,0],"split_type":[0,0,0,0,0,0,0,0,0,0,0,0,0,0,0,0,0,0,0,0,0,0,0,0,0,0,0,0,0,0,0],"sum_hessian":[1.2350549E3,7.4423096E2,4.90824E2,1.6136395E2,5.82867E2,1.4314612E2,3.476779E2,1.4447205E2,1.689191E1,1.9823708E2,3.8462994E2,1.7737402E1,1.2540872E2,1.9705382E2,1.5062407E2,1.9282299E1,1.2518974E2,1.2097437E1,4.7944746E0,8.106994E1,1.1716714E2,3.1776047E2,6.686945E1,9.087393E0,8.650009E0,1.1164917E2,1.3759548E1,4.9351337E1,1.4770248E2,6.964767E1,8.097641E1],"tree_param":{"num_deleted":"0","num_feature":"13","num_nodes":"31","size_leaf_vector":"1"}},{"base_weights":[1.1983424E-2,-2.9589439E-2,5.7904184E-1,-3.0615723E-2,6.3118696E-1,2.969958E-1,7.9042083E-1,-2.3198469E-2,3.0445745E-2,4.0915713E-2,-3.2137956E-2],"categories":[],"categories_nodes":[],"categories_segments":[],"categories_sizes":[],"default_left":[1,0,0,0,0,0,0,0,0,0,0],"id":59,"left_children":[1,-1,3,-1,5,7,9,-1,-1,-1,-1],"loss_changes":[4.122029E2,0E0,3.8955383E1,0E0,3.1443924E1,4.626198E1,1.661998E1,0E0,0E0,0E0,0E0],"parents":[2147483647,0,0,2,2,4,4,5,5,6,6],"right_children":[2,-1,4,-1,6,8,10,-1,-1,-1,-1],"split_conditions":[3E0,-2.9589439E-2,-7.422652E1,-3.0615723E-2,5E0,3.806559E-1,6.500017E2,-2.3198469E-2,3.0445745E-2,4.0915713E-2,-3.2137956E-2],"split_indices":[11,0,5,0,9,0,7,0,0,0,0],"split_type":[0,0,0,0,0,0,0,0,0,0,0],"sum_hessian":[1.201954E3,5.8211096E2,6.1984296E2,2.5542095E1,5.9430084E2,1.9271225E2,4.015886E2,5.5885418E1,1.3682683E2,3.9434268E2,7.245911E0],"tree_param":{"num_deleted":"0","num_feature":"13","num_nodes":"11","size_leaf_vector":"1"}},{"base_weights":[-3.0511492E-3,5.7462585E-1,-5.6309974E-1,7.782392E-1,3.0331548E-2,-5.717139E-1,-2.5737897E-1,-2.5310008E-2,7.899672E-1,2.4879816E-1,-2.0024768E-1,-5.7952696E-1,-4.125859E-1,2.2490512E-1,-2.7438814E-2,5.835871E-3,4.031847E-2,-2.4062407E-3,3.501984E-2,1.1514452E-2,-1.4820612E-2,-2.9127657E-2,-2.0903394E-2,-2.5324835E-2,4.1386224E-2,3.5995316E-2,-2.28158E-2],"categories":[],"categories_nodes":[],"categories_segments":[],"categories_sizes":[],"default_left":[1,1,0,0,0,0,0,0,0,0,0,0,0,0,0,0,0,0,0,0,0,0,0,0,0,0,0],"id":60,"left_children":[1,3,5,7,9,11,13,-1,15,17,19,21,23,25,-1,-1,-1,-1,-1,-1,-1,-1,-1,-1,-1,-1,-1],"loss_changes":[3.676145E2,6.196501E1,1.3722229E0,6.5311584E0,7.7729464E0,4.5751953E-1,2.600986E0,0E0,4.3641357E0,1.0649853E1,3.1794147E0,1.6189575E-2,3.8780155E0,2.8066854E0,0E0,0E0,0E0,0E0,0E0,0E0,0E0,0E0,0E0,0E0,0E0,0E0,0E0],"parents":[2147483647,0,0,1,1,2,2,3,3,4,4,5,5,6,6,8,8,9,9,10,10,11,11,12,12,13,13],"right_children":[2,4,6,8,10,12,14,-1,16,18,20,22,24,26,-1,-1,-1,-1,-1,-1,-1,-1,-1,-1,-1,-1,-1],"split_conditions":[2E0,2E0,1.688862E2,-1.1764184E2,3.24838E1,5.215817E-1,2E0,-2.5310008E-2,2.987978E-1,3.0472942E1,2.7604014E-1,1.463905E2,5.41173E5,3.5183078E-1,-2.7438814E-2,5.835871E-3,4.031847E-2,-2.4062407E-3,3.501984E-2,1.1514452E-2,-1.4820612E-2,-2.9127657E-2,-2.0903394E-2,-2.5324835E-2,4.1386224E-2,3.5995316E-2,-2.28158E-2],"split_indices":[11,12,5,5,2,0,12,0,6,2,0,5,10,6,0,0,0,0,0,0,0,0,0,0,0,0,0],"split_type":[0,0,0,0,0,0,0,0,0,0,0,0,0,0,0,0,0,0,0,0,0,0,0,0,0,0,0],"sum_hessian":[1.1342705E3,5.58335E2,5.759355E2,4.060189E2,1.5231613E2,5.5930615E2,1.662935E1,3.2922459E0,4.0272665E2,7.817179E1,7.414434E1,5.3061163E2,2.8694555E1,6.3491774E0,1.0280174E1,9.771181E0,3.9295547E2,4.7701694E1,3.0470097E1,1.3282544E1,6.0861797E1,5.182895E2,1.2322124E1,2.7224848E1,1.4697064E0,3.6443012E0,2.704876E0],"tree_param":{"num_deleted":"0","num_feature":"13","num_nodes":"27","size_leaf_vector":"1"}},{"base_weights":[1.3020265E-2,2.3345625E-1,-5.6639105E-1,-1.1252822E-1,3.8158453E-1,-3.9758322E-1,-5.7585895E-1,-3.1495413E-1,1.6794161E-1,4.7070014E-1,1.0475205E-1,-2.82882E-2,3.8667243E-2,-2.8858194E-2,-7.5915777E-3,-2.062966E-2,2.1134725E-2,1.8206624E-2,-1.0166528E-2,4.383789E-2,1.959736E-2,9.053376E-3,-2.8913027E-2],"categories":[],"categories_nodes":[],"categories_segments":[],"categories_sizes":[],"default_left":[1,0,0,1,0,0,0,1,0,0,0,0,0,0,0,0,0,0,0,0,0,0,0],"id":61,"left_children":[1,3,5,7,9,11,13,15,17,19,21,-1,-1,-1,-1,-1,-1,-1,-1,-1,-1,-1,-1],"loss_changes":[1.5541989E2,4.521719E1,3.0704498E-1,1.5099133E1,1.5182739E1,4.581072E0,8.686066E-2,1.1285621E1,8.213617E0,1.4583366E1,8.008984E0,0E0,0E0,0E0,0E0,0E0,0E0,0E0,0E0,0E0,0E0,0E0,0E0],"parents":[2147483647,0,0,1,1,2,2,3,3,4,4,5,5,6,6,7,7,8,8,9,9,10,10],"right_children":[2,4,6,8,10,12,14,16,18,20,22,-1,-1,-1,-1,-1,-1,-1,-1,-1,-1,-1,-1],"split_conditions":[3E0,2.4657857E-1,2.8928438E1,2E0,3E0,3E0,6.18612E5,2E0,3.4663815E1,2.985821E1,3.749883E1,-2.82882E-2,3.8667243E-2,-2.8858194E-2,-7.5915777E-3,-2.062966E-2,2.1134725E-2,1.8206624E-2,-1.0166528E-2,4.383789E-2,1.959736E-2,9.053376E-3,-2.8913027E-2],"split_indices":[11,3,2,12,12,12,10,11,2,2,2,0,0,0,0,0,0,0,0,0,0,0,0],"split_type":[0,0,0,0,0,0,0,0,0,0,0,0,0,0,0,0,0,0,0,0,0,0,0],"sum_hessian":[1.2148151E3,8.804475E2,3.3436758E2,2.640182E2,6.1642926E2,2.004093E1,3.1432666E2,1.5327254E2,1.1074567E2,4.6578674E2,1.5064253E2,1.7975872E1,2.0650566E0,3.1300223E2,1.3244107E0,