{"learner":{"attributes":{},"feature_names":["ndvi_mean_6m","rainfall_sum_6m","lst_mean_6m","nightlight_mean_6m","ndvi_anomaly_6m","rainfall_anomaly_6m","ndvi_mean_3m","rainfall_sum_3m","conflict_events_6m","conflict_fatalities_6m","population","current_phase_class","prev_projected_phase"],"feature_types":["float","float","float","float","float","float","float","float","int","int","float","float","float"],"gradient_booster":{"model":{"gbtree_model_param":{"num_parallel_tree":"1","num_trees":"1000"},"iteration_indptr":[0,4,8,12,16,20,24,28,32,36,40,44,48,52,56,60,64,68,72,76,80,84,88,92,96,100,104,108,112,116,120,124,128,132,136,140,144,148,152,156,160,164,168,172,176,180,184,188,192,196,200,204,208,212,216,220,224,228,232,236,240,244,248,252,256,260,264,268,272,276,280,284,288,292,296,300,304,308,312,316,320,324,328,332,336,340,344,348,352,356,360,364,368,372,376,380,384,388,392,396,400,404,408,412,416,420,424,428,432,436,440,444,448,452,456,460,464,468,472,476,480,484,488,492,496,500,504,508,512,516,520,524,528,532,536,540,544,548,552,556,560,564,568,572,576,580,584,588,592,596,600,604,608,612,616,620,624,628,632,636,640,644,648,652,656,660,664,668,672,676,680,684,688,692,696,700,704,708,712,716,720,724,728,732,736,740,744,748,752,756,760,764,768,772,776,780,784,788,792,796,800,804,808,812,816,820,824,828,832,836,840,844,848,852,856,860,864,868,872,876,880,884,888,892,896,900,904,908,912,916,920,924,928,932,936,940,944,948,952,956,960,964,968,972,976,980,984,988,992,996,1000],"tree_info":[0,1,2,3,0,1,2,3,0,1,2,3,0,1,2,3,0,1,2,3,0,1,2,3,0,1,2,3,0,1,2,3,0,1,2,3,0,1,2,3,0,1,2,3,0,1,2,3,0,1,2,3,0,1,2,3,0,1,2,3,0,1,2,3,0,1,2,3,0,1,2,3,0,1,2,3,0,1,2,3,0,1,2,3,0,1,2,3,0,1,2,3,0,1,2,3,0,1,2,3,0,1,2,3,0,1,2,3,0,1,2,3,0,1,2,3,0,1,2,3,0,1,2,3,0,1,2,3,0,1,2,3,0,1,2,3,0,1,2,3,0,1,2,3,0,1,2,3,0,1,2,3,0,1,2,3,0,1,2,3,0,1,2,3,0,1,2,3,0,1,2,3,0,1,2,3,0,1,2,3,0,1,2,3,0,1,2,3,0,1,2,3,0,1,2,3,0,1,2,3,0,1,2,3,0,1,2,3,0,1,2,3,0,1,2,3,0,1,2,3,0,1,2,3,0,1,2,3,0,1,2,3,0,1,2,3,0,1,2,3,0,1,2,3,0,1,2,3,0,1,2,3,0,1,2,3,0,1,2,3,0,1,2,3,0,1,2,3,0,1,2,3,0,1,2,3,0,1,2,3,0,1,2,3,0,1,2,3,0,1,2,3,0,1,2,3,0,1,2,3,0,1,2,3,0,1,2,3,0,1,2,3,0,1,2,3,0,1,2,3,0,1,2,3,0,1,2,3,0,1,2,3,0,1,2,3,0,1,2,3,0,1,2,3,0,1,2,3,0,1,2,3,0,1,2,3,0,1,2,3,0,1,2,3,0,1,2,3,0,1,2,3,0,1,2,3,0,1,2,3,0,1,2,3,0,1,2,3,0,1,2,3,0,1,2,3,0,1,2,3,0,1,2,3,0,1,2,3,0,1,2,3,0,1,2,3,0,1,2,3,0,1,2,3,0,1,2,3,0,1,2,3,0,1,2,3,0,1,2,3,0,1,2,3,0,1,2,3,0,1,2,3,0,1,2,3,0,1,2,3,0,1,2,3,0,1,2,3,0,1,2,3,0,1,2,3,0,1,2,3,0,1,2,3,0,1,2,3,0,1,2,3,0,1,2,3,0,1,2,3,0,1,2,3,0,1,2,3,0,1,2,3,0,1,2,3,0,1,2,3,0,1,2,3,0,1,2,3,0,1,2,3,0,1,2,3,0,1,2,3,0,1,2,3,0,1,2,3,0,1,2,3,0,1,2,3,0,1,2,3,0,1,2,3,0,1,2,3,0,1,2,3,0,1,2,3,0,1,2,3,0,1,2,3,0,1,2,3,0,1,2,3,0,1,2,3,0,1,2,3,0,1,2,3,0,1,2,3,0,1,2,3,0,1,2,3,0,1,2,3,0,1,2,3,0,1,2,3,0,1,2,3,0,1,2,3,0,1,2,3,0,1,2,3,0,1,2,3,0,1,2,3,0,1,2,3,0,1,2,3,0,1,2,3,0,1,2,3,0,1,2,3,0,1,2,3,0,1,2,3,0,1,2,3,0,1,2,3,0,1,2,3,0,1,2,3,0,1,2,3,0,1,2,3,0,1,2,3,0,1,2,3,0,1,2,3,0,1,2,3,0,1,2,3,0,1,2,3,0,1,2,3,0,1,2,3,0,1,2,3,0,1,2,3,0,1,2,3,0,1,2,3,0,1,2,3,0,1,2,3,0,1,2,3,0,1,2,3,0,1,2,3,0,1,2,3,0,1,2,3,0,1,2,3,0,1,2,3,0,1,2,3,0,1,2,3,0,1,2,3,0,1,2,3,0,1,2,3,0,1,2,3,0,1,2,3,0,1,2,3,0,1,2,3,0,1,2,3,0,1,2,3,0,1,2,3,0,1,2,3,0,1,2,3,0,1,2,3,0,1,2,3,0,1,2,3,0,1,2,3,0,1,2,3,0,1,2,3,0,1,2,3,0,1,2,3,0,1,2,3,0,1,2,3,0,1,2,3,0,1,2,3,0,1,2,3,0,1,2,3,0,1,2,3,0,1,2,3,0,1,2,3,0,1,2,3,0,1,2,3,0,1,2,3,0,1,2,3,0,1,2,3,0,1,2,3,0,1,2,3,0,1,2,3,0,1,2,3,0,1,2,3,0,1,2,3,0,1,2,3,0,1,2,3,0,1,2,3,0,1,2,3,0,1,2,3,0,1,2,3,0,1,2,3,0,1,2,3,0,1,2,3,0,1,2,3,0,1,2,3],"trees":[{"base_weights":[-9.595664E-4,1.2334615E0,-6.246808E-1,1.7571901E0,9.7015184E-1,-6.419969E-1,1.8369287E-1,1.7069483E-1,1.7923957E0,1.1288234E0,2.1519195E-1,-6.552714E-1,-2.4725349E-1,-3.0498123E-2,1.2717917E0,-2.227313E-2,4.5482215E-2,9.033375E-2,2.6334753E-2,4.369431E-2,6.381217E-2,4.482912E-2,-5.6725E-3,-3.304922E-2,-2.2682628E-2,6.204918E-2,-3.1946972E-2,7.700478E-2,6.6197463E-6],"categories":[],"categories_nodes":[],"categories_segments":[],"categories_sizes":[],"default_left":[0,0,0,0,0,0,0,0,0,0,0,0,0,0,0,0,0,0,0,0,0,0,0,0,0,0,0,0,0],"id":0,"left_children":[1,3,5,7,9,11,13,15,17,19,21,23,25,-1,27,-1,-1,-1,-1,-1,-1,-1,-1,-1,-1,-1,-1,-1,-1],"loss_changes":[1.01607104E3,5.9383118E1,1.2389954E1,7.9027405E0,3.5336E1,4.3367615E0,1.732491E1,2.3611355E0,1.6451111E0,8.099701E0,1.1929316E1,6.5618896E-1,1.80112E1,0E0,2.868062E0,0E0,0E0,0E0,0E0,0E0,0E0,0E0,0E0,0E0,0E0,0E0,0E0,0E0,0E0],"parents":[2147483647,0,0,1,1,2,2,3,3,4,4,5,5,6,6,7,7,8,8,9,9,10,10,11,11,12,12,14,14],"right_children":[2,4,6,8,10,12,14,16,18,20,22,24,26,-1,28,-1,-1,-1,-1,-1,-1,-1,-1,-1,-1,-1,-1,-1,-1],"split_conditions":[2E0,2.0616175E-1,8.00001E0,2.7814425E1,9.872856E2,1.6572942E2,4.5401746E-1,5.2376086E-1,8.5510333E2,7.0410803E2,4.546214E2,5.39217E-1,1.5188865E1,-3.0498123E-2,1.0591165E2,-2.227313E-2,4.5482215E-2,9.033375E-2,2.6334753E-2,4.369431E-2,6.381217E-2,4.482912E-2,-5.6725E-3,-3.304922E-2,-2.2682628E-2,6.204918E-2,-3.1946972E-2,7.700478E-2,6.6197463E-6],"split_indices":[11,3,11,2,1,5,0,0,7,1,7,0,7,0,5,0,0,0,0,0,0,0,0,0,0,0,0,0,0],"split_type":[0,0,0,0,0,0,0,0,0,0,0,0,0,0,0,0,0,0,0,0,0,0,0,0,0,0,0,0,0],"sum_hessian":[1.3176841E3,4.419779E2,8.757062E2,1.4596896E2,2.9600894E2,8.5754266E2,1.816354E1,3.2958124E0,1.4267316E2,2.4419147E2,5.1817467E1,8.2900476E2,2.8537916E1,1.0756912E1,7.4066286E0,2.0138085E0,1.2820039E0,1.4065886E2,2.014298E0,9.200779E1,1.5218367E2,1.6297947E1,3.551952E1,8.0394635E2,2.5058376E1,5.4941626E0,2.3043753E1,5.9418774E0,1.4647511E0],"tree_param":{"num_deleted":"0","num_feature":"13","num_nodes":"29","size_leaf_vector":"1"}},{"base_weights":[-1.5346017E-3,3.888007E-1,-3.2766182E-2,-2.5397265E-1,5.6919044E-1,-4.2132252E-1,6.9917786E-1,4.0046874E-1,9.686052E-1,-2.344409E-2,4.2089783E-2,4.6493646E-2,-2.6591307E-2,2.559697E-2,1.1894966E-3,8.180052E-2,4.2051125E-2],"categories":[],"categories_nodes":[],"categories_segments":[],"categories_sizes":[],"default_left":[1,0,0,1,0,0,0,0,0,0,0,0,0,0,0,0,0],"id":1,"left_children":[1,3,-1,5,7,9,11,13,15,-1,-1,-1,-1,-1,-1,-1,-1],"loss_changes":[3.33923E2,9.514535E1,0E0,2.9044708E1,4.2747543E1,9.642645E0,8.246076E0,1.8954208E1,1.475E1,0E0,0E0,0E0,0E0,0E0,0E0,0E0,0E0],"parents":[2147483647,0,0,1,1,3,3,4,4,5,5,6,6,7,7,8,8],"right_children":[2,4,-1,6,8,10,12,14,16,-1,-1,-1,-1,-1,-1,-1,-1],"split_conditions":[3E0,2.0470896E-1,-3.2766182E-2,2E0,3.3565187E-1,1.4062222E3,3.26889E5,3.6027878E1,2.882479E1,-2.344409E-2,4.2089783E-2,4.6493646E-2,-2.6591307E-2,2.559697E-2,1.1894966E-3,8.180052E-2,4.2051125E-2],"split_indices":[11,3,0,11,3,1,10,2,2,0,0,0,0,0,0,0,0],"split_type":[0,0,0,0,0,0,0,0,0,0,0,0,0,0,0,0,0],"sum_hessian":[1.3064929E3,8.183276E2,4.8816537E2,1.7924069E2,6.390869E2,1.5294522E2,2.6295467E1,4.5070267E2,1.8838423E2,1.4800143E2,4.9438E0,2.2351357E1,3.9441118E0,3.4750598E2,1.0319667E2,2.8335209E1,1.6004903E2],"tree_param":{"num_deleted":"0","num_feature":"13","num_nodes":"17","size_leaf_vector":"1"}},{"base_weights":[-6.300309E-3,-3.3121902E-2,3.192803E-1,5.658567E-1,-6.117916E-1,3.1951148E-2,7.177155E-1,-6.307668E-1,5.729554E-2,1.9128172E-2,-2.2847397E-2,6.048757E-2,2.2233266E-2,-3.3101197E-2,-2.5455777E-2],"categories":[],"categories_nodes":[],"categories_segments":[],"categories_sizes":[],"default_left":[0,0,1,0,0,0,0,1,0,0,0,0,0,0,0],"id":2,"left_children":[1,-1,3,5,7,9,11,13,-1,-1,-1,-1,-1,-1,-1],"loss_changes":[2.8321948E2,0E0,2.0377798E2,5.6820206E1,6.9268494E0,2.6966663E1,7.2789276E1,3.6515808E-1,0E0,0E0,0E0,0E0,0E0,0E0,0E0],"parents":[2147483647,0,0,2,2,3,3,4,4,5,5,6,6,7,7],"right_children":[2,-1,4,6,8,10,12,14,-1,-1,-1,-1,-1,-1,-1],"split_conditions":[2E0,-3.3121902E-2,4E0,2.1513066E-1,1.41E2,3.7147083E1,6.0208655E2,4E0,5.729554E-2,1.9128172E-2,-2.2847397E-2,6.048757E-2,2.2233266E-2,-3.3101197E-2,-2.5455777E-2],"split_indices":[11,0,11,3,9,2,1,12,0,0,0,0,0,0,0],"split_type":[0,0,0,0,0,0,0,0,0,0,0,0,0,0,0],"sum_hessian":[1.3237842E3,4.3868143E2,8.851027E2,7.000897E2,1.8501299E2,1.5529907E2,5.4479065E2,1.8367131E2,1.3416756E0,9.056687E1,6.473221E1,1.9320505E2,3.515856E2,1.4259184E2,4.1079468E1],"tree_param":{"num_deleted":"0","num_feature":"13","num_nodes":"15","size_leaf_vector":"1"}},{"base_weights":[-4.246819E-4,-3.329298E-2,1.1321199E0,1.693322E0,4.5135492E-1,-2.8097762E-2,1.7419801E0,-3.155827E-1,1.5204484E0,6.961752E-2,9.4580196E-2,5.9141356E-2,-2.8034324E-2,8.461749E-2,-2.902074E-2],"categories":[],"categories_nodes":[],"categories_segments":[],"categories_sizes":[],"default_left":[1,0,0,0,0,0,0,0,0,0,0,0,0,0,0],"id":3,"left_children":[1,-1,3,5,7,-1,9,11,13,-1,-1,-1,-1,-1,-1],"loss_changes":[9.882598E2,0E0,1.8465192E2,3.0131653E1,1.8140869E2,0E0,1.0982971E1,4.8157166E1,3.433246E1,0E0,0E0,0E0,0E0,0E0,0E0],"parents":[2147483647,0,0,2,2,3,3,4,4,6,6,7,7,8,8],"right_children":[2,-1,4,6,8,-1,10,12,14,-1,-1,-1,-1,-1,-1],"split_conditions":[3E0,-3.329298E-2,1.26276E5,2.8700963E-1,4E0,-2.8097762E-2,6.019713E2,5.2312274E0,6.686768E2,6.961752E-2,9.4580196E-2,5.9141356E-2,-2.8034324E-2,8.461749E-2,-2.902074E-2],"split_indices":[11,0,10,0,12,0,1,7,1,0,0,0,0,0,0],"split_type":[0,0,0,0,0,0,0,0,0,0,0,0,0,0,0],"sum_hessian":[1.3093245E3,8.250011E2,4.8432343E2,2.646591E2,2.1966434E2,5.3667026E0,2.592924E2,1.2831766E2,9.134667E1,8.079717E1,1.7849521E2,1.750111E1,1.1081655E2,8.461738E1,6.7292953E0],"tree_param":{"num_deleted":"0","num_feature":"13","num_nodes":"15","size_leaf_vector":"1"}},{"base_weights":[-1.6303064E-2,1.1599319E0,-6.2343514E-1,1.2768003E0,4.8819643E-1,-6.370389E-1,1.3967651E-1,1.3087593E0,5.624783E-1,-1.6597126E-1,1.0190732E0,-6.4762706E-1,-2.8792328E-1,-2.9791687E-2,1.1100953E0,5.6693174E-2,7.252207E-2,-6.909622E-4,7.750137E-2,-2.2560911E-2,3.897865E-2,1.0672323E-2,5.848651E-2,-3.2594096E-2,-2.4900222E-2,5.212891E-2,-3.156836E-2,6.895088E-2,6.175E-5],"categories":[],"categories_nodes":[],"categories_segments":[],"categories_sizes":[],"default_left":[0,0,0,0,0,0,0,0,0,0,0,0,0,0,0,0,0,0,0,0,0,0,0,0,0,0,0,0,0],"id":4,"left_children":[1,3,5,7,9,11,13,15,17,19,21,23,25,-1,27,-1,-1,-1,-1,-1,-1,-1,-1,-1,-1,-1,-1,-1,-1],"loss_changes":[9.725856E2,3.577594E1,9.413818E0,8.265991E0,2.4594053E1,3.076416E0,1.24758005E1,7.689514E0,1.0630162E1,9.081608E0,4.4795647E0,2.2024536E-1,1.3353845E1,0E0,2.2305574E0,0E0,0E0,0E0,0E0,0E0,0E0,0E0,0E0,0E0,0E0,0E0,0E0,0E0,0E0],"parents":[2147483647,0,0,1,1,2,2,3,3,4,4,5,5,6,6,7,7,8,8,9,9,10,10,11,11,12,12,14,14],"right_children":[2,4,6,8,10,12,14,16,18,20,22,24,26,-1,28,-1,-1,-1,-1,-1,-1,-1,-1,-1,-1,-1,-1,-1,-1],"split_conditions":[2E0,9.872856E2,8.00001E0,6.41846E5,5.217611E-1,1.6572942E2,4.5401746E-1,4.2482576E-1,9.214555E2,3.0432663E1,-4.5682617E1,5.39217E-1,1.5188865E1,-2.9791687E-2,1.0591165E2,5.6693174E-2,7.252207E-2,-6.909622E-4,7.750137E-2,-2.2560911E-2,3.897865E-2,1.0672323E-2,5.848651E-2,-3.2594096E-2,-2.4900222E-2,5.212891E-2,-3.156836E-2,6.895088E-2,6.175E-5],"split_indices":[11,1,11,10,6,5,0,6,1,2,5,0,7,0,5,0,0,0,0,0,0,0,0,0,0,0,0,0,0],"split_type":[0,0,0,0,0,0,0,0,0,0,0,0,0,0,0,0,0,0,0,0,0,0,0,0,0,0,0,0,0],"sum_hessian":[1.359904E3,4.6265778E2,8.972463E2,3.933262E2,6.933155E1,8.8169385E2,1.5552463E1,3.7568567E2,1.7640535E1,3.136711E1,3.7964443E1,8.5491064E2,2.6783175E1,9.0666065E0,6.4858565E0,1.7216437E2,2.0352132E2,1.1762423E1,5.878113E0,2.4499132E1,6.8679776E0,6.361824E0,3.1602621E1,8.2800726E2,2.6903364E1,5.077455E0,2.1705719E1,5.0238347E0,1.4620221E0],"tree_param":{"num_deleted":"0","num_feature":"13","num_nodes":"29","size_leaf_vector":"1"}},{"base_weights":[-4.2379955E-3,3.6071655E-1,-3.230763E-2,6.548007E-2,7.1960104E-1,-2.223387E-2,7.5928444E-1,1.8760952E-1,9.4851243E-1,-5.3294855E-3,1.8858854E-2,7.7534735E-2,7.254567E-3,-2.9453231E-2,1.4927638E-2,9.676732E-3,5.098174E-2],"categories":[],"categories_nodes":[],"categories_segments":[],"categories_sizes":[],"default_left":[1,1,0,0,0,0,0,0,0,0,0,0,0,0,0,0,0],"id":5,"left_children":[1,3,-1,5,7,9,11,13,15,-1,-1,-1,-1,-1,-1,-1,-1],"loss_changes":[3.066453E2,8.837341E1,0E0,2.7947008E1,4.567816E1,1.3800716E1,2.4827057E1,1.0044467E1,1.3925888E1,0E0,0E0,0E0,0E0,0E0,0E0,0E0,0E0],"parents":[2147483647,0,0,1,1,3,3,4,4,5,5,6,6,7,7,8,8],"right_children":[2,4,-1,6,8,10,12,14,16,-1,-1,-1,-1,-1,-1,-1,-1],"split_conditions":[3E0,2E0,-3.230763E-2,1.0866788E3,6.3969275E2,4.11341E5,5.094889E-1,3.87863E2,1.948987E1,-5.3294855E-3,1.8858854E-2,7.7534735E-2,7.254567E-3,-2.9453231E-2,1.4927638E-2,9.676732E-3,5.098174E-2],"split_indices":[11,11,0,1,1,10,6,1,7,0,0,0,0,0,0,0,0],"split_type":[0,0,0,0,0,0,0,0,0,0,0,0,0,0,0,0,0],"sum_hessian":[1.3069469E3,8.33504E2,4.7344287E2,4.5795206E2,3.7555197E2,4.07413E2,5.053907E1,1.1352912E2,2.6202283E2,3.3697647E2,7.043651E1,2.1417313E1,2.9121758E1,1.3651339E1,9.9877785E1,2.287901E1,2.3914383E2],"tree_param":{"num_deleted":"0","num_feature":"13","num_nodes":"17","size_leaf_vector":"1"}},{"base_weights":[-9.190634E-3,-3.2868158E-2,3.0433196E-1,5.2274376E-1,-5.9426904E-1,6.2921363E-1,-8.7145485E-2,-6.202515E-1,9.033094E-2,1.4553006E-2,4.7791388E-2,5.6859788E-2,-1.13254925E-2,-3.2715175E-2,-2.6413783E-2,-2.7348772E-2,6.2485803E-2],"categories":[],"categories_nodes":[],"categories_segments":[],"categories_sizes":[],"default_left":[0,0,1,0,0,0,0,1,0,0,0,0,0,0,0,0,0],"id":6,"left_children":[1,-1,3,5,7,9,11,13,15,-1,-1,-1,-1,-1,-1,-1,-1],"loss_changes":[2.6269043E2,0E0,1.7130862E2,4.5602264E1,3.0946236E0,6.569139E1,1.8195835E1,1.7020798E-1,5.943798E0,0E0,0E0,0E0,0E0,0E0,0E0,0E0,0E0],"parents":[2147483647,0,0,2,2,3,3,4,4,5,5,6,6,7,7,8,8],"right_children":[2,-1,4,6,8,10,12,14,16,-1,-1,-1,-1,-1,-1,-1,-1],"split_conditions":[2E0,-3.2868158E-2,4E0,4E0,5.2786666E-1,3E0,-2.1723025E-2,4E0,4E0,1.4553006E-2,4.7791388E-2,5.6859788E-2,-1.13254925E-2,-3.2715175E-2,-2.6413783E-2,-2.7348772E-2,6.2485803E-2],"split_indices":[11,0,11,12,6,12,4,12,12,0,0,0,0,0,0,0,0],"split_type":[0,0,0,0,0,0,0,0,0,0,0,0,0,0,0,0,0],"sum_hessian":[1.2906769E3,4.204165E2,8.702604E2,7.0043304E2,1.6982729E2,5.963032E2,1.0412981E2,1.6370813E2,6.119166E0,2.9390533E2,3.0239792E2,9.909877E0,9.421993E1,1.1501313E2,4.869499E1,4.289484E0,1.8296819E0],"tree_param":{"num_deleted":"0","num_feature":"13","num_nodes":"17","size_leaf_vector":"1"}},{"base_weights":[-8.800781E-3,-3.2920763E-2,1.0343912E0,6.152798E-1,1.7654012E0,-1.4625537E-1,9.958838E-1,9.14667E-2,1.5015273E0,-2.1201918E-2,8.222838E-2,5.492395E-2,-3.0793179E-2,8.9251705E-2,-2.7797405E-2],"categories":[],"categories_nodes":[],"categories_segments":[],"categories_sizes":[],"default_left":[1,0,0,0,1,0,0,0,0,0,0,0,0,0,0],"id":7,"left_children":[1,-1,3,5,7,9,11,-1,13,-1,-1,-1,-1,-1,-1],"loss_changes":[8.881797E2,0E0,1.530075E2,9.3246895E1,3.361206E-1,5.43793E1,3.6112686E1,0E0,2.5037468E1,0E0,0E0,0E0,0E0,0E0,0E0],"parents":[2147483647,0,0,2,2,3,3,4,4,5,5,6,6,8,8],"right_children":[2,-1,4,6,8,10,12,-1,14,-1,-1,-1,-1,-1,-1],"split_conditions":[3E0,-3.2920763E-2,4E0,3E0,4E0,3.5462223E-2,6.3169293E2,9.14667E-2,1.0240997E2,-2.1201918E-2,8.222838E-2,5.492395E-2,-3.0793179E-2,8.9251705E-2,-2.7797405E-2],"split_indices":[11,0,11,9,12,4,7,0,7,0,0,0,0,0,0],"split_type":[0,0,0,0,0,0,0,0,0,0,0,0,0,0,0],"sum_hessian":[1.3086274E3,8.0666895E2,5.019585E2,3.2021228E2,1.8174622E2,1.0691204E2,2.1330025E2,1.4152432E2,4.0221897E1,9.321607E1,1.3695968E1,2.0083464E2,1.2465612E1,3.5467163E1,4.75473E0],"tree_param":{"num_deleted":"0","num_feature":"13","num_nodes":"15","size_leaf_vector":"1"}},{"base_weights":[1.14260055E-2,8.393156E-1,-4.7779495E-1,-4.6050042E-1,1.0134948E0,-3.1290597E-1,-6.3772225E-1,-3.2028105E-2,9.3072826E-1,1.4442159E0,7.225145E-1,-1.179245E-1,-5.2027917E-1,3.1248346E-1,-6.445895E-1,6.3717216E-2,1.40955495E-2,-1.258932E-2,7.763996E-2,1.7545246E-2,4.5264024E-2,-9.57713E-3,4.1823596E-2,-2.7178986E-2,5.8585137E-2,-1.962572E-2,4.8578065E-2,-3.257628E-2,-2.3840403E-2],"categories":[],"categories_nodes":[],"categories_segments":[],"categories_sizes":[],"default_left":[1,0,0,0,0,0,0,0,0,0,0,0,0,0,0,0,0,0,0,0,0,0,0,0,0,0,0,0,0],"id":8,"left_children":[1,3,5,7,9,11,13,-1,15,17,19,21,23,25,27,-1,-1,-1,-1,-1,-1,-1,-1,-1,-1,-1,-1,-1,-1],"loss_changes":[5.2873236E2,1.1024466E2,2.1439117E1,1.5121909E1,5.258548E1,1.6354095E1,2.9132843E0,0E0,1.2130566E0,3.1977936E1,1.716272E1,1.4952644E1,8.3816185E0,2.0798593E0,1.6990662E-1,0E0,0E0,0E0,0E0,0E0,0E0,0E0,0E0,0E0,0E0,0E0,0E0,0E0,0E0],"parents":[2147483647,0,0,1,1,2,2,3,3,4,4,5,5,6,6,8,8,9,9,10,10,11,11,12,12,13,13,14,14],"right_children":[2,4,6,8,10,12,14,-1,16,18,20,22,24,26,28,-1,-1,-1,-1,-1,-1,-1,-1,-1,-1,-1,-1,-1,-1],"split_conditions":[2E0,1.06621475E1,3E0,2.3529191E-1,2.0470896E-1,5.158629E2,2.4886851E-1,-3.2028105E-2,9.155825E0,3.652972E-2,3.1086657E1,3.142892E0,3.8811653E1,4.0051594E1,4.7335404E-1,6.3717216E-2,1.40955495E-2,-1.258932E-2,7.763996E-2,1.7545246E-2,4.5264024E-2,-9.57713E-3,4.1823596E-2,-2.7178986E-2,5.8585137E-2,-1.962572E-2,4.8578065E-2,-3.257628E-2,-2.3840403E-2],"split_indices":[12,7,12,3,3,7,0,0,5,3,2,3,2,2,3,0,0,0,0,0,0,0,0,0,0,0,0,0,0],"split_type":[0,0,0,0,0,0,0,0,0,0,0,0,0,0,0,0,0,0,0,0,0,0,0,0,0,0,0,0,0],"sum_hessian":[1.3034543E3,4.8388278E2,8.195716E2,5.6985283E1,4.268975E2,4.0498193E2,4.1458966E2,5.0932804E1,6.0524783E0,1.7052141E2,2.563761E2,2.0953578E2,1.9544617E2,2.655469E0,4.119342E2,3.3265967E0,2.7258816E0,1.0181045E1,1.6034036E2,8.548447E1,1.7089162E2,1.9527258E2,1.4263197E1,1.9346072E2,1.9854444E0,1.4784547E0,1.1770144E0,3.9281213E2,1.9122082E1],"tree_param":{"num_deleted":"0","num_feature":"13","num_nodes":"29","size_leaf_vector":"1"}},{"base_weights":[7.009938E-3,3.6443123E-1,-3.216293E-2,-5.180546E-2,6.8962365E-1,-3.257814E-1,1.1773446E0,9.2504615E-1,3.8943652E-2,7.213638E-2,-1.7647041E-2,-1.7138889E-2,7.619898E-2,3.6933344E-2,6.251761E-2,5.9147634E-2,-2.8597163E-3],"categories":[],"categories_nodes":[],"categories_segments":[],"categories_sizes":[],"default_left":[1,1,0,1,0,0,0,0,0,0,0,0,0,0,0,0,0],"id":9,"left_children":[1,3,-1,5,7,9,11,13,15,-1,-1,-1,-1,-1,-1,-1,-1],"loss_changes":[3.1066925E2,1.1678802E2,0E0,1.280978E2,7.415196E1,1.5442459E1,3.7060776E1,2.0635834E1,1.4334104E1,0E0,0E0,0E0,0E0,0E0,0E0,0E0,0E0],"parents":[2147483647,0,0,1,1,3,3,4,4,5,5,6,6,7,7,8,8],"right_children":[2,4,-1,6,8,10,12,14,16,-1,-1,-1,-1,-1,-1,-1,-1],"split_conditions":[3E0,2E0,-3.216293E-2,2E0,3E0,-1.1802601E2,8.930998E1,5.572606E2,2E0,7.213638E-2,-1.7647041E-2,-1.7138889E-2,7.619898E-2,3.6933344E-2,6.251761E-2,5.9147634E-2,-2.8597163E-3],"split_indices":[11,12,0,11,12,5,7,7,11,0,0,0,0,0,0,0,0],"split_type":[0,0,0,0,0,0,0,0,0,0,0,0,0,0,0,0,0],"sum_hessian":[1.3346642E3,8.615508E2,4.731134E2,3.782468E2,4.8330402E2,3.0990445E2,6.834235E1,3.5458865E2,1.2871535E2,3.8989708E0,3.060055E2,1.269244E1,5.564991E1,2.2751057E2,1.2707808E2,9.101839E0,1.1961351E2],"tree_param":{"num_deleted":"0","num_feature":"13","num_nodes":"17","size_leaf_vector":"1"}},{"base_weights":[3.838921E-3,-3.2381278E-2,3.1331003E-1,5.358242E-1,-5.831397E-1,3.0953089E-2,6.6006935E-1,-6.079482E-1,9.055276E-2,4.6936717E-2,-1.1751025E-2,2.2248374E-2,5.5559453E-2,-3.1041149E-2,-7.6577924E-3,-2.6955623E-2,5.9249204E-2],"categories":[],"categories_nodes":[],"categories_segments":[],"categories_sizes":[],"default_left":[0,0,1,0,0,0,1,0,0,0,0,0,0,0,0,0,0],"id":10,"left_children":[1,-1,3,5,7,9,11,13,15,-1,-1,-1,-1,-1,-1,-1,-1],"loss_changes":[2.621598E2,0E0,1.7615787E2,4.431366E1,2.992939E0,3.4175213E1,5.453888E1,8.9839554E-1,5.5409684E0,0E0,0E0,0E0,0E0,0E0,0E0,0E0,0E0],"parents":[2147483647,0,0,2,2,3,3,4,4,5,5,6,6,7,7,8,8],"right_children":[2,-1,4,6,8,10,12,14,16,-1,-1,-1,-1,-1,-1,-1,-1],"split_conditions":[2E0,-3.2381278E-2,4E0,1.26276E5,1.41E2,8.2892E4,3E0,4.00693E5,1.01679E5,4.6936717E-2,-1.1751025E-2,2.2248374E-2,5.5559453E-2,-3.1041149E-2,-7.6577924E-3,-2.6955623E-2,5.9249204E-2],"split_indices":[11,0,11,10,9,10,11,10,10,0,0,0,0,0,0,0,0],"split_type":[0,0,0,0,0,0,0,0,0,0,0,0,0,0,0,0,0],"sum_hessian":[1.2983284E3,4.177772E2,8.805512E2,7.057695E2,1.7478175E2,1.3963026E2,5.661392E2,1.686682E2,6.113551E0,3.1067135E1,1.08563126E2,3.846958E2,1.8144342E2,1.6366975E2,4.998438E0,4.2028856E0,1.9106653E0],"tree_param":{"num_deleted":"0","num_feature":"13","num_nodes":"17","size_leaf_vector":"1"}},{"base_weights":[1.2005905E-3,-3.257708E-2,1.0201807E0,6.2378114E-1,1.621544E0,1.064368E0,-9.992174E-2,8.1791624E-2,9.9203116E-1,6.370279E-2,9.727891E-4,-3.3036727E-2,5.656566E-2,7.013979E-2,-1.9695465E-2],"categories":[],"categories_nodes":[],"categories_segments":[],"categories_sizes":[],"default_left":[1,0,0,0,0,0,0,0,0,0,0,0,0,0,0],"id":11,"left_children":[1,-1,3,5,7,9,11,-1,13,-1,-1,-1,-1,-1,-1],"loss_changes":[8.682061E2,0E0,1.2048468E2,9.857223E1,1.9293213E-1,4.2051773E1,8.206937E1,0E0,4.549585E0,0E0,0E0,0E0,0E0,0E0,0E0],"parents":[2147483647,0,0,2,2,3,3,4,4,5,5,6,6,8,8],"right_children":[2,-1,4,6,8,10,12,-1,14,-1,-1,-1,-1,-1,-1],"split_conditions":[3E0,-3.257708E-2,4E0,2.6266813E-1,5.2786666E-1,6.686768E2,4E1,8.1791624E-2,1.01679E5,6.370279E-2,9.727891E-4,-3.3036727E-2,5.656566E-2,7.013979E-2,-1.9695465E-2],"split_indices":[11,0,11,3,6,1,9,0,10,0,0,0,0,0,0],"split_type":[0,0,0,0,0,0,0,0,0,0,0,0,0,0,0],"sum_hessian":[1.3033162E3,7.9464197E2,5.0867416E2,3.0781177E2,2.0086241E2,1.9103801E2,1.1677376E2,1.9484143E2,6.0209775E0,1.589262E2,3.2111813E1,8.054832E1,3.6225437E1,4.6350737E0,1.3859036E0],"tree_param":{"num_deleted":"0","num_feature":"13","num_nodes":"15","size_leaf_vector":"1"}},{"base_weights":[-2.0107582E-2,9.905331E-1,-6.220338E-1,1.3472627E0,2.2330962E-1,-6.342825E-1,-2.2445473E-1,1.3759493E0,-8.381982E-2,4.8271868E-1,-2.6140955E-1,-2.3197883E-1,-6.366157E-1,1.070513E0,-3.102763E-2,-2.4712458E-2,6.963673E-2,-2.8347626E-2,4.1292828E-2,3.0534392E-2,-1.9734928E-2,-1.7937085E-2,3.5874058E-2,2.829714E-2,-2.6226854E-2,-3.1943183E-2,-2.2924943E-2,7.250684E-2,-1.8338209E-2],"categories":[],"categories_nodes":[],"categories_segments":[],"categories_sizes":[],"default_left":[1,1,0,0,0,0,0,0,0,0,0,0,0,0,0,0,0,0,0,0,0,0,0,0,0,0,0,0,0],"id":12,"left_children":[1,3,5,7,9,11,13,15,17,19,21,23,25,27,-1,-1,-1,-1,-1,-1,-1,-1,-1,-1,-1,-1,-1,-1,-1],"loss_changes":[7.983731E2,1.3377768E2,3.8630676E0,1.3835388E1,1.982771E1,6.0076904E-1,1.4067343E1,1.0975464E1,3.768911E0,1.1740313E1,5.5233755E0,1.7373927E0,2.4291992E-2,4.0715504E0,0E0,0E0,0E0,0E0,0E0,0E0,0E0,0E0,0E0,0E0,0E0,0E0,0E0,0E0,0E0],"parents":[2147483647,0,0,1,1,2,2,3,3,4,4,5,5,6,6,7,7,8,8,9,9,10,10,11,11,12,12,13,13],"right_children":[2,4,6,8,10,12,14,16,18,20,22,24,26,28,-1,-1,-1,-1,-1,-1,-1,-1,-1,-1,-1,-1,-1,-1,-1],"split_conditions":[2E0,2E0,1.6572942E2,3.800165E0,5.18018E2,-1.4056586E-2,1.5188865E1,-1.1802601E2,6.656828E-1,2E0,3.769621E1,3.4867783E1,3.800165E0,3.593391E-1,-3.102763E-2,-2.4712458E-2,6.963673E-2,-2.8347626E-2,4.1292828E-2,3.0534392E-2,-1.9734928E-2,-1.7937085E-2,3.5874058E-2,2.829714E-2,-2.6226854E-2,-3.1943183E-2,-2.2924943E-2,7.250684E-2,-1.8338209E-2],"split_indices":[11,12,5,3,7,3,7,5,5,11,2,2,3,3,0,0,0,0,0,0,0,0,0,0,0,0,0,0,0],"split_type":[0,0,0,0,0,0,0,0,0,0,0,0,0,0,0,0,0,0,0,0,0,0,0,0,0,0,0,0,0],"sum_hessian":[1.3103861E3,4.8888956E2,8.214965E2,3.3320563E2,1.5568391E2,7.963664E2,2.5130138E1,3.2669543E2,6.510197E0,1.0141395E2,5.4269974E1,5.170938E0,7.9119543E2,5.4874153E0,1.9642723E1,2.6530406E0,3.240424E2,4.4980297E0,2.012168E0,8.877092E1,1.2643026E1,4.99381E1,4.331875E0,1.1365787E0,4.0343595E0,7.787797E2,1.2415714E1,4.3337955E0,1.1536196E0],"tree_param":{"num_deleted":"0","num_feature":"13","num_nodes":"29","size_leaf_vector":"1"}},{"base_weights":[1.0494358E-4,3.1737286E-1,-3.1655665E-2,-5.329345E-2,6.0064E-1,-3.2306883E-1,1.1266978E0,8.290385E-1,-2.5169529E-2,-1.8225271E-2,5.5509415E-2,-1.6056769E-2,6.0436722E-2,6.396021E-2,3.7365194E-2,4.7733814E-2,-4.708548E-3],"categories":[],"categories_nodes":[],"categories_segments":[],"categories_sizes":[],"default_left":[1,1,0,1,0,0,0,0,0,0,0,0,0,0,0,0,0],"id":13,"left_children":[1,3,-1,5,7,9,11,13,15,-1,-1,-1,-1,-1,-1,-1,-1],"loss_changes":[2.5974203E2,9.04697E1,0E0,1.19428345E2,6.981641E1,1.853044E1,8.68132E0,1.22079315E1,8.98302E0,0E0,0E0,0E0,0E0,0E0,0E0,0E0,0E0],"parents":[2147483647,0,0,1,1,3,3,4,4,5,5,6,6,7,7,8,8],"right_children":[2,4,-1,6,8,10,12,14,16,-1,-1,-1,-1,-1,-1,-1,-1],"split_conditions":[3E0,2E0,-3.1655665E-2,2E0,3E0,2.22911E0,4.1221018E-4,2.8975372E1,2E0,-1.8225271E-2,5.5509415E-2,-1.6056769E-2,6.0436722E-2,6.396021E-2,3.7365194E-2,4.7733814E-2,-4.708548E-3],"split_indices":[11,12,0,11,12,3,3,2,11,0,0,0,0,0,0,0,0],"split_type":[0,0,0,0,0,0,0,0,0,0,0,0,0,0,0,0,0],"sum_hessian":[1.2908931E3,8.6033124E2,4.3056192E2,3.73025E2,4.873062E2,3.0420288E2,6.882214E1,3.5677216E2,1.3053404E2,2.9637997E2,7.822892E0,3.5341835E0,6.528796E1,5.2572174E1,3.0419998E2,7.74313E0,1.2279092E2],"tree_param":{"num_deleted":"0","num_feature":"13","num_nodes":"17","size_leaf_vector":"1"}},{"base_weights":[-4.6760184E-3,-3.2097753E-2,2.7952212E-1,4.898345E-1,-5.9718573E-1,3.9159272E-2,6.1136943E-1,-6.0880286E-1,-8.562519E-3,1.800125E-2,-1.884681E-2,1.4899219E-2,4.6065956E-2,-3.2031655E-2,-2.5614033E-2],"categories":[],"categories_nodes":[],"categories_segments":[],"categories_sizes":[],"default_left":[0,0,1,0,0,0,1,1,0,0,0,0,0,0,0],"id":14,"left_children":[1,-1,3,5,7,9,11,13,-1,-1,-1,-1,-1,-1,-1],"loss_changes":[2.4039862E2,0E0,1.6955136E2,4.0558273E1,7.7679443E-1,2.1288689E1,5.6401245E1,2.0314026E-1,0E0,0E0,0E0,0E0,0E0,0E0,0E0],"parents":[2147483647,0,0,2,2,3,3,4,4,5,5,6,6,7,7],"right_children":[2,-1,4,6,8,10,12,14,-1,-1,-1,-1,-1,-1,-1],"split_conditions":[2E0,-3.2097753E-2,4E0,2.1736926E-1,5.2786666E-1,2.6E1,3E0,4E0,-8.562519E-3,1.800125E-2,-1.884681E-2,1.4899219E-2,4.6065956E-2,-3.2031655E-2,-2.5614033E-2],"split_indices":[11,0,11,3,6,9,12,12,0,0,0,0,0,0,0],"split_type":[0,0,0,0,0,0,0,0,0,0,0,0,0,0,0],"sum_hessian":[1.325346E3,4.083694E2,9.1697656E2,7.399195E2,1.770571E2,1.5743651E2,5.82483E2,1.7193826E2,5.1188416E0,8.896626E1,6.8470245E1,2.9061166E2,2.918713E2,1.25059906E2,4.6878357E1],"tree_param":{"num_deleted":"0","num_feature":"13","num_nodes":"15","size_leaf_vector":"1"}},{"base_weights":[-1.8005332E-2,-3.225984E-2,9.3376195E-1,1.2228335E0,1.3480243E-1,1.4595355E0,9.4723064E-1,1.0780643E0,-3.2627925E-2,-2.4856485E-2,7.4470066E-2,5.804884E-2,-1.2278309E-2,-3.0833095E-2,6.780567E-2],"categories":[],"categories_nodes":[],"categories_segments":[],"categories_sizes":[],"default_left":[1,0,0,0,0,0,0,0,0,0,0,0,0,0,0],"id":15,"left_children":[1,-1,3,5,7,9,11,13,-1,-1,-1,-1,-1,-1,-1],"loss_changes":[7.6952026E2,0E0,1.18099884E2,2.313916E1,1.0257864E2,1.2449554E1,4.5291077E1,3.0421211E1,0E0,0E0,0E0,0E0,0E0,0E0,0E0],"parents":[2147483647,0,0,2,2,3,3,4,4,5,5,6,6,7,7],"right_children":[2,-1,4,6,8,10,12,14,-1,-1,-1,-1,-1,-1,-1],"split_conditions":[3E0,-3.225984E-2,2.6744783E-1,1.26276E5,1.17733E5,2.8700963E-1,6.661883E2,-3.875851E1,-3.2627925E-2,-2.4856485E-2,7.4470066E-2,5.804884E-2,-1.2278309E-2,-3.0833095E-2,6.780567E-2],"split_indices":[11,0,3,10,10,0,1,5,0,0,0,0,0,0,0],"split_type":[0,0,0,0,0,0,0,0,0,0,0,0,0,0,0],"sum_hessian":[1.2870983E3,7.760333E2,5.1106494E2,3.74894E2,1.3617093E2,1.9936945E2,1.7552458E2,6.1784096E1,7.438683E1,2.7621348E0,1.966073E2,1.4887349E2,2.6651081E1,8.536402E0,5.3247696E1],"tree_param":{"num_deleted":"0","num_feature":"13","num_nodes":"15","size_leaf_vector":"1"}},{"base_weights":[1.0142695E-2,9.4920284E-1,-6.1553895E-1,1.3104274E0,7.7299815E-1,-6.323366E-1,-1.4941627E-1,-2.0082626E-1,1.3341521E0,-4.260941E-2,8.149735E-1,2.7524276E-2,-6.349235E-1,1.1056228E0,-3.0735353E-2,-1.958661E-2,6.5727825E-3,6.749909E-2,2.8325533E-2,4.9365308E-2,-3.08784E-2,4.230743E-2,9.845326E-4,-3.193306E-2,-2.506843E-2,7.209225E-2,-3.6198234E-3],"categories":[],"categories_nodes":[],"categories_segments":[],"categories_sizes":[],"default_left":[1,0,0,0,0,0,0,0,0,0,0,0,0,0,0,0,0,0,0,0,0,0,0,0,0,0,0],"id":16,"left_children":[1,3,5,7,9,11,13,15,17,19,21,-1,23,25,-1,-1,-1,-1,-1,-1,-1,-1,-1,-1,-1,-1,-1],"loss_changes":[7.5457635E2,3.167276E1,5.940277E0,6.2530212E0,1.1934845E1,2.6249084E0,1.7099764E1,2.7029693E-1,1.2339172E0,1.1247183E1,8.180756E0,0E0,5.0445557E-2,3.2581291E0,0E0,0E0,0E0,0E0,0E0,0E0,0E0,0E0,0E0,0E0,0E0,0E0,0E0],"parents":[2147483647,0,0,1,1,2,2,3,3,4,4,5,5,6,6,7,7,8,8,9,9,10,10,12,12,13,13],"right_children":[2,4,6,8,10,12,14,16,18,20,22,-1,24,26,-1,-1,-1,-1,-1,-1,-1,-1,-1,-1,-1,-1,-1],"split_conditions":[2E0,1.9374166E-1,1.6572942E2,2.7814425E1,-1.1802601E2,-1.4056586E-2,1.5188865E1,5.011353E-1,1.4928352E2,2.7216688E-1,8.280252E2,2.7524276E-2,5.39217E-1,3.593391E-1,-3.0735353E-2,-1.958661E-2,6.5727825E-3,6.749909E-2,2.8325533E-2,4.9365308E-2,-3.08784E-2,4.230743E-2,9.845326E-4,-3.193306E-2,-2.506843E-2,7.209225E-2,-3.6198234E-3],"split_indices":[11,3,5,2,5,3,7,0,5,3,7,0,0,3,0,0,0,0,0,0,0,0,0,0,0,0,0],"split_type":[0,0,0,0,0,0,0,0,0,0,0,0,0,0,0,0,0,0,0,0,0,0,0,0,0,0,0],"sum_hessian":[1.2822756E3,5.125272E2,7.6974835E2,1.6592973E2,3.465975E2,7.4262964E2,2.7118685E1,2.449247E0,1.6348048E2,1.6963852E1,3.2963367E2,1.1584256E0,7.4147125E2,6.962468E0,2.0156216E1,1.4419107E0,1.0073361E0,1.5943416E2,4.046332E0,5.8204966E0,1.1143354E1,3.1713788E2,1.249577E1,7.17606E2,2.3865227E1,5.2422915E0,1.7201765E0],"tree_param":{"num_deleted":"0","num_feature":"13","num_nodes":"27","size_leaf_vector":"1"}},{"base_weights":[-9.385828E-3,3.0492216E-1,-6.2539107E-1,-5.1874686E-2,5.7490146E-1,-3.1422596E-2,-3.422838E-1,-3.4267223E-1,1.0930115E0,8.0829275E-1,-3.314357E-2,1.3521909E-2,-2.6659856E-2,6.603426E-2,-1.8386079E-2,-1.6236722E-2,6.9836184E-2,2.1533106E-2,4.6799492E-2,5.537079E-2,-6.1133965E-3],"categories":[],"categories_nodes":[],"categories_segments":[],"categories_sizes":[],"default_left":[1,1,0,1,0,0,0,0,0,0,0,0,0,0,0,0,0,0,0,0,0],"id":17,"left_children":[1,3,5,7,9,-1,11,13,15,17,19,-1,-1,-1,-1,-1,-1,-1,-1,-1,-1],"loss_changes":[2.542536E2,8.379123E1,1.6934204E-1,1.2537908E2,7.02845E1,0E0,9.5618665E-1,1.2992863E1,3.3302856E1,1.6850677E1,1.4191956E1,0E0,0E0,0E0,0E0,0E0,0E0,0E0,0E0,0E0,0E0],"parents":[2147483647,0,0,1,1,2,2,3,3,4,4,6,6,7,7,8,8,9,9,10,10],"right_children":[2,4,6,8,10,-1,12,14,16,18,20,-1,-1,-1,-1,-1,-1,-1,-1,-1,-1],"split_conditions":[3E0,2E0,1.3830518E2,2E0,3E0,-3.1422596E-2,2.8041232E-1,-1.1802601E2,8.930998E1,6.3969275E2,2E0,1.3521909E-2,-2.6659856E-2,6.603426E-2,-1.8386079E-2,-1.6236722E-2,6.9836184E-2,2.1533106E-2,4.6799492E-2,5.537079E-2,-6.1133965E-3],"split_indices":[11,12,5,11,12,0,6,5,7,1,11,0,0,0,0,0,0,0,0,0,0],"split_type":[0,0,0,0,0,0,0,0,0,0,0,0,0,0,0,0,0,0,0,0,0],"sum_hessian":[1.3112042E3,8.685459E2,4.4265833E2,3.7446786E2,4.9407806E2,4.3671686E2,5.94146E0,2.9917822E2,7.528964E1,3.5679642E2,1.3728166E2,1.3125095E0,4.6289506E0,3.6712584E0,2.9550696E2,1.3270928E1,6.201871E1,9.1267944E1,2.6552847E2,9.121735E0,1.2815993E2],"tree_param":{"num_deleted":"0","num_feature":"13","num_nodes":"21","size_leaf_vector":"1"}},{"base_weights":[1.8415961E-2,-3.178021E-2,3.126216E-1,5.090054E-1,-5.72194E-1,6.065104E-1,-9.5477216E-2,-3.1734027E-2,-3.717614E-1,1.5490601E-2,4.429665E-2,7.9000525E-2,-1.2866913E-2,-3.1283945E-2,5.5818327E-2],"categories":[],"categories_nodes":[],"categories_segments":[],"categories_sizes":[],"default_left":[0,0,1,0,1,0,0,0,0,0,0,0,0,0,0],"id":18,"left_children":[1,-1,3,5,7,9,11,-1,13,-1,-1,-1,-1,-1,-1],"loss_changes":[2.5034258E2,0E0,1.5621426E2,4.337126E1,1.811245E0,5.21985E1,2.8322578E1,0E0,1.6289795E1,0E0,0E0,0E0,0E0,0E0,0E0],"parents":[2147483647,0,0,2,2,3,3,4,4,5,5,6,6,8,8],"right_children":[2,-1,4,6,8,10,12,-1,14,-1,-1,-1,-1,-1,-1],"split_conditions":[2E0,-3.178021E-2,4E0,4E0,4E0,3E0,3.9480167E2,-3.1734027E-2,4.1333838E2,1.5490601E-2,4.429665E-2,7.9000525E-2,-1.2866913E-2,-3.1283945E-2,5.5818327E-2],"split_indices":[11,0,11,12,12,12,1,0,7,0,0,0,0,0,0],"split_type":[0,0,0,0,0,0,0,0,0,0,0,0,0,0,0],"sum_hessian":[1.2990131E3,4.026842E2,8.9632886E2,7.338716E2,1.6245726E2,6.319351E2,1.0193648E2,1.2219532E2,4.026194E1,3.0751553E2,3.244196E2,8.208238E0,9.372824E1,3.4888508E1,5.373432E0],"tree_param":{"num_deleted":"0","num_feature":"13","num_nodes":"15","size_leaf_vector":"1"}},{"base_weights":[-7.67422E-3,-3.1951364E-2,8.883432E-1,5.414706E-1,7.089187E-2,7.829025E-1,-3.2614086E-2,2.5073161E-2,6.522372E-2],"categories":[],"categories_nodes":[],"categories_segments":[],"categories_sizes":[],"default_left":[1,0,0,0,0,0,0,0,0],"id":19,"left_children":[1,-1,3,5,-1,7,-1,-1,-1],"loss_changes":[7.324457E2,0E0,9.753119E1,9.417386E1,0E0,3.9092026E1,0E0,0E0,0E0],"parents":[2147483647,0,0,2,2,3,3,5,5],"right_children":[2,-1,4,6,-1,8,-1,-1,-1],"split_conditions":[3E0,-3.1951364E-2,4E0,2.48636E5,7.089187E-2,4E0,-3.2614086E-2,2.5073161E-2,6.522372E-2],"split_indices":[11,0,11,10,0,12,0,0,0],"split_type":[0,0,0,0,0,0,0,0,0],"sum_hessian":[1.2927488E3,7.585471E2,5.3420166E2,3.2398264E2,2.1021904E2,2.6976736E2,5.421526E1,1.7649336E2,9.3274025E1],"tree_param":{"num_deleted":"0","num_feature":"13","num_nodes":"9","size_leaf_vector":"1"}},{"base_weights":[-5.1887725E-3,9.204699E-1,-5.9360266E-1,1.1997932E0,2.4683648E-1,-6.0996956E-1,-1.1251577E-1,-2.688986E-2,1.22013E0,3.9603955E-1,-1.7746368E-1,-6.214789E-1,3.932879E-2,5.645877E-1,-3.0109385E-2,2.0804454E-2,6.2359165E-2,5.1995616E-2,1.2786505E-2,-2.7052892E-2,1.0765607E-2,-3.1371906E-2,-2.091382E-2,6.168632E-2,-2.1291291E-2,-2.6113061E-2,6.0297277E-2],"categories":[],"categories_nodes":[],"categories_segments":[],"categories_sizes":[],"default_left":[0,1,0,0,0,0,0,0,0,0,0,0,0,0,0,0,0,0,0,0,0,0,0,0,0,0,0],"id":20,"left_children":[1,3,5,7,9,11,13,-1,15,17,19,21,23,25,-1,-1,-1,-1,-1,-1,-1,-1,-1,-1,-1,-1,-1],"loss_changes":[7.237577E2,9.6872925E1,6.3279724E0,1.3546692E1,9.73257E0,5.8939514E0,9.608596E0,0E0,7.3308105E0,9.963266E0,5.885761E0,6.7214966E-1,8.6481285E0,9.167479E0,0E0,0E0,0E0,0E0,0E0,0E0,0E0,0E0,0E0,0E0,0E0,0E0,0E0],"parents":[2147483647,0,0,1,1,2,2,3,3,4,4,5,5,6,6,8,8,9,9,10,10,11,11,12,12,13,13],"right_children":[2,4,6,8,10,12,14,-1,16,18,20,22,24,26,-1,-1,-1,-1,-1,-1,-1,-1,-1,-1,-1,-1,-1],"split_conditions":[2E0,2E0,1.6572942E2,-1.1802601E2,9.872856E2,8.00001E0,3.5294774E-1,-2.688986E-2,3.055995E-1,3.0757838E-1,5.217611E-1,5.39217E-1,2E0,3.9223605E-1,-3.0109385E-2,2.0804454E-2,6.2359165E-2,5.1995616E-2,1.2786505E-2,-2.7052892E-2,1.0765607E-2,-3.1371906E-2,-2.091382E-2,6.168632E-2,-2.1291291E-2,-2.6113061E-2,6.0297277E-2],"split_indices":[11,12,5,5,1,11,6,0,6,6,6,0,12,0,0,0,0,0,0,0,0,0,0,0,0,0,0],"split_type":[0,0,0,0,0,0,0,0,0,0,0,0,0,0,0,0,0,0,0,0,0,0,0,0,0,0,0],"sum_hessian":[1.3267961E3,5.154133E2,8.1138275E2,3.637872E2,1.5162616E2,7.844281E2,2.6954662E1,3.9141421E0,3.5987305E2,1.1222826E2,3.9397907E1,7.7080774E2,1.3620367E1,1.1248117E1,1.5706546E1,1.2247597E1,3.4762546E2,1.89332E1,9.329505E1,2.0262918E1,1.9134989E1,7.4681836E2,2.3989365E1,3.3545225E0,1.0265845E1,4.2432213E0,7.0048957E0],"tree_param":{"num_deleted":"0","num_feature":"13","num_nodes":"27","size_leaf_vector":"1"}},{"base_weights":[1.2966756E-2,3.0776858E-1,-6.1805826E-1,-2.6792236E-2,5.629229E-1,-3.0958975E-2,-8.557283E-3,-3.0012208E-1,1.0156664E0,7.3930514E-1,4.540439E-2,-1.7429201E-2,4.0319275E-2,-1.4232704E-2,6.398424E-2,3.0098936E-2,4.9557433E-2,5.6814432E-2,-2.4669007E-3],"categories":[],"categories_nodes":[],"categories_segments":[],"categories_sizes":[],"default_left":[1,1,0,1,0,0,0,0,0,0,0,0,0,0,0,0,0,0,0],"id":21,"left_children":[1,3,5,7,9,-1,-1,11,13,15,17,-1,-1,-1,-1,-1,-1,-1,-1],"loss_changes":[2.3772305E2,7.436402E1,9.793091E-2,1.0795183E2,4.507408E1,0E0,0E0,1.6372799E1,2.73853E1,1.2147339E1,1.314843E1,0E0,0E0,0E0,0E0,0E0,0E0,0E0,0E0],"parents":[2147483647,0,0,1,1,2,2,3,3,4,4,7,7,8,8,9,9,10,10],"right_children":[2,4,6,8,10,-1,-1,12,14,16,18,-1,-1,-1,-1,-1,-1,-1,-1],"split_conditions":[3E0,2E0,2.22911E0,2E0,3E0,-3.0958975E-2,-8.557283E-3,1.4196529E0,8.930998E1,5.713872E2,2E0,-1.7429201E-2,4.0319275E-2,-1.4232704E-2,6.398424E-2,3.0098936E-2,4.9557433E-2,5.6814432E-2,-2.4669007E-3],"split_indices":[11,12,3,11,12,0,0,3,7,7,11,0,0,0,0,0,0,0,0],"split_type":[0,0,0,0,0,0,0,0,0,0,0,0,0,0,0,0,0,0,0],"sum_hessian":[1.2758706E3,8.69957E2,4.0591367E2,3.767949E2,4.931621E2,4.0451334E2,1.4003177E0,2.9908713E2,7.770775E1,3.674859E2,1.25676216E2,2.8719382E2,1.1893305E1,1.3101788E1,6.4605965E1,2.4000507E2,1.27480835E2,9.164201E0,1.1651202E2],"tree_param":{"num_deleted":"0","num_feature":"13","num_nodes":"19","size_leaf_vector":"1"}},{"base_weights":[3.3832362E-3,-4.917068E-1,2.4472663E-1,3.5126558E-1,-5.257104E-1,-2.7024776E-1,4.29038E-1,6.8225145E-2,-2.0019072E-1,5.6439007E-5,-5.498929E-1,1.0673656E0,-3.589575E-1,8.230191E-2,8.373352E-1,4.2784162E-2,-2.87449E-2,5.5318158E-2,-1.5552886E-2,-2.8033871E-2,-1.6683845E-2,-1.7588152E-2,6.0965605E-2,-2.3691306E-2,-2.505353E-3,1.11473575E-2,-1.4747663E-2,2.3817904E-2,6.0128283E-2],"categories":[],"categories_nodes":[],"categories_segments":[],"categories_sizes":[],"default_left":[1,0,0,0,0,0,0,0,0,0,0,0,0,0,0,0,0,0,0,0,0,0,0,0,0,0,0,0,0],"id":22,"left_children":[1,3,5,7,9,11,13,-1,15,17,19,21,23,25,27,-1,-1,-1,-1,-1,-1,-1,-1,-1,-1,-1,-1,-1,-1],"loss_changes":[1.5469252E2,1.2346313E1,8.2726105E1,9.80019E0,5.190422E0,2.7676374E1,9.072652E1,0E0,5.2053432E0,6.866752E0,7.229614E-1,3.5679169E0,7.6555176E0,1.8526348E1,3.8242813E1,0E0,0E0,0E0,0E0,0E0,0E0,0E0,0E0,0E0,0E0,0E0,0E0,0E0,0E0],"parents":[2147483647,0,0,1,1,2,2,3,3,4,4,5,5,6,6,8,8,9,9,10,10,11,11,12,12,13,13,14,14],"right_children":[2,4,6,8,10,12,14,-1,16,18,20,22,24,26,28,-1,-1,-1,-1,-1,-1,-1,-1,-1,-1,-1,-1,-1,-1],"split_conditions":[2E0,4.1221018E-4,1.26276E5,3.4804844E1,2.603277E-1,3.1397605E-1,3E0,6.8225145E-2,3.5471573E-1,-2.363077E-2,5.19647E5,3.6243813E1,2.6744783E-1,3.571883E-1,2.6479298E-1,4.2784162E-2,-2.87449E-2,5.5318158E-2,-1.5552886E-2,-2.8033871E-2,-1.6683845E-2,-1.7588152E-2,6.0965605E-2,-2.3691306E-2,-2.505353E-3,1.11473575E-2,-1.4747663E-2,2.3817904E-2,6.0128283E-2],"split_indices":[12,3,10,2,0,0,12,0,0,4,10,2,3,3,3,0,0,0,0,0,0,0,0,0,0,0,0,0,0],"split_type":[0,0,0,0,0,0,0,0,0,0,0,0,0,0,0,0,0,0,0,0,0,0,0,0,0,0,0,0,0],"sum_hessian":[1.2926349E3,4.2328134E2,8.693536E2,1.6050426E1,4.0723093E2,2.290134E2,6.403402E2,5.137148E0,1.0913279E1,1.7950735E1,3.8928018E2,1.3557278E1,2.1545612E2,3.4692474E2,2.9341544E2,2.5222678E0,8.39101E0,3.3790095E0,1.4571725E1,3.6926862E2,2.0011593E1,1.1840063E0,1.2373271E1,1.5665744E2,5.8798676E1,2.5300899E2,9.391576E1,1.4872585E2,1.446896E2],"tree_param":{"num_deleted":"0","num_feature":"13","num_nodes":"29","size_leaf_vector":"1"}},{"base_weights":[-1.807447E-2,9.577888E-1,-3.0462143E-1,-3.101105E-2,1.0473938E0,-5.4199934E-1,6.258268E-1,-3.0359117E-2,1.1083568E0,5.274595E-1,-5.9286195E-1,1.1580096E0,-5.029431E-2,5.7634395E-2,-2.750285E-2,-2.9708717E-2,5.1815342E-2,-3.1036234E-2,3.7486237E-2,-2.8517246E-2,6.273914E-2,-1.750025E-2,5.5736776E-2],"categories":[],"categories_nodes":[],"categories_segments":[],"categories_sizes":[],"default_left":[0,0,0,0,0,0,0,0,0,0,1,0,1,0,0,0,0,0,0,0,0,0,0],"id":23,"left_children":[1,3,5,-1,7,9,11,-1,13,15,17,19,21,-1,-1,-1,-1,-1,-1,-1,-1,-1,-1],"loss_changes":[3.5660324E2,4.1579895E1,2.1806024E2,0E0,2.8339783E1,4.3063156E1,7.232195E1,0E0,2.0108826E1,2.1282227E1,2.8548065E1,1.9518845E1,3.1610594E1,0E0,0E0,0E0,0E0,0E0,0E0,0E0,0E0,0E0,0E0],"parents":[2147483647,0,0,1,1,2,2,4,4,5,5,6,6,8,8,9,9,10,10,11,11,12,12],"right_children":[2,4,6,-1,8,10,12,-1,14,16,18,20,22,-1,-1,-1,-1,-1,-1,-1,-1,-1,-1],"split_conditions":[1.26276E5,3.1397605E-1,2E0,-3.101105E-2,-1.0377045E2,4.2705765E0,3.7984294E-1,-3.0359117E-2,5.39217E-1,8.00001E0,4E0,-6.799647E1,4E0,5.7634395E-2,-2.750285E-2,-2.9708717E-2,5.1815342E-2,-3.1036234E-2,3.7486237E-2,-2.8517246E-2,6.273914E-2,-1.750025E-2,5.5736776E-2],"split_indices":[10,0,8,0,5,7,6,0,0,12,12,5,12,0,0,0,0,0,0,0,0,0,0],"split_type":[0,0,0,0,0,0,0,0,0,0,0,0,0,0,0,0,0,0,0,0,0,0,0],"sum_hessian":[1.2732219E3,2.884693E2,9.8475256E2,1.5181966E1,2.7328732E2,7.849197E2,1.998329E2,9.393091E0,2.6389426E2,3.520994E1,7.497097E2,1.114201E2,8.8412796E1,2.5732077E2,6.5734873E0,1.0936133E1,2.4273808E1,7.34994E2,1.471569E1,5.6483154E0,1.0577178E2,7.087847E1,1.7534325E1],"tree_param":{"num_deleted":"0","num_feature":"13","num_nodes":"23","size_leaf_vector":"1"}},{"base_weights":[5.660347E-3,8.6772364E-1,-6.0037905E-1,1.1395547E0,2.1050937E-1,-6.1434656E-1,-2.0535405E-1,-2.640061E-2,1.1574782E0,4.5573688E-1,-2.2681423E-1,-3.127895E-2,-5.4305947E-1,9.3655217E-1,-3.0221207E-2,-1.5792431E-2,5.856782E-2,-1.4101395E-2,2.9324317E-2,-1.4714323E-2,4.1870244E-2,-3.259251E-3,-3.1129677E-2,6.413491E-2,-1.9269792E-2],"categories":[],"categories_nodes":[],"categories_segments":[],"categories_sizes":[],"default_left":[1,1,0,0,0,0,0,0,0,0,0,0,0,0,0,0,0,0,0,0,0,0,0,0,0],"id":24,"left_children":[1,3,5,7,9,11,13,-1,15,17,19,-1,21,23,-1,-1,-1,-1,-1,-1,-1,-1,-1,-1,-1],"loss_changes":[6.7339056E2,9.4815216E1,4.049835E0,1.1854218E1,1.693057E1,2.4517822E-1,1.3029271E1,0E0,7.9859314E0,9.895088E0,4.342283E0,0E0,4.026821E0,3.9148102E0,0E0,0E0,0E0,0E0,0E0,0E0,0E0,0E0,0E0,0E0,0E0],"parents":[2147483647,0,0,1,1,2,2,3,3,4,4,5,5,6,6,8,8,9,9,10,10,12,12,13,13],"right_children":[2,4,6,8,10,12,14,-1,16,18,20,-1,22,24,-1,-1,-1,-1,-1,-1,-1,-1,-1,-1,-1],"split_conditions":[2E0,2E0,1.6572942E2,-1.1802601E2,5.18018E2,8.959751E2,1.5188865E1,-2.640061E-2,2.6283938E-1,5.168755E2,5.500996E-2,-3.127895E-2,2.3683176E2,2E0,-3.0221207E-2,-1.5792431E-2,5.856782E-2,-1.4101395E-2,2.9324317E-2,-1.4714323E-2,4.1870244E-2,-3.259251E-3,-3.1129677E-2,6.413491E-2,-1.9269792E-2],"split_indices":[11,12,5,5,7,1,7,0,6,1,4,0,7,12,0,0,0,0,0,0,0,0,0,0,0],"split_type":[0,0,0,0,0,0,0,0,0,0,0,0,0,0,0,0,0,0,0,0,0,0,0,0,0],"sum_hessian":[1.286926E3,5.310706E2,7.558554E2,3.751645E2,1.5590611E2,7.2950586E2,2.634953E1,3.6868606E0,3.714776E2,9.986507E1,5.604105E1,6.2348944E2,1.0601643E2,6.475003E0,1.9874527E1,3.26344E0,3.6821417E2,1.4859893E1,8.500517E1,5.338018E1,2.6608691E0,1.538663E1,9.062981E1,5.154906E0,1.3200972E0],"tree_param":{"num_deleted":"0","num_feature":"13","num_nodes":"25","size_leaf_vector":"1"}},{"base_weights":[2.301438E-2,3.365709E-1,-3.705215E-1,-1.3435137E-2,5.514548E-1,-4.0736535E-1,9.284596E-1,-8.637499E-2,1.0937446E0,4.1898406E-1,8.7566227E-1,-2.2671841E-1,-5.748132E-1,-2.2904886E-2,1.2103169E0,-1.796926E-2,4.6155285E-3,4.399386E-3,6.0286928E-2,1.696997E-2,5.0953418E-2,3.1112824E-2,6.351764E-2,-1.3411348E-2,3.873737E-2,-2.9777167E-2,3.5339862E-2,7.249477E-2,-6.1204447E-3],"categories":[],"categories_nodes":[],"categories_segments":[],"categories_sizes":[],"default_left":[0,0,0,0,0,0,0,0,0,0,0,0,0,0,0,0,0,0,0,0,0,0,0,0,0,0,0,0,0],"id":25,"left_children":[1,3,5,7,9,11,13,15,17,19,21,23,25,-1,27,-1,-1,-1,-1,-1,-1,-1,-1,-1,-1,-1,-1,-1,-1],"loss_changes":[1.5719934E2,5.333042E1,2.7416542E1,2.1953331E1,1.8500565E1,1.6508568E1,6.7633047E0,1.2466493E1,1.7865448E0,1.464016E1,1.1863136E1,1.1275876E1,7.9877396E0,0E0,4.4808216E0,0E0,0E0,0E0,0E0,0E0,0E0,0E0,0E0,0E0,0E0,0E0,0E0,0E0,0E0],"parents":[2147483647,0,0,1,1,2,2,3,3,4,4,5,5,6,6,7,7,8,8,9,9,10,10,11,11,12,12,14,14],"right_children":[2,4,6,8,10,12,14,16,18,20,22,24,26,-1,28,-1,-1,-1,-1,-1,-1,-1,-1,-1,-1,-1,-1,-1,-1],"split_conditions":[3E0,2E0,1.134876E3,1.3274655E0,3.3565187E-1,1E0,1.4616145E-1,2.3746324E-1,-4.6787817E-2,7.095729E2,5.18018E2,5.39217E-1,1.4196529E0,-2.2904886E-2,3.0326485E1,-1.796926E-2,4.6155285E-3,4.399386E-3,6.0286928E-2,1.696997E-2,5.0953418E-2,3.1112824E-2,6.351764E-2,-1.3411348E-2,3.873737E-2,-2.9777167E-2,3.5339862E-2,7.249477E-2,-6.1204447E-3],"split_indices":[12,12,1,3,3,8,3,3,4,7,7,0,3,0,2,0,0,0,0,0,0,0,0,0,0,0,0,0,0],"split_type":[0,0,0,0,0,0,0,0,0,0,0,0,0,0,0,0,0,0,0,0,0,0,0,0,0,0,0,0,0],"sum_hessian":[1.2719342E3,7.0798206E2,5.6395215E2,2.696727E2,4.3830933E2,5.4906506E2,1.4887104E1,2.5387E2,1.5802704E1,3.1279434E2,1.2551499E2,2.6525513E2,2.8380994E2,2.4093523E0,1.2477752E1,1.00027954E2,1.5384204E2,1.7622776E0,1.4040426E1,2.775505E2,3.524384E1,7.800771E1,4.7507275E1,2.5540147E2,9.853664E0,2.7981915E2,3.9907699E0,1.05019455E1,1.9758066E0],"tree_param":{"num_deleted":"0","num_feature":"13","num_nodes":"29","size_leaf_vector":"1"}},{"base_weights":[5.975822E-3,-3.1272564E-2,2.681509E-1,4.312998E-1,-5.515572E-1,-5.8939304E-2,5.424677E-1,-5.7922965E-1,1.2263313E-1,3.966888E-2,-1.5135861E-2,1.2837395E-2,4.3935917E-2,-3.0428043E-2,-1.6476989E-2,-2.5696192E-2,5.6431152E-2],"categories":[],"categories_nodes":[],"categories_segments":[],"categories_sizes":[],"default_left":[0,0,1,0,0,0,1,0,0,0,0,0,0,0,0,0,0],"id":26,"left_children":[1,-1,3,5,7,9,11,13,15,-1,-1,-1,-1,-1,-1,-1,-1],"loss_changes":[2.1639857E2,0E0,1.23762825E2,4.2044983E1,2.9396782E0,3.0035154E1,6.0156326E1,8.8243484E-1,4.9906626E0,0E0,0E0,0E0,0E0,0E0,0E0,0E0,0E0],"parents":[2147483647,0,0,2,2,3,3,4,4,5,5,6,6,7,7,8,8],"right_children":[2,-1,4,6,8,10,12,14,16,-1,-1,-1,-1,-1,-1,-1,-1],"split_conditions":[2E0,-3.1272564E-2,4E0,1.25063E5,1.41E2,8.2892E4,3E0,2.99284E5,1.01679E5,3.966888E-2,-1.5135861E-2,1.2837395E-2,4.3935917E-2,-3.0428043E-2,-1.6476989E-2,-2.5696192E-2,5.6431152E-2],"split_indices":[11,0,11,10,9,10,12,10,10,0,0,0,0,0,0,0,0],"split_type":[0,0,0,0,0,0,0,0,0,0,0,0,0,0,0,0,0],"sum_hessian":[1.3051802E3,3.8252194E2,9.226582E2,7.6989716E2,1.5276105E2,1.4239954E2,6.274976E2,1.4687341E2,5.8876386E0,3.1169075E1,1.1123046E2,3.4019217E2,2.8730545E2,1.3014761E2,1.6725794E1,3.9055026E0,1.9821359E0],"tree_param":{"num_deleted":"0","num_feature":"13","num_nodes":"17","size_leaf_vector":"1"}},{"base_weights":[1.32963145E-2,-3.138758E-2,7.98569E-1,1.041573E0,1.9525517E-2,8.447029E-1,1.2536615E0,-3.5443002E-1,6.133656E-2,4.7111712E-2,-3.1051898E-2,6.358232E-2,3.294046E-2,-2.208679E-2,4.8758533E-2],"categories":[],"categories_nodes":[],"categories_segments":[],"categories_sizes":[],"default_left":[1,0,0,0,0,0,0,0,0,0,0,0,0,0,0],"id":27,"left_children":[1,-1,3,5,7,9,11,13,-1,-1,-1,-1,-1,-1,-1],"loss_changes":[6.540211E2,0E0,1.1052075E2,1.7524078E1,6.3569534E1,3.401927E1,1.432251E0,1.2915542E1,0E0,0E0,0E0,0E0,0E0,0E0,0E0],"parents":[2147483647,0,0,2,2,3,3,4,4,5,5,6,6,7,7],"right_children":[2,-1,4,6,8,10,12,14,-1,-1,-1,-1,-1,-1,-1],"split_conditions":[3E0,-3.138758E-2,2.6744783E-1,4E0,4E0,6.3169293E2,5.2786666E-1,2.2E1,6.133656E-2,4.7111712E-2,-3.1051898E-2,6.358232E-2,3.294046E-2,-2.208679E-2,4.8758533E-2],"split_indices":[11,0,3,11,11,7,6,8,0,0,0,0,0,0,0],"split_type":[0,0,0,0,0,0,0,0,0,0,0,0,0,0,0],"sum_hessian":[1.2972184E3,7.143049E2,5.829136E2,4.4406204E2,1.3885152E2,2.3287746E2,2.1118459E2,1.0655151E2,3.2300007E1,2.1868329E2,1.4194161E1,2.0388261E2,7.3019753E0,1.0061273E2,5.938781E0],"tree_param":{"num_deleted":"0","num_feature":"13","num_nodes":"15","size_leaf_vector":"1"}},{"base_weights":[1.2675836E-2,8.040882E-1,-5.9837765E-1,1.0711663E0,1.5213442E-1,-4.665752E-1,-6.136079E-1,1.1045858E0,1.3326667E-1,3.7702772E-1,-2.3643087E-1,5.6207146E-2,-3.0467307E-2,-9.118906E-3,-6.165194E-1,5.7846893E-2,4.4166245E-2,3.8160007E-2,-1.22997565E-2,-1.602783E-2,2.5852842E-2,-1.5822051E-2,4.489128E-2,-3.0972257E-2,-2.0872528E-2],"categories":[],"categories_nodes":[],"categories_segments":[],"categories_sizes":[],"default_left":[1,1,0,0,0,0,0,0,0,0,0,0,0,0,0,0,0,0,0,0,0,0,0,0,0],"id":28,"left_children":[1,3,5,7,9,11,13,15,17,19,21,-1,-1,-1,23,-1,-1,-1,-1,-1,-1,-1,-1,-1,-1],"loss_changes":[5.990764E2,9.381732E1,1.1170349E0,1.1848785E1,1.38976E1,1.8078213E1,6.703491E-1,3.257141E0,3.6053743E0,9.980232E0,5.5970564E0,0E0,0E0,0E0,1.01867676E-1,0E0,0E0,0E0,0E0,0E0,0E0,0E0,0E0,0E0,0E0],"parents":[2147483647,0,0,1,1,2,2,3,3,4,4,5,5,6,6,7,7,8,8,9,9,10,10,14,14],"right_children":[2,4,6,8,10,12,14,16,18,20,22,-1,-1,-1,24,-1,-1,-1,-1,-1,-1,-1,-1,-1,-1],"split_conditions":[2E0,2E0,2E0,1.3274655E0,5.18018E2,1.5188865E1,-1.4056586E-2,2.8848425E-1,3.5371E5,5.168755E2,5.500996E-2,5.6207146E-2,-3.0467307E-2,-9.118906E-3,3.800165E0,5.7846893E-2,4.4166245E-2,3.8160007E-2,-1.22997565E-2,-1.602783E-2,2.5852842E-2,-1.5822051E-2,4.489128E-2,-3.0972257E-2,-2.0872528E-2],"split_indices":[11,12,12,3,7,7,3,3,10,1,4,0,0,0,3,0,0,0,0,0,0,0,0,0,0],"split_type":[0,0,0,0,0,0,0,0,0,0,0,0,0,0,0,0,0,0,0,0,0,0,0,0,0],"sum_hessian":[1.2368022E3,5.387363E2,6.98066E2,3.8171902E2,1.5701732E2,7.558557E1,6.224804E2,3.684139E2,1.3305114E1,9.947373E1,5.7543587E1,5.6591363E0,6.992644E1,4.6013474E0,6.17879E2,2.9450327E2,7.391063E1,4.6197033E0,8.6854105E0,1.641412E1,8.305961E1,5.4425446E1,3.118141E0,6.0684845E2,1.1030595E1],"tree_param":{"num_deleted":"0","num_feature":"13","num_nodes":"25","size_leaf_vector":"1"}},{"base_weights":[-5.3706457E-4,-1.3660087E-1,5.69076E-1,1.831985E-2,-4.990146E-1,1.4164901E-1,7.976478E-1,-3.273769E-1,1.286358E-1,-5.860675E-1,-7.37299E-2,6.995419E-1,-3.1100165E-2,9.477024E-1,3.2604817E-1,4.6578757E-2,-1.7705677E-2,-1.7309185E-2,1.0436351E-2,-2.9713197E-2,-1.2671396E-2,-7.733048E-3,4.2965077E-2,-1.41880615E-2,4.5513745E-2,1.636321E-2,-1.1626217E-2,1.6565781E-2,5.112314E-2,3.547171E-2,-1.7716524E-3],"categories":[],"categories_nodes":[],"categories_segments":[],"categories_sizes":[],"default_left":[0,0,0,0,0,0,0,0,0,0,0,0,0,0,0,0,0,0,0,0,0,0,0,0,0,0,0,0,0,0,0],"id":29,"left_children":[1,3,5,7,9,11,13,15,17,19,21,23,25,27,29,-1,-1,-1,-1,-1,-1,-1,-1,-1,-1,-1,-1,-1,-1,-1,-1],"loss_changes":[9.974359E1,5.8333412E1,2.412989E1,2.783139E1,1.1475014E1,8.471643E0,1.1117172E1,6.273016E0,2.1107115E1,5.5311584E-1,4.211009E0,4.5626364E0,4.9776487E0,5.2815857E0,5.63774E0,0E0,0E0,0E0,0E0,0E0,0E0,0E0,0E0,0E0,0E0,0E0,0E0,0E0,0E0,0E0,0E0],"parents":[2147483647,0,0,1,1,2,2,3,3,4,4,5,5,6,6,7,7,8,8,9,9,10,10,11,11,12,12,13,13,14,14],"right_children":[2,4,6,8,10,12,14,16,18,20,22,24,26,28,30,-1,-1,-1,-1,-1,-1,-1,-1,-1,-1,-1,-1,-1,-1,-1,-1],"split_conditions":[3.3565187E-1,1E0,2.6682986E2,1.9724055E-1,8.0875745E2,3.9099774E-1,3.5808784E1,2.7814425E1,1.20793E5,4.00693E5,2.7073354E-2,1.56736E5,2.6320534E0,3.5228437E-1,-2.9569245E-3,4.6578757E-2,-1.7705677E-2,-1.7309185E-2,1.0436351E-2,-2.9713197E-2,-1.2671396E-2,-7.733048E-3,4.2965077E-2,-1.41880615E-2,4.5513745E-2,1.636321E-2,-1.1626217E-2,1.6565781E-2,5.112314E-2,3.547171E-2,-1.7716524E-3],"split_indices":[3,8,7,3,1,3,2,2,10,10,4,10,5,3,4,0,0,0,0,0,0,0,0,0,0,0,0,0,0,0,0],"split_type":[0,0,0,0,0,0,0,0,0,0,0,0,0,0,0,0,0,0,0,0,0,0,0,0,0,0,0,0,0,0,0],"sum_hessian":[1.2849492E3,1.0378077E3,2.4714154E2,7.2769147E2,3.1011627E2,8.667668E1,1.6046486E2,1.755629E2,5.5212854E2,2.5710962E2,5.300666E1,1.9772377E1,6.6904305E1,1.2096605E2,3.9498814E1,2.9471545E0,1.7261574E2,7.921015E1,4.7291843E2,2.5015906E2,6.9505525E0,4.95435E1,3.4631603E0,3.4284248E0,1.6343952E1,2.3848833E1,4.305547E1,1.3672255E1,1.072938E2,1.8701487E1,2.0797325E1],"tree_param":{"num_deleted":"0","num_feature":"13","num_nodes":"31","size_leaf_vector":"1"}},{"base_weights":[-1.8891232E-2,-2.8090712E-1,4.264406E-1,-4.9800077E-1,-5.016489E-2,-1.3349016E-1,7.382584E-1,8.991967E-3,-5.3655714E-1,-5.232243E-1,1.17366984E-1,6.778199E-2,-2.2844392E-1,8.87165E-1,-1.1960711E-1,5.146677E-2,-1.4525927E-2,-1.1571647E-2,-2.7495047E-2,-3.0107332E-2,-9.520742E-3,3.1736463E-3,5.303582E-2,-2.46393E-3,-3.0609777E-2,5.023268E-2,2.565891E-3,6.781582E-2,-1.5472896E-2],"categories":[],"categories_nodes":[],"categories_segments":[],"categories_sizes":[],"default_left":[1,1,0,0,0,0,0,0,0,0,0,0,0,0,0,0,0,0,0,0,0,0,0,0,0,0,0,0,0],"id":30,"left_children":[1,3,5,7,9,11,13,15,17,19,21,-1,23,25,27,-1,-1,-1,-1,-1,-1,-1,-1,-1,-1,-1,-1,-1,-1],"loss_changes":[1.5332684E2,4.1413986E1,8.508541E1,8.33448E0,3.193117E1,2.5048471E1,4.0064255E1,9.803028E0,1.4851227E0,2.6524963E0,1.5072002E1,0E0,1.1336838E1,2.6134888E1,1.3630406E1,0E0,0E0,0E0,0E0,0E0,0E0,0E0,0E0,0E0,0E0,0E0,0E0,0E0,0E0],"parents":[2147483647,0,0,1,1,2,2,3,3,4,4,5,5,6,6,7,7,8,8,9,9,10,10,12,12,13,13,14,14],"right_children":[2,4,6,8,10,12,14,16,18,20,22,-1,24,26,28,-1,-1,-1,-1,-1,-1,-1,-1,-1,-1,-1,-1,-1,-1],"split_conditions":[3E0,2E0,1.26276E5,4.1221018E-4,2.995337E1,-2.0868847E-2,4E0,3.4804844E1,2.603277E-1,7.05975E2,7E0,6.778199E-2,3.5462223E-2,3.938178E1,2.0616175E-1,5.146677E-2,-1.4525927E-2,-1.1571647E-2,-2.7495047E-2,-3.0107332E-2,-9.520742E-3,3.1736463E-3,5.303582E-2,-2.46393E-3,-3.0609777E-2,5.023268E-2,2.565891E-3,6.781582E-2,-1.5472896E-2],"split_indices":[12,12,10,3,2,4,12,2,0,7,9,0,4,2,3,0,0,0,0,0,0,0,0,0,0,0,0,0,0],"split_type":[0,0,0,0,0,0,0,0,0,0,0,0,0,0,0,0,0,0,0,0,0,0,0,0,0,0,0,0,0],"sum_hessian":[1.312008E3,8.262462E2,4.8576187E2,4.2511697E2,4.0112924E2,1.7395789E2,3.1180396E2,3.0099073E1,3.950179E2,1.0435084E2,2.967784E2,9.631605E0,1.6432628E2,2.6565753E2,4.6146446E1,6.2773333E0,2.3821741E1,1.7319893E1,3.7769803E2,8.369432E1,2.0656513E1,2.817492E2,1.5029199E1,1.1279374E2,5.1532543E1,2.3274095E2,3.2916573E1,4.559126E0,4.158732E1],"tree_param":{"num_deleted":"0","num_feature":"13","num_nodes":"29","size_leaf_vector":"1"}},{"base_weights":[4.735621E-3,-3.11269E-2,7.5770086E-1,4.4643572E-1,1.1956998E0,-3.1800088E-2,5.68635E-1,6.0542196E-2,6.28842E-1,-3.149103E-2,3.249378E-2,5.346143E-2,-2.4526991E-2],"categories":[],"categories_nodes":[],"categories_segments":[],"categories_sizes":[],"default_left":[1,0,0,0,0,0,0,0,0,0,0,0,0],"id":31,"left_children":[1,-1,3,5,7,-1,9,-1,11,-1,-1,-1,-1],"loss_changes":[6.086716E2,0E0,7.931262E1,4.5858467E1,1.322113E0,0E0,3.0552734E1,0E0,4.663348E0,0E0,0E0,0E0,0E0],"parents":[2147483647,0,0,2,2,3,3,4,4,6,6,8,8],"right_children":[2,-1,4,6,8,-1,10,-1,12,-1,-1,-1,-1],"split_conditions":[3E0,-3.11269E-2,4E0,3E0,5.2786666E-1,-3.1800088E-2,3.295481E1,6.0542196E-2,4E0,-3.149103E-2,3.249378E-2,5.346143E-2,-2.4526991E-2],"split_indices":[11,0,11,12,6,0,2,0,12,0,0,0,0],"split_type":[0,0,0,0,0,0,0,0,0,0,0,0,0],"sum_hessian":[1.2866991E3,7.0203076E2,5.8466833E2,3.4296127E2,2.4170708E2,3.4363735E1,3.0859753E2,2.3431117E2,7.3959E0,1.9162424E1,2.8943512E2,5.339888E0,2.0560114E0],"tree_param":{"num_deleted":"0","num_feature":"13","num_nodes":"13","size_leaf_vector":"1"}},{"base_weights":[-8.714459E-3,7.661258E-1,-5.908619E-1,1.0390068E0,6.3858783E-1,-6.062401E-1,-1.4142734E-1,-2.4275775E-1,1.0603725E0,7.1636766E-1,2.3715448E-1,-2.0856054E-1,-6.0874313E-1,9.750895E-1,-2.9603561E-2,5.140536E-3,-2.0851724E-2,5.3538986E-2,1.780213E-2,2.6805535E-2,4.2961873E-2,3.5273977E-2,-1.2949084E-2,-2.5333075E-2,2.7783317E-2,-3.0690685E-2,-2.171895E-2,5.7244714E-2,1.953243E-2],"categories":[],"categories_nodes":[],"categories_segments":[],"categories_sizes":[],"default_left":[1,0,0,0,0,0,0,0,0,0,0,0,0,0,0,0,0,0,0,0,0,0,0,0,0,0,0,0,0],"id":32,"left_children":[1,3,5,7,9,11,13,15,17,19,21,23,25,27,-1,-1,-1,-1,-1,-1,-1,-1,-1,-1,-1,-1,-1,-1,-1],"loss_changes":[5.8077844E2,1.8560272E1,4.9954834E0,5.0318146E0,1.1664566E1,5.803528E-1,1.3471883E1,2.64027E-1,8.771057E-1,7.7034454E0,1.4824073E1,1.6405798E0,3.5717773E-1,3.2157946E-1,0E0,0E0,0E0,0E0,0E0,0E0,0E0,0E0,0E0,0E0,0E0,0E0,0E0,0E0,0E0],"parents":[2147483647,0,0,1,1,2,2,3,3,4,4,5,5,6,6,7,7,8,8,9,9,10,10,11,11,12,12,13,13],"right_children":[2,4,6,8,10,12,14,16,18,20,22,24,26,28,-1,-1,-1,-1,-1,-1,-1,-1,-1,-1,-1,-1,-1,-1,-1],"split_conditions":[2E0,1.9119202E-1,1.6572942E2,2.7814425E1,9.872856E2,-1.4056586E-2,1.5188865E1,2.86603E5,1.4928352E2,7.2966986E2,2.740586E-1,4.5401746E-1,5.39217E-1,3.172631E-1,-2.9603561E-2,5.140536E-3,-2.0851724E-2,5.3538986E-2,1.780213E-2,2.6805535E-2,4.2961873E-2,3.5273977E-2,-1.2949084E-2,-2.5333075E-2,2.7783317E-2,-3.0690685E-2,-2.171895E-2,5.7244714E-2,1.953243E-2],"split_indices":[11,3,5,2,1,3,7,10,5,1,3,0,0,3,0,0,0,0,0,0,0,0,0,0,0,0,0,0,0],"split_type":[0,0,0,0,0,0,0,0,0,0,0,0,0,0,0,0,0,0,0,0,0,0,0,0,0,0,0,0,0],"sum_hessian":[1.2855499E3,5.513651E2,7.341849E2,1.7333968E2,3.7802542E2,7.0955725E2,2.462759E1,2.672114E0,1.7066757E2,3.1601196E2,6.2013466E1,4.96552E0,7.0459174E2,6.7471237E0,1.7880466E1,1.0332947E0,1.6388192E0,1.6766978E2,2.9977877E0,1.4182529E2,1.7418668E2,3.1683784E1,3.0329683E1,3.814594E0,1.150926E0,6.8223206E2,2.235968E1,4.4850664E0,2.2620573E0],"tree_param":{"num_deleted":"0","num_feature":"13","num_nodes":"29","size_leaf_vector":"1"}},{"base_weights":[-7.869909E-3,2.815104E-1,-3.0429972E-2,-2.8530119E-2,5.023212E-1,-2.9504067E-1,9.143291E-1,6.7060673E-1,4.3909875E-4,-2.160859E-2,4.98781E-3,-1.4821018E-2,5.537942E-2,2.7438724E-2,4.38352E-2,4.9228974E-2,-4.090468E-3],"categories":[],"categories_nodes":[],"categories_segments":[],"categories_sizes":[],"default_left":[1,1,0,1,0,0,0,0,0,0,0,0,0,0,0,0,0],"id":33,"left_children":[1,3,-1,5,7,9,11,13,15,-1,-1,-1,-1,-1,-1,-1,-1],"loss_changes":[2.2752176E2,6.0486855E1,0E0,9.2834404E1,4.357689E1,1.5632288E1,1.938015E1,9.2209015E0,1.0648721E1,0E0,0E0,0E0,0E0,0E0,0E0,0E0,0E0],"parents":[2147483647,0,0,1,1,3,3,4,4,5,5,6,6,7,7,8,8],"right_children":[2,4,-1,6,8,10,12,14,16,-1,-1,-1,-1,-1,-1,-1,-1],"split_conditions":[3E0,2E0,-3.0429972E-2,2E0,3E0,2.8848425E-1,8.930998E1,5.572606E2,2E0,-2.160859E-2,4.98781E-3,-1.4821018E-2,5.537942E-2,2.7438724E-2,4.38352E-2,4.9228974E-2,-4.090468E-3],"split_indices":[11,12,0,11,12,3,7,7,11,0,0,0,0,0,0,0,0],"split_type":[0,0,0,0,0,0,0,0,0,0,0,0,0,0,0,0,0],"sum_hessian":[1.3068196E3,8.8232294E2,4.2449667E2,3.673697E2,5.1495325E2,2.8694757E2,8.042212E1,3.8539172E2,1.295615E2,2.1290218E2,7.40454E1,1.0996486E1,6.942564E1,2.4451306E2,1.4087866E2,9.146666E0,1.20414825E2],"tree_param":{"num_deleted":"0","num_feature":"13","num_nodes":"17","size_leaf_vector":"1"}},{"base_weights":[4.003003E-3,-3.0786222E-2,2.50687E-1,4.0759015E-1,-5.568853E-1,-2.7488638E-2,5.02863E-1,-5.7757634E-1,3.3158371E-3,3.8233403E-2,-1.325184E-2,1.0631882E-2,4.225211E-2,-2.9627776E-2,-4.877041E-3,-2.5334919E-2,4.8508525E-2],"categories":[],"categories_nodes":[],"categories_segments":[],"categories_sizes":[],"default_left":[0,0,1,0,0,0,1,0,0,0,0,0,0,0,0,0,0],"id":34,"left_children":[1,-1,3,5,7,9,11,13,15,-1,-1,-1,-1,-1,-1,-1,-1],"loss_changes":[1.9704492E2,0E0,1.1704442E2,3.2035675E1,1.7452583E0,2.649533E1,6.2761963E1,9.852066E-1,3.623603E0,0E0,0E0,0E0,0E0,0E0,0E0,0E0,0E0],"parents":[2147483647,0,0,2,2,3,3,4,4,5,5,6,6,7,7,8,8],"right_children":[2,-1,4,6,8,10,12,14,16,-1,-1,-1,-1,-1,-1,-1,-1],"split_conditions":[2E0,-3.0786222E-2,4E0,1.25063E5,5.2786666E-1,8.2892E4,3E0,4.00693E5,1.01679E5,3.8233403E-2,-1.325184E-2,1.0631882E-2,4.225211E-2,-2.9627776E-2,-4.877041E-3,-2.5334919E-2,4.8508525E-2],"split_indices":[11,0,11,10,6,10,12,10,10,0,0,0,0,0,0,0,0],"split_type":[0,0,0,0,0,0,0,0,0,0,0,0,0,0,0,0,0],"sum_hessian":[1.2869031E3,3.659801E2,9.209229E2,7.715197E2,1.4940321E2,1.3872429E2,6.327955E2,1.4405165E2,5.351568E0,3.1491137E1,1.0723315E2,3.4326804E2,2.895274E2,1.3946532E2,4.5863256E0,3.815061E0,1.536507E0],"tree_param":{"num_deleted":"0","num_feature":"13","num_nodes":"17","size_leaf_vector":"1"}},{"base_weights":[3.086571E-2,-3.087973E-2,7.6709926E-1,9.6769774E-1,1.9309834E-1,7.844076E-1,1.1483761E0,-1.899661E-1,1.1096911E0,4.2960327E-2,-3.1033127E-2,5.800392E-2,3.4329414E-2,-2.1238204E-2,3.1818897E-2,5.914199E-2,-2.1903424E-2],"categories":[],"categories_nodes":[],"categories_segments":[],"categories_sizes":[],"default_left":[1,0,0,0,0,0,0,0,0,0,0,0,0,0,0,0,0],"id":35,"left_children":[1,-1,3,5,7,9,11,13,15,-1,-1,-1,-1,-1,-1,-1,-1],"loss_changes":[6.147372E2,0E0,6.92431E1,1.3888428E1,5.547783E1,2.4163773E1,4.0716553E-1,2.197473E1,5.787262E0,0E0,0E0,0E0,0E0,0E0,0E0,0E0,0E0],"parents":[2147483647,0,0,2,2,3,3,4,4,5,5,6,6,7,7,8,8],"right_children":[2,-1,4,6,8,10,12,14,16,-1,-1,-1,-1,-1,-1,-1,-1],"split_conditions":[3E0,-3.087973E-2,2.6479298E-1,4E0,3.5462223E-2,7.7220966E2,5.2786666E-1,3.8485203E1,6.686768E2,4.2960327E-2,-3.1033127E-2,5.800392E-2,3.4329414E-2,-2.1238204E-2,3.1818897E-2,5.914199E-2,-2.1903424E-2],"split_indices":[11,0,3,11,4,1,6,2,1,0,0,0,0,0,0,0,0],"split_type":[0,0,0,0,0,0,0,0,0,0,0,0,0,0,0,0,0],"sum_hessian":[1.2856359E3,6.836507E2,6.0198517E2,4.4558044E2,1.5640474E2,2.2384308E2,2.2173737E2,1.1086468E2,4.554006E1,2.1289795E2,1.094513E1,2.1478236E2,6.955011E0,8.671219E1,2.4152489E1,4.3710052E1,1.8300042E0],"tree_param":{"num_deleted":"0","num_feature":"13","num_nodes":"17","size_leaf_vector":"1"}},{"base_weights":[-6.8031466E-3,7.3379636E-1,-5.878159E-1,1.0003057E0,6.0742223E-1,-6.0237515E-1,-1.4511526E-1,-2.3412287E-2,1.0215107E0,6.8043935E-1,2.2447371E-1,-8.217425E-3,-6.049925E-1,9.645519E-1,-2.9280934E-2,4.219004E-2,5.3417362E-2,2.2367412E-2,3.9627045E-2,3.2710217E-2,-1.237055E-2,-3.0382974E-2,-1.9893996E-2,5.6371678E-2,3.5660663E-3],"categories":[],"categories_nodes":[],"categories_segments":[],"categories_sizes":[],"default_left":[1,0,0,0,0,0,0,0,0,0,0,0,0,0,0,0,0,0,0,0,0,0,0,0,0],"id":36,"left_children":[1,3,5,7,9,11,13,-1,15,17,19,-1,21,23,-1,-1,-1,-1,-1,-1,-1,-1,-1,-1,-1],"loss_changes":[5.4573016E2,1.8171051E1,4.4933014E0,6.0150604E0,1.049411E1,6.890564E-1,1.2270013E1,0E0,5.5996704E-1,7.9886627E0,1.2829093E1,0E0,1.3565063E-1,9.645643E-1,0E0,0E0,0E0,0E0,0E0,0E0,0E0,0E0,0E0,0E0,0E0],"parents":[2147483647,0,0,1,1,2,2,3,3,4,4,5,5,6,6,8,8,9,9,10,10,12,12,13,13],"right_children":[2,4,6,8,10,12,14,-1,16,18,20,-1,22,24,-1,-1,-1,-1,-1,-1,-1,-1,-1,-1,-1],"split_conditions":[2E0,1.9119202E-1,1.6572942E2,2.7814425E1,9.872856E2,-1.4056586E-2,1.5188865E1,-2.3412287E-2,6.707425E1,3.806899E-1,2.7012873E-1,-8.217425E-3,3.800165E0,3.593391E-1,-2.9280934E-2,4.219004E-2,5.3417362E-2,2.2367412E-2,3.9627045E-2,3.2710217E-2,-1.237055E-2,-3.0382974E-2,-1.9893996E-2,5.6371678E-2,3.5660663E-3],"split_indices":[11,3,5,2,1,3,7,0,7,6,3,0,3,3,0,0,0,0,0,0,0,0,0,0,0],"split_type":[0,0,0,0,0,0,0,0,0,0,0,0,0,0,0,0,0,0,0,0,0,0,0,0,0],"sum_hessian":[1.2662593E3,5.565627E2,7.0969666E2,1.7679848E2,3.7976416E2,6.8675055E2,2.2946117E1,2.2164495E0,1.7458203E2,3.1829733E2,6.1466858E1,4.45805E0,6.822925E2,6.182412E0,1.6763704E1,4.0381176E1,1.3420085E2,1.04987946E2,2.1330937E2,3.1968124E1,2.9498732E1,6.71709E2,1.0583546E1,5.007155E0,1.1752574E0],"tree_param":{"num_deleted":"0","num_feature":"13","num_nodes":"25","size_leaf_vector":"1"}},{"base_weights":[1.364706E-2,2.7985775E-1,-5.995443E-1,-5.869138E-2,5.2178943E-1,-6.0298616E-1,-3.410147E-1,-3.0364186E-1,8.0555636E-1,6.673312E-1,5.304209E-2,-3.0206552E-2,-8.98099E-3,1.48777235E-2,-2.619387E-2,-1.9834373E-2,8.706439E-3,-1.349956E-2,5.1538855E-2,2.8143296E-2,4.3679457E-2,5.1062252E-2,-1.7329727E-3],"categories":[],"categories_nodes":[],"categories_segments":[],"categories_sizes":[],"default_left":[1,1,0,1,0,0,0,0,0,0,0,0,0,0,0,0,0,0,0,0,0,0,0],"id":37,"left_children":[1,3,5,7,9,11,13,15,17,19,21,-1,-1,-1,-1,-1,-1,-1,-1,-1,-1,-1,-1],"loss_changes":[2.043115E2,7.150938E1,1.315155E-1,7.743368E1,3.469493E1,7.208252E-2,1.0059342E0,1.2730783E1,1.9849636E1,7.876526E0,1.0369316E1,0E0,0E0,0E0,0E0,0E0,0E0,0E0,0E0,0E0,0E0,0E0,0E0],"parents":[2147483647,0,0,1,1,2,2,3,3,4,4,5,5,6,6,7,7,8,8,9,9,10,10],"right_children":[2,4,6,8,10,12,14,16,18,20,22,-1,-1,-1,-1,-1,-1,-1,-1,-1,-1,-1,-1],"split_conditions":[3E0,2E0,1.3830518E2,2E0,3E0,1.4196529E0,5.6689E4,3.161307E-1,8.930998E1,3.3289397E-1,2E0,-3.0206552E-2,-8.98099E-3,1.48777235E-2,-2.619387E-2,-1.9834373E-2,8.706439E-3,-1.349956E-2,5.1538855E-2,2.8143296E-2,4.3679457E-2,5.1062252E-2,-1.7329727E-3],"split_indices":[11,12,5,11,12,3,10,3,7,3,11,0,0,0,0,0,0,0,0,0,0,0,0],"split_type":[0,0,0,0,0,0,0,0,0,0,0,0,0,0,0,0,0,0,0,0,0,0,0],"sum_hessian":[1.2495886E3,8.716949E2,3.778937E2,3.63619E2,5.0807587E2,3.71614E2,6.2796855E0,2.8382437E2,7.979461E1,3.873756E2,1.2070026E2,3.7018597E2,1.4280419E0,1.2583249E0,5.0213604E0,2.377018E2,4.612259E1,1.378157E1,6.601304E1,2.5961502E2,1.277606E2,9.141031E0,1.1155923E2],"tree_param":{"num_deleted":"0","num_feature":"13","num_nodes":"23","size_leaf_vector":"1"}},{"base_weights":[1.0306776E-2,-3.0698195E-2,2.5773433E-1,4.060994E-1,-5.466932E-1,6.707755E-4,4.978533E-1,-5.6823325E-1,6.1382586E-3,6.1979014E-2,-1.3375423E-2,4.093344E-2,1.6408406E-2,-2.9520933E-2,-2.0265302E-2,-2.5086477E-2,4.7242336E-2],"categories":[],"categories_nodes":[],"categories_segments":[],"categories_sizes":[],"default_left":[0,0,1,0,0,0,0,0,0,0,0,0,0,0,0,0,0],"id":38,"left_children":[1,-1,3,5,7,9,11,13,15,-1,-1,-1,-1,-1,-1,-1,-1],"loss_changes":[1.9615019E2,0E0,1.0875935E2,2.858297E1,1.6948509E0,4.777795E1,3.384044E1,2.5488663E-1,3.4851186E0,0E0,0E0,0E0,0E0,0E0,0E0,0E0,0E0],"parents":[2147483647,0,0,2,2,3,3,4,4,5,5,6,6,7,7,8,8],"right_children":[2,-1,4,6,8,10,12,14,16,-1,-1,-1,-1,-1,-1,-1,-1],"split_conditions":[2E0,-3.0698195E-2,4E0,1.26276E5,5.2786666E-1,8.2892E4,5.9442755E2,2.99284E5,1.01679E5,6.1979014E-2,-1.3375423E-2,4.093344E-2,1.6408406E-2,-2.9520933E-2,-2.0265302E-2,-2.5086477E-2,4.7242336E-2],"split_indices":[11,0,11,10,6,10,1,10,10,0,0,0,0,0,0,0,0],"split_type":[0,0,0,0,0,0,0,0,0,0,0,0,0,0,0,0,0],"sum_hessian":[1.2678704E3,3.5945868E2,9.084116E2,7.673754E2,1.410362E2,1.4180325E2,6.2557214E2,1.3572026E2,5.3159423E0,2.4588655E1,1.172146E2,2.150891E2,4.104831E2,1.1714508E2,1.8575174E1,3.7516854E0,1.5642569E0],"tree_param":{"num_deleted":"0","num_feature":"13","num_nodes":"17","size_leaf_vector":"1"}},{"base_weights":[2.1913175E-2,-3.063432E-2,7.249481E-1,9.1494036E-1,1.8564785E-1,9.367998E-1,-2.9301358E-2,-2.583365E-1,1.067355E0,-2.7067533E-2,4.7415707E-2,-2.1921357E-2,5.714348E-2,5.7235133E-2,-2.3242183E-2],"categories":[],"categories_nodes":[],"categories_segments":[],"categories_sizes":[],"default_left":[1,0,0,0,0,0,0,0,0,0,0,0,0,0,0],"id":39,"left_children":[1,-1,3,5,7,9,-1,11,13,-1,-1,-1,-1,-1,-1],"loss_changes":[5.631328E2,0E0,6.1185547E1,1.5069275E1,6.183466E1,7.9439697E0,0E0,2.7096334E1,6.796673E0,0E0,0E0,0E0,0E0,0E0,0E0],"parents":[2147483647,0,0,2,2,3,3,4,4,5,5,7,7,8,8],"right_children":[2,-1,4,6,8,10,-1,12,14,-1,-1,-1,-1,-1,-1],"split_conditions":[3E0,-3.063432E-2,2.6744783E-1,1.3064128E2,3.7153784E-2,-1.0806277E2,-2.9301358E-2,3.948707E1,5.6204285E2,-2.7067533E-2,4.7415707E-2,-2.1921357E-2,5.714348E-2,5.7235133E-2,-2.3242183E-2],"split_indices":[11,0,3,5,4,5,0,2,7,0,0,0,0,0,0],"split_type":[0,0,0,0,0,0,0,0,0,0,0,0,0,0,0],"sum_hessian":[1.2602219E3,6.6241595E2,5.97806E2,4.41553E2,1.5625299E2,4.355852E2,5.967812E0,1.0439288E2,5.1860115E1,3.0111573E0,4.3257404E2,9.311265E1,1.1280235E1,4.9608696E1,2.251418E0],"tree_param":{"num_deleted":"0","num_feature":"13","num_nodes":"15","size_leaf_vector":"1"}},{"base_weights":[-9.331892E-3,6.803207E-1,-5.7903767E-1,9.207244E-1,1.1801966E-1,-4.5400962E-1,-5.951901E-1,-3.787517E-1,9.351326E-1,3.2736394E-1,-2.7633515E-1,5.1254988E-2,-2.9777696E-2,-3.023363E-2,-3.8663873E-1,6.213755E-3,-2.705538E-2,4.7614746E-2,4.7474853E-3,2.2229148E-2,-2.0063816E-2,-1.9609218E-2,2.9819733E-2,1.5188417E-3,-2.9008893E-2],"categories":[],"categories_nodes":[],"categories_segments":[],"categories_sizes":[],"default_left":[1,1,0,0,0,0,0,0,0,0,0,0,0,0,0,0,0,0,0,0,0,0,0,0,0],"id":40,"left_children":[1,3,5,7,9,11,13,15,17,19,21,-1,-1,-1,23,-1,-1,-1,-1,-1,-1,-1,-1,-1,-1],"loss_changes":[4.787746E2,7.441017E1,1.0773926E0,7.581604E0,1.3814967E1,1.7476948E1,9.2852783E-1,4.7108585E-1,5.4187927E0,9.492764E0,6.117291E0,0E0,0E0,0E0,2.3044972E0,0E0,0E0,0E0,0E0,0E0,0E0,0E0,0E0,0E0,0E0],"parents":[2147483647,0,0,1,1,2,2,3,3,4,4,5,5,6,6,7,7,8,8,9,9,10,10,14,14],"right_children":[2,4,6,8,10,12,14,16,18,20,22,-1,-1,-1,24,-1,-1,-1,-1,-1,-1,-1,-1,-1,-1],"split_conditions":[2E0,2E0,2E0,2.6283938E-1,5.18018E2,1.5188865E1,5.3415847E-1,1.7269583E-1,8.8591766E2,3E0,3.769621E1,5.1254988E-2,-2.9777696E-2,-3.023363E-2,2.3683176E2,6.213755E-3,-2.705538E-2,4.7614746E-2,4.7474853E-3,2.2229148E-2,-2.0063816E-2,-1.9609218E-2,2.9819733E-2,1.5188417E-3,-2.9008893E-2],"split_indices":[11,12,12,6,7,7,0,6,7,12,2,0,0,0,7,0,0,0,0,0,0,0,0,0,0],"split_type":[0,0,0,0,0,0,0,0,0,0,0,0,0,0,0,0,0,0,0,0,0,0,0,0,0],"sum_hessian":[1.2165662E3,5.502597E2,6.6630646E2,3.8501477E2,1.6524495E2,7.956211E1,5.867443E2,3.944812E0,3.8106995E2,1.08054054E2,5.7190895E1,6.403594E0,7.3158516E1,5.594095E2,2.7334862E1,1.0197805E0,2.9250317E0,3.7331097E2,7.758998E0,9.341576E1,1.4638292E1,5.097493E1,6.215967E0,8.932086E0,1.8402777E1],"tree_param":{"num_deleted":"0","num_feature":"13","num_nodes":"25","size_leaf_vector":"1"}},{"base_weights":[1.0330273E-2,2.5452545E-1,-3.005752E-2,-3.8885236E-2,4.5458466E-1,-2.8972235E-1,8.320415E-1,6.025985E-1,1.0097732E-3,-1.6314922E-2,5.1602602E-2,-1.1820147E-2,5.0620932E-2,2.4183512E-2,4.0421657E-2,3.8223613E-2,-3.4331016E-3],"categories":[],"categories_nodes":[],"categories_segments":[],"categories_sizes":[],"default_left":[1,1,0,1,0,0,0,0,0,0,0,0,0,0,0,0,0],"id":41,"left_children":[1,3,-1,5,7,9,11,13,15,-1,-1,-1,-1,-1,-1,-1,-1],"loss_changes":[1.8759483E2,5.2715717E1,0E0,7.995406E1,3.5841293E1,1.4068508E1,1.601371E1,9.462463E0,7.0927095E0,0E0,0E0,0E0,0E0,0E0,0E0,0E0,0E0],"parents":[2147483647,0,0,1,1,3,3,4,4,5,5,6,6,7,7,8,8],"right_children":[2,4,-1,6,8,10,12,14,16,-1,-1,-1,-1,-1,-1,-1,-1],"split_conditions":[3E0,2E0,-3.005752E-2,2E0,3E0,3.800165E0,8.930998E1,5.572606E2,2E0,-1.6314922E-2,5.1602602E-2,-1.1820147E-2,5.0620932E-2,2.4183512E-2,4.0421657E-2,3.8223613E-2,-3.4331016E-3],"split_indices":[11,12,0,11,12,3,7,7,11,0,0,0,0,0,0,0,0],"split_type":[0,0,0,0,0,0,0,0,0,0,0,0,0,0,0,0,0],"sum_hessian":[1.2542974E3,8.9675964E2,3.5753778E2,3.6388477E2,5.328749E2,2.830348E2,8.085E1,4.0151953E2,1.3135533E2,2.761464E2,6.8883715E0,1.1632937E1,6.9217064E1,2.5660608E2,1.4491347E2,1.015078E1,1.21204544E2],"tree_param":{"num_deleted":"0","num_feature":"13","num_nodes":"17","size_leaf_vector":"1"}},{"base_weights":[2.4966942E-2,-3.0277519E-2,2.628394E-1,3.802778E-1,-5.197847E-1,4.5808455E-1,-1.3433892E-1,-3.0171378E-2,-2.5156176E-1,3.4099497E-2,9.84104E-3,1.0620556E-2,-2.5520882E-2,-2.9680992E-2,6.221362E-2],"categories":[],"categories_nodes":[],"categories_segments":[],"categories_sizes":[],"default_left":[0,0,1,0,1,0,0,0,0,0,0,0,0,0,0],"id":42,"left_children":[1,-1,3,5,7,9,11,-1,13,-1,-1,-1,-1,-1,-1],"loss_changes":[1.8790465E2,0E0,8.3797806E1,3.1753014E1,2.520279E0,4.0098526E1,1.3764937E1,0E0,1.6102459E1,0E0,0E0,0E0,0E0,0E0,0E0],"parents":[2147483647,0,0,2,2,3,3,4,4,5,5,6,6,8,8],"right_children":[2,-1,4,6,8,10,12,-1,14,-1,-1,-1,-1,-1,-1],"split_conditions":[2E0,-3.0277519E-2,4E0,4E0,4E0,2.0060324E1,3.7273755E2,-3.0171378E-2,4.1333838E2,3.4099497E-2,9.84104E-3,1.0620556E-2,-2.5520882E-2,-2.9680992E-2,6.221362E-2],"split_indices":[11,0,11,12,12,5,7,0,7,0,0,0,0,0,0],"split_type":[0,0,0,0,0,0,0,0,0,0,0,0,0,0,0],"sum_hessian":[1.2507809E3,3.42195E2,9.085859E2,7.9048236E2,1.181035E2,6.867587E2,1.0372363E2,8.90762E1,2.9027302E1,3.6895264E2,3.178061E2,5.4192528E1,4.95311E1,2.41158E1,4.9115005E0],"tree_param":{"num_deleted":"0","num_feature":"13","num_nodes":"15","size_leaf_vector":"1"}},{"base_weights":[-1.5262936E-2,8.0468756E-1,-3.3786392E-1,-3.0805195E-2,8.563904E-1,-5.1680785E-1,3.9243364E-1,-2.9210776E-2,8.995605E-1,5.7869565E-1,-5.6804526E-1,7.797138E-1,-3.127414E-1,4.633748E-2,-2.605972E-2,4.7384214E-2,-3.133576E-2,-2.9834423E-2,2.6766196E-2,4.5377012E-2,-2.9121537E-2,-3.162973E-2,5.1784582E-2],"categories":[],"categories_nodes":[],"categories_segments":[],"categories_sizes":[],"default_left":[0,0,0,0,0,0,0,0,0,0,1,0,1,0,0,0,0,0,0,0,0,0,0],"id":43,"left_children":[1,3,5,-1,7,9,11,-1,13,15,17,19,21,-1,-1,-1,-1,-1,-1,-1,-1,-1,-1],"loss_changes":[3.244116E2,2.5965698E1,1.1521802E2,0E0,2.1331558E1,4.0031876E1,4.7703133E1,0E0,1.3045563E1,1.4871299E1,2.169107E1,2.0109947E1,2.7533558E1,0E0,0E0,0E0,0E0,0E0,0E0,0E0,0E0,0E0,0E0],"parents":[2147483647,0,0,1,1,2,2,4,4,5,5,6,6,8,8,9,9,10,10,11,11,12,12],"right_children":[2,4,6,-1,8,10,12,-1,14,16,18,20,22,-1,-1,-1,-1,-1,-1,-1,-1,-1,-1],"split_conditions":[1.26276E5,-1.0377045E2,2E0,-3.0805195E-2,2.8279132E-1,4.1221018E-4,4.1519803E-1,-2.9210776E-2,5.39217E-1,2.04026E5,4E0,2.850009E-1,4E0,4.633748E-2,-2.605972E-2,4.7384214E-2,-3.133576E-2,-2.9834423E-2,2.6766196E-2,4.5377012E-2,-2.9121537E-2,-3.162973E-2,5.1784582E-2],"split_indices":[10,5,8,0,0,3,6,0,0,10,12,3,12,0,0,0,0,0,0,0,0,0,0],"split_type":[0,0,0,0,0,0,0,0,0,0,0,0,0,0,0,0,0,0,0,0,0,0,0],"sum_hessian":[1.224403E3,3.4528992E2,8.79113E2,1.1740662E1,3.3354926E2,7.063333E2,1.7277968E2,9.339898E0,3.2420935E2,3.1099644E1,6.752337E2,1.1146029E2,6.131938E1,3.184626E2,5.7467494E0,2.3974586E1,7.125058E0,6.5859595E2,1.6637749E1,1.0220309E2,9.2572E0,4.9991974E1,1.1327409E1],"tree_param":{"num_deleted":"0","num_feature":"13","num_nodes":"23","size_leaf_vector":"1"}},{"base_weights":[-1.6462326E-2,5.1793844E-1,-4.182511E-1,-3.783622E-1,6.224979E-1,-2.624633E-1,-5.8660775E-1,7.139935E-1,-5.7969034E-1,8.571603E-1,4.584091E-1,-9.4870694E-2,-4.701685E-1,3.5506412E-1,-5.972947E-1,-9.281977E-4,4.118639E-2,-2.962469E-2,-4.5085736E-3,-7.6847733E-3,4.5083623E-2,5.8862977E-3,3.1215508E-2,4.4108745E-2,-7.1907565E-3,-2.553074E-2,3.354521E-2,-1.9662494E-2,5.008638E-2,-3.0269219E-2,-2.017764E-2],"categories":[],"categories_nodes":[],"categories_segments":[],"categories_sizes":[],"default_left":[1,0,0,0,0,0,0,0,0,0,0,0,0,0,0,0,0,0,0,0,0,0,0,0,0,0,0,0,0,0,0],"id":44,"left_children":[1,3,5,7,9,11,13,15,17,19,21,23,25,27,29,-1,-1,-1,-1,-1,-1,-1,-1,-1,-1,-1,-1,-1,-1,-1,-1],"loss_changes":[2.687038E2,5.0570633E1,1.8581406E1,1.2890601E1,1.8142303E1,1.2933332E1,3.6589127E0,7.6103973E-1,2.5027084E-1,8.999786E0,1.6058933E1,1.0053956E1,8.014679E0,2.5572855E0,2.870636E-1,0E0,0E0,0E0,0E0,0E0,0E0,0E0,0E0,0E0,0E0,0E0,0E0,0E0,0E0,0E0,0E0],"parents":[2147483647,0,0,1,1,2,2,3,3,4,4,5,5,6,6,7,7,8,8,9,9,10,10,11,11,12,12,13,13,14,14],"right_children":[2,4,6,8,10,12,14,16,18,20,22,24,26,28,30,-1,-1,-1,-1,-1,-1,-1,-1,-1,-1,-1,-1,-1,-1,-1,-1],"split_conditions":[2E0,1.1487817E1,3E0,3.3710537E1,2.0470896E-1,5.18018E2,2.4886851E-1,3.1091073E-1,3.0735776E-1,-5.959112E-3,3.1086657E1,2.2386613E-1,3.7753143E1,2.4190176E-1,4.5525232E-1,-9.281977E-4,4.118639E-2,-2.962469E-2,-4.5085736E-3,-7.6847733E-3,4.5083623E-2,5.8862977E-3,3.1215508E-2,4.4108745E-2,-7.1907565E-3,-2.553074E-2,3.354521E-2,-1.9662494E-2,5.008638E-2,-3.0269219E-2,-2.017764E-2],"split_indices":[12,7,12,2,3,7,0,6,3,3,2,6,2,0,3,0,0,0,0,0,0,0,0,0,0,0,0,0,0,0,0],"split_type":[0,0,0,0,0,0,0,0,0,0,0,0,0,0,0,0,0,0,0,0,0,0,0,0,0,0,0,0,0,0,0],"sum_hessian":[1.2494279E3,5.360986E2,7.133292E2,5.5732433E1,4.8036618E2,3.718236E2,3.415056E2,8.277017E0,4.7455418E1,1.9593582E2,2.8443033E2,2.0658865E2,1.6523495E2,3.4705997E0,3.38035E2,1.1865749E0,7.090441E0,4.604085E1,1.4145644E0,8.160519E0,1.877753E2,9.370786E1,1.9072247E2,9.043105E0,1.9754555E2,1.6011215E2,5.1228E0,1.7905118E0,1.6800877E0,3.2244653E2,1.5588481E1],"tree_param":{"num_deleted":"0","num_feature":"13","num_nodes":"31","size_leaf_vector":"1"}},{"base_weights":[8.169737E-3,2.6401478E-1,-5.9207755E-1,-2.1354401E-2,4.6219268E-1,-2.9663896E-2,-6.7371274E-3,-2.680656E-1,7.6819944E-1,6.079768E-1,2.2769514E-2,6.0719248E-2,-1.5000216E-2,4.543436E-2,1.7588448E-2,1.7853348E-2,3.4327064E-2,-1.608846E-3,5.170963E-2],"categories":[],"categories_nodes":[],"categories_segments":[],"categories_sizes":[],"default_left":[1,1,0,1,0,0,0,0,0,0,0,0,0,0,0,0,0,0,0],"id":45,"left_children":[1,3,5,7,9,-1,-1,11,13,15,17,-1,-1,-1,-1,-1,-1,-1,-1],"loss_changes":[1.9343474E2,4.9954456E1,1.2672424E-1,7.089602E1,3.337677E1,0E0,0E0,1.3491129E1,4.750084E0,7.4692993E0,7.307138E0,0E0,0E0,0E0,0E0,0E0,0E0,0E0,0E0],"parents":[2147483647,0,0,1,1,2,2,3,3,4,4,7,7,8,8,9,9,10,10],"right_children":[2,4,6,8,10,-1,-1,12,14,16,18,-1,-1,-1,-1,-1,-1,-1,-1],"split_conditions":[3E0,2E0,6.20797E5,2E0,3E0,-2.9663896E-2,-6.7371274E-3,-1.1802601E2,1.3383722E2,6.3969275E2,5.260177E-1,6.0719248E-2,-1.5000216E-2,4.543436E-2,1.7588448E-2,1.7853348E-2,3.4327064E-2,-1.608846E-3,5.170963E-2],"split_indices":[11,12,10,11,12,0,0,5,5,1,0,0,0,0,0,0,0,0,0],"split_type":[0,0,0,0,0,0,0,0,0,0,0,0,0,0,0,0,0,0,0],"sum_hessian":[1.2575665E3,8.821329E2,3.7543372E2,3.619008E2,5.2023206E2,3.741544E2,1.2793208E0,2.7624365E2,8.565713E1,3.9034622E2,1.2988582E2,5.0452156E0,2.7119846E2,6.3165443E1,2.2491684E1,9.440179E1,2.9594443E2,1.2411154E2,5.7742805E0],"tree_param":{"num_deleted":"0","num_feature":"13","num_nodes":"19","size_leaf_vector":"1"}},{"base_weights":[4.725451E-3,-3.0037526E-2,2.2720659E-1,3.6723688E-1,-5.461765E-1,-3.3820387E-2,4.589042E-1,-2.9993517E-2,-3.8692054E-1,4.3018516E-2,-1.3434683E-2,1.1326381E-2,3.699979E-2,-2.9668665E-2,5.177467E-2],"categories":[],"categories_nodes":[],"categories_segments":[],"categories_sizes":[],"default_left":[0,0,1,0,1,0,1,0,0,0,0,0,0,0,0],"id":46,"left_children":[1,-1,3,5,7,9,11,-1,13,-1,-1,-1,-1,-1,-1],"loss_changes":[1.691574E2,0E0,9.9649345E1,2.8622017E1,9.7514343E-1,3.0829872E1,4.1206924E1,0E0,1.1895354E1,0E0,0E0,0E0,0E0,0E0,0E0],"parents":[2147483647,0,0,2,2,3,3,4,4,5,5,6,6,8,8],"right_children":[2,-1,4,6,8,10,12,-1,14,-1,-1,-1,-1,-1,-1],"split_conditions":[2E0,-3.0037526E-2,4E0,1.26276E5,4E0,8.2892E4,3E0,-2.9993517E-2,4.1333838E2,4.3018516E-2,-1.3434683E-2,1.1326381E-2,3.699979E-2,-2.9668665E-2,5.177467E-2],"split_indices":[11,0,11,10,12,10,12,0,7,0,0,0,0,0,0],"split_type":[0,0,0,0,0,0,0,0,0,0,0,0,0,0,0],"sum_hessian":[1.2537301E3,3.364341E2,9.1729596E2,7.7711505E2,1.4018088E2,1.4469319E2,6.324219E2,1.02766136E2,3.741474E1,2.954577E1,1.15147415E2,3.4719992E2,2.8522195E2,3.3181534E1,4.2332106E0],"tree_param":{"num_deleted":"0","num_feature":"13","num_nodes":"15","size_leaf_vector":"1"}},{"base_weights":[-7.957492E-3,7.5153804E-1,-3.2838646E-1,-2.9645478E-2,7.953443E-1,-5.6176156E-1,3.2096747E-1,8.3108765E-1,-2.7421046E-2,3.9922795E-1,-5.9111637E-1,-1.8396728E-1,8.284071E-1,4.2311262E-2,-2.8940132E-2,3.6219176E-2,-2.8082663E-2,-3.0357394E-2,2.575401E-2,4.3273274E-2,-2.0670675E-2,4.8772804E-2,-2.9016236E-2],"categories":[],"categories_nodes":[],"categories_segments":[],"categories_sizes":[],"default_left":[0,0,0,0,0,0,0,0,0,0,1,0,0,0,0,0,0,0,0,0,0,0,0],"id":47,"left_children":[1,3,5,-1,7,9,11,13,-1,15,17,19,21,-1,-1,-1,-1,-1,-1,-1,-1,-1,-1],"loss_changes":[2.943372E2,2.1606964E1,1.2907861E2,0E0,1.7168884E1,1.7896942E1,5.7933434E1,7.7322693E0,0E0,6.391242E0,1.1093384E1,2.7772083E1,2.3903404E1,0E0,0E0,0E0,0E0,0E0,0E0,0E0,0E0,0E0,0E0],"parents":[2147483647,0,0,1,1,2,2,4,4,5,5,6,6,7,7,9,9,10,10,11,11,12,12],"right_children":[2,4,6,-1,8,10,12,14,-1,16,18,20,22,-1,-1,-1,-1,-1,-1,-1,-1,-1,-1],"split_conditions":[1.29888E5,2.8700963E-1,1E0,-2.9645478E-2,5.39217E-1,4.1221018E-4,4E0,1.4E2,-2.7421046E-2,2.04026E5,4E0,2.9909217E-1,7.36325E2,4.2311262E-2,-2.8940132E-2,3.6219176E-2,-2.8082663E-2,-3.0357394E-2,2.575401E-2,4.3273274E-2,-2.0670675E-2,4.8772804E-2,-2.9016236E-2],"split_indices":[10,0,9,0,0,3,12,9,0,10,12,0,1,0,0,0,0,0,0,0,0,0,0],"split_type":[0,0,0,0,0,0,0,0,0,0,0,0,0,0,0,0,0,0,0,0,0,0,0],"sum_hessian":[1.2074365E3,3.5786438E2,8.495721E2,1.0896856E1,3.4696753E2,6.250622E2,2.245099E2,3.3834918E2,8.618357E0,1.8153978E1,6.0690826E2,1.1285222E2,1.1165768E2,3.3515057E2,3.1986082E0,1.3747908E1,4.4060707E0,5.98683E2,8.225254E0,1.9749714E1,9.31025E1,1.0138254E2,1.0275145E1],"tree_param":{"num_deleted":"0","num_feature":"13","num_nodes":"23","size_leaf_vector":"1"}},{"base_weights":[-7.1040276E-3,6.536365E-1,-5.742297E-1,8.6410487E-1,1.5493737E-1,-5.903411E-1,-1.4992811E-1,-2.8539011E-2,8.810811E-1,3.699563E-1,7.7158236E-3,-5.931159E-1,-3.5903227E-1,2.9649734E-1,-2.828832E-2,4.4727694E-2,-1.2485764E-2,2.6366645E-2,-5.366675E-3,-5.0231637E-3,2.6247665E-2,-1.6254058E-2,-2.9721638E-2,-2.7217403E-2,3.2563835E-2,-2.4167921E-2,3.0943647E-2],"categories":[],"categories_nodes":[],"categories_segments":[],"categories_sizes":[],"default_left":[1,1,0,0,0,0,0,0,0,0,0,0,0,0,0,0,0,0,0,0,0,0,0,0,0,0,0],"id":48,"left_children":[1,3,5,7,9,11,13,-1,15,17,19,21,23,25,-1,-1,-1,-1,-1,-1,-1,-1,-1,-1,-1,-1,-1],"loss_changes":[4.6498672E2,6.0023315E1,4.4761963E0,1.0315308E1,5.4202547E0,1.9975281E-1,4.9513164E0,0E0,6.2946167E0,5.2849445E0,5.7998977E0,3.0471802E-2,2.255932E0,3.5882983E0,0E0,0E0,0E0,0E0,0E0,0E0,0E0,0E0,0E0,0E0,0E0,0E0,0E0],"parents":[2147483647,0,0,1,1,2,2,3,3,4,4,5,5,6,6,8,8,9,9,10,10,11,11,12,12,13,13],"right_children":[2,4,6,8,10,12,14,-1,16,18,20,22,24,26,-1,-1,-1,-1,-1,-1,-1,-1,-1,-1,-1,-1,-1],"split_conditions":[2E0,2E0,1.6572942E2,-1.1802601E2,-1.0689128E-2,3.800165E0,2E0,-2.8539011E-2,5.621787E0,9.526628E2,1.0352243E0,-1.4056586E-2,9.216901E-3,2.8848425E-1,-2.828832E-2,4.4727694E-2,-1.2485764E-2,2.6366645E-2,-5.366675E-3,-5.0231637E-3,2.6247665E-2,-1.6254058E-2,-2.9721638E-2,-2.7217403E-2,3.2563835E-2,-2.4167921E-2,3.0943647E-2],"split_indices":[11,12,5,5,4,3,12,0,3,1,3,3,4,3,0,0,0,0,0,0,0,0,0,0,0,0,0],"split_type":[0,0,0,0,0,0,0,0,0,0,0,0,0,0,0,0,0,0,0,0,0,0,0,0,0,0,0],"sum_hessian":[1.2388798E3,5.721421E2,6.667376E2,4.0182523E2,1.703169E2,6.419697E2,2.4767868E1,4.3169885E0,3.975082E2,6.86052E1,1.0171169E2,6.32814E2,9.155686E0,1.2083042E1,1.2684827E1,3.9303436E2,4.473874E0,5.15145E1,1.7090706E1,8.478489E1,1.6926804E1,4.3055863E0,6.285084E2,8.126323E0,1.0293635E0,3.387941E0,8.695101E0],"tree_param":{"num_deleted":"0","num_feature":"13","num_nodes":"27","size_leaf_vector":"1"}},{"base_weights":[1.6771642E-2,2.6087776E-1,-3.3254847E-1,1.3166456E-1,6.627996E-1,-3.7361115E-1,9.1012585E-1,-1.2174597E-1,3.0562857E-1,6.912917E-1,-4.3410185E-1,-4.6675882E-1,-5.5445407E-2,-1.9044144E-2,1.0690935E0,-1.7000144E-2,2.5865363E-3,-2.1399207E-2,2.0143574E-2,4.6871852E-2,2.916497E-2,-2.8461948E-2,-3.3513822E-3,-6.240213E-3,-2.6166892E-2,-5.5516325E-3,3.524788E-2,6.2393934E-2,-5.5206637E-3],"categories":[],"categories_nodes":[],"categories_segments":[],"categories_sizes":[],"default_left":[0,0,0,0,0,0,0,0,0,0,0,0,0,0,0,0,0,0,0,0,0,0,0,0,0,0,0,0,0],"id":49,"left_children":[1,3,5,7,9,11,13,15,17,19,21,23,25,-1,27,-1,-1,-1,-1,-1,-1,-1,-1,-1,-1,-1,-1,-1,-1],"loss_changes":[1.05844536E2,3.7857224E1,2.6395618E1,2.4465889E1,5.8474655E0,1.4643951E1,3.8189383E0,8.585016E0,2.3632692E1,4.0622406E0,2.1523345E-1,7.3401413E0,4.864489E0,0E0,3.314497E0,0E0,0E0,0E0,0E0,0E0,0E0,0E0,0E0,0E0,0E0,0E0,0E0,0E0,0E0],"parents":[2147483647,0,0,1,1,2,2,3,3,4,4,5,5,6,6,7,7,8,8,9,9,10,10,11,11,12,12,14,14],"right_children":[2,4,6,8,10,12,14,16,18,20,22,24,26,-1,28,-1,-1,-1,-1,-1,-1,-1,-1,-1,-1,-1,-1,-1,-1],"split_conditions":[3E0,3.3565187E-1,1.134876E3,2E0,7E0,2.9563063E-1,1.4616145E-1,2.3746324E-1,8.2892E4,3.0326485E1,-2.1078086E-3,3.2898994E1,7.10059E5,-1.9044144E-2,3.0326485E1,-1.7000144E-2,2.5865363E-3,-2.1399207E-2,2.0143574E-2,4.6871852E-2,2.916497E-2,-2.8461948E-2,-3.3513822E-3,-6.240213E-3,-2.6166892E-2,-5.5516325E-3,3.524788E-2,6.2393934E-2,-5.5206637E-3],"split_indices":[12,3,1,12,9,3,3,3,10,2,4,2,10,0,2,0,0,0,0,0,0,0,0,0,0,0,0,0,0],"split_type":[0,0,0,0,0,0,0,0,0,0,0,0,0,0,0,0,0,0,0,0,0,0,0,0,0,0,0,0,0],"sum_hessian":[1.2392524E3,7.2963446E2,5.0961798E2,5.5313544E2,1.7649904E2,4.9399387E2,1.5624093E1,2.2527753E2,3.2785788E2,1.7239096E2,4.108084E0,3.817608E2,1.1223308E2,1.5598942E0,1.40641985E1,9.933759E1,1.25939926E2,3.797424E1,2.8988364E2,5.0227497E1,1.2216346E2,2.600115E0,1.5079693E0,5.4652946E1,3.2710785E2,1.0538329E2,6.849784E0,1.2162662E1,1.9015375E0],"tree_param":{"num_deleted":"0","num_feature":"13","num_nodes":"29","size_leaf_vector":"1"}},{"base_weights":[-1.6728765E-4,-2.9831985E-2,2.0594983E-1,3.4952712E-1,-5.542959E-1,-6.951433E-2,4.5751405E-1,-5.683805E-1,-3.2053192E-3,-8.514727E-3,5.193288E-2,3.843436E-2,1.3999179E-2,-2.9107703E-2,-6.2774816E-3],"categories":[],"categories_nodes":[],"categories_segments":[],"categories_sizes":[],"default_left":[0,0,1,0,0,0,0,0,0,0,0,0,0,0,0],"id":50,"left_children":[1,-1,3,5,7,9,11,13,-1,-1,-1,-1,-1,-1,-1],"loss_changes":[1.5608345E2,0E0,1.0318239E2,3.5972298E1,1.0010414E0,1.8448862E1,3.4678253E1,8.1708527E-1,0E0,0E0,0E0,0E0,0E0,0E0,0E0],"parents":[2147483647,0,0,2,2,3,3,4,4,5,5,6,6,7,7],"right_children":[2,-1,4,6,8,10,12,14,-1,-1,-1,-1,-1,-1,-1],"split_conditions":[2E0,-2.9831985E-2,4E0,2.1513066E-1,4.00693E5,3.03989E5,6.0208655E2,5.2786666E-1,-3.2053192E-3,-8.514727E-3,5.193288E-2,3.843436E-2,1.3999179E-2,-2.9107703E-2,-6.2774816E-3],"split_indices":[11,0,11,3,10,10,1,6,0,0,0,0,0,0,0],"split_type":[0,0,0,0,0,0,0,0,0,0,0,0,0,0,0],"sum_hessian":[1.2675583E3,3.2504153E2,9.425168E2,7.932472E2,1.4926958E2,1.6260757E2,6.306396E2,1.4494536E2,4.324227E0,1.4982812E2,1.2779452E1,2.2788164E2,4.0275797E2,1.4026793E2,4.677424E0],"tree_param":{"num_deleted":"0","num_feature":"13","num_nodes":"15","size_leaf_vector":"1"}},{"base_weights":[3.814629E-2,-3.0007008E-2,6.484112E-1,8.215561E-1,9.548747E-2,8.656136E-1,3.1365654E-1,-3.5095686E-1,9.4932914E-1,-2.9472131E-2,4.3993812E-2,-3.217895E-2,4.6023373E-2,-3.2215588E-2,5.4518913E-4,5.167401E-2,-2.4243383E-2],"categories":[],"categories_nodes":[],"categories_segments":[],"categories_sizes":[],"default_left":[1,0,0,0,0,0,0,0,0,0,0,0,0,0,0,0,0],"id":51,"left_children":[1,-1,3,5,7,9,11,13,15,-1,-1,-1,-1,-1,-1,-1,-1],"loss_changes":[4.9538846E2,0E0,6.2162445E1,1.0804169E1,5.986314E1,9.958923E0,2.4452124E1,1.0970423E1,7.004917E0,0E0,0E0,0E0,0E0,0E0,0E0,0E0,0E0],"parents":[2147483647,0,0,2,2,3,3,4,4,5,5,6,6,7,7,8,8],"right_children":[2,-1,4,6,8,10,12,14,16,-1,-1,-1,-1,-1,-1,-1,-1],"split_conditions":[3E0,-3.0007008E-2,2.6744783E-1,5.2786666E-1,3.7153784E-2,-1.0806277E2,8.2E1,3.905554E2,1.17733E5,-2.9472131E-2,4.3993812E-2,-3.217895E-2,4.6023373E-2,-3.2215588E-2,5.4518913E-4,5.167401E-2,-2.4243383E-2],"split_indices":[11,0,3,6,4,5,9,7,10,0,0,0,0,0,0,0,0],"split_type":[0,0,0,0,0,0,0,0,0,0,0,0,0,0,0,0,0],"sum_hessian":[1.2697805E3,6.206494E2,6.491311E2,4.939635E2,1.5516762E2,4.53887E2,4.0076496E1,1.02278625E2,5.2888992E1,4.0144157E0,4.498726E2,1.5525168E1,2.4551325E1,5.605508E1,4.622354E1,5.0221653E1,2.667338E0],"tree_param":{"num_deleted":"0","num_feature":"13","num_nodes":"17","size_leaf_vector":"1"}},{"base_weights":[-1.9590009E-2,4.7486737E-1,-4.013324E-1,-3.4116387E-1,5.6938046E-1,-2.3056932E-1,-5.867078E-1,7.0379704E-1,-5.706921E-1,-5.2250904E-1,6.376709E-1,-6.2450387E-2,-4.6569392E-1,-2.9616728E-2,-3.5864666E-1,-1.9342806E-3,4.0262833E-2,-2.9230777E-2,-1.4003796E-3,-2.8980855E-2,1.1030892E-2,4.0943466E-2,2.2144044E-2,-7.6432647E-3,2.5802461E-2,-2.4905466E-2,2.2461986E-2,2.4488319E-2,-2.6254663E-2],"categories":[],"categories_nodes":[],"categories_segments":[],"categories_sizes":[],"default_left":[1,0,0,0,0,0,0,0,0,0,0,0,0,0,0,0,0,0,0,0,0,0,0,0,0,0,0,0,0],"id":52,"left_children":[1,3,5,7,9,11,13,15,17,19,21,23,25,-1,27,-1,-1,-1,-1,-1,-1,-1,-1,-1,-1,-1,-1,-1,-1],"loss_changes":[2.2706473E2,4.0617546E1,2.1353134E1,1.3600111E1,3.5385986E1,1.40031395E1,2.0440674E-1,8.114476E-1,3.287115E-1,1.3254986E0,1.5268845E1,1.0965726E1,4.6085396E0,0E0,1.7196314E0,0E0,0E0,0E0,0E0,0E0,0E0,0E0,0E0,0E0,0E0,0E0,0E0,0E0,0E0],"parents":[2147483647,0,0,1,1,2,2,3,3,4,4,5,5,6,6,7,7,8,8,9,9,10,10,11,11,12,12,14,14],"right_children":[2,4,6,8,10,12,14,16,18,20,22,24,26,-1,28,-1,-1,-1,-1,-1,-1,-1,-1,-1,-1,-1,-1,-1,-1],"split_conditions":[2E0,1.1487817E1,3E0,3.400439E1,8.8128E4,5.18018E2,4.0560303E1,3.1091073E-1,-3.5754803E1,2E0,2.2795044E-1,1.3274655E0,3.7753143E1,-2.9616728E-2,2.463948E-1,-1.9342806E-3,4.0262833E-2,-2.9230777E-2,-1.4003796E-3,-2.8980855E-2,1.1030892E-2,4.0943466E-2,2.2144044E-2,-7.6432647E-3,2.5802461E-2,-2.4905466E-2,2.2461986E-2,2.4488319E-2,-2.6254663E-2],"split_indices":[12,7,12,2,10,7,2,6,5,12,3,3,2,0,3,0,0,0,0,0,0,0,0,0,0,0,0,0,0],"split_type":[0,0,0,0,0,0,0,0,0,0,0,0,0,0,0,0,0,0,0,0,0,0,0,0,0,0,0,0,0],"sum_hessian":[1.2009482E3,5.231224E2,6.778258E2,5.4028423E1,4.6909396E2,3.539864E2,3.2383942E2,9.358088E0,4.4670334E1,2.7220242E1,4.4187372E2,2.0714154E2,1.4684485E2,3.1448322E2,9.356217E0,1.1994212E0,8.158667E0,4.3477585E1,1.19275E0,2.5482021E1,1.7382207E0,2.2726361E2,2.146101E2,1.7977924E2,2.7362312E1,1.4226027E2,4.5845904E0,1.2159228E0,8.140294E0],"tree_param":{"num_deleted":"0","num_feature":"13","num_nodes":"29","size_leaf_vector":"1"}},{"base_weights":[-1.0885593E-3,2.4967374E-1,-5.8630455E-1,-1.8823784E-2,4.257166E-1,-2.9482886E-2,-3.9806443E-1,-2.5812218E-1,7.771386E-1,5.514751E-1,2.086795E-2,1.614319E-2,-2.6938662E-2,5.4017644E-2,-1.4196928E-2,-1.4256957E-2,4.7132213E-2,2.2208141E-2,3.709237E-2,4.574809E-2,-3.0865415E-3],"categories":[],"categories_nodes":[],"categories_segments":[],"categories_sizes":[],"default_left":[1,1,0,1,0,0,0,0,0,0,0,0,0,0,0,0,0,0,0,0,0],"id":53,"left_children":[1,3,5,7,9,-1,11,13,15,17,19,-1,-1,-1,-1,-1,-1,-1,-1,-1,-1],"loss_changes":[1.850432E2,4.1731064E1,4.0130615E-3,6.696502E1,2.7134811E1,0E0,1.1576672E0,9.645086E0,1.4557335E1,7.9807053E0,9.465819E0,0E0,0E0,0E0,0E0,0E0,0E0,0E0,0E0,0E0,0E0],"parents":[2147483647,0,0,1,1,2,2,3,3,4,4,6,6,7,7,8,8,9,9,10,10],"right_children":[2,4,6,8,10,-1,12,14,16,18,20,-1,-1,-1,-1,-1,-1,-1,-1,-1,-1],"split_conditions":[3E0,2E0,1.3830518E2,2E0,3E0,-2.9482886E-2,3.46517E-1,-1.1802601E2,8.930998E1,5.713872E2,2E0,1.614319E-2,-2.6938662E-2,5.4017644E-2,-1.4196928E-2,-1.4256957E-2,4.7132213E-2,2.2208141E-2,3.709237E-2,4.574809E-2,-3.0865415E-3],"split_indices":[11,12,5,11,12,0,0,5,7,7,11,0,0,0,0,0,0,0,0,0,0],"split_type":[0,0,0,0,0,0,0,0,0,0,0,0,0,0,0,0,0,0,0,0,0],"sum_hessian":[1.2589434E3,8.817087E2,3.7723468E2,3.4952E2,5.321887E2,3.6853723E2,8.6974325E0,2.692487E2,8.027129E1,4.0577905E2,1.2640966E2,1.2089201E0,7.488512E0,4.3220177E0,2.6492667E2,1.0723161E1,6.9548134E1,2.6163135E2,1.4414769E2,9.838224E0,1.1657144E2],"tree_param":{"num_deleted":"0","num_feature":"13","num_nodes":"21","size_leaf_vector":"1"}},{"base_weights":[1.0567129E-2,-2.9614298E-2,2.1344404E-1,3.393519E-1,-5.13005E-1,-1.7625634E-2,4.183695E-1,-5.4325825E-1,4.790737E-2,5.5034082E-2,-7.3777414E-3,1.4033811E-2,3.4228127E-2,-2.7915647E-2,-2.9184413E-3],"categories":[],"categories_nodes":[],"categories_segments":[],"categories_sizes":[],"default_left":[0,0,1,0,0,0,1,0,0,0,0,0,0,0,0],"id":54,"left_children":[1,-1,3,5,7,9,11,13,-1,-1,-1,-1,-1,-1,-1],"loss_changes":[1.5510744E2,0E0,8.696035E1,2.283519E1,6.7763596E0,2.1613134E1,2.4096046E1,9.7745895E-1,0E0,0E0,0E0,0E0,0E0,0E0,0E0],"parents":[2147483647,0,0,2,2,3,3,4,4,5,5,6,6,7,7],"right_children":[2,-1,4,6,8,10,12,14,-1,-1,-1,-1,-1,-1,-1],"split_conditions":[2E0,-2.9614298E-2,4E0,1.26276E5,5.2786666E-1,3.1397605E-1,3E0,4.00693E5,4.790737E-2,5.5034082E-2,-7.3777414E-3,1.4033811E-2,3.4228127E-2,-2.7915647E-2,-2.9184413E-3],"split_indices":[11,0,11,10,6,0,11,10,0,0,0,0,0,0,0],"split_type":[0,0,0,0,0,0,0,0,0,0,0,0,0,0,0],"sum_hessian":[1.2661687E3,3.183287E2,9.4783997E2,8.0828174E2,1.3955821E2,1.4662979E2,6.61652E2,1.3736415E2,2.1940718E0,1.4485025E1,1.3214476E2,4.37435E2,2.2421696E2,1.3308086E2,4.2832885E0],"tree_param":{"num_deleted":"0","num_feature":"13","num_nodes":"15","size_leaf_vector":"1"}},{"base_weights":[7.2795094E-4,-2.9804436E-2,6.0356194E-1,7.8285575E-1,8.791924E-2,8.6416006E-1,5.334136E-1,6.935627E-1,-5.043753E-1,-2.8190816E-2,4.3957133E-2,3.3107165E-2,-3.1917907E-2,-3.0960578E-2,4.3689992E-2,-3.156076E-2,2.9272333E-2],"categories":[],"categories_nodes":[],"categories_segments":[],"categories_sizes":[],"default_left":[1,0,0,0,0,0,0,0,1,0,0,0,0,0,0,0,0],"id":55,"left_children":[1,-1,3,5,7,9,11,13,15,-1,-1,-1,-1,-1,-1,-1,-1],"loss_changes":[4.332087E2,0E0,5.5311874E1,8.550781E0,5.619341E1,7.6309204E0,1.7293278E1,1.885263E1,1.1329172E1,0E0,0E0,0E0,0E0,0E0,0E0,0E0,0E0],"parents":[2147483647,0,0,2,2,3,3,4,4,5,5,6,6,7,7,8,8],"right_children":[2,-1,4,6,8,10,12,14,16,-1,-1,-1,-1,-1,-1,-1,-1],"split_conditions":[3E0,-2.9804436E-2,2.6479298E-1,1.91982E5,1.17733E5,-1.1802601E2,7.36325E2,-3.875851E1,4E0,-2.8190816E-2,4.3957133E-2,3.3107165E-2,-3.1917907E-2,-3.0960578E-2,4.3689992E-2,-3.156076E-2,2.9272333E-2],"split_indices":[11,0,3,10,10,5,1,5,12,0,0,0,0,0,0,0,0],"split_type":[0,0,0,0,0,0,0,0,0,0,0,0,0,0,0,0,0],"sum_hessian":[1.2020889E3,6.040649E2,5.9802405E2,4.4334915E2,1.5467491E2,3.3250616E2,1.1084297E2,7.639113E1,7.828378E1,3.0721257E0,3.2943405E2,1.0026309E2,1.0579885E1,8.927956E0,6.746317E1,7.049945E1,7.7843328E0],"tree_param":{"num_deleted":"0","num_feature":"13","num_nodes":"17","size_leaf_vector":"1"}},{"base_weights":[-3.7026773E-3,6.058206E-1,-5.6550133E-1,8.031563E-1,9.7280465E-2,-5.81206E-1,-1.4227244E-1,-2.7729327E-2,8.1752586E-1,4.823687E-2,5.8175987E-1,-5.888379E-1,-3.4943897E-1,3.2452106E-1,-2.7890963E-2,4.177941E-2,-9.669237E-3,-9.112076E-5,3.847532E-2,-2.6358118E-2,4.6321467E-2,-9.207602E-3,-2.9518483E-2,6.62888E-2,-2.6348148E-2,3.2055553E-2,-2.2854729E-2],"categories":[],"categories_nodes":[],"categories_segments":[],"categories_sizes":[],"default_left":[1,1,0,0,0,0,0,0,0,0,0,0,0,0,0,0,0,0,0,0,0,0,0,0,0,0,0],"id":56,"left_children":[1,3,5,7,9,11,13,-1,15,17,19,21,23,25,-1,-1,-1,-1,-1,-1,-1,-1,-1,-1,-1,-1,-1],"loss_changes":[4.0468805E2,5.680545E1,4.004883E0,8.41806E0,3.7641976E0,8.425293E-1,4.70599E0,0E0,7.544922E0,5.273702E0,6.0613766E0,2.4601746E-1,7.048827E0,3.1680846E0,0E0,0E0,0E0,0E0,0E0,0E0,0E0,0E0,0E0,0E0,0E0,0E0,0E0],"parents":[2147483647,0,0,1,1,2,2,3,3,4,4,5,5,6,6,8,8,9,9,10,10,11,11,12,12,13,13],"right_children":[2,4,6,8,10,12,14,-1,16,18,20,22,24,26,-1,-1,-1,-1,-1,-1,-1,-1,-1,-1,-1,-1,-1],"split_conditions":[2E0,2E0,1.6572942E2,-1.1802601E2,3.142892E0,5.39217E-1,2E0,-2.7729327E-2,3.800165E0,3.8549473E1,-8.2126785E1,-9.3148025E-3,1.6918486E-1,3.3355236E1,-2.7890963E-2,4.177941E-2,-9.669237E-3,-9.112076E-5,3.847532E-2,-2.6358118E-2,4.6321467E-2,-9.207602E-3,-2.9518483E-2,6.62888E-2,-2.6348148E-2,3.2055553E-2,-2.2854729E-2],"split_indices":[11,12,5,5,3,0,12,0,3,2,5,3,3,2,0,0,0,0,0,0,0,0,0,0,0,0,0],"split_type":[0,0,0,0,0,0,0,0,0,0,0,0,0,0,0,0,0,0,0,0,0,0,0,0,0,0,0],"sum_hessian":[1.1798141E3,5.6583417E2,6.1398E2,4.0723135E2,1.586028E2,5.9165234E2,2.2327625E1,3.8710518E0,4.033603E2,1.4502187E2,1.3580922E1,5.712993E2,2.0353022E1,1.0618577E1,1.1709047E1,3.9645023E2,6.910082E0,1.3654268E2,8.479191E0,3.0947044E0,1.0486218E1,2.6113646E0,5.68688E2,1.3304073E0,1.9022615E1,7.685401E0,2.9331763E0],"tree_param":{"num_deleted":"0","num_feature":"13","num_nodes":"27","size_leaf_vector":"1"}},{"base_weights":[-2.6035614E-3,2.3786977E-1,-5.8049035E-1,-9.549761E-3,3.9987203E-1,-2.9082516E-2,-7.1344743E-3,-2.4289061E-1,7.290327E-1,5.208167E-1,1.8821206E-2,-1.4402755E-2,2.906021E-2,-2.1745332E-2,3.9396666E-2,2.996639E-2,9.835257E-3,9.194071E-3,-2.0909514E-2],"categories":[],"categories_nodes":[],"categories_segments":[],"categories_sizes":[],"default_left":[1,1,0,1,0,0,0,0,0,0,0,0,0,0,0,0,0,0,0],"id":57,"left_children":[1,3,5,7,9,-1,-1,11,13,15,17,-1,-1,-1,-1,-1,-1,-1,-1],"loss_changes":[1.7518344E2,3.5685104E1,1.051178E-1,6.1050526E1,2.4783638E1,0E0,0E0,1.01856575E1,6.1734276E0,1.0272614E1,9.501257E0,0E0,0E0,0E0,0E0,0E0,0E0,0E0,0E0],"parents":[2147483647,0,0,1,1,2,2,3,3,4,4,7,7,8,8,9,9,10,10],"right_children":[2,4,6,8,10,-1,-1,12,14,16,18,-1,-1,-1,-1,-1,-1,-1,-1],"split_conditions":[3E0,2E0,2.22911E0,2E0,3E0,-2.9082516E-2,-7.1344743E-3,1.4196529E0,4.1221018E-4,3.5768364E1,3.6726574E1,-1.4402755E-2,2.906021E-2,-2.1745332E-2,3.9396666E-2,2.996639E-2,9.835257E-3,9.194071E-3,-2.0909514E-2],"split_indices":[11,12,3,11,12,0,0,3,3,2,2,0,0,0,0,0,0,0,0],"split_type":[0,0,0,0,0,0,0,0,0,0,0,0,0,0,0,0,0,0,0],"sum_hessian":[1.258624E3,8.891956E2,3.6942844E2,3.5221417E2,5.3698145E2,3.681245E2,1.3039227E0,2.6816406E2,8.405011E1,4.073293E2,1.2965215E2,2.5484761E2,1.3316458E1,3.740957E0,8.030916E1,3.272168E2,8.0112495E1,9.4527954E1,3.512419E1],"tree_param":{"num_deleted":"0","num_feature":"13","num_nodes":"19","size_leaf_vector":"1"}},{"base_weights":[4.101871E-3,1.610378E-1,-2.0411688E-1,-2.0938763E-1,2.8064284E-1,-2.2721697E-1,7.7240634E-1,-4.8729908E-2,-4.917352E-1,3.6730462E-1,-4.3677244E-1,-4.232922E-1,-1.3628283E-1,7.859652E-2,9.573738E-1,3.0583307E-2,-1.2268807E-2,4.113916E-2,-2.7058527E-2,3.7701946E-2,1.3961534E-2,-2.527071E-2,3.8531594E-2,-2.452548E-2,-8.922841E-3,-2.1045776E-2,-2.3848226E-3,-1.901138E-2,2.3025652E-2,1.9992528E-2,5.5644155E-2],"categories":[],"categories_nodes":[],"categories_segments":[],"categories_sizes":[],"default_left":[0,0,0,0,0,0,0,0,0,0,0,0,0,0,0,0,0,0,0,0,0,0,0,0,0,0,0,0,0,0,0],"id":58,"left_children":[1,3,5,7,9,11,13,15,17,19,21,23,25,27,29,-1,-1,-1,-1,-1,-1,-1,-1,-1,-1,-1,-1,-1,-1,-1,-1],"loss_changes":[4.0877632E1,3.1661728E1,1.2303593E1,7.899516E0,3.371081E1,9.320747E0,1.5483675E0,1.4751812E1,4.5546083E0,1.6207527E1,5.247608E0,2.6472816E0,9.077753E0,8.326406E-1,4.1327858E-1,0E0,0E0,0E0,0E0,0E0,0E0,0E0,0E0,0E0,0E0,0E0,0E0,0E0,0E0,0E0,0E0],"parents":[2147483647,0,0,1,1,2,2,3,3,4,4,5,5,6,6,7,7,8,8,9,9,10,10,11,11,12,12,13,13,14,14],"right_children":[2,4,6,8,10,12,14,16,18,20,22,24,26,28,30,-1,-1,-1,-1,-1,-1,-1,-1,-1,-1,-1,-1,-1,-1,-1,-1],"split_conditions":[7.2966986E2,2.1736926E-1,7E0,2.6E1,3.7153784E-2,3.0269205E1,3.207543E1,1.4170392E-1,2E0,-6.987769E1,5.713872E2,6.973185E2,1.9724055E-1,-1.1086816E1,5.2786666E-1,3.0583307E-2,-1.2268807E-2,4.113916E-2,-2.7058527E-2,3.7701946E-2,1.3961534E-2,-2.527071E-2,3.8531594E-2,-2.452548E-2,-8.922841E-3,-2.1045776E-2,-2.3848226E-3,-1.901138E-2,2.3025652E-2,1.9992528E-2,5.5644155E-2],"split_indices":[1,3,8,9,4,2,2,3,8,5,7,7,3,5,6,0,0,0,0,0,0,0,0,0,0,0,0,0,0,0,0],"split_type":[0,0,0,0,0,0,0,0,0,0,0,0,0,0,0,0,0,0,0,0,0,0,0,0,0,0,0,0,0,0,0],"sum_hessian":[1.2489543E3,7.123088E2,5.366455E2,1.7367479E2,5.3863403E2,5.249939E2,1.1651644E1,1.1143824E2,6.223655E1,4.8101657E2,5.761745E1,1.6517758E2,3.5981628E2,2.7523909E0,8.899253E0,2.5084982E1,8.635326E1,1.6887212E0,6.054783E1,8.7822945E1,3.931936E2,5.506819E1,2.5492609E0,1.288104E2,3.6367188E1,8.451469E1,2.753016E2,1.2523154E0,1.5000753E0,2.7197595E0,6.179494E0],"tree_param":{"num_deleted":"0","num_feature":"13","num_nodes":"31","size_leaf_vector":"1"}},{"base_weights":[-2.1356834E-2,-2.962154E-2,5.5696714E-1,7.228327E-1,6.3186266E-2,7.406805E-1,-2.7824143E-2,-4.8422053E-1,4.887141E-1,-2.8793884E-2,3.784707E-2,4.302132E-2,-3.128489E-2,-3.026571E-2,3.3658724E-2],"categories":[],"categories_nodes":[],"categories_segments":[],"categories_sizes":[],"default_left":[1,0,0,0,0,0,0,0,0,0,0,0,0,0,0],"id":59,"left_children":[1,-1,3,5,7,9,-1,11,13,-1,-1,-1,-1,-1,-1],"loss_changes":[3.8578207E2,0E0,4.748842E1,1.0329742E1,3.4485554E1,9.615906E0,0E0,1.2867345E1,1.7202152E1,0E0,0E0,0E0,0E0,0E0,0E0],"parents":[2147483647,0,0,2,2,3,3,4,4,5,5,7,7,8,8],"right_children":[2,-1,4,6,8,10,-1,12,14,-1,-1,-1,-1,-1,-1],"split_conditions":[3E0,-2.962154E-2,2.6632383E-1,6.9136255E2,5E0,2.7092943E-1,-2.7824143E-2,2.8975372E1,-7.260216E1,-2.8793884E-2,3.784707E-2,4.302132E-2,-3.128489E-2,-3.026571E-2,3.3658724E-2],"split_indices":[11,0,3,7,9,0,0,2,5,0,0,0,0,0,0],"split_type":[0,0,0,0,0,0,0,0,0,0,0,0,0,0,0],"sum_hessian":[1.1660968E3,5.8671387E2,5.79383E2,4.3335214E2,1.4603088E2,4.2780484E2,5.5473075E0,6.3808514E1,8.222237E1,4.799492E0,4.2300534E2,5.590721E0,5.8217793E1,1.1533861E1,7.068851E1],"tree_param":{"num_deleted":"0","num_feature":"13","num_nodes":"15","size_leaf_vector":"1"}},{"base_weights":[-5.932121E-3,6.0115194E-1,-5.719834E-1,7.7515227E-1,1.5553452E-1,-5.808338E-1,-3.0274186E-1,-2.665976E-2,7.87806E-1,1.0710705E-1,8.043616E-1,-5.8515495E-1,-4.697654E-1,1.7103083E-1,-2.8056553E-2,-1.5088752E-2,3.982532E-2,-2.1069393E-2,9.294077E-3,2.154181E-2,5.4257482E-2,-2.9496718E-2,-2.3674402E-2,-2.8785503E-2,4.421593E-2,-2.3382118E-2,3.3627745E-2],"categories":[],"categories_nodes":[],"categories_segments":[],"categories_sizes":[],"default_left":[1,1,0,0,0,0,0,0,0,0,0,0,0,0,0,0,0,0,0,0,0,0,0,0,0,0,0],"id":60,"left_children":[1,3,5,7,9,11,13,-1,15,17,19,21,23,25,-1,-1,-1,-1,-1,-1,-1,-1,-1,-1,-1,-1,-1],"loss_changes":[4.076108E2,4.425714E1,1.2868042E0,7.230377E0,5.003249E0,9.811401E-3,2.7430854E0,0E0,4.106476E0,6.4013004E0,6.962676E-1,2.3223877E-2,4.423403E0,3.004367E0,0E0,0E0,0E0,0E0,0E0,0E0,0E0,0E0,0E0,0E0,0E0,0E0,0E0],"parents":[2147483647,0,0,1,1,2,2,3,3,4,4,5,5,6,6,8,8,9,9,10,10,11,11,12,12,13,13],"right_children":[2,4,6,8,10,12,14,-1,16,18,20,22,24,26,-1,-1,-1,-1,-1,-1,-1,-1,-1,-1,-1,-1,-1],"split_conditions":[2E0,2E0,1.6572942E2,-1.1802601E2,3.8549473E1,5.41173E5,3.5294774E-1,-2.665976E-2,2.6283938E-1,1.75015E5,-4.5682617E1,5.3415847E-1,2.6110962E-2,3.9223605E-1,-2.8056553E-2,-1.5088752E-2,3.982532E-2,-2.1069393E-2,9.294077E-3,2.154181E-2,5.4257482E-2,-2.9496718E-2,-2.3674402E-2,-2.8785503E-2,4.421593E-2,-2.3382118E-2,3.3627745E-2],"split_indices":[11,12,5,5,2,10,6,0,6,10,5,0,4,0,0,0,0,0,0,0,0,0,0,0,0,0,0],"split_type":[0,0,0,0,0,0,0,0,0,0,0,0,0,0,0,0,0,0,0,0,0,0,0,0,0,0,0],"sum_hessian":[1.1841534E3,5.7133777E2,6.1281573E2,4.103635E2,1.6097426E2,5.9219214E2,2.0623623E1,3.53677E0,4.0682672E2,1.5087802E2,1.00962305E1,5.6590686E2,2.6285282E1,7.397653E0,1.322597E1,2.9559703E0,4.0387076E2,1.9007584E1,1.3187044E2,5.4202237E0,4.6760063E0,5.3857275E2,2.7334097E1,2.4911055E1,1.3742276E0,3.2836273E0,4.114026E0],"tree_param":{"num_deleted":"0","num_feature":"13","num_nodes":"27","size_leaf_vector":"1"}},{"base_weights":[4.5628785E-3,2.252279E-1,-5.741403E-1,-1.8327406E-2,3.7670445E-1,-3.9474797E-1,-5.7953256E-1,-2.478881E-1,7.1463025E-1,4.8954234E-1,1.991545E-2,-2.5116464E-2,-1.2029263E-2,-2.9168418E-2,-3.947443E-1,-1.7630441E-2,6.55896E-3,-1.2972342E-2,4.4498887E-2,2.2714585E-2,4.7946528E-2,4.021804E-2,-2.777609E-3,1.6808849E-2,-2.674352E-2],"categories":[],"categories_nodes":[],